Hamming_loss, 0.18551724137931033
Exact_match, 0.0
Accuracy, 0.22121089002235517
Averaging, 0.34523121621434827
== Model info

Model                          
Prepare_CC.Base_CC: Node #1

J48 pruned tree
------------------

NOT-Emotion-Pleasant-Comfortable = 0
|   Usage-Exercising = 0
|   |   Usage-Intensely_Listening = 0
|   |   |   Std_Acc1000_Mean_Mem40_MFCC3_Power_powerFFT_WinHamming_HopSize512_WinSize512_AudioCh0 <= 0.314158
|   |   |   |   Mean_Acc1000_Std_Mem40_MFCC10_Power_powerFFT_WinHamming_HopSize512_WinSize512_AudioCh0 <= 0.51019: 0 (18.0/1.0)
|   |   |   |   Mean_Acc1000_Std_Mem40_MFCC10_Power_powerFFT_WinHamming_HopSize512_WinSize512_AudioCh0 > 0.51019: 1 (3.0)
|   |   |   Std_Acc1000_Mean_Mem40_MFCC3_Power_powerFFT_WinHamming_HopSize512_WinSize512_AudioCh0 > 0.314158: 0 (358.0)
|   |   Usage-Intensely_Listening = 1
|   |   |   Emotion-Arousing-Awakening = 0: 0 (12.0)
|   |   |   Emotion-Arousing-Awakening = 1: 1 (2.0)
|   Usage-Exercising = 1
|   |   NOT-Emotion-Carefree-Lighthearted = 0: 0 (7.0)
|   |   NOT-Emotion-Carefree-Lighthearted = 1: 1 (5.0)
NOT-Emotion-Pleasant-Comfortable = 1
|   Emotion-Powerful-Strong = 0: 0 (20.0)
|   Emotion-Powerful-Strong = 1
|   |   Song-Heavy_Beat = 0: 0 (4.0/1.0)
|   |   Song-Heavy_Beat = 1: 1 (23.0)

Number of Leaves  : 	10

Size of the tree : 	19


Prepare_CC.Base_CC: Node #2

J48 pruned tree
------------------

Genre--_Punk = 0
|   Usage-Exercising = 0
|   |   NOT-Emotion-Pleasant-Comfortable = 0
|   |   |   Instrument_-_Electric_Guitar_(distorted)-Solo = 0
|   |   |   |   Genre-Hip_Hop-Rap = 0
|   |   |   |   |   NOT-Emotion-Exciting-Thrilling = 0
|   |   |   |   |   |   NOT-Emotion-Light-Playful = 0
|   |   |   |   |   |   |   Emotion-Sad = 0
|   |   |   |   |   |   |   |   Std_Acc1000_Mean_Mem40_MFCC10_Power_powerFFT_WinHamming_HopSize512_WinSize512_AudioCh0 <= 0.150171
|   |   |   |   |   |   |   |   |   Std_Acc1000_Mean_Mem40_MFCC3_Power_powerFFT_WinHamming_HopSize512_WinSize512_AudioCh0 <= 0.333462: 1 (4.0)
|   |   |   |   |   |   |   |   |   Std_Acc1000_Mean_Mem40_MFCC3_Power_powerFFT_WinHamming_HopSize512_WinSize512_AudioCh0 > 0.333462: 0 (14.0)
|   |   |   |   |   |   |   |   Std_Acc1000_Mean_Mem40_MFCC10_Power_powerFFT_WinHamming_HopSize512_WinSize512_AudioCh0 > 0.150171
|   |   |   |   |   |   |   |   |   Instrument_-_Saxophone-Solo = 0
|   |   |   |   |   |   |   |   |   |   Song-Like = 0
|   |   |   |   |   |   |   |   |   |   |   Mean_Acc1000_Std_Mem40_MFCC12_Power_powerFFT_WinHamming_HopSize512_WinSize512_AudioCh0 <= 0.532153
|   |   |   |   |   |   |   |   |   |   |   |   Genre-Rock = 0: 1 (61.0/2.0)
|   |   |   |   |   |   |   |   |   |   |   |   Genre-Rock = 1
|   |   |   |   |   |   |   |   |   |   |   |   |   Mean_Acc1000_Mean_Mem40_ZeroCrossings_HopSize512_WinSize512_AudioCh0 <= 0.099544: 1 (3.0)
|   |   |   |   |   |   |   |   |   |   |   |   |   Mean_Acc1000_Mean_Mem40_ZeroCrossings_HopSize512_WinSize512_AudioCh0 > 0.099544: 0 (2.0)
|   |   |   |   |   |   |   |   |   |   |   Mean_Acc1000_Std_Mem40_MFCC12_Power_powerFFT_WinHamming_HopSize512_WinSize512_AudioCh0 > 0.532153: 0 (6.0/1.0)
|   |   |   |   |   |   |   |   |   |   Song-Like = 1: 1 (68.0)
|   |   |   |   |   |   |   |   |   Instrument_-_Saxophone-Solo = 1
|   |   |   |   |   |   |   |   |   |   NOT-Emotion-Bizarre-Weird = 0: 0 (4.0)
|   |   |   |   |   |   |   |   |   |   NOT-Emotion-Bizarre-Weird = 1: 1 (3.0)
|   |   |   |   |   |   |   Emotion-Sad = 1: 0 (5.0)
|   |   |   |   |   |   NOT-Emotion-Light-Playful = 1
|   |   |   |   |   |   |   Emotion-Tender-Soft = 0
|   |   |   |   |   |   |   |   Instrument_-_Electric_Guitar_(distorted) = 0
|   |   |   |   |   |   |   |   |   Instrument_-_Ambient_Sounds = 0
|   |   |   |   |   |   |   |   |   |   Mean_Acc1000_Mean_Mem40_ZeroCrossings_HopSize512_WinSize512_AudioCh0 <= 0.039805: 1 (2.0)
|   |   |   |   |   |   |   |   |   |   Mean_Acc1000_Mean_Mem40_ZeroCrossings_HopSize512_WinSize512_AudioCh0 > 0.039805: 0 (31.0)
|   |   |   |   |   |   |   |   |   Instrument_-_Ambient_Sounds = 1: 1 (2.0)
|   |   |   |   |   |   |   |   Instrument_-_Electric_Guitar_(distorted) = 1: 1 (3.0)
|   |   |   |   |   |   |   Emotion-Tender-Soft = 1: 1 (9.0)
|   |   |   |   |   NOT-Emotion-Exciting-Thrilling = 1
|   |   |   |   |   |   Genre-Best--_Soft_Rock = 0: 1 (107.0/1.0)
|   |   |   |   |   |   Genre-Best--_Soft_Rock = 1
|   |   |   |   |   |   |   Std_Acc1000_Mean_Mem40_MFCC1_Power_powerFFT_WinHamming_HopSize512_WinSize512_AudioCh0 <= 0.909146: 0 (3.0)
|   |   |   |   |   |   |   Std_Acc1000_Mean_Mem40_MFCC1_Power_powerFFT_WinHamming_HopSize512_WinSize512_AudioCh0 > 0.909146: 1 (13.0)
|   |   |   |   Genre-Hip_Hop-Rap = 1
|   |   |   |   |   Mean_Acc1000_Mean_Mem40_MFCC4_Power_powerFFT_WinHamming_HopSize512_WinSize512_AudioCh0 <= 0.7362: 1 (2.0)
|   |   |   |   |   Mean_Acc1000_Mean_Mem40_MFCC4_Power_powerFFT_WinHamming_HopSize512_WinSize512_AudioCh0 > 0.7362: 0 (11.0)
|   |   |   Instrument_-_Electric_Guitar_(distorted)-Solo = 1
|   |   |   |   Std_Acc1000_Std_Mem40_MFCC0_Power_powerFFT_WinHamming_HopSize512_WinSize512_AudioCh0 <= 2.078317: 0 (14.0)
|   |   |   |   Std_Acc1000_Std_Mem40_MFCC0_Power_powerFFT_WinHamming_HopSize512_WinSize512_AudioCh0 > 2.078317: 1 (4.0/1.0)
|   |   NOT-Emotion-Pleasant-Comfortable = 1
|   |   |   Mean_Acc1000_Mean_Mem40_MFCC11_Power_powerFFT_WinHamming_HopSize512_WinSize512_AudioCh0 <= 0.323341: 1 (7.0/1.0)
|   |   |   Mean_Acc1000_Mean_Mem40_MFCC11_Power_powerFFT_WinHamming_HopSize512_WinSize512_AudioCh0 > 0.323341: 0 (30.0)
|   Usage-Exercising = 1: 0 (16.0/1.0)
Genre--_Punk = 1: 0 (28.0)

Number of Leaves  : 	26

Size of the tree : 	51


Prepare_CC.Base_CC: Node #3

J48 pruned tree
------------------

Emotion-Exciting-Thrilling = 0
|   Vocals-Rapping = 0
|   |   Vocals-Low-pitched = 0
|   |   |   Usage-Exercising = 0
|   |   |   |   Usage-At_a_party = 0
|   |   |   |   |   Genre--_Brit_Pop = 0
|   |   |   |   |   |   Genre--_Dance_Pop = 0: 0 (281.0/11.0)
|   |   |   |   |   |   Genre--_Dance_Pop = 1
|   |   |   |   |   |   |   NOT-Emotion-Laid-back-Mellow = 0: 0 (5.0)
|   |   |   |   |   |   |   NOT-Emotion-Laid-back-Mellow = 1: 1 (4.0)
|   |   |   |   |   Genre--_Brit_Pop = 1
|   |   |   |   |   |   Emotion-Cheerful-Festive = 0: 0 (2.0)
|   |   |   |   |   |   Emotion-Cheerful-Festive = 1: 1 (2.0)
|   |   |   |   Usage-At_a_party = 1
|   |   |   |   |   Mean_Acc1000_Std_Mem40_ZeroCrossings_HopSize512_WinSize512_AudioCh0 <= 0.043513: 0 (11.0)
|   |   |   |   |   Mean_Acc1000_Std_Mem40_ZeroCrossings_HopSize512_WinSize512_AudioCh0 > 0.043513: 1 (11.0/1.0)
|   |   |   Usage-Exercising = 1: 1 (3.0/1.0)
|   |   Vocals-Low-pitched = 1
|   |   |   Emotion-Emotional-Passionate = 0: 0 (4.0)
|   |   |   Emotion-Emotional-Passionate = 1: 1 (6.0)
|   Vocals-Rapping = 1
|   |   Emotion-Carefree-Lighthearted = 0: 0 (2.0)
|   |   Emotion-Carefree-Lighthearted = 1: 1 (4.0)
Emotion-Exciting-Thrilling = 1
|   Vocals-Breathy = 0
|   |   Instrument_-_Female_Lead_Vocals-Solo = 0
|   |   |   NOT-Song-Fast_Tempo = 0
|   |   |   |   Std_Acc1000_Mean_Mem40_ZeroCrossings_HopSize512_WinSize512_AudioCh0 <= 0.012152
|   |   |   |   |   Song-Texture_Synthesized = 0: 1 (2.0)
|   |   |   |   |   Song-Texture_Synthesized = 1: 0 (7.0)
|   |   |   |   Std_Acc1000_Mean_Mem40_ZeroCrossings_HopSize512_WinSize512_AudioCh0 > 0.012152
|   |   |   |   |   Usage-Cleaning_the_house = 0: 1 (86.0/1.0)
|   |   |   |   |   Usage-Cleaning_the_house = 1
|   |   |   |   |   |   NOT-Emotion-Laid-back-Mellow = 0: 0 (4.0)
|   |   |   |   |   |   NOT-Emotion-Laid-back-Mellow = 1: 1 (5.0)
|   |   |   NOT-Song-Fast_Tempo = 1: 0 (4.0/1.0)
|   |   Instrument_-_Female_Lead_Vocals-Solo = 1: 0 (3.0)
|   Vocals-Breathy = 1: 0 (6.0)

Number of Leaves  : 	20

Size of the tree : 	39


Prepare_CC.Base_CC: Node #4

J48 pruned tree
------------------

NOT-Song-High_Energy = 0
|   Genre-Best--_Soul = 0
|   |   Mean_Acc1000_Mean_Mem40_Flux_Power_powerFFT_WinHamming_HopSize512_WinSize512_AudioCh0 <= 0.083976
|   |   |   NOT-Emotion-Sad = 0
|   |   |   |   Instrument_-_Male_Lead_Vocals = 0: 0 (2.0)
|   |   |   |   Instrument_-_Male_Lead_Vocals = 1: 1 (10.0)
|   |   |   NOT-Emotion-Sad = 1: 0 (11.0)
|   |   Mean_Acc1000_Mean_Mem40_Flux_Power_powerFFT_WinHamming_HopSize512_WinSize512_AudioCh0 > 0.083976
|   |   |   Std_Acc1000_Mean_Mem40_MFCC11_Power_powerFFT_WinHamming_HopSize512_WinSize512_AudioCh0 <= 0.449235: 0 (319.0/6.0)
|   |   |   Std_Acc1000_Mean_Mem40_MFCC11_Power_powerFFT_WinHamming_HopSize512_WinSize512_AudioCh0 > 0.449235
|   |   |   |   Usage-Going_to_sleep = 0
|   |   |   |   |   Song-Recorded = 0: 1 (2.0)
|   |   |   |   |   Song-Recorded = 1: 0 (15.0)
|   |   |   |   Usage-Going_to_sleep = 1: 1 (3.0)
|   Genre-Best--_Soul = 1
|   |   Emotion-Carefree-Lighthearted = 0: 0 (4.0)
|   |   Emotion-Carefree-Lighthearted = 1: 1 (4.0)
NOT-Song-High_Energy = 1
|   Mean_Acc1000_Mean_Mem40_Flux_Power_powerFFT_WinHamming_HopSize512_WinSize512_AudioCh0 <= 0.087524: 1 (29.0)
|   Mean_Acc1000_Mean_Mem40_Flux_Power_powerFFT_WinHamming_HopSize512_WinSize512_AudioCh0 > 0.087524
|   |   Genre-Jazz = 0
|   |   |   Instrument_-_Male_Lead_Vocals-Solo = 0
|   |   |   |   Song-Recorded = 0: 1 (6.0)
|   |   |   |   Song-Recorded = 1
|   |   |   |   |   Mean_Acc1000_Std_Mem40_MFCC5_Power_powerFFT_WinHamming_HopSize512_WinSize512_AudioCh0 <= 0.540911: 0 (10.0)
|   |   |   |   |   Mean_Acc1000_Std_Mem40_MFCC5_Power_powerFFT_WinHamming_HopSize512_WinSize512_AudioCh0 > 0.540911
|   |   |   |   |   |   Emotion-Positive-Optimistic = 0
|   |   |   |   |   |   |   Std_Acc1000_Mean_Mem40_MFCC9_Power_powerFFT_WinHamming_HopSize512_WinSize512_AudioCh0 <= 0.28694: 1 (16.0)
|   |   |   |   |   |   |   Std_Acc1000_Mean_Mem40_MFCC9_Power_powerFFT_WinHamming_HopSize512_WinSize512_AudioCh0 > 0.28694
|   |   |   |   |   |   |   |   Mean_Acc1000_Mean_Mem40_MFCC2_Power_powerFFT_WinHamming_HopSize512_WinSize512_AudioCh0 <= 0.585281: 1 (4.0)
|   |   |   |   |   |   |   |   Mean_Acc1000_Mean_Mem40_MFCC2_Power_powerFFT_WinHamming_HopSize512_WinSize512_AudioCh0 > 0.585281: 0 (8.0)
|   |   |   |   |   |   Emotion-Positive-Optimistic = 1: 0 (2.0)
|   |   |   Instrument_-_Male_Lead_Vocals-Solo = 1: 0 (2.0)
|   |   Genre-Jazz = 1: 0 (5.0)

Number of Leaves  : 	18

Size of the tree : 	35


Prepare_CC.Base_CC: Node #5

J48 pruned tree
------------------

Instrument_-_Ambient_Sounds = 0
|   Usage-Intensely_Listening = 0: 0 (410.0/5.0)
|   Usage-Intensely_Listening = 1
|   |   NOT-Emotion-Pleasant-Comfortable = 0: 0 (14.0)
|   |   NOT-Emotion-Pleasant-Comfortable = 1: 1 (3.0)
Instrument_-_Ambient_Sounds = 1
|   Std_Acc1000_Std_Mem40_MFCC7_Power_powerFFT_WinHamming_HopSize512_WinSize512_AudioCh0 <= 0.079453: 1 (6.0)
|   Std_Acc1000_Std_Mem40_MFCC7_Power_powerFFT_WinHamming_HopSize512_WinSize512_AudioCh0 > 0.079453
|   |   Std_Acc1000_Std_Mem40_MFCC3_Power_powerFFT_WinHamming_HopSize512_WinSize512_AudioCh0 <= 0.315822: 0 (17.0)
|   |   Std_Acc1000_Std_Mem40_MFCC3_Power_powerFFT_WinHamming_HopSize512_WinSize512_AudioCh0 > 0.315822: 1 (2.0)

Number of Leaves  : 	6

Size of the tree : 	11


Prepare_CC.Base_CC: Node #6

J48 pruned tree
------------------

Emotion-Bizarre-Weird = 0
|   Std_Acc1000_Std_Mem40_MFCC1_Power_powerFFT_WinHamming_HopSize512_WinSize512_AudioCh0 <= 0.671675
|   |   Vocals-Screaming = 0
|   |   |   Usage-Exercising = 0
|   |   |   |   Instrument_-_Piano-Solo = 0
|   |   |   |   |   Emotion-Positive-Optimistic = 0
|   |   |   |   |   |   Genre--_Funk = 0
|   |   |   |   |   |   |   Genre-Bluegrass = 0
|   |   |   |   |   |   |   |   Genre--_Punk = 0
|   |   |   |   |   |   |   |   |   Genre-Country = 0
|   |   |   |   |   |   |   |   |   |   Vocals-Duet = 0
|   |   |   |   |   |   |   |   |   |   |   NOT-Emotion-Pleasant-Comfortable = 0
|   |   |   |   |   |   |   |   |   |   |   |   Std_Acc1000_Mean_Mem40_MFCC1_Power_powerFFT_WinHamming_HopSize512_WinSize512_AudioCh0 <= 1.249656
|   |   |   |   |   |   |   |   |   |   |   |   |   Song-Texture_Acoustic = 0
|   |   |   |   |   |   |   |   |   |   |   |   |   |   Usage-Cleaning_the_house = 0
|   |   |   |   |   |   |   |   |   |   |   |   |   |   |   Vocals-Vocal_Harmonies = 0
|   |   |   |   |   |   |   |   |   |   |   |   |   |   |   |   Usage-Getting_ready_to_go_out = 0
|   |   |   |   |   |   |   |   |   |   |   |   |   |   |   |   |   NOT-Emotion-Laid-back-Mellow = 0: 0 (51.0)
|   |   |   |   |   |   |   |   |   |   |   |   |   |   |   |   |   NOT-Emotion-Laid-back-Mellow = 1
|   |   |   |   |   |   |   |   |   |   |   |   |   |   |   |   |   |   Instrument_-_Synthesizer = 0: 1 (6.0)
|   |   |   |   |   |   |   |   |   |   |   |   |   |   |   |   |   |   Instrument_-_Synthesizer = 1: 0 (4.0)
|   |   |   |   |   |   |   |   |   |   |   |   |   |   |   |   Usage-Getting_ready_to_go_out = 1: 1 (6.0/1.0)
|   |   |   |   |   |   |   |   |   |   |   |   |   |   |   Vocals-Vocal_Harmonies = 1: 1 (6.0)
|   |   |   |   |   |   |   |   |   |   |   |   |   |   Usage-Cleaning_the_house = 1: 1 (7.0)
|   |   |   |   |   |   |   |   |   |   |   |   |   Song-Texture_Acoustic = 1
|   |   |   |   |   |   |   |   |   |   |   |   |   |   Mean_Acc1000_Mean_Mem40_ZeroCrossings_HopSize512_WinSize512_AudioCh0 <= 0.048533: 0 (11.0)
|   |   |   |   |   |   |   |   |   |   |   |   |   |   Mean_Acc1000_Mean_Mem40_ZeroCrossings_HopSize512_WinSize512_AudioCh0 > 0.048533
|   |   |   |   |   |   |   |   |   |   |   |   |   |   |   Song-Heavy_Beat = 0
|   |   |   |   |   |   |   |   |   |   |   |   |   |   |   |   Instrument_-_Electric_Guitar_(clean)-Solo = 0
|   |   |   |   |   |   |   |   |   |   |   |   |   |   |   |   |   Usage-Cleaning_the_house = 0
|   |   |   |   |   |   |   |   |   |   |   |   |   |   |   |   |   |   Std_Acc1000_Mean_Mem40_Flux_Power_powerFFT_WinHamming_HopSize512_WinSize512_AudioCh0 <= 0.00929
|   |   |   |   |   |   |   |   |   |   |   |   |   |   |   |   |   |   |   Mean_Acc1000_Mean_Mem40_MFCC5_Power_powerFFT_WinHamming_HopSize512_WinSize512_AudioCh0 <= 0.964349: 0 (6.0)
|   |   |   |   |   |   |   |   |   |   |   |   |   |   |   |   |   |   |   Mean_Acc1000_Mean_Mem40_MFCC5_Power_powerFFT_WinHamming_HopSize512_WinSize512_AudioCh0 > 0.964349: 1 (5.0)
|   |   |   |   |   |   |   |   |   |   |   |   |   |   |   |   |   |   Std_Acc1000_Mean_Mem40_Flux_Power_powerFFT_WinHamming_HopSize512_WinSize512_AudioCh0 > 0.00929
|   |   |   |   |   |   |   |   |   |   |   |   |   |   |   |   |   |   |   Vocals-Altered_with_Effects = 0: 1 (77.0/2.0)
|   |   |   |   |   |   |   |   |   |   |   |   |   |   |   |   |   |   |   Vocals-Altered_with_Effects = 1
|   |   |   |   |   |   |   |   |   |   |   |   |   |   |   |   |   |   |   |   NOT-Emotion-Arousing-Awakening = 0: 1 (2.0)
|   |   |   |   |   |   |   |   |   |   |   |   |   |   |   |   |   |   |   |   NOT-Emotion-Arousing-Awakening = 1: 0 (2.0)
|   |   |   |   |   |   |   |   |   |   |   |   |   |   |   |   |   Usage-Cleaning_the_house = 1: 0 (4.0/1.0)
|   |   |   |   |   |   |   |   |   |   |   |   |   |   |   |   Instrument_-_Electric_Guitar_(clean)-Solo = 1: 0 (4.0/1.0)
|   |   |   |   |   |   |   |   |   |   |   |   |   |   |   Song-Heavy_Beat = 1
|   |   |   |   |   |   |   |   |   |   |   |   |   |   |   |   Mean_Acc1000_Mean_Mem40_MFCC8_Power_powerFFT_WinHamming_HopSize512_WinSize512_AudioCh0 <= 0.520299: 1 (2.0)
|   |   |   |   |   |   |   |   |   |   |   |   |   |   |   |   Mean_Acc1000_Mean_Mem40_MFCC8_Power_powerFFT_WinHamming_HopSize512_WinSize512_AudioCh0 > 0.520299: 0 (7.0)
|   |   |   |   |   |   |   |   |   |   |   |   Std_Acc1000_Mean_Mem40_MFCC1_Power_powerFFT_WinHamming_HopSize512_WinSize512_AudioCh0 > 1.249656: 1 (17.0)
|   |   |   |   |   |   |   |   |   |   |   NOT-Emotion-Pleasant-Comfortable = 1
|   |   |   |   |   |   |   |   |   |   |   |   Mean_Acc1000_Mean_Mem40_ZeroCrossings_HopSize512_WinSize512_AudioCh0 <= 0.128023: 0 (17.0)
|   |   |   |   |   |   |   |   |   |   |   |   Mean_Acc1000_Mean_Mem40_ZeroCrossings_HopSize512_WinSize512_AudioCh0 > 0.128023: 1 (4.0)
|   |   |   |   |   |   |   |   |   |   Vocals-Duet = 1: 1 (4.0)
|   |   |   |   |   |   |   |   |   Genre-Country = 1: 1 (12.0)
|   |   |   |   |   |   |   |   Genre--_Punk = 1: 1 (20.0)
|   |   |   |   |   |   |   Genre-Bluegrass = 1: 0 (2.0)
|   |   |   |   |   |   Genre--_Funk = 1: 0 (3.0)
|   |   |   |   |   Emotion-Positive-Optimistic = 1
|   |   |   |   |   |   NOT-Song-Recommend = 0
|   |   |   |   |   |   |   Mean_Acc1000_Std_Mem40_MFCC8_Power_powerFFT_WinHamming_HopSize512_WinSize512_AudioCh0 <= 0.587355
|   |   |   |   |   |   |   |   Std_Acc1000_Mean_Mem40_Flux_Power_powerFFT_WinHamming_HopSize512_WinSize512_AudioCh0 <= 0.009346
|   |   |   |   |   |   |   |   |   Instrument_-_Trumpet = 0: 1 (4.0)
|   |   |   |   |   |   |   |   |   Instrument_-_Trumpet = 1: 0 (2.0)
|   |   |   |   |   |   |   |   Std_Acc1000_Mean_Mem40_Flux_Power_powerFFT_WinHamming_HopSize512_WinSize512_AudioCh0 > 0.009346: 1 (86.0/1.0)
|   |   |   |   |   |   |   Mean_Acc1000_Std_Mem40_MFCC8_Power_powerFFT_WinHamming_HopSize512_WinSize512_AudioCh0 > 0.587355
|   |   |   |   |   |   |   |   Instrument_-_Male_Lead_Vocals-Solo = 0: 0 (3.0)
|   |   |   |   |   |   |   |   Instrument_-_Male_Lead_Vocals-Solo = 1: 1 (3.0)
|   |   |   |   |   |   NOT-Song-Recommend = 1: 0 (2.0)
|   |   |   |   Instrument_-_Piano-Solo = 1
|   |   |   |   |   Emotion-Emotional-Passionate = 0: 0 (11.0)
|   |   |   |   |   Emotion-Emotional-Passionate = 1: 1 (3.0)
|   |   |   Usage-Exercising = 1
|   |   |   |   Mean_Acc1000_Mean_Mem40_MFCC12_Power_powerFFT_WinHamming_HopSize512_WinSize512_AudioCh0 <= 0.53878: 0 (10.0)
|   |   |   |   Mean_Acc1000_Mean_Mem40_MFCC12_Power_powerFFT_WinHamming_HopSize512_WinSize512_AudioCh0 > 0.53878: 1 (2.0)
|   |   Vocals-Screaming = 1: 0 (8.0/1.0)
|   Std_Acc1000_Std_Mem40_MFCC1_Power_powerFFT_WinHamming_HopSize512_WinSize512_AudioCh0 > 0.671675: 0 (23.0/1.0)
Emotion-Bizarre-Weird = 1: 0 (16.0)

Number of Leaves  : 	37

Size of the tree : 	73


Prepare_CC.Base_CC: Node #7

J48 pruned tree
------------------

Emotion-Tender-Soft = 0
|   NOT-Emotion-Arousing-Awakening = 0
|   |   Std_Acc1000_Std_Mem40_MFCC5_Power_powerFFT_WinHamming_HopSize512_WinSize512_AudioCh0 <= 0.167844
|   |   |   NOT-Song-High_Energy = 0
|   |   |   |   Mean_Acc1000_Mean_Mem40_MFCC9_Power_powerFFT_WinHamming_HopSize512_WinSize512_AudioCh0 <= 0.249647
|   |   |   |   |   Instrument_-_Male_Lead_Vocals = 0: 1 (8.0/1.0)
|   |   |   |   |   Instrument_-_Male_Lead_Vocals = 1: 0 (7.0)
|   |   |   |   Mean_Acc1000_Mean_Mem40_MFCC9_Power_powerFFT_WinHamming_HopSize512_WinSize512_AudioCh0 > 0.249647
|   |   |   |   |   NOT-Song-Tonality = 0: 0 (218.0/4.0)
|   |   |   |   |   NOT-Song-Tonality = 1
|   |   |   |   |   |   Song-High_Energy = 0: 1 (7.0/1.0)
|   |   |   |   |   |   Song-High_Energy = 1: 0 (11.0)
|   |   |   NOT-Song-High_Energy = 1
|   |   |   |   Instrument_-_Ambient_Sounds = 0
|   |   |   |   |   Emotion-Positive-Optimistic = 0: 0 (6.0)
|   |   |   |   |   Emotion-Positive-Optimistic = 1: 1 (2.0)
|   |   |   |   Instrument_-_Ambient_Sounds = 1: 1 (3.0)
|   |   Std_Acc1000_Std_Mem40_MFCC5_Power_powerFFT_WinHamming_HopSize512_WinSize512_AudioCh0 > 0.167844
|   |   |   Emotion-Pleasant-Comfortable = 0: 0 (14.0)
|   |   |   Emotion-Pleasant-Comfortable = 1
|   |   |   |   NOT-Emotion-Laid-back-Mellow = 0
|   |   |   |   |   Song-Heavy_Beat = 0: 1 (23.0)
|   |   |   |   |   Song-Heavy_Beat = 1: 0 (2.0)
|   |   |   |   NOT-Emotion-Laid-back-Mellow = 1: 0 (4.0)
|   NOT-Emotion-Arousing-Awakening = 1
|   |   Instrument_-_Tambourine = 0
|   |   |   Mean_Acc1000_Std_Mem40_MFCC1_Power_powerFFT_WinHamming_HopSize512_WinSize512_AudioCh0 <= 1.656475: 1 (36.0/1.0)
|   |   |   Mean_Acc1000_Std_Mem40_MFCC1_Power_powerFFT_WinHamming_HopSize512_WinSize512_AudioCh0 > 1.656475: 0 (5.0)
|   |   Instrument_-_Tambourine = 1: 0 (2.0)
Emotion-Tender-Soft = 1
|   Mean_Acc1000_Mean_Mem40_MFCC2_Power_powerFFT_WinHamming_HopSize512_WinSize512_AudioCh0 <= 0.747621
|   |   Mean_Acc1000_Mean_Mem40_MFCC2_Power_powerFFT_WinHamming_HopSize512_WinSize512_AudioCh0 <= 0.188569: 1 (31.0/3.0)
|   |   Mean_Acc1000_Mean_Mem40_MFCC2_Power_powerFFT_WinHamming_HopSize512_WinSize512_AudioCh0 > 0.188569: 0 (12.0/1.0)
|   Mean_Acc1000_Mean_Mem40_MFCC2_Power_powerFFT_WinHamming_HopSize512_WinSize512_AudioCh0 > 0.747621: 1 (61.0)

Number of Leaves  : 	18

Size of the tree : 	35


Prepare_CC.Base_CC: Node #8

J48 pruned tree
------------------

Emotion-Calming-Soothing = 0
|   Emotion-Touching-Loving = 0
|   |   Genre--_Soul = 0
|   |   |   Usage-Romancing = 0
|   |   |   |   Genre--_Swing = 0
|   |   |   |   |   Instrument_-_Trombone = 0
|   |   |   |   |   |   Vocals-Breathy = 0
|   |   |   |   |   |   |   Genre-Best--_Punk = 0
|   |   |   |   |   |   |   |   Instrument_-_Trumpet = 0
|   |   |   |   |   |   |   |   |   Instrument_-_Horn_Section = 0
|   |   |   |   |   |   |   |   |   |   Vocals-Low-pitched = 0
|   |   |   |   |   |   |   |   |   |   |   NOT-Emotion-Pleasant-Comfortable = 0
|   |   |   |   |   |   |   |   |   |   |   |   Instrument_-_Piano-Solo = 0
|   |   |   |   |   |   |   |   |   |   |   |   |   Vocals-Duet = 0
|   |   |   |   |   |   |   |   |   |   |   |   |   |   Genre--_Singer-Songwriter = 0
|   |   |   |   |   |   |   |   |   |   |   |   |   |   |   NOT-Song-Tonality = 0
|   |   |   |   |   |   |   |   |   |   |   |   |   |   |   |   Std_Acc1000_Mean_Mem40_MFCC11_Power_powerFFT_WinHamming_HopSize512_WinSize512_AudioCh0 <= 0.1479: 1 (12.0)
|   |   |   |   |   |   |   |   |   |   |   |   |   |   |   |   Std_Acc1000_Mean_Mem40_MFCC11_Power_powerFFT_WinHamming_HopSize512_WinSize512_AudioCh0 > 0.1479
|   |   |   |   |   |   |   |   |   |   |   |   |   |   |   |   |   Std_Acc1000_Mean_Mem40_Flux_Power_powerFFT_WinHamming_HopSize512_WinSize512_AudioCh0 <= 0.009659
|   |   |   |   |   |   |   |   |   |   |   |   |   |   |   |   |   |   Mean_Acc1000_Mean_Mem40_Flux_Power_powerFFT_WinHamming_HopSize512_WinSize512_AudioCh0 <= 0.096062: 1 (30.0/2.0)
|   |   |   |   |   |   |   |   |   |   |   |   |   |   |   |   |   |   Mean_Acc1000_Mean_Mem40_Flux_Power_powerFFT_WinHamming_HopSize512_WinSize512_AudioCh0 > 0.096062: 0 (4.0)
|   |   |   |   |   |   |   |   |   |   |   |   |   |   |   |   |   Std_Acc1000_Mean_Mem40_Flux_Power_powerFFT_WinHamming_HopSize512_WinSize512_AudioCh0 > 0.009659
|   |   |   |   |   |   |   |   |   |   |   |   |   |   |   |   |   |   Genre-Country = 0
|   |   |   |   |   |   |   |   |   |   |   |   |   |   |   |   |   |   |   Usage-At_work = 0
|   |   |   |   |   |   |   |   |   |   |   |   |   |   |   |   |   |   |   |   NOT-Emotion-Laid-back-Mellow = 0: 0 (64.0/1.0)
|   |   |   |   |   |   |   |   |   |   |   |   |   |   |   |   |   |   |   |   NOT-Emotion-Laid-back-Mellow = 1
|   |   |   |   |   |   |   |   |   |   |   |   |   |   |   |   |   |   |   |   |   Song-Quality = 0: 1 (11.0/1.0)
|   |   |   |   |   |   |   |   |   |   |   |   |   |   |   |   |   |   |   |   |   Song-Quality = 1
|   |   |   |   |   |   |   |   |   |   |   |   |   |   |   |   |   |   |   |   |   |   Usage-Cleaning_the_house = 0: 0 (19.0/2.0)
|   |   |   |   |   |   |   |   |   |   |   |   |   |   |   |   |   |   |   |   |   |   Usage-Cleaning_the_house = 1: 1 (2.0)
|   |   |   |   |   |   |   |   |   |   |   |   |   |   |   |   |   |   |   Usage-At_work = 1: 1 (3.0/1.0)
|   |   |   |   |   |   |   |   |   |   |   |   |   |   |   |   |   |   Genre-Country = 1: 1 (8.0/3.0)
|   |   |   |   |   |   |   |   |   |   |   |   |   |   |   NOT-Song-Tonality = 1: 1 (8.0)
|   |   |   |   |   |   |   |   |   |   |   |   |   |   Genre--_Singer-Songwriter = 1: 0 (7.0)
|   |   |   |   |   |   |   |   |   |   |   |   |   Vocals-Duet = 1: 1 (4.0)
|   |   |   |   |   |   |   |   |   |   |   |   Instrument_-_Piano-Solo = 1: 1 (7.0)
|   |   |   |   |   |   |   |   |   |   |   NOT-Emotion-Pleasant-Comfortable = 1
|   |   |   |   |   |   |   |   |   |   |   |   Genre-World = 0: 1 (39.0/1.0)
|   |   |   |   |   |   |   |   |   |   |   |   Genre-World = 1: 0 (2.0)
|   |   |   |   |   |   |   |   |   |   Vocals-Low-pitched = 1: 0 (2.0)
|   |   |   |   |   |   |   |   |   Instrument_-_Horn_Section = 1: 0 (4.0)
|   |   |   |   |   |   |   |   Instrument_-_Trumpet = 1: 1 (9.0)
|   |   |   |   |   |   |   Genre-Best--_Punk = 1: 1 (12.0)
|   |   |   |   |   |   Vocals-Breathy = 1: 0 (2.0)
|   |   |   |   |   Instrument_-_Trombone = 1: 0 (2.0)
|   |   |   |   Genre--_Swing = 1: 0 (3.0)
|   |   |   Usage-Romancing = 1: 0 (6.0)
|   |   Genre--_Soul = 1: 0 (7.0)
|   Emotion-Touching-Loving = 1: 0 (15.0)
Emotion-Calming-Soothing = 1: 0 (170.0)

Number of Leaves  : 	26

Size of the tree : 	51


Prepare_CC.Base_CC: Node #9

J48 pruned tree
------------------

Genre--_Swing = 0
|   NOT-Emotion-Light-Playful = 0
|   |   Std_Acc1000_Std_Mem40_MFCC10_Power_powerFFT_WinHamming_HopSize512_WinSize512_AudioCh0 <= 0.062459
|   |   |   Mean_Acc1000_Std_Mem40_MFCC7_Power_powerFFT_WinHamming_HopSize512_WinSize512_AudioCh0 <= 0.501391: 1 (27.0/1.0)
|   |   |   Mean_Acc1000_Std_Mem40_MFCC7_Power_powerFFT_WinHamming_HopSize512_WinSize512_AudioCh0 > 0.501391: 0 (2.0)
|   |   Std_Acc1000_Std_Mem40_MFCC10_Power_powerFFT_WinHamming_HopSize512_WinSize512_AudioCh0 > 0.062459
|   |   |   Mean_Acc1000_Std_Mem40_MFCC2_Power_powerFFT_WinHamming_HopSize512_WinSize512_AudioCh0 <= 1.116965
|   |   |   |   Mean_Acc1000_Mean_Mem40_ZeroCrossings_HopSize512_WinSize512_AudioCh0 <= 0.153572
|   |   |   |   |   Std_Acc1000_Std_Mem40_Flux_Power_powerFFT_WinHamming_HopSize512_WinSize512_AudioCh0 <= 0.032488
|   |   |   |   |   |   Std_Acc1000_Mean_Mem40_Rolloff_Power_powerFFT_WinHamming_HopSize512_WinSize512_AudioCh0 <= 0.060005
|   |   |   |   |   |   |   Std_Acc1000_Mean_Mem40_Flux_Power_powerFFT_WinHamming_HopSize512_WinSize512_AudioCh0 <= 0.009982
|   |   |   |   |   |   |   |   Mean_Acc1000_Mean_Mem40_Rolloff_Power_powerFFT_WinHamming_HopSize512_WinSize512_AudioCh0 <= 0.218625
|   |   |   |   |   |   |   |   |   Std_Acc1000_Std_Mem40_Flux_Power_powerFFT_WinHamming_HopSize512_WinSize512_AudioCh0 <= 0.031139
|   |   |   |   |   |   |   |   |   |   Genre--_Classic_Rock = 0: 1 (2.0)
|   |   |   |   |   |   |   |   |   |   Genre--_Classic_Rock = 1: 0 (2.0)
|   |   |   |   |   |   |   |   |   Std_Acc1000_Std_Mem40_Flux_Power_powerFFT_WinHamming_HopSize512_WinSize512_AudioCh0 > 0.031139: 0 (35.0)
|   |   |   |   |   |   |   |   Mean_Acc1000_Mean_Mem40_Rolloff_Power_powerFFT_WinHamming_HopSize512_WinSize512_AudioCh0 > 0.218625: 1 (6.0)
|   |   |   |   |   |   |   Std_Acc1000_Mean_Mem40_Flux_Power_powerFFT_WinHamming_HopSize512_WinSize512_AudioCh0 > 0.009982
|   |   |   |   |   |   |   |   Mean_Acc1000_Mean_Mem40_MFCC9_Power_powerFFT_WinHamming_HopSize512_WinSize512_AudioCh0 <= 0.61074
|   |   |   |   |   |   |   |   |   Mean_Acc1000_Std_Mem40_MFCC7_Power_powerFFT_WinHamming_HopSize512_WinSize512_AudioCh0 <= 0.605875
|   |   |   |   |   |   |   |   |   |   Mean_Acc1000_Mean_Mem40_MFCC3_Power_powerFFT_WinHamming_HopSize512_WinSize512_AudioCh0 <= 1.755303
|   |   |   |   |   |   |   |   |   |   |   Mean_Acc1000_Std_Mem40_MFCC5_Power_powerFFT_WinHamming_HopSize512_WinSize512_AudioCh0 <= 0.655931: 1 (52.0)
|   |   |   |   |   |   |   |   |   |   |   Mean_Acc1000_Std_Mem40_MFCC5_Power_powerFFT_WinHamming_HopSize512_WinSize512_AudioCh0 > 0.655931
|   |   |   |   |   |   |   |   |   |   |   |   Mean_Acc1000_Mean_Mem40_ZeroCrossings_HopSize512_WinSize512_AudioCh0 <= 0.088842: 0 (2.0)
|   |   |   |   |   |   |   |   |   |   |   |   Mean_Acc1000_Mean_Mem40_ZeroCrossings_HopSize512_WinSize512_AudioCh0 > 0.088842: 1 (2.0)
|   |   |   |   |   |   |   |   |   |   Mean_Acc1000_Mean_Mem40_MFCC3_Power_powerFFT_WinHamming_HopSize512_WinSize512_AudioCh0 > 1.755303
|   |   |   |   |   |   |   |   |   |   |   Mean_Acc1000_Mean_Mem40_MFCC3_Power_powerFFT_WinHamming_HopSize512_WinSize512_AudioCh0 <= 2.03787: 0 (9.0/1.0)
|   |   |   |   |   |   |   |   |   |   |   Mean_Acc1000_Mean_Mem40_MFCC3_Power_powerFFT_WinHamming_HopSize512_WinSize512_AudioCh0 > 2.03787: 1 (9.0)
|   |   |   |   |   |   |   |   |   Mean_Acc1000_Std_Mem40_MFCC7_Power_powerFFT_WinHamming_HopSize512_WinSize512_AudioCh0 > 0.605875: 0 (5.0)
|   |   |   |   |   |   |   |   Mean_Acc1000_Mean_Mem40_MFCC9_Power_powerFFT_WinHamming_HopSize512_WinSize512_AudioCh0 > 0.61074: 0 (16.0/1.0)
|   |   |   |   |   |   Std_Acc1000_Mean_Mem40_Rolloff_Power_powerFFT_WinHamming_HopSize512_WinSize512_AudioCh0 > 0.060005
|   |   |   |   |   |   |   Std_Acc1000_Mean_Mem40_MFCC11_Power_powerFFT_WinHamming_HopSize512_WinSize512_AudioCh0 <= 0.155383: 1 (4.0)
|   |   |   |   |   |   |   Std_Acc1000_Mean_Mem40_MFCC11_Power_powerFFT_WinHamming_HopSize512_WinSize512_AudioCh0 > 0.155383: 0 (48.0/1.0)
|   |   |   |   |   Std_Acc1000_Std_Mem40_Flux_Power_powerFFT_WinHamming_HopSize512_WinSize512_AudioCh0 > 0.032488: 0 (36.0)
|   |   |   |   Mean_Acc1000_Mean_Mem40_ZeroCrossings_HopSize512_WinSize512_AudioCh0 > 0.153572: 1 (13.0/1.0)
|   |   |   Mean_Acc1000_Std_Mem40_MFCC2_Power_powerFFT_WinHamming_HopSize512_WinSize512_AudioCh0 > 1.116965: 0 (29.0)
|   NOT-Emotion-Light-Playful = 1: 0 (149.0)
Genre--_Swing = 1: 1 (4.0)

Number of Leaves  : 	20

Size of the tree : 	39


Prepare_CC.Base_CC: Node #10

J48 pruned tree
------------------

NOT-Emotion-Light-Playful = 0
|   Instrument_-_Ambient_Sounds = 0
|   |   Std_Acc1000_Std_Mem40_Rolloff_Power_powerFFT_WinHamming_HopSize512_WinSize512_AudioCh0 <= 0.087103: 0 (266.0/2.0)
|   |   Std_Acc1000_Std_Mem40_Rolloff_Power_powerFFT_WinHamming_HopSize512_WinSize512_AudioCh0 > 0.087103
|   |   |   Instrument_-_Male_Lead_Vocals = 0
|   |   |   |   Mean_Acc1000_Std_Mem40_MFCC0_Power_powerFFT_WinHamming_HopSize512_WinSize512_AudioCh0 <= 4.523585: 1 (9.0)
|   |   |   |   Mean_Acc1000_Std_Mem40_MFCC0_Power_powerFFT_WinHamming_HopSize512_WinSize512_AudioCh0 > 4.523585: 0 (2.0)
|   |   |   Instrument_-_Male_Lead_Vocals = 1: 0 (9.0)
|   Instrument_-_Ambient_Sounds = 1
|   |   Mean_Acc1000_Mean_Mem40_MFCC0_Power_powerFFT_WinHamming_HopSize512_WinSize512_AudioCh0 <= -71.074651: 1 (13.0)
|   |   Mean_Acc1000_Mean_Mem40_MFCC0_Power_powerFFT_WinHamming_HopSize512_WinSize512_AudioCh0 > -71.074651: 0 (4.0)
NOT-Emotion-Light-Playful = 1
|   Std_Acc1000_Std_Mem40_MFCC9_Power_powerFFT_WinHamming_HopSize512_WinSize512_AudioCh0 <= 0.201096
|   |   Genre--_Punk = 0
|   |   |   Std_Acc1000_Std_Mem40_Flux_Power_powerFFT_WinHamming_HopSize512_WinSize512_AudioCh0 <= 0.032513
|   |   |   |   Emotion-Positive-Optimistic = 0
|   |   |   |   |   Mean_Acc1000_Mean_Mem40_MFCC12_Power_powerFFT_WinHamming_HopSize512_WinSize512_AudioCh0 <= 0.669327
|   |   |   |   |   |   Mean_Acc1000_Std_Mem40_MFCC0_Power_powerFFT_WinHamming_HopSize512_WinSize512_AudioCh0 <= 2.257168
|   |   |   |   |   |   |   Mean_Acc1000_Std_Mem40_MFCC7_Power_powerFFT_WinHamming_HopSize512_WinSize512_AudioCh0 <= 0.446589: 1 (7.0)
|   |   |   |   |   |   |   Mean_Acc1000_Std_Mem40_MFCC7_Power_powerFFT_WinHamming_HopSize512_WinSize512_AudioCh0 > 0.446589: 0 (5.0/1.0)
|   |   |   |   |   |   Mean_Acc1000_Std_Mem40_MFCC0_Power_powerFFT_WinHamming_HopSize512_WinSize512_AudioCh0 > 2.257168: 1 (80.0/2.0)
|   |   |   |   |   Mean_Acc1000_Mean_Mem40_MFCC12_Power_powerFFT_WinHamming_HopSize512_WinSize512_AudioCh0 > 0.669327
|   |   |   |   |   |   NOT-Song-High_Energy = 0: 1 (8.0/1.0)
|   |   |   |   |   |   NOT-Song-High_Energy = 1: 0 (7.0)
|   |   |   |   Emotion-Positive-Optimistic = 1: 0 (5.0/1.0)
|   |   |   Std_Acc1000_Std_Mem40_Flux_Power_powerFFT_WinHamming_HopSize512_WinSize512_AudioCh0 > 0.032513: 0 (10.0/1.0)
|   |   Genre--_Punk = 1
|   |   |   Mean_Acc1000_Mean_Mem40_Flux_Power_powerFFT_WinHamming_HopSize512_WinSize512_AudioCh0 <= 0.09235: 1 (3.0)
|   |   |   Mean_Acc1000_Mean_Mem40_Flux_Power_powerFFT_WinHamming_HopSize512_WinSize512_AudioCh0 > 0.09235: 0 (13.0)
|   Std_Acc1000_Std_Mem40_MFCC9_Power_powerFFT_WinHamming_HopSize512_WinSize512_AudioCh0 > 0.201096: 0 (11.0)

Number of Leaves  : 	16

Size of the tree : 	31


Prepare_CC.Base_CC: Node #11

J48 pruned tree
------------------

Emotion-Carefree-Lighthearted = 0
|   Emotion-Light-Playful = 0
|   |   Mean_Acc1000_Std_Mem40_Centroid_Power_powerFFT_WinHamming_HopSize512_WinSize512_AudioCh0 <= 0.037361: 0 (186.0/1.0)
|   |   Mean_Acc1000_Std_Mem40_Centroid_Power_powerFFT_WinHamming_HopSize512_WinSize512_AudioCh0 > 0.037361
|   |   |   Genre-Jazz = 0
|   |   |   |   Std_Acc1000_Std_Mem40_MFCC10_Power_powerFFT_WinHamming_HopSize512_WinSize512_AudioCh0 <= 0.077979
|   |   |   |   |   NOT-Emotion-Light-Playful = 0
|   |   |   |   |   |   Std_Acc1000_Std_Mem40_ZeroCrossings_HopSize512_WinSize512_AudioCh0 <= 0.022528: 1 (14.0)
|   |   |   |   |   |   Std_Acc1000_Std_Mem40_ZeroCrossings_HopSize512_WinSize512_AudioCh0 > 0.022528: 0 (4.0)
|   |   |   |   |   NOT-Emotion-Light-Playful = 1: 0 (11.0)
|   |   |   |   Std_Acc1000_Std_Mem40_MFCC10_Power_powerFFT_WinHamming_HopSize512_WinSize512_AudioCh0 > 0.077979
|   |   |   |   |   Std_Acc1000_Std_Mem40_MFCC3_Power_powerFFT_WinHamming_HopSize512_WinSize512_AudioCh0 <= 0.115453
|   |   |   |   |   |   NOT-Emotion-Laid-back-Mellow = 0: 0 (3.0)
|   |   |   |   |   |   NOT-Emotion-Laid-back-Mellow = 1: 1 (3.0)
|   |   |   |   |   Std_Acc1000_Std_Mem40_MFCC3_Power_powerFFT_WinHamming_HopSize512_WinSize512_AudioCh0 > 0.115453: 0 (82.0/1.0)
|   |   |   Genre-Jazz = 1: 1 (5.0/1.0)
|   Emotion-Light-Playful = 1
|   |   Genre-Rock = 0
|   |   |   Std_Acc1000_Std_Mem40_MFCC4_Power_powerFFT_WinHamming_HopSize512_WinSize512_AudioCh0 <= 0.170998: 0 (13.0)
|   |   |   Std_Acc1000_Std_Mem40_MFCC4_Power_powerFFT_WinHamming_HopSize512_WinSize512_AudioCh0 > 0.170998: 1 (2.0)
|   |   Genre-Rock = 1: 1 (9.0)
Emotion-Carefree-Lighthearted = 1
|   Instrument_-_Harmonica-Solo = 0
|   |   NOT-Song-High_Energy = 0
|   |   |   Mean_Acc1000_Mean_Mem40_MFCC8_Power_powerFFT_WinHamming_HopSize512_WinSize512_AudioCh0 <= 0.759869: 1 (90.0/1.0)
|   |   |   Mean_Acc1000_Mean_Mem40_MFCC8_Power_powerFFT_WinHamming_HopSize512_WinSize512_AudioCh0 > 0.759869
|   |   |   |   Mean_Acc1000_Mean_Mem40_ZeroCrossings_HopSize512_WinSize512_AudioCh0 <= 0.106439: 1 (3.0)
|   |   |   |   Mean_Acc1000_Mean_Mem40_ZeroCrossings_HopSize512_WinSize512_AudioCh0 > 0.106439: 0 (5.0)
|   |   NOT-Song-High_Energy = 1
|   |   |   NOT-Emotion-Emotional-Passionate = 0: 0 (7.0)
|   |   |   NOT-Emotion-Emotional-Passionate = 1: 1 (2.0)
|   Instrument_-_Harmonica-Solo = 1: 0 (13.0)

Number of Leaves  : 	17

Size of the tree : 	33


Prepare_CC.Base_CC: Node #12

J48 pruned tree
------------------

NOT-Emotion-Happy = 0
|   Usage-Intensely_Listening = 0
|   |   NOT-Emotion-Carefree-Lighthearted = 0
|   |   |   Usage-Going_to_sleep = 0
|   |   |   |   Instrument_-_Electric_Guitar_(distorted)-Solo = 0: 0 (242.0/6.0)
|   |   |   |   Instrument_-_Electric_Guitar_(distorted)-Solo = 1
|   |   |   |   |   Song-Quality = 0: 1 (3.0)
|   |   |   |   |   Song-Quality = 1
|   |   |   |   |   |   Mean_Acc1000_Mean_Mem40_MFCC12_Power_powerFFT_WinHamming_HopSize512_WinSize512_AudioCh0 <= 0.553478: 0 (12.0)
|   |   |   |   |   |   Mean_Acc1000_Mean_Mem40_MFCC12_Power_powerFFT_WinHamming_HopSize512_WinSize512_AudioCh0 > 0.553478: 1 (4.0)
|   |   |   Usage-Going_to_sleep = 1
|   |   |   |   Mean_Acc1000_Std_Mem40_MFCC0_Power_powerFFT_WinHamming_HopSize512_WinSize512_AudioCh0 <= 3.107523: 0 (10.0)
|   |   |   |   Mean_Acc1000_Std_Mem40_MFCC0_Power_powerFFT_WinHamming_HopSize512_WinSize512_AudioCh0 > 3.107523: 1 (14.0/1.0)
|   |   NOT-Emotion-Carefree-Lighthearted = 1
|   |   |   Std_Acc1000_Mean_Mem40_MFCC1_Power_powerFFT_WinHamming_HopSize512_WinSize512_AudioCh0 <= 1.15382
|   |   |   |   Instrument_-_Electric_Guitar_(clean)-Solo = 0
|   |   |   |   |   Emotion-Tender-Soft = 0
|   |   |   |   |   |   Std_Acc1000_Std_Mem40_MFCC5_Power_powerFFT_WinHamming_HopSize512_WinSize512_AudioCh0 <= 0.082063: 0 (4.0)
|   |   |   |   |   |   Std_Acc1000_Std_Mem40_MFCC5_Power_powerFFT_WinHamming_HopSize512_WinSize512_AudioCh0 > 0.082063
|   |   |   |   |   |   |   Mean_Acc1000_Std_Mem40_MFCC2_Power_powerFFT_WinHamming_HopSize512_WinSize512_AudioCh0 <= 0.691175: 0 (3.0/1.0)
|   |   |   |   |   |   |   Mean_Acc1000_Std_Mem40_MFCC2_Power_powerFFT_WinHamming_HopSize512_WinSize512_AudioCh0 > 0.691175: 1 (31.0)
|   |   |   |   |   Emotion-Tender-Soft = 1: 0 (3.0)
|   |   |   |   Instrument_-_Electric_Guitar_(clean)-Solo = 1: 0 (5.0)
|   |   |   Std_Acc1000_Mean_Mem40_MFCC1_Power_powerFFT_WinHamming_HopSize512_WinSize512_AudioCh0 > 1.15382: 0 (15.0)
|   Usage-Intensely_Listening = 1
|   |   Song-Recommend = 0: 1 (12.0)
|   |   Song-Recommend = 1: 0 (3.0)
NOT-Emotion-Happy = 1
|   Instrument_-_Trumpet = 0
|   |   Genre-Jazz = 0
|   |   |   Std_Acc1000_Std_Mem40_MFCC0_Power_powerFFT_WinHamming_HopSize512_WinSize512_AudioCh0 <= 1.773371
|   |   |   |   Mean_Acc1000_Mean_Mem40_Rolloff_Power_powerFFT_WinHamming_HopSize512_WinSize512_AudioCh0 <= 0.164364: 0 (5.0)
|   |   |   |   Mean_Acc1000_Mean_Mem40_Rolloff_Power_powerFFT_WinHamming_HopSize512_WinSize512_AudioCh0 > 0.164364: 1 (4.0)
|   |   |   Std_Acc1000_Std_Mem40_MFCC0_Power_powerFFT_WinHamming_HopSize512_WinSize512_AudioCh0 > 1.773371: 1 (72.0/3.0)
|   |   Genre-Jazz = 1: 0 (5.0/1.0)
|   Instrument_-_Trumpet = 1: 0 (5.0/1.0)

Number of Leaves  : 	19

Size of the tree : 	37


Prepare_CC.Base_CC: Node #13

J48 pruned tree
------------------

Emotion-Touching-Loving = 0
|   Emotion-Sad = 0
|   |   Std_Acc1000_Std_Mem40_MFCC8_Power_powerFFT_WinHamming_HopSize512_WinSize512_AudioCh0 <= 0.155592
|   |   |   Genre--_Swing = 0
|   |   |   |   Mean_Acc1000_Mean_Mem40_MFCC11_Power_powerFFT_WinHamming_HopSize512_WinSize512_AudioCh0 <= 0.675825
|   |   |   |   |   Vocals-Rapping = 0
|   |   |   |   |   |   Instrument_-_Hand_Drums = 0
|   |   |   |   |   |   |   Vocals-Emotional = 0
|   |   |   |   |   |   |   |   Genre-Best-World = 0: 0 (235.0/7.0)
|   |   |   |   |   |   |   |   Genre-Best-World = 1
|   |   |   |   |   |   |   |   |   Emotion-Tender-Soft = 0: 0 (8.0)
|   |   |   |   |   |   |   |   |   Emotion-Tender-Soft = 1: 1 (4.0)
|   |   |   |   |   |   |   Vocals-Emotional = 1
|   |   |   |   |   |   |   |   Mean_Acc1000_Mean_Mem40_MFCC4_Power_powerFFT_WinHamming_HopSize512_WinSize512_AudioCh0 <= 0.197947: 0 (14.0)
|   |   |   |   |   |   |   |   Mean_Acc1000_Mean_Mem40_MFCC4_Power_powerFFT_WinHamming_HopSize512_WinSize512_AudioCh0 > 0.197947: 1 (11.0/1.0)
|   |   |   |   |   |   Instrument_-_Hand_Drums = 1
|   |   |   |   |   |   |   NOT-Emotion-Arousing-Awakening = 0: 1 (3.0)
|   |   |   |   |   |   |   NOT-Emotion-Arousing-Awakening = 1: 0 (2.0)
|   |   |   |   |   Vocals-Rapping = 1
|   |   |   |   |   |   Emotion-Exciting-Thrilling = 0: 0 (6.0)
|   |   |   |   |   |   Emotion-Exciting-Thrilling = 1: 1 (8.0)
|   |   |   |   Mean_Acc1000_Mean_Mem40_MFCC11_Power_powerFFT_WinHamming_HopSize512_WinSize512_AudioCh0 > 0.675825
|   |   |   |   |   Mean_Acc1000_Mean_Mem40_MFCC8_Power_powerFFT_WinHamming_HopSize512_WinSize512_AudioCh0 <= 0.611107: 0 (14.0)
|   |   |   |   |   Mean_Acc1000_Mean_Mem40_MFCC8_Power_powerFFT_WinHamming_HopSize512_WinSize512_AudioCh0 > 0.611107
|   |   |   |   |   |   NOT-Emotion-Emotional-Passionate = 0: 1 (19.0)
|   |   |   |   |   |   NOT-Emotion-Emotional-Passionate = 1: 0 (2.0)
|   |   |   Genre--_Swing = 1: 1 (3.0/1.0)
|   |   Std_Acc1000_Std_Mem40_MFCC8_Power_powerFFT_WinHamming_HopSize512_WinSize512_AudioCh0 > 0.155592
|   |   |   Mean_Acc1000_Std_Mem40_MFCC9_Power_powerFFT_WinHamming_HopSize512_WinSize512_AudioCh0 <= 0.598177: 0 (6.0/1.0)
|   |   |   Mean_Acc1000_Std_Mem40_MFCC9_Power_powerFFT_WinHamming_HopSize512_WinSize512_AudioCh0 > 0.598177: 1 (13.0)
|   Emotion-Sad = 1
|   |   NOT-Song-High_Energy = 0: 1 (21.0/1.0)
|   |   NOT-Song-High_Energy = 1
|   |   |   Mean_Acc1000_Mean_Mem40_MFCC3_Power_powerFFT_WinHamming_HopSize512_WinSize512_AudioCh0 <= 1.800186: 0 (9.0)
|   |   |   Mean_Acc1000_Mean_Mem40_MFCC3_Power_powerFFT_WinHamming_HopSize512_WinSize512_AudioCh0 > 1.800186: 1 (3.0)
Emotion-Touching-Loving = 1
|   Instrument_-_Electric_Guitar_(clean)-Solo = 0
|   |   Std_Acc1000_Mean_Mem40_MFCC11_Power_powerFFT_WinHamming_HopSize512_WinSize512_AudioCh0 <= 0.50509
|   |   |   Genre-Best--_Soul = 0
|   |   |   |   Genre-Country = 0
|   |   |   |   |   Instrument_-_Trombone = 0: 1 (48.0/1.0)
|   |   |   |   |   Instrument_-_Trombone = 1
|   |   |   |   |   |   Emotion-Exciting-Thrilling = 0: 0 (2.0)
|   |   |   |   |   |   Emotion-Exciting-Thrilling = 1: 1 (3.0)
|   |   |   |   Genre-Country = 1: 0 (3.0/1.0)
|   |   |   Genre-Best--_Soul = 1: 0 (5.0/1.0)
|   |   Std_Acc1000_Mean_Mem40_MFCC11_Power_powerFFT_WinHamming_HopSize512_WinSize512_AudioCh0 > 0.50509: 0 (6.0)
|   Instrument_-_Electric_Guitar_(clean)-Solo = 1: 0 (4.0)

Number of Leaves  : 	25

Size of the tree : 	49


Prepare_CC.Base_CC: Node #14

J48 pruned tree
------------------

Genre-Best-Electronica = 0
|   Instrument_-_Harmonica-Solo = 0
|   |   Genre-Blues = 0
|   |   |   Mean_Acc1000_Mean_Mem40_MFCC8_Power_powerFFT_WinHamming_HopSize512_WinSize512_AudioCh0 <= 0.584149
|   |   |   |   Std_Acc1000_Mean_Mem40_MFCC3_Power_powerFFT_WinHamming_HopSize512_WinSize512_AudioCh0 <= 0.569005
|   |   |   |   |   Mean_Acc1000_Std_Mem40_MFCC6_Power_powerFFT_WinHamming_HopSize512_WinSize512_AudioCh0 <= 0.636683
|   |   |   |   |   |   Std_Acc1000_Std_Mem40_MFCC3_Power_powerFFT_WinHamming_HopSize512_WinSize512_AudioCh0 <= 0.16041
|   |   |   |   |   |   |   Std_Acc1000_Std_Mem40_MFCC2_Power_powerFFT_WinHamming_HopSize512_WinSize512_AudioCh0 <= 0.148819: 0 (20.0/1.0)
|   |   |   |   |   |   |   Std_Acc1000_Std_Mem40_MFCC2_Power_powerFFT_WinHamming_HopSize512_WinSize512_AudioCh0 > 0.148819
|   |   |   |   |   |   |   |   Mean_Acc1000_Std_Mem40_MFCC8_Power_powerFFT_WinHamming_HopSize512_WinSize512_AudioCh0 <= 0.503341: 1 (19.0/1.0)
|   |   |   |   |   |   |   |   Mean_Acc1000_Std_Mem40_MFCC8_Power_powerFFT_WinHamming_HopSize512_WinSize512_AudioCh0 > 0.503341: 0 (9.0)
|   |   |   |   |   |   Std_Acc1000_Std_Mem40_MFCC3_Power_powerFFT_WinHamming_HopSize512_WinSize512_AudioCh0 > 0.16041
|   |   |   |   |   |   |   Std_Acc1000_Std_Mem40_MFCC10_Power_powerFFT_WinHamming_HopSize512_WinSize512_AudioCh0 <= 0.165667: 0 (73.0/1.0)
|   |   |   |   |   |   |   Std_Acc1000_Std_Mem40_MFCC10_Power_powerFFT_WinHamming_HopSize512_WinSize512_AudioCh0 > 0.165667: 1 (5.0/2.0)
|   |   |   |   |   Mean_Acc1000_Std_Mem40_MFCC6_Power_powerFFT_WinHamming_HopSize512_WinSize512_AudioCh0 > 0.636683
|   |   |   |   |   |   Mean_Acc1000_Mean_Mem40_MFCC3_Power_powerFFT_WinHamming_HopSize512_WinSize512_AudioCh0 <= 1.61719: 1 (11.0/1.0)
|   |   |   |   |   |   Mean_Acc1000_Mean_Mem40_MFCC3_Power_powerFFT_WinHamming_HopSize512_WinSize512_AudioCh0 > 1.61719: 0 (3.0)
|   |   |   |   Std_Acc1000_Mean_Mem40_MFCC3_Power_powerFFT_WinHamming_HopSize512_WinSize512_AudioCh0 > 0.569005: 0 (73.0)
|   |   |   Mean_Acc1000_Mean_Mem40_MFCC8_Power_powerFFT_WinHamming_HopSize512_WinSize512_AudioCh0 > 0.584149
|   |   |   |   Std_Acc1000_Std_Mem40_Rolloff_Power_powerFFT_WinHamming_HopSize512_WinSize512_AudioCh0 <= 0.081206: 0 (145.0)
|   |   |   |   Std_Acc1000_Std_Mem40_Rolloff_Power_powerFFT_WinHamming_HopSize512_WinSize512_AudioCh0 > 0.081206
|   |   |   |   |   Std_Acc1000_Mean_Mem40_MFCC0_Power_powerFFT_WinHamming_HopSize512_WinSize512_AudioCh0 <= 2.708549: 1 (3.0)
|   |   |   |   |   Std_Acc1000_Mean_Mem40_MFCC0_Power_powerFFT_WinHamming_HopSize512_WinSize512_AudioCh0 > 2.708549: 0 (7.0)
|   |   Genre-Blues = 1
|   |   |   Emotion-Carefree-Lighthearted = 0: 0 (7.0)
|   |   |   Emotion-Carefree-Lighthearted = 1: 1 (6.0)
|   Instrument_-_Harmonica-Solo = 1
|   |   Emotion-Pleasant-Comfortable = 0: 1 (7.0)
|   |   Emotion-Pleasant-Comfortable = 1: 0 (7.0)
Genre-Best-Electronica = 1
|   Mean_Acc1000_Mean_Mem40_MFCC2_Power_powerFFT_WinHamming_HopSize512_WinSize512_AudioCh0 <= 1.220061
|   |   Mean_Acc1000_Mean_Mem40_MFCC5_Power_powerFFT_WinHamming_HopSize512_WinSize512_AudioCh0 <= 1.188649
|   |   |   Mean_Acc1000_Mean_Mem40_MFCC9_Power_powerFFT_WinHamming_HopSize512_WinSize512_AudioCh0 <= 0.377384: 0 (3.0)
|   |   |   Mean_Acc1000_Mean_Mem40_MFCC9_Power_powerFFT_WinHamming_HopSize512_WinSize512_AudioCh0 > 0.377384: 1 (29.0)
|   |   Mean_Acc1000_Mean_Mem40_MFCC5_Power_powerFFT_WinHamming_HopSize512_WinSize512_AudioCh0 > 1.188649: 0 (3.0)
|   Mean_Acc1000_Mean_Mem40_MFCC2_Power_powerFFT_WinHamming_HopSize512_WinSize512_AudioCh0 > 1.220061: 0 (22.0/1.0)

Number of Leaves  : 	19

Size of the tree : 	37


Prepare_CC.Base_CC: Node #15

J48 pruned tree
------------------

Genre--_Bebop = 0
|   Song-High_Energy = 0
|   |   Genre--_Swing = 0
|   |   |   Vocals-Strong = 0: 0 (227.0/3.0)
|   |   |   Vocals-Strong = 1
|   |   |   |   Genre-Jazz = 0: 0 (7.0)
|   |   |   |   Genre-Jazz = 1: 1 (3.0)
|   |   Genre--_Swing = 1: 1 (3.0/1.0)
|   Song-High_Energy = 1
|   |   Emotion-Sad = 0
|   |   |   Vocals-Strong = 0
|   |   |   |   Mean_Acc1000_Std_Mem40_MFCC10_Power_powerFFT_WinHamming_HopSize512_WinSize512_AudioCh0 <= 0.508861
|   |   |   |   |   Std_Acc1000_Mean_Mem40_MFCC9_Power_powerFFT_WinHamming_HopSize512_WinSize512_AudioCh0 <= 0.156968: 1 (11.0/1.0)
|   |   |   |   |   Std_Acc1000_Mean_Mem40_MFCC9_Power_powerFFT_WinHamming_HopSize512_WinSize512_AudioCh0 > 0.156968
|   |   |   |   |   |   Instrument_-_Hand_Drums = 0
|   |   |   |   |   |   |   Usage-Hanging_with_friends = 0
|   |   |   |   |   |   |   |   Mean_Acc1000_Mean_Mem40_MFCC12_Power_powerFFT_WinHamming_HopSize512_WinSize512_AudioCh0 <= 0.403111: 0 (47.0)
|   |   |   |   |   |   |   |   Mean_Acc1000_Mean_Mem40_MFCC12_Power_powerFFT_WinHamming_HopSize512_WinSize512_AudioCh0 > 0.403111
|   |   |   |   |   |   |   |   |   Instrument_-_Samples = 0
|   |   |   |   |   |   |   |   |   |   Mean_Acc1000_Mean_Mem40_MFCC4_Power_powerFFT_WinHamming_HopSize512_WinSize512_AudioCh0 <= 0.390701: 1 (9.0/1.0)
|   |   |   |   |   |   |   |   |   |   Mean_Acc1000_Mean_Mem40_MFCC4_Power_powerFFT_WinHamming_HopSize512_WinSize512_AudioCh0 > 0.390701
|   |   |   |   |   |   |   |   |   |   |   Mean_Acc1000_Mean_Mem40_MFCC9_Power_powerFFT_WinHamming_HopSize512_WinSize512_AudioCh0 <= 0.377384: 1 (2.0)
|   |   |   |   |   |   |   |   |   |   |   Mean_Acc1000_Mean_Mem40_MFCC9_Power_powerFFT_WinHamming_HopSize512_WinSize512_AudioCh0 > 0.377384: 0 (31.0)
|   |   |   |   |   |   |   |   |   Instrument_-_Samples = 1: 1 (8.0)
|   |   |   |   |   |   |   Usage-Hanging_with_friends = 1: 1 (3.0/1.0)
|   |   |   |   |   |   Instrument_-_Hand_Drums = 1: 1 (3.0/1.0)
|   |   |   |   Mean_Acc1000_Std_Mem40_MFCC10_Power_powerFFT_WinHamming_HopSize512_WinSize512_AudioCh0 > 0.508861
|   |   |   |   |   NOT-Song-Recommend = 0
|   |   |   |   |   |   Mean_Acc1000_Std_Mem40_MFCC9_Power_powerFFT_WinHamming_HopSize512_WinSize512_AudioCh0 <= 0.501717: 0 (3.0)
|   |   |   |   |   |   Mean_Acc1000_Std_Mem40_MFCC9_Power_powerFFT_WinHamming_HopSize512_WinSize512_AudioCh0 > 0.501717
|   |   |   |   |   |   |   Mean_Acc1000_Mean_Mem40_MFCC2_Power_powerFFT_WinHamming_HopSize512_WinSize512_AudioCh0 <= -0.315468: 0 (3.0)
|   |   |   |   |   |   |   Mean_Acc1000_Mean_Mem40_MFCC2_Power_powerFFT_WinHamming_HopSize512_WinSize512_AudioCh0 > -0.315468: 1 (38.0/2.0)
|   |   |   |   |   NOT-Song-Recommend = 1: 0 (2.0)
|   |   |   Vocals-Strong = 1
|   |   |   |   Mean_Acc1000_Mean_Mem40_MFCC1_Power_powerFFT_WinHamming_HopSize512_WinSize512_AudioCh0 <= 5.367991
|   |   |   |   |   Mean_Acc1000_Mean_Mem40_MFCC10_Power_powerFFT_WinHamming_HopSize512_WinSize512_AudioCh0 <= 0.628545: 1 (29.0)
|   |   |   |   |   Mean_Acc1000_Mean_Mem40_MFCC10_Power_powerFFT_WinHamming_HopSize512_WinSize512_AudioCh0 > 0.628545
|   |   |   |   |   |   Emotion-Carefree-Lighthearted = 0: 0 (2.0)
|   |   |   |   |   |   Emotion-Carefree-Lighthearted = 1: 1 (4.0)
|   |   |   |   Mean_Acc1000_Mean_Mem40_MFCC1_Power_powerFFT_WinHamming_HopSize512_WinSize512_AudioCh0 > 5.367991: 0 (3.0)
|   |   Emotion-Sad = 1: 0 (6.0)
Genre--_Bebop = 1: 1 (8.0)

Number of Leaves  : 	22

Size of the tree : 	43


Prepare_CC.Base_CC: Node #16

J48 pruned tree
------------------

NOT-Emotion-Arousing-Awakening = 0
|   Genre--_Alternative_Folk = 0
|   |   Genre--_Country_Blues = 0
|   |   |   NOT-Song-High_Energy = 0
|   |   |   |   Mean_Acc1000_Mean_Mem40_MFCC4_Power_powerFFT_WinHamming_HopSize512_WinSize512_AudioCh0 <= 1.124637
|   |   |   |   |   Genre-Country = 0
|   |   |   |   |   |   Instrument_-_Saxophone-Solo = 0
|   |   |   |   |   |   |   Genre-Best--_Alternative = 0
|   |   |   |   |   |   |   |   Instrument_-_Electric_Guitar_(clean)-Solo = 0: 0 (264.0/8.0)
|   |   |   |   |   |   |   |   Instrument_-_Electric_Guitar_(clean)-Solo = 1
|   |   |   |   |   |   |   |   |   Instrument_-_Male_Lead_Vocals-Solo = 0: 0 (18.0)
|   |   |   |   |   |   |   |   |   Instrument_-_Male_Lead_Vocals-Solo = 1: 1 (3.0)
|   |   |   |   |   |   |   Genre-Best--_Alternative = 1
|   |   |   |   |   |   |   |   Mean_Acc1000_Mean_Mem40_ZeroCrossings_HopSize512_WinSize512_AudioCh0 <= 0.104755: 1 (4.0/1.0)
|   |   |   |   |   |   |   |   Mean_Acc1000_Mean_Mem40_ZeroCrossings_HopSize512_WinSize512_AudioCh0 > 0.104755: 0 (7.0)
|   |   |   |   |   |   Instrument_-_Saxophone-Solo = 1
|   |   |   |   |   |   |   Emotion-Calming-Soothing = 0: 0 (7.0)
|   |   |   |   |   |   |   Emotion-Calming-Soothing = 1: 1 (6.0)
|   |   |   |   |   Genre-Country = 1: 1 (4.0/1.0)
|   |   |   |   Mean_Acc1000_Mean_Mem40_MFCC4_Power_powerFFT_WinHamming_HopSize512_WinSize512_AudioCh0 > 1.124637
|   |   |   |   |   Song-High_Energy = 0
|   |   |   |   |   |   Std_Acc1000_Mean_Mem40_MFCC2_Power_powerFFT_WinHamming_HopSize512_WinSize512_AudioCh0 <= 0.484749: 0 (3.0)
|   |   |   |   |   |   Std_Acc1000_Mean_Mem40_MFCC2_Power_powerFFT_WinHamming_HopSize512_WinSize512_AudioCh0 > 0.484749: 1 (16.0)
|   |   |   |   |   Song-High_Energy = 1: 0 (8.0)
|   |   |   NOT-Song-High_Energy = 1
|   |   |   |   Std_Acc1000_Std_Mem40_MFCC4_Power_powerFFT_WinHamming_HopSize512_WinSize512_AudioCh0 <= 0.118171: 0 (7.0)
|   |   |   |   Std_Acc1000_Std_Mem40_MFCC4_Power_powerFFT_WinHamming_HopSize512_WinSize512_AudioCh0 > 0.118171
|   |   |   |   |   Mean_Acc1000_Mean_Mem40_MFCC3_Power_powerFFT_WinHamming_HopSize512_WinSize512_AudioCh0 <= 2.231951: 1 (15.0)
|   |   |   |   |   Mean_Acc1000_Mean_Mem40_MFCC3_Power_powerFFT_WinHamming_HopSize512_WinSize512_AudioCh0 > 2.231951: 0 (2.0)
|   |   Genre--_Country_Blues = 1: 1 (3.0)
|   Genre--_Alternative_Folk = 1: 1 (5.0)
NOT-Emotion-Arousing-Awakening = 1
|   Genre--_Funk = 0
|   |   Song-High_Energy = 0: 1 (74.0/3.0)
|   |   Song-High_Energy = 1: 0 (2.0)
|   Genre--_Funk = 1: 0 (4.0)

Number of Leaves  : 	19

Size of the tree : 	37


Prepare_CC.Base_CC: Node #17

J48 pruned tree
------------------

Emotion-Cheerful-Festive = 0
|   Genre--_Funk = 0
|   |   Emotion-Light-Playful = 0
|   |   |   Genre-Pop = 0
|   |   |   |   NOT-Emotion-Sad = 0: 0 (199.0/2.0)
|   |   |   |   NOT-Emotion-Sad = 1
|   |   |   |   |   Mean_Acc1000_Mean_Mem40_MFCC2_Power_powerFFT_WinHamming_HopSize512_WinSize512_AudioCh0 <= -0.973489: 1 (3.0)
|   |   |   |   |   Mean_Acc1000_Mean_Mem40_MFCC2_Power_powerFFT_WinHamming_HopSize512_WinSize512_AudioCh0 > -0.973489: 0 (55.0/3.0)
|   |   |   Genre-Pop = 1
|   |   |   |   Usage-Studying = 0
|   |   |   |   |   Mean_Acc1000_Std_Mem40_MFCC2_Power_powerFFT_WinHamming_HopSize512_WinSize512_AudioCh0 <= 1.139957: 0 (29.0)
|   |   |   |   |   Mean_Acc1000_Std_Mem40_MFCC2_Power_powerFFT_WinHamming_HopSize512_WinSize512_AudioCh0 > 1.139957
|   |   |   |   |   |   NOT-Emotion-Bizarre-Weird = 0: 0 (2.0)
|   |   |   |   |   |   NOT-Emotion-Bizarre-Weird = 1: 1 (2.0)
|   |   |   |   Usage-Studying = 1: 1 (8.0)
|   |   Emotion-Light-Playful = 1
|   |   |   Song-Recorded = 0: 0 (7.0)
|   |   |   Song-Recorded = 1: 1 (16.0/1.0)
|   Genre--_Funk = 1: 1 (3.0)
Emotion-Cheerful-Festive = 1
|   Genre-Best-Electronica = 0
|   |   NOT-Emotion-Light-Playful = 0
|   |   |   Genre-Best--_Alternative = 0
|   |   |   |   Genre-Country = 0
|   |   |   |   |   Mean_Acc1000_Mean_Mem40_MFCC6_Power_powerFFT_WinHamming_HopSize512_WinSize512_AudioCh0 <= 0.043464
|   |   |   |   |   |   NOT-Emotion-Touching-Loving = 0: 1 (3.0)
|   |   |   |   |   |   NOT-Emotion-Touching-Loving = 1: 0 (5.0)
|   |   |   |   |   Mean_Acc1000_Mean_Mem40_MFCC6_Power_powerFFT_WinHamming_HopSize512_WinSize512_AudioCh0 > 0.043464: 1 (100.0/2.0)
|   |   |   |   Genre-Country = 1
|   |   |   |   |   NOT-Emotion-Exciting-Thrilling = 0: 1 (2.0)
|   |   |   |   |   NOT-Emotion-Exciting-Thrilling = 1: 0 (4.0)
|   |   |   Genre-Best--_Alternative = 1: 0 (6.0/1.0)
|   |   NOT-Emotion-Light-Playful = 1: 0 (2.0)
|   Genre-Best-Electronica = 1: 0 (6.0)

Number of Leaves  : 	18

Size of the tree : 	35


Prepare_CC.Base_CC: Node #18

J48 pruned tree
------------------

Vocals-Monotone = 0
|   Emotion-Sad = 0
|   |   NOT-Song-Recommend = 0
|   |   |   Usage-Going_to_sleep = 0: 0 (303.0/8.0)
|   |   |   Usage-Going_to_sleep = 1
|   |   |   |   Std_Acc1000_Std_Mem40_MFCC12_Power_powerFFT_WinHamming_HopSize512_WinSize512_AudioCh0 <= 0.075221: 1 (11.0)
|   |   |   |   Std_Acc1000_Std_Mem40_MFCC12_Power_powerFFT_WinHamming_HopSize512_WinSize512_AudioCh0 > 0.075221
|   |   |   |   |   Mean_Acc1000_Mean_Mem40_MFCC10_Power_powerFFT_WinHamming_HopSize512_WinSize512_AudioCh0 <= -0.09717: 1 (3.0)
|   |   |   |   |   Mean_Acc1000_Mean_Mem40_MFCC10_Power_powerFFT_WinHamming_HopSize512_WinSize512_AudioCh0 > -0.09717: 0 (26.0)
|   |   NOT-Song-Recommend = 1
|   |   |   Instrument_-_Backing_vocals = 0
|   |   |   |   Mean_Acc1000_Mean_Mem40_Flux_Power_powerFFT_WinHamming_HopSize512_WinSize512_AudioCh0 <= 0.087653: 0 (7.0)
|   |   |   |   Mean_Acc1000_Mean_Mem40_Flux_Power_powerFFT_WinHamming_HopSize512_WinSize512_AudioCh0 > 0.087653
|   |   |   |   |   Instrument_-_Electric_Guitar_(distorted)-Solo = 0
|   |   |   |   |   |   Emotion-Carefree-Lighthearted = 0
|   |   |   |   |   |   |   Mean_Acc1000_Mean_Mem40_MFCC12_Power_powerFFT_WinHamming_HopSize512_WinSize512_AudioCh0 <= 0.197946: 0 (2.0)
|   |   |   |   |   |   |   Mean_Acc1000_Mean_Mem40_MFCC12_Power_powerFFT_WinHamming_HopSize512_WinSize512_AudioCh0 > 0.197946: 1 (32.0/1.0)
|   |   |   |   |   |   Emotion-Carefree-Lighthearted = 1: 0 (2.0)
|   |   |   |   |   Instrument_-_Electric_Guitar_(distorted)-Solo = 1: 0 (3.0)
|   |   |   Instrument_-_Backing_vocals = 1: 0 (18.0/1.0)
|   Emotion-Sad = 1
|   |   Instrument_-_Electric_Guitar_(distorted)-Solo = 0
|   |   |   Song-Heavy_Beat = 0: 1 (30.0/1.0)
|   |   |   Song-Heavy_Beat = 1: 0 (3.0/1.0)
|   |   Instrument_-_Electric_Guitar_(distorted)-Solo = 1: 0 (6.0/1.0)
Vocals-Monotone = 1: 1 (6.0)

Number of Leaves  : 	14

Size of the tree : 	27


Prepare_CC.Base_CC: Node #19

J48 pruned tree
------------------

Instrument_-_Organ = 0
|   Emotion-Calming-Soothing = 0
|   |   Genre--_Swing = 0
|   |   |   Genre-Best-Folk = 0
|   |   |   |   Genre-Best--_Alternative = 0
|   |   |   |   |   Vocals-Rapping = 0
|   |   |   |   |   |   Song-High_Energy = 0
|   |   |   |   |   |   |   Std_Acc1000_Std_Mem40_Flux_Power_powerFFT_WinHamming_HopSize512_WinSize512_AudioCh0 <= 0.032144: 0 (62.0/2.0)
|   |   |   |   |   |   |   Std_Acc1000_Std_Mem40_Flux_Power_powerFFT_WinHamming_HopSize512_WinSize512_AudioCh0 > 0.032144
|   |   |   |   |   |   |   |   Mean_Acc1000_Std_Mem40_MFCC12_Power_powerFFT_WinHamming_HopSize512_WinSize512_AudioCh0 <= 0.422276: 0 (10.0)
|   |   |   |   |   |   |   |   Mean_Acc1000_Std_Mem40_MFCC12_Power_powerFFT_WinHamming_HopSize512_WinSize512_AudioCh0 > 0.422276: 1 (7.0)
|   |   |   |   |   |   Song-High_Energy = 1: 0 (170.0)
|   |   |   |   |   Vocals-Rapping = 1
|   |   |   |   |   |   Instrument_-_Female_Lead_Vocals = 0: 0 (10.0)
|   |   |   |   |   |   Instrument_-_Female_Lead_Vocals = 1: 1 (4.0)
|   |   |   |   Genre-Best--_Alternative = 1
|   |   |   |   |   NOT-Song-High_Energy = 0: 0 (10.0/1.0)
|   |   |   |   |   NOT-Song-High_Energy = 1: 1 (3.0)
|   |   |   Genre-Best-Folk = 1: 1 (3.0/1.0)
|   |   Genre--_Swing = 1: 1 (3.0/1.0)
|   Emotion-Calming-Soothing = 1
|   |   Vocals-Breathy = 0
|   |   |   Std_Acc1000_Std_Mem40_Flux_Power_powerFFT_WinHamming_HopSize512_WinSize512_AudioCh0 <= 0.032711
|   |   |   |   Vocals-Strong = 0
|   |   |   |   |   Std_Acc1000_Std_Mem40_ZeroCrossings_HopSize512_WinSize512_AudioCh0 <= 0.031973
|   |   |   |   |   |   Std_Acc1000_Std_Mem40_MFCC5_Power_powerFFT_WinHamming_HopSize512_WinSize512_AudioCh0 <= 0.205249
|   |   |   |   |   |   |   Genre--_Dance_Pop = 0
|   |   |   |   |   |   |   |   Instrument_-_Electric_Guitar_(clean)-Solo = 0
|   |   |   |   |   |   |   |   |   Std_Acc1000_Mean_Mem40_MFCC7_Power_powerFFT_WinHamming_HopSize512_WinSize512_AudioCh0 <= 0.203681: 0 (9.0/1.0)
|   |   |   |   |   |   |   |   |   Std_Acc1000_Mean_Mem40_MFCC7_Power_powerFFT_WinHamming_HopSize512_WinSize512_AudioCh0 > 0.203681
|   |   |   |   |   |   |   |   |   |   Genre-Country = 0
|   |   |   |   |   |   |   |   |   |   |   Instrument_-_Male_Lead_Vocals = 0
|   |   |   |   |   |   |   |   |   |   |   |   Instrument_-_Backing_vocals = 0
|   |   |   |   |   |   |   |   |   |   |   |   |   Std_Acc1000_Mean_Mem40_MFCC1_Power_powerFFT_WinHamming_HopSize512_WinSize512_AudioCh0 <= 1.493334
|   |   |   |   |   |   |   |   |   |   |   |   |   |   NOT-Song-Fast_Tempo = 0
|   |   |   |   |   |   |   |   |   |   |   |   |   |   |   NOT-Emotion-Sad = 0: 0 (4.0)
|   |   |   |   |   |   |   |   |   |   |   |   |   |   |   NOT-Emotion-Sad = 1: 1 (4.0)
|   |   |   |   |   |   |   |   |   |   |   |   |   |   NOT-Song-Fast_Tempo = 1: 1 (25.0/1.0)
|   |   |   |   |   |   |   |   |   |   |   |   |   Std_Acc1000_Mean_Mem40_MFCC1_Power_powerFFT_WinHamming_HopSize512_WinSize512_AudioCh0 > 1.493334: 0 (4.0)
|   |   |   |   |   |   |   |   |   |   |   |   Instrument_-_Backing_vocals = 1: 0 (8.0)
|   |   |   |   |   |   |   |   |   |   |   Instrument_-_Male_Lead_Vocals = 1: 1 (46.0)
|   |   |   |   |   |   |   |   |   |   Genre-Country = 1
|   |   |   |   |   |   |   |   |   |   |   Emotion-Emotional-Passionate = 0: 0 (4.0)
|   |   |   |   |   |   |   |   |   |   |   Emotion-Emotional-Passionate = 1: 1 (2.0)
|   |   |   |   |   |   |   |   Instrument_-_Electric_Guitar_(clean)-Solo = 1: 0 (2.0)
|   |   |   |   |   |   |   Genre--_Dance_Pop = 1: 0 (2.0)
|   |   |   |   |   |   Std_Acc1000_Std_Mem40_MFCC5_Power_powerFFT_WinHamming_HopSize512_WinSize512_AudioCh0 > 0.205249: 0 (10.0)
|   |   |   |   |   Std_Acc1000_Std_Mem40_ZeroCrossings_HopSize512_WinSize512_AudioCh0 > 0.031973: 0 (12.0)
|   |   |   |   Vocals-Strong = 1: 0 (5.0)
|   |   |   Std_Acc1000_Std_Mem40_Flux_Power_powerFFT_WinHamming_HopSize512_WinSize512_AudioCh0 > 0.032711: 0 (20.0)
|   |   Vocals-Breathy = 1: 1 (9.0)
Instrument_-_Organ = 1: 1 (4.0)

Number of Leaves  : 	27

Size of the tree : 	53


Prepare_CC.Base_CC: Node #20

J48 pruned tree
------------------

Genre--_Punk = 0
|   Std_Acc1000_Mean_Mem40_MFCC9_Power_powerFFT_WinHamming_HopSize512_WinSize512_AudioCh0 <= 0.171835
|   |   Emotion-Pleasant-Comfortable = 0
|   |   |   NOT-Song-High_Energy = 0
|   |   |   |   Std_Acc1000_Std_Mem40_MFCC5_Power_powerFFT_WinHamming_HopSize512_WinSize512_AudioCh0 <= 0.160496: 1 (32.0/1.0)
|   |   |   |   Std_Acc1000_Std_Mem40_MFCC5_Power_powerFFT_WinHamming_HopSize512_WinSize512_AudioCh0 > 0.160496: 0 (2.0)
|   |   |   NOT-Song-High_Energy = 1: 0 (4.0)
|   |   Emotion-Pleasant-Comfortable = 1: 0 (6.0)
|   Std_Acc1000_Mean_Mem40_MFCC9_Power_powerFFT_WinHamming_HopSize512_WinSize512_AudioCh0 > 0.171835
|   |   Std_Acc1000_Std_Mem40_MFCC8_Power_powerFFT_WinHamming_HopSize512_WinSize512_AudioCh0 <= 0.070057
|   |   |   Mean_Acc1000_Mean_Mem40_Centroid_Power_powerFFT_WinHamming_HopSize512_WinSize512_AudioCh0 <= 0.057474: 0 (5.0)
|   |   |   Mean_Acc1000_Mean_Mem40_Centroid_Power_powerFFT_WinHamming_HopSize512_WinSize512_AudioCh0 > 0.057474: 1 (18.0/1.0)
|   |   Std_Acc1000_Std_Mem40_MFCC8_Power_powerFFT_WinHamming_HopSize512_WinSize512_AudioCh0 > 0.070057
|   |   |   Usage-Going_to_sleep = 0
|   |   |   |   NOT-Song-High_Energy = 0
|   |   |   |   |   Instrument_-_Hand_Drums = 0
|   |   |   |   |   |   Instrument_-_Male_Lead_Vocals-Solo = 0
|   |   |   |   |   |   |   Instrument_-_Samples = 0
|   |   |   |   |   |   |   |   Instrument_-_Harmonica-Solo = 0
|   |   |   |   |   |   |   |   |   Vocals-Rapping = 0
|   |   |   |   |   |   |   |   |   |   Mean_Acc1000_Mean_Mem40_MFCC11_Power_powerFFT_WinHamming_HopSize512_WinSize512_AudioCh0 <= 0.638584
|   |   |   |   |   |   |   |   |   |   |   Mean_Acc1000_Std_Mem40_MFCC1_Power_powerFFT_WinHamming_HopSize512_WinSize512_AudioCh0 <= 1.476332
|   |   |   |   |   |   |   |   |   |   |   |   Genre-Jazz = 0
|   |   |   |   |   |   |   |   |   |   |   |   |   Emotion-Pleasant-Comfortable = 0
|   |   |   |   |   |   |   |   |   |   |   |   |   |   Mean_Acc1000_Mean_Mem40_ZeroCrossings_HopSize512_WinSize512_AudioCh0 <= 0.141312
|   |   |   |   |   |   |   |   |   |   |   |   |   |   |   Mean_Acc1000_Mean_Mem40_Rolloff_Power_powerFFT_WinHamming_HopSize512_WinSize512_AudioCh0 <= 0.21542
|   |   |   |   |   |   |   |   |   |   |   |   |   |   |   |   Mean_Acc1000_Mean_Mem40_ZeroCrossings_HopSize512_WinSize512_AudioCh0 <= 0.111386
|   |   |   |   |   |   |   |   |   |   |   |   |   |   |   |   |   Mean_Acc1000_Mean_Mem40_MFCC3_Power_powerFFT_WinHamming_HopSize512_WinSize512_AudioCh0 <= 1.508471
|   |   |   |   |   |   |   |   |   |   |   |   |   |   |   |   |   |   Std_Acc1000_Mean_Mem40_MFCC10_Power_powerFFT_WinHamming_HopSize512_WinSize512_AudioCh0 <= 0.292195: 1 (7.0)
|   |   |   |   |   |   |   |   |   |   |   |   |   |   |   |   |   |   Std_Acc1000_Mean_Mem40_MFCC10_Power_powerFFT_WinHamming_HopSize512_WinSize512_AudioCh0 > 0.292195: 0 (5.0)
|   |   |   |   |   |   |   |   |   |   |   |   |   |   |   |   |   Mean_Acc1000_Mean_Mem40_MFCC3_Power_powerFFT_WinHamming_HopSize512_WinSize512_AudioCh0 > 1.508471
|   |   |   |   |   |   |   |   |   |   |   |   |   |   |   |   |   |   Mean_Acc1000_Mean_Mem40_MFCC11_Power_powerFFT_WinHamming_HopSize512_WinSize512_AudioCh0 <= 0.589441: 0 (24.0)
|   |   |   |   |   |   |   |   |   |   |   |   |   |   |   |   |   |   Mean_Acc1000_Mean_Mem40_MFCC11_Power_powerFFT_WinHamming_HopSize512_WinSize512_AudioCh0 > 0.589441: 1 (3.0/1.0)
|   |   |   |   |   |   |   |   |   |   |   |   |   |   |   |   Mean_Acc1000_Mean_Mem40_ZeroCrossings_HopSize512_WinSize512_AudioCh0 > 0.111386: 1 (6.0)
|   |   |   |   |   |   |   |   |   |   |   |   |   |   |   Mean_Acc1000_Mean_Mem40_Rolloff_Power_powerFFT_WinHamming_HopSize512_WinSize512_AudioCh0 > 0.21542: 0 (19.0)
|   |   |   |   |   |   |   |   |   |   |   |   |   |   Mean_Acc1000_Mean_Mem40_ZeroCrossings_HopSize512_WinSize512_AudioCh0 > 0.141312: 1 (11.0/1.0)
|   |   |   |   |   |   |   |   |   |   |   |   |   Emotion-Pleasant-Comfortable = 1
|   |   |   |   |   |   |   |   |   |   |   |   |   |   Std_Acc1000_Std_Mem40_MFCC0_Power_powerFFT_WinHamming_HopSize512_WinSize512_AudioCh0 <= 2.285685: 0 (57.0/1.0)
|   |   |   |   |   |   |   |   |   |   |   |   |   |   Std_Acc1000_Std_Mem40_MFCC0_Power_powerFFT_WinHamming_HopSize512_WinSize512_AudioCh0 > 2.285685
|   |   |   |   |   |   |   |   |   |   |   |   |   |   |   Mean_Acc1000_Mean_Mem40_MFCC1_Power_powerFFT_WinHamming_HopSize512_WinSize512_AudioCh0 <= 4.175597: 1 (5.0)
|   |   |   |   |   |   |   |   |   |   |   |   |   |   |   Mean_Acc1000_Mean_Mem40_MFCC1_Power_powerFFT_WinHamming_HopSize512_WinSize512_AudioCh0 > 4.175597: 0 (6.0)
|   |   |   |   |   |   |   |   |   |   |   |   Genre-Jazz = 1
|   |   |   |   |   |   |   |   |   |   |   |   |   Emotion-Carefree-Lighthearted = 0: 1 (5.0)
|   |   |   |   |   |   |   |   |   |   |   |   |   Emotion-Carefree-Lighthearted = 1: 0 (4.0)
|   |   |   |   |   |   |   |   |   |   |   Mean_Acc1000_Std_Mem40_MFCC1_Power_powerFFT_WinHamming_HopSize512_WinSize512_AudioCh0 > 1.476332
|   |   |   |   |   |   |   |   |   |   |   |   Std_Acc1000_Std_Mem40_MFCC0_Power_powerFFT_WinHamming_HopSize512_WinSize512_AudioCh0 <= 2.317011: 1 (16.0)
|   |   |   |   |   |   |   |   |   |   |   |   Std_Acc1000_Std_Mem40_MFCC0_Power_powerFFT_WinHamming_HopSize512_WinSize512_AudioCh0 > 2.317011: 0 (4.0)
|   |   |   |   |   |   |   |   |   |   Mean_Acc1000_Mean_Mem40_MFCC11_Power_powerFFT_WinHamming_HopSize512_WinSize512_AudioCh0 > 0.638584: 0 (32.0)
|   |   |   |   |   |   |   |   |   Vocals-Rapping = 1: 0 (6.0)
|   |   |   |   |   |   |   |   Instrument_-_Harmonica-Solo = 1: 0 (7.0)
|   |   |   |   |   |   |   Instrument_-_Samples = 1: 0 (10.0)
|   |   |   |   |   |   Instrument_-_Male_Lead_Vocals-Solo = 1: 0 (16.0)
|   |   |   |   |   Instrument_-_Hand_Drums = 1
|   |   |   |   |   |   Emotion-Pleasant-Comfortable = 0: 1 (4.0)
|   |   |   |   |   |   Emotion-Pleasant-Comfortable = 1: 0 (2.0)
|   |   |   |   NOT-Song-High_Energy = 1: 0 (48.0/1.0)
|   |   |   Usage-Going_to_sleep = 1: 0 (60.0)
Genre--_Punk = 1
|   Emotion-Pleasant-Comfortable = 0
|   |   Std_Acc1000_Std_Mem40_MFCC3_Power_powerFFT_WinHamming_HopSize512_WinSize512_AudioCh0 <= 0.304929: 1 (23.0)
|   |   Std_Acc1000_Std_Mem40_MFCC3_Power_powerFFT_WinHamming_HopSize512_WinSize512_AudioCh0 > 0.304929: 0 (3.0)
|   Emotion-Pleasant-Comfortable = 1: 0 (2.0)

Number of Leaves  : 	32

Size of the tree : 	63


Prepare_CC.Base_CC: Node #21

J48 pruned tree
------------------

Emotion-Carefree-Lighthearted = 0
|   Mean_Acc1000_Mean_Mem40_MFCC3_Power_powerFFT_WinHamming_HopSize512_WinSize512_AudioCh0 <= 0.781055
|   |   Std_Acc1000_Mean_Mem40_MFCC7_Power_powerFFT_WinHamming_HopSize512_WinSize512_AudioCh0 <= 0.2981: 0 (8.0)
|   |   Std_Acc1000_Mean_Mem40_MFCC7_Power_powerFFT_WinHamming_HopSize512_WinSize512_AudioCh0 > 0.2981: 1 (12.0/1.0)
|   Mean_Acc1000_Mean_Mem40_MFCC3_Power_powerFFT_WinHamming_HopSize512_WinSize512_AudioCh0 > 0.781055
|   |   Mean_Acc1000_Std_Mem40_Centroid_Power_powerFFT_WinHamming_HopSize512_WinSize512_AudioCh0 <= 0.048439: 0 (276.0/4.0)
|   |   Mean_Acc1000_Std_Mem40_Centroid_Power_powerFFT_WinHamming_HopSize512_WinSize512_AudioCh0 > 0.048439
|   |   |   Mean_Acc1000_Mean_Mem40_MFCC11_Power_powerFFT_WinHamming_HopSize512_WinSize512_AudioCh0 <= 0.204777: 1 (4.0)
|   |   |   Mean_Acc1000_Mean_Mem40_MFCC11_Power_powerFFT_WinHamming_HopSize512_WinSize512_AudioCh0 > 0.204777
|   |   |   |   Mean_Acc1000_Mean_Mem40_MFCC1_Power_powerFFT_WinHamming_HopSize512_WinSize512_AudioCh0 <= 5.344732
|   |   |   |   |   Std_Acc1000_Std_Mem40_MFCC8_Power_powerFFT_WinHamming_HopSize512_WinSize512_AudioCh0 <= 0.07213: 1 (3.0/1.0)
|   |   |   |   |   Std_Acc1000_Std_Mem40_MFCC8_Power_powerFFT_WinHamming_HopSize512_WinSize512_AudioCh0 > 0.07213: 0 (26.0)
|   |   |   |   Mean_Acc1000_Mean_Mem40_MFCC1_Power_powerFFT_WinHamming_HopSize512_WinSize512_AudioCh0 > 5.344732: 1 (3.0)
Emotion-Carefree-Lighthearted = 1
|   Instrument_-_Harmonica-Solo = 0
|   |   Vocals-Rapping = 0
|   |   |   Instrument_-_Hand_Drums = 0
|   |   |   |   NOT-Song-Recommend = 0
|   |   |   |   |   Mean_Acc1000_Mean_Mem40_MFCC2_Power_powerFFT_WinHamming_HopSize512_WinSize512_AudioCh0 <= -1.161983: 0 (5.0)
|   |   |   |   |   Mean_Acc1000_Mean_Mem40_MFCC2_Power_powerFFT_WinHamming_HopSize512_WinSize512_AudioCh0 > -1.161983
|   |   |   |   |   |   Genre--_Swing = 0: 1 (83.0/4.0)
|   |   |   |   |   |   Genre--_Swing = 1
|   |   |   |   |   |   |   Mean_Acc1000_Mean_Mem40_ZeroCrossings_HopSize512_WinSize512_AudioCh0 <= 0.110056: 0 (2.0)
|   |   |   |   |   |   |   Mean_Acc1000_Mean_Mem40_ZeroCrossings_HopSize512_WinSize512_AudioCh0 > 0.110056: 1 (2.0)
|   |   |   |   NOT-Song-Recommend = 1: 0 (7.0/1.0)
|   |   |   Instrument_-_Hand_Drums = 1: 0 (3.0)
|   |   Vocals-Rapping = 1: 0 (5.0)
|   Instrument_-_Harmonica-Solo = 1: 0 (13.0)

Number of Leaves  : 	15

Size of the tree : 	29


Prepare_CC.Base_CC: Node #22

J48 pruned tree
------------------

Std_Acc1000_Std_Mem40_MFCC9_Power_powerFFT_WinHamming_HopSize512_WinSize512_AudioCh0 <= 0.194421
|   Mean_Acc1000_Mean_Mem40_MFCC3_Power_powerFFT_WinHamming_HopSize512_WinSize512_AudioCh0 <= 0.781055: 0 (41.0/1.0)
|   Mean_Acc1000_Mean_Mem40_MFCC3_Power_powerFFT_WinHamming_HopSize512_WinSize512_AudioCh0 > 0.781055
|   |   Std_Acc1000_Std_Mem40_MFCC11_Power_powerFFT_WinHamming_HopSize512_WinSize512_AudioCh0 <= 0.062292
|   |   |   Mean_Acc1000_Std_Mem40_Flux_Power_powerFFT_WinHamming_HopSize512_WinSize512_AudioCh0 <= 0.038657: 0 (7.0/1.0)
|   |   |   Mean_Acc1000_Std_Mem40_Flux_Power_powerFFT_WinHamming_HopSize512_WinSize512_AudioCh0 > 0.038657: 1 (21.0)
|   |   Std_Acc1000_Std_Mem40_MFCC11_Power_powerFFT_WinHamming_HopSize512_WinSize512_AudioCh0 > 0.062292
|   |   |   Mean_Acc1000_Mean_Mem40_MFCC7_Power_powerFFT_WinHamming_HopSize512_WinSize512_AudioCh0 <= 0.945611
|   |   |   |   Std_Acc1000_Mean_Mem40_MFCC6_Power_powerFFT_WinHamming_HopSize512_WinSize512_AudioCh0 <= 0.533672
|   |   |   |   |   Mean_Acc1000_Mean_Mem40_MFCC12_Power_powerFFT_WinHamming_HopSize512_WinSize512_AudioCh0 <= 0.543937
|   |   |   |   |   |   Std_Acc1000_Std_Mem40_Flux_Power_powerFFT_WinHamming_HopSize512_WinSize512_AudioCh0 <= 0.031703
|   |   |   |   |   |   |   Std_Acc1000_Std_Mem40_MFCC2_Power_powerFFT_WinHamming_HopSize512_WinSize512_AudioCh0 <= 0.467202
|   |   |   |   |   |   |   |   Std_Acc1000_Std_Mem40_MFCC6_Power_powerFFT_WinHamming_HopSize512_WinSize512_AudioCh0 <= 0.14334
|   |   |   |   |   |   |   |   |   Mean_Acc1000_Mean_Mem40_MFCC5_Power_powerFFT_WinHamming_HopSize512_WinSize512_AudioCh0 <= 0.291991: 1 (3.0)
|   |   |   |   |   |   |   |   |   Mean_Acc1000_Mean_Mem40_MFCC5_Power_powerFFT_WinHamming_HopSize512_WinSize512_AudioCh0 > 0.291991
|   |   |   |   |   |   |   |   |   |   Std_Acc1000_Std_Mem40_MFCC6_Power_powerFFT_WinHamming_HopSize512_WinSize512_AudioCh0 <= 0.103743
|   |   |   |   |   |   |   |   |   |   |   Std_Acc1000_Std_Mem40_MFCC4_Power_powerFFT_WinHamming_HopSize512_WinSize512_AudioCh0 <= 0.1438
|   |   |   |   |   |   |   |   |   |   |   |   Mean_Acc1000_Mean_Mem40_Flux_Power_powerFFT_WinHamming_HopSize512_WinSize512_AudioCh0 <= 0.099089: 0 (33.0/2.0)
|   |   |   |   |   |   |   |   |   |   |   |   Mean_Acc1000_Mean_Mem40_Flux_Power_powerFFT_WinHamming_HopSize512_WinSize512_AudioCh0 > 0.099089: 1 (2.0)
|   |   |   |   |   |   |   |   |   |   |   Std_Acc1000_Std_Mem40_MFCC4_Power_powerFFT_WinHamming_HopSize512_WinSize512_AudioCh0 > 0.1438: 1 (5.0)
|   |   |   |   |   |   |   |   |   |   Std_Acc1000_Std_Mem40_MFCC6_Power_powerFFT_WinHamming_HopSize512_WinSize512_AudioCh0 > 0.103743: 0 (32.0)
|   |   |   |   |   |   |   |   Std_Acc1000_Std_Mem40_MFCC6_Power_powerFFT_WinHamming_HopSize512_WinSize512_AudioCh0 > 0.14334
|   |   |   |   |   |   |   |   |   Mean_Acc1000_Std_Mem40_MFCC0_Power_powerFFT_WinHamming_HopSize512_WinSize512_AudioCh0 <= 4.003688: 1 (9.0)
|   |   |   |   |   |   |   |   |   Mean_Acc1000_Std_Mem40_MFCC0_Power_powerFFT_WinHamming_HopSize512_WinSize512_AudioCh0 > 4.003688: 0 (5.0/1.0)
|   |   |   |   |   |   |   Std_Acc1000_Std_Mem40_MFCC2_Power_powerFFT_WinHamming_HopSize512_WinSize512_AudioCh0 > 0.467202: 1 (6.0)
|   |   |   |   |   |   Std_Acc1000_Std_Mem40_Flux_Power_powerFFT_WinHamming_HopSize512_WinSize512_AudioCh0 > 0.031703
|   |   |   |   |   |   |   Std_Acc1000_Mean_Mem40_MFCC6_Power_powerFFT_WinHamming_HopSize512_WinSize512_AudioCh0 <= 0.191844
|   |   |   |   |   |   |   |   Mean_Acc1000_Mean_Mem40_MFCC3_Power_powerFFT_WinHamming_HopSize512_WinSize512_AudioCh0 <= 1.607814: 1 (5.0)
|   |   |   |   |   |   |   |   Mean_Acc1000_Mean_Mem40_MFCC3_Power_powerFFT_WinHamming_HopSize512_WinSize512_AudioCh0 > 1.607814: 0 (2.0)
|   |   |   |   |   |   |   Std_Acc1000_Mean_Mem40_MFCC6_Power_powerFFT_WinHamming_HopSize512_WinSize512_AudioCh0 > 0.191844
|   |   |   |   |   |   |   |   Mean_Acc1000_Mean_Mem40_MFCC3_Power_powerFFT_WinHamming_HopSize512_WinSize512_AudioCh0 <= 2.440149: 0 (124.0/2.0)
|   |   |   |   |   |   |   |   Mean_Acc1000_Mean_Mem40_MFCC3_Power_powerFFT_WinHamming_HopSize512_WinSize512_AudioCh0 > 2.440149
|   |   |   |   |   |   |   |   |   Mean_Acc1000_Mean_Mem40_Flux_Power_powerFFT_WinHamming_HopSize512_WinSize512_AudioCh0 <= 0.084228: 0 (5.0)
|   |   |   |   |   |   |   |   |   Mean_Acc1000_Mean_Mem40_Flux_Power_powerFFT_WinHamming_HopSize512_WinSize512_AudioCh0 > 0.084228: 1 (4.0)
|   |   |   |   |   Mean_Acc1000_Mean_Mem40_MFCC12_Power_powerFFT_WinHamming_HopSize512_WinSize512_AudioCh0 > 0.543937
|   |   |   |   |   |   Std_Acc1000_Mean_Mem40_Rolloff_Power_powerFFT_WinHamming_HopSize512_WinSize512_AudioCh0 <= 0.039026
|   |   |   |   |   |   |   Mean_Acc1000_Std_Mem40_MFCC4_Power_powerFFT_WinHamming_HopSize512_WinSize512_AudioCh0 <= 0.679274: 1 (24.0/1.0)
|   |   |   |   |   |   |   Mean_Acc1000_Std_Mem40_MFCC4_Power_powerFFT_WinHamming_HopSize512_WinSize512_AudioCh0 > 0.679274: 0 (2.0)
|   |   |   |   |   |   Std_Acc1000_Mean_Mem40_Rolloff_Power_powerFFT_WinHamming_HopSize512_WinSize512_AudioCh0 > 0.039026
|   |   |   |   |   |   |   Std_Acc1000_Mean_Mem40_MFCC7_Power_powerFFT_WinHamming_HopSize512_WinSize512_AudioCh0 <= 0.34737
|   |   |   |   |   |   |   |   Mean_Acc1000_Std_Mem40_MFCC11_Power_powerFFT_WinHamming_HopSize512_WinSize512_AudioCh0 <= 0.41695: 1 (6.0)
|   |   |   |   |   |   |   |   Mean_Acc1000_Std_Mem40_MFCC11_Power_powerFFT_WinHamming_HopSize512_WinSize512_AudioCh0 > 0.41695
|   |   |   |   |   |   |   |   |   Std_Acc1000_Mean_Mem40_MFCC5_Power_powerFFT_WinHamming_HopSize512_WinSize512_AudioCh0 <= 0.24696: 1 (3.0/1.0)
|   |   |   |   |   |   |   |   |   Std_Acc1000_Mean_Mem40_MFCC5_Power_powerFFT_WinHamming_HopSize512_WinSize512_AudioCh0 > 0.24696: 0 (43.0)
|   |   |   |   |   |   |   Std_Acc1000_Mean_Mem40_MFCC7_Power_powerFFT_WinHamming_HopSize512_WinSize512_AudioCh0 > 0.34737: 1 (8.0)
|   |   |   |   Std_Acc1000_Mean_Mem40_MFCC6_Power_powerFFT_WinHamming_HopSize512_WinSize512_AudioCh0 > 0.533672
|   |   |   |   |   Mean_Acc1000_Std_Mem40_MFCC1_Power_powerFFT_WinHamming_HopSize512_WinSize512_AudioCh0 <= 1.012425: 0 (4.0)
|   |   |   |   |   Mean_Acc1000_Std_Mem40_MFCC1_Power_powerFFT_WinHamming_HopSize512_WinSize512_AudioCh0 > 1.012425: 1 (15.0/1.0)
|   |   |   Mean_Acc1000_Mean_Mem40_MFCC7_Power_powerFFT_WinHamming_HopSize512_WinSize512_AudioCh0 > 0.945611
|   |   |   |   Mean_Acc1000_Std_Mem40_MFCC12_Power_powerFFT_WinHamming_HopSize512_WinSize512_AudioCh0 <= 0.482316: 1 (14.0)
|   |   |   |   Mean_Acc1000_Std_Mem40_MFCC12_Power_powerFFT_WinHamming_HopSize512_WinSize512_AudioCh0 > 0.482316: 0 (6.0/1.0)
Std_Acc1000_Std_Mem40_MFCC9_Power_powerFFT_WinHamming_HopSize512_WinSize512_AudioCh0 > 0.194421
|   Mean_Acc1000_Mean_Mem40_MFCC3_Power_powerFFT_WinHamming_HopSize512_WinSize512_AudioCh0 <= 1.568242: 0 (4.0)
|   Mean_Acc1000_Mean_Mem40_MFCC3_Power_powerFFT_WinHamming_HopSize512_WinSize512_AudioCh0 > 1.568242: 1 (19.0)

Number of Leaves  : 	28

Size of the tree : 	55


Prepare_CC.Base_CC: Node #23

J48 pruned tree
------------------

Emotion-Touching-Loving = 0
|   Usage-Romancing = 0
|   |   NOT-Song-Recorded = 0: 0 (366.0/5.0)
|   |   NOT-Song-Recorded = 1
|   |   |   NOT-Emotion-Arousing-Awakening = 0: 0 (4.0)
|   |   |   NOT-Emotion-Arousing-Awakening = 1: 1 (3.0)
|   Usage-Romancing = 1
|   |   Genre--_Classic_Rock = 0: 1 (4.0)
|   |   Genre--_Classic_Rock = 1: 0 (4.0)
Emotion-Touching-Loving = 1
|   Std_Acc1000_Std_Mem40_MFCC3_Power_powerFFT_WinHamming_HopSize512_WinSize512_AudioCh0 <= 0.294362: 1 (58.0/1.0)
|   Std_Acc1000_Std_Mem40_MFCC3_Power_powerFFT_WinHamming_HopSize512_WinSize512_AudioCh0 > 0.294362
|   |   Emotion-Calming-Soothing = 0: 1 (2.0)
|   |   Emotion-Calming-Soothing = 1: 0 (11.0)

Number of Leaves  : 	8

Size of the tree : 	15


Prepare_CC.Base_CC: Node #24

J48 pruned tree
------------------

NOT-Emotion-Touching-Loving = 0
|   Genre--_Punk = 0
|   |   Usage-Exercising = 0
|   |   |   Instrument_-_Trumpet-Solo = 0
|   |   |   |   Instrument_-_Electric_Guitar_(distorted)-Solo = 0
|   |   |   |   |   Instrument_-_Piano-Solo = 0
|   |   |   |   |   |   NOT-Emotion-Carefree-Lighthearted = 0: 0 (189.0/5.0)
|   |   |   |   |   |   NOT-Emotion-Carefree-Lighthearted = 1
|   |   |   |   |   |   |   Genre-World = 0
|   |   |   |   |   |   |   |   Mean_Acc1000_Mean_Mem40_MFCC12_Power_powerFFT_WinHamming_HopSize512_WinSize512_AudioCh0 <= -0.123847: 1 (3.0)
|   |   |   |   |   |   |   |   Mean_Acc1000_Mean_Mem40_MFCC12_Power_powerFFT_WinHamming_HopSize512_WinSize512_AudioCh0 > -0.123847: 0 (16.0/1.0)
|   |   |   |   |   |   |   Genre-World = 1: 1 (2.0)
|   |   |   |   |   Instrument_-_Piano-Solo = 1
|   |   |   |   |   |   Emotion-Calming-Soothing = 0: 1 (2.0)
|   |   |   |   |   |   Emotion-Calming-Soothing = 1: 0 (2.0)
|   |   |   |   Instrument_-_Electric_Guitar_(distorted)-Solo = 1
|   |   |   |   |   NOT-Emotion-Light-Playful = 0
|   |   |   |   |   |   Vocals-Emotional = 0: 1 (6.0)
|   |   |   |   |   |   Vocals-Emotional = 1: 0 (2.0)
|   |   |   |   |   NOT-Emotion-Light-Playful = 1: 0 (8.0)
|   |   |   Instrument_-_Trumpet-Solo = 1
|   |   |   |   Emotion-Carefree-Lighthearted = 0: 1 (4.0)
|   |   |   |   Emotion-Carefree-Lighthearted = 1: 0 (4.0)
|   |   Usage-Exercising = 1: 1 (3.0/1.0)
|   Genre--_Punk = 1: 1 (4.0/1.0)
NOT-Emotion-Touching-Loving = 1
|   Vocals-Breathy = 0
|   |   Instrument_-_Saxophone = 0
|   |   |   Instrument_-_Piano-Solo = 0
|   |   |   |   Usage-Getting_ready_to_go_out = 0
|   |   |   |   |   Mean_Acc1000_Std_Mem40_Flux_Power_powerFFT_WinHamming_HopSize512_WinSize512_AudioCh0 <= 0.036655
|   |   |   |   |   |   Mean_Acc1000_Std_Mem40_MFCC1_Power_powerFFT_WinHamming_HopSize512_WinSize512_AudioCh0 <= 0.93926: 1 (6.0)
|   |   |   |   |   |   Mean_Acc1000_Std_Mem40_MFCC1_Power_powerFFT_WinHamming_HopSize512_WinSize512_AudioCh0 > 0.93926: 0 (6.0)
|   |   |   |   |   Mean_Acc1000_Std_Mem40_Flux_Power_powerFFT_WinHamming_HopSize512_WinSize512_AudioCh0 > 0.036655: 1 (166.0/2.0)
|   |   |   |   Usage-Getting_ready_to_go_out = 1
|   |   |   |   |   Mean_Acc1000_Mean_Mem40_MFCC5_Power_powerFFT_WinHamming_HopSize512_WinSize512_AudioCh0 <= 0.960651: 1 (3.0)
|   |   |   |   |   Mean_Acc1000_Mean_Mem40_MFCC5_Power_powerFFT_WinHamming_HopSize512_WinSize512_AudioCh0 > 0.960651: 0 (3.0)
|   |   |   Instrument_-_Piano-Solo = 1
|   |   |   |   NOT-Emotion-Arousing-Awakening = 0: 1 (4.0)
|   |   |   |   NOT-Emotion-Arousing-Awakening = 1: 0 (4.0)
|   |   Instrument_-_Saxophone = 1: 0 (8.0/1.0)
|   Vocals-Breathy = 1: 0 (7.0)

Number of Leaves  : 	22

Size of the tree : 	43


Prepare_CC.Base_CC: Node #25

J48 pruned tree
------------------

Std_Acc1000_Mean_Mem40_MFCC7_Power_powerFFT_WinHamming_HopSize512_WinSize512_AudioCh0 <= 0.216026
|   NOT-Emotion-Light-Playful = 0
|   |   Std_Acc1000_Mean_Mem40_MFCC2_Power_powerFFT_WinHamming_HopSize512_WinSize512_AudioCh0 <= 0.735581
|   |   |   Mean_Acc1000_Mean_Mem40_MFCC5_Power_powerFFT_WinHamming_HopSize512_WinSize512_AudioCh0 <= 1.162641
|   |   |   |   Std_Acc1000_Std_Mem40_ZeroCrossings_HopSize512_WinSize512_AudioCh0 <= 0.021699: 0 (41.0)
|   |   |   |   Std_Acc1000_Std_Mem40_ZeroCrossings_HopSize512_WinSize512_AudioCh0 > 0.021699
|   |   |   |   |   Mean_Acc1000_Mean_Mem40_MFCC4_Power_powerFFT_WinHamming_HopSize512_WinSize512_AudioCh0 <= 0.426786: 0 (6.0)
|   |   |   |   |   Mean_Acc1000_Mean_Mem40_MFCC4_Power_powerFFT_WinHamming_HopSize512_WinSize512_AudioCh0 > 0.426786: 1 (2.0)
|   |   |   Mean_Acc1000_Mean_Mem40_MFCC5_Power_powerFFT_WinHamming_HopSize512_WinSize512_AudioCh0 > 1.162641
|   |   |   |   Mean_Acc1000_Mean_Mem40_MFCC0_Power_powerFFT_WinHamming_HopSize512_WinSize512_AudioCh0 <= -71.794006: 0 (2.0)
|   |   |   |   Mean_Acc1000_Mean_Mem40_MFCC0_Power_powerFFT_WinHamming_HopSize512_WinSize512_AudioCh0 > -71.794006: 1 (5.0)
|   |   Std_Acc1000_Mean_Mem40_MFCC2_Power_powerFFT_WinHamming_HopSize512_WinSize512_AudioCh0 > 0.735581: 1 (3.0)
|   NOT-Emotion-Light-Playful = 1: 0 (29.0)
Std_Acc1000_Mean_Mem40_MFCC7_Power_powerFFT_WinHamming_HopSize512_WinSize512_AudioCh0 > 0.216026
|   Mean_Acc1000_Std_Mem40_MFCC4_Power_powerFFT_WinHamming_HopSize512_WinSize512_AudioCh0 <= 0.491182
|   |   Std_Acc1000_Mean_Mem40_MFCC9_Power_powerFFT_WinHamming_HopSize512_WinSize512_AudioCh0 <= 0.186151: 0 (2.0)
|   |   Std_Acc1000_Mean_Mem40_MFCC9_Power_powerFFT_WinHamming_HopSize512_WinSize512_AudioCh0 > 0.186151: 1 (28.0)
|   Mean_Acc1000_Std_Mem40_MFCC4_Power_powerFFT_WinHamming_HopSize512_WinSize512_AudioCh0 > 0.491182
|   |   Genre--_Swing = 0
|   |   |   Std_Acc1000_Std_Mem40_MFCC10_Power_powerFFT_WinHamming_HopSize512_WinSize512_AudioCh0 <= 0.077482
|   |   |   |   Mean_Acc1000_Mean_Mem40_MFCC5_Power_powerFFT_WinHamming_HopSize512_WinSize512_AudioCh0 <= 1.331538
|   |   |   |   |   Std_Acc1000_Mean_Mem40_Centroid_Power_powerFFT_WinHamming_HopSize512_WinSize512_AudioCh0 <= 0.027048: 0 (51.0)
|   |   |   |   |   Std_Acc1000_Mean_Mem40_Centroid_Power_powerFFT_WinHamming_HopSize512_WinSize512_AudioCh0 > 0.027048: 1 (4.0/1.0)
|   |   |   |   Mean_Acc1000_Mean_Mem40_MFCC5_Power_powerFFT_WinHamming_HopSize512_WinSize512_AudioCh0 > 1.331538: 1 (3.0)
|   |   |   Std_Acc1000_Std_Mem40_MFCC10_Power_powerFFT_WinHamming_HopSize512_WinSize512_AudioCh0 > 0.077482
|   |   |   |   Std_Acc1000_Std_Mem40_MFCC0_Power_powerFFT_WinHamming_HopSize512_WinSize512_AudioCh0 <= 1.764541
|   |   |   |   |   Mean_Acc1000_Mean_Mem40_MFCC2_Power_powerFFT_WinHamming_HopSize512_WinSize512_AudioCh0 <= 2.251312: 0 (23.0)
|   |   |   |   |   Mean_Acc1000_Mean_Mem40_MFCC2_Power_powerFFT_WinHamming_HopSize512_WinSize512_AudioCh0 > 2.251312: 1 (2.0)
|   |   |   |   Std_Acc1000_Std_Mem40_MFCC0_Power_powerFFT_WinHamming_HopSize512_WinSize512_AudioCh0 > 1.764541
|   |   |   |   |   Std_Acc1000_Mean_Mem40_MFCC9_Power_powerFFT_WinHamming_HopSize512_WinSize512_AudioCh0 <= 0.179754: 0 (16.0/1.0)
|   |   |   |   |   Std_Acc1000_Mean_Mem40_MFCC9_Power_powerFFT_WinHamming_HopSize512_WinSize512_AudioCh0 > 0.179754
|   |   |   |   |   |   Emotion-Carefree-Lighthearted = 0
|   |   |   |   |   |   |   Std_Acc1000_Std_Mem40_MFCC10_Power_powerFFT_WinHamming_HopSize512_WinSize512_AudioCh0 <= 0.078426: 1 (13.0)
|   |   |   |   |   |   |   Std_Acc1000_Std_Mem40_MFCC10_Power_powerFFT_WinHamming_HopSize512_WinSize512_AudioCh0 > 0.078426
|   |   |   |   |   |   |   |   Std_Acc1000_Std_Mem40_MFCC10_Power_powerFFT_WinHamming_HopSize512_WinSize512_AudioCh0 <= 0.084825: 0 (19.0)
|   |   |   |   |   |   |   |   Std_Acc1000_Std_Mem40_MFCC10_Power_powerFFT_WinHamming_HopSize512_WinSize512_AudioCh0 > 0.084825
|   |   |   |   |   |   |   |   |   Mean_Acc1000_Mean_Mem40_MFCC3_Power_powerFFT_WinHamming_HopSize512_WinSize512_AudioCh0 <= 1.11553: 0 (14.0)
|   |   |   |   |   |   |   |   |   Mean_Acc1000_Mean_Mem40_MFCC3_Power_powerFFT_WinHamming_HopSize512_WinSize512_AudioCh0 > 1.11553
|   |   |   |   |   |   |   |   |   |   Std_Acc1000_Std_Mem40_MFCC5_Power_powerFFT_WinHamming_HopSize512_WinSize512_AudioCh0 <= 0.110776
|   |   |   |   |   |   |   |   |   |   |   Mean_Acc1000_Mean_Mem40_MFCC5_Power_powerFFT_WinHamming_HopSize512_WinSize512_AudioCh0 <= 1.102574: 0 (24.0)
|   |   |   |   |   |   |   |   |   |   |   Mean_Acc1000_Mean_Mem40_MFCC5_Power_powerFFT_WinHamming_HopSize512_WinSize512_AudioCh0 > 1.102574: 1 (3.0)
|   |   |   |   |   |   |   |   |   |   Std_Acc1000_Std_Mem40_MFCC5_Power_powerFFT_WinHamming_HopSize512_WinSize512_AudioCh0 > 0.110776
|   |   |   |   |   |   |   |   |   |   |   Std_Acc1000_Mean_Mem40_MFCC11_Power_powerFFT_WinHamming_HopSize512_WinSize512_AudioCh0 <= 0.547946
|   |   |   |   |   |   |   |   |   |   |   |   Mean_Acc1000_Std_Mem40_MFCC6_Power_powerFFT_WinHamming_HopSize512_WinSize512_AudioCh0 <= 0.64871
|   |   |   |   |   |   |   |   |   |   |   |   |   NOT-Emotion-Light-Playful = 0: 1 (42.0/1.0)
|   |   |   |   |   |   |   |   |   |   |   |   |   NOT-Emotion-Light-Playful = 1
|   |   |   |   |   |   |   |   |   |   |   |   |   |   Mean_Acc1000_Std_Mem40_MFCC2_Power_powerFFT_WinHamming_HopSize512_WinSize512_AudioCh0 <= 1.041207
|   |   |   |   |   |   |   |   |   |   |   |   |   |   |   Mean_Acc1000_Std_Mem40_Flux_Power_powerFFT_WinHamming_HopSize512_WinSize512_AudioCh0 <= 0.041499
|   |   |   |   |   |   |   |   |   |   |   |   |   |   |   |   Std_Acc1000_Mean_Mem40_MFCC6_Power_powerFFT_WinHamming_HopSize512_WinSize512_AudioCh0 <= 0.304606: 1 (4.0)
|   |   |   |   |   |   |   |   |   |   |   |   |   |   |   |   Std_Acc1000_Mean_Mem40_MFCC6_Power_powerFFT_WinHamming_HopSize512_WinSize512_AudioCh0 > 0.304606
|   |   |   |   |   |   |   |   |   |   |   |   |   |   |   |   |   Mean_Acc1000_Mean_Mem40_ZeroCrossings_HopSize512_WinSize512_AudioCh0 <= 0.103365: 0 (6.0)
|   |   |   |   |   |   |   |   |   |   |   |   |   |   |   |   |   Mean_Acc1000_Mean_Mem40_ZeroCrossings_HopSize512_WinSize512_AudioCh0 > 0.103365: 1 (2.0)
|   |   |   |   |   |   |   |   |   |   |   |   |   |   |   Mean_Acc1000_Std_Mem40_Flux_Power_powerFFT_WinHamming_HopSize512_WinSize512_AudioCh0 > 0.041499: 1 (20.0)
|   |   |   |   |   |   |   |   |   |   |   |   |   |   Mean_Acc1000_Std_Mem40_MFCC2_Power_powerFFT_WinHamming_HopSize512_WinSize512_AudioCh0 > 1.041207: 0 (3.0)
|   |   |   |   |   |   |   |   |   |   |   |   Mean_Acc1000_Std_Mem40_MFCC6_Power_powerFFT_WinHamming_HopSize512_WinSize512_AudioCh0 > 0.64871
|   |   |   |   |   |   |   |   |   |   |   |   |   Std_Acc1000_Std_Mem40_MFCC7_Power_powerFFT_WinHamming_HopSize512_WinSize512_AudioCh0 <= 0.169689: 0 (10.0)
|   |   |   |   |   |   |   |   |   |   |   |   |   Std_Acc1000_Std_Mem40_MFCC7_Power_powerFFT_WinHamming_HopSize512_WinSize512_AudioCh0 > 0.169689: 1 (5.0)
|   |   |   |   |   |   |   |   |   |   |   Std_Acc1000_Mean_Mem40_MFCC11_Power_powerFFT_WinHamming_HopSize512_WinSize512_AudioCh0 > 0.547946: 0 (6.0)
|   |   |   |   |   |   Emotion-Carefree-Lighthearted = 1
|   |   |   |   |   |   |   Std_Acc1000_Mean_Mem40_Flux_Power_powerFFT_WinHamming_HopSize512_WinSize512_AudioCh0 <= 0.009526: 0 (7.0)
|   |   |   |   |   |   |   Std_Acc1000_Mean_Mem40_Flux_Power_powerFFT_WinHamming_HopSize512_WinSize512_AudioCh0 > 0.009526
|   |   |   |   |   |   |   |   Std_Acc1000_Std_Mem40_MFCC7_Power_powerFFT_WinHamming_HopSize512_WinSize512_AudioCh0 <= 0.142564: 1 (49.0/2.0)
|   |   |   |   |   |   |   |   Std_Acc1000_Std_Mem40_MFCC7_Power_powerFFT_WinHamming_HopSize512_WinSize512_AudioCh0 > 0.142564: 0 (4.0/1.0)
|   |   Genre--_Swing = 1: 1 (4.0)

Number of Leaves  : 	33

Size of the tree : 	65


Prepare_CC.Base_CC: Node #26

J48 pruned tree
------------------

Vocals-Screaming = 0
|   Std_Acc1000_Mean_Mem40_MFCC1_Power_powerFFT_WinHamming_HopSize512_WinSize512_AudioCh0 <= 1.614336
|   |   Vocals-Aggressive = 0
|   |   |   Std_Acc1000_Std_Mem40_MFCC4_Power_powerFFT_WinHamming_HopSize512_WinSize512_AudioCh0 <= 0.089905
|   |   |   |   NOT-Emotion-Laid-back-Mellow = 0: 0 (11.0)
|   |   |   |   NOT-Emotion-Laid-back-Mellow = 1
|   |   |   |   |   Emotion-Carefree-Lighthearted = 0: 1 (8.0)
|   |   |   |   |   Emotion-Carefree-Lighthearted = 1: 0 (2.0)
|   |   |   Std_Acc1000_Std_Mem40_MFCC4_Power_powerFFT_WinHamming_HopSize512_WinSize512_AudioCh0 > 0.089905
|   |   |   |   Instrument_-_Hand_Drums = 0
|   |   |   |   |   Song-Heavy_Beat = 0: 0 (281.0)
|   |   |   |   |   Song-Heavy_Beat = 1
|   |   |   |   |   |   Std_Acc1000_Std_Mem40_MFCC0_Power_powerFFT_WinHamming_HopSize512_WinSize512_AudioCh0 <= 1.803514
|   |   |   |   |   |   |   NOT-Emotion-Light-Playful = 0: 0 (7.0)
|   |   |   |   |   |   |   NOT-Emotion-Light-Playful = 1
|   |   |   |   |   |   |   |   Emotion-Pleasant-Comfortable = 0: 1 (8.0)
|   |   |   |   |   |   |   |   Emotion-Pleasant-Comfortable = 1: 0 (2.0)
|   |   |   |   |   |   Std_Acc1000_Std_Mem40_MFCC0_Power_powerFFT_WinHamming_HopSize512_WinSize512_AudioCh0 > 1.803514
|   |   |   |   |   |   |   Std_Acc1000_Mean_Mem40_MFCC6_Power_powerFFT_WinHamming_HopSize512_WinSize512_AudioCh0 <= 0.195474
|   |   |   |   |   |   |   |   Emotion-Exciting-Thrilling = 0: 0 (2.0)
|   |   |   |   |   |   |   |   Emotion-Exciting-Thrilling = 1: 1 (2.0)
|   |   |   |   |   |   |   Std_Acc1000_Mean_Mem40_MFCC6_Power_powerFFT_WinHamming_HopSize512_WinSize512_AudioCh0 > 0.195474: 0 (69.0)
|   |   |   |   Instrument_-_Hand_Drums = 1
|   |   |   |   |   NOT-Emotion-Arousing-Awakening = 0: 0 (6.0)
|   |   |   |   |   NOT-Emotion-Arousing-Awakening = 1: 1 (2.0)
|   |   Vocals-Aggressive = 1
|   |   |   Std_Acc1000_Mean_Mem40_Rolloff_Power_powerFFT_WinHamming_HopSize512_WinSize512_AudioCh0 <= 0.041907: 1 (9.0/1.0)
|   |   |   Std_Acc1000_Mean_Mem40_Rolloff_Power_powerFFT_WinHamming_HopSize512_WinSize512_AudioCh0 > 0.041907: 0 (11.0)
|   Std_Acc1000_Mean_Mem40_MFCC1_Power_powerFFT_WinHamming_HopSize512_WinSize512_AudioCh0 > 1.614336
|   |   Std_Acc1000_Std_Mem40_MFCC11_Power_powerFFT_WinHamming_HopSize512_WinSize512_AudioCh0 <= 0.089962: 1 (12.0)
|   |   Std_Acc1000_Std_Mem40_MFCC11_Power_powerFFT_WinHamming_HopSize512_WinSize512_AudioCh0 > 0.089962: 0 (11.0)
Vocals-Screaming = 1
|   Genre--_Classic_Rock = 0: 1 (7.0)
|   Genre--_Classic_Rock = 1: 0 (2.0)

Number of Leaves  : 	18

Size of the tree : 	35


Prepare_CC.Base_CC: Node #27

J48 pruned tree
------------------

Emotion-Cheerful-Festive = 0
|   Genre--_Soul = 0
|   |   Vocals-Vocal_Harmonies = 0
|   |   |   Genre-World = 0: 0 (260.0/9.0)
|   |   |   Genre-World = 1
|   |   |   |   Mean_Acc1000_Std_Mem40_MFCC1_Power_powerFFT_WinHamming_HopSize512_WinSize512_AudioCh0 <= 1.261577: 0 (15.0)
|   |   |   |   Mean_Acc1000_Std_Mem40_MFCC1_Power_powerFFT_WinHamming_HopSize512_WinSize512_AudioCh0 > 1.261577: 1 (4.0)
|   |   Vocals-Vocal_Harmonies = 1
|   |   |   NOT-Song-Tonality = 0
|   |   |   |   Instrument_-_Synthesizer = 0: 0 (28.0/3.0)
|   |   |   |   Instrument_-_Synthesizer = 1: 1 (2.0)
|   |   |   NOT-Song-Tonality = 1: 1 (4.0)
|   Genre--_Soul = 1
|   |   Mean_Acc1000_Std_Mem40_MFCC5_Power_powerFFT_WinHamming_HopSize512_WinSize512_AudioCh0 <= 0.553668: 0 (5.0)
|   |   Mean_Acc1000_Std_Mem40_MFCC5_Power_powerFFT_WinHamming_HopSize512_WinSize512_AudioCh0 > 0.553668: 1 (6.0)
Emotion-Cheerful-Festive = 1
|   Genre-Best-Electronica = 0
|   |   NOT-Song-High_Energy = 0
|   |   |   Vocals-Aggressive = 0
|   |   |   |   Genre-World = 0
|   |   |   |   |   NOT-Song-Recommend = 0
|   |   |   |   |   |   Vocals-Altered_with_Effects = 0
|   |   |   |   |   |   |   NOT-Emotion-Sad = 0
|   |   |   |   |   |   |   |   Mean_Acc1000_Mean_Mem40_ZeroCrossings_HopSize512_WinSize512_AudioCh0 <= 0.122748: 1 (8.0)
|   |   |   |   |   |   |   |   Mean_Acc1000_Mean_Mem40_ZeroCrossings_HopSize512_WinSize512_AudioCh0 > 0.122748: 0 (5.0)
|   |   |   |   |   |   |   NOT-Emotion-Sad = 1
|   |   |   |   |   |   |   |   Mean_Acc1000_Std_Mem40_MFCC2_Power_powerFFT_WinHamming_HopSize512_WinSize512_AudioCh0 <= 1.094787
|   |   |   |   |   |   |   |   |   Std_Acc1000_Std_Mem40_MFCC2_Power_powerFFT_WinHamming_HopSize512_WinSize512_AudioCh0 <= 0.141758
|   |   |   |   |   |   |   |   |   |   Genre-Rock = 0: 1 (10.0/1.0)
|   |   |   |   |   |   |   |   |   |   Genre-Rock = 1: 0 (2.0)
|   |   |   |   |   |   |   |   |   Std_Acc1000_Std_Mem40_MFCC2_Power_powerFFT_WinHamming_HopSize512_WinSize512_AudioCh0 > 0.141758: 1 (70.0)
|   |   |   |   |   |   |   |   Mean_Acc1000_Std_Mem40_MFCC2_Power_powerFFT_WinHamming_HopSize512_WinSize512_AudioCh0 > 1.094787
|   |   |   |   |   |   |   |   |   Instrument_-_Male_Lead_Vocals = 0: 1 (2.0)
|   |   |   |   |   |   |   |   |   Instrument_-_Male_Lead_Vocals = 1: 0 (4.0)
|   |   |   |   |   |   Vocals-Altered_with_Effects = 1: 0 (6.0/1.0)
|   |   |   |   |   NOT-Song-Recommend = 1
|   |   |   |   |   |   Std_Acc1000_Mean_Mem40_MFCC6_Power_powerFFT_WinHamming_HopSize512_WinSize512_AudioCh0 <= 0.290117: 0 (4.0)
|   |   |   |   |   |   Std_Acc1000_Mean_Mem40_MFCC6_Power_powerFFT_WinHamming_HopSize512_WinSize512_AudioCh0 > 0.290117: 1 (2.0)
|   |   |   |   Genre-World = 1: 0 (5.0/1.0)
|   |   |   Vocals-Aggressive = 1: 0 (2.0)
|   |   NOT-Song-High_Energy = 1: 0 (2.0)
|   Genre-Best-Electronica = 1: 0 (6.0)

Number of Leaves  : 	22

Size of the tree : 	43


Prepare_CC.Base_CC: Node #28

J48 pruned tree
------------------

Vocals-Monotone = 0
|   Vocals-Screaming = 0
|   |   Emotion-Sad = 0
|   |   |   Instrument_-_Ambient_Sounds = 0
|   |   |   |   NOT-Emotion-Pleasant-Comfortable = 0
|   |   |   |   |   NOT-Emotion-Carefree-Lighthearted = 0: 0 (293.0/3.0)
|   |   |   |   |   NOT-Emotion-Carefree-Lighthearted = 1
|   |   |   |   |   |   Genre-Pop = 0
|   |   |   |   |   |   |   Usage-Hanging_with_friends = 0
|   |   |   |   |   |   |   |   Mean_Acc1000_Mean_Mem40_MFCC10_Power_powerFFT_WinHamming_HopSize512_WinSize512_AudioCh0 <= 0.022937: 1 (3.0)
|   |   |   |   |   |   |   |   Mean_Acc1000_Mean_Mem40_MFCC10_Power_powerFFT_WinHamming_HopSize512_WinSize512_AudioCh0 > 0.022937
|   |   |   |   |   |   |   |   |   Std_Acc1000_Mean_Mem40_MFCC6_Power_powerFFT_WinHamming_HopSize512_WinSize512_AudioCh0 <= 0.196641: 1 (3.0/1.0)
|   |   |   |   |   |   |   |   |   Std_Acc1000_Mean_Mem40_MFCC6_Power_powerFFT_WinHamming_HopSize512_WinSize512_AudioCh0 > 0.196641: 0 (42.0/1.0)
|   |   |   |   |   |   |   Usage-Hanging_with_friends = 1: 1 (2.0)
|   |   |   |   |   |   Genre-Pop = 1: 1 (4.0)
|   |   |   |   NOT-Emotion-Pleasant-Comfortable = 1
|   |   |   |   |   Mean_Acc1000_Mean_Mem40_MFCC9_Power_powerFFT_WinHamming_HopSize512_WinSize512_AudioCh0 <= 0.601044: 1 (13.0/1.0)
|   |   |   |   |   Mean_Acc1000_Mean_Mem40_MFCC9_Power_powerFFT_WinHamming_HopSize512_WinSize512_AudioCh0 > 0.601044: 0 (17.0)
|   |   |   Instrument_-_Ambient_Sounds = 1
|   |   |   |   NOT-Emotion-Carefree-Lighthearted = 0: 0 (5.0)
|   |   |   |   NOT-Emotion-Carefree-Lighthearted = 1
|   |   |   |   |   Mean_Acc1000_Std_Mem40_MFCC7_Power_powerFFT_WinHamming_HopSize512_WinSize512_AudioCh0 <= 0.594261: 1 (15.0)
|   |   |   |   |   Mean_Acc1000_Std_Mem40_MFCC7_Power_powerFFT_WinHamming_HopSize512_WinSize512_AudioCh0 > 0.594261: 0 (2.0)
|   |   Emotion-Sad = 1
|   |   |   Genre-Best--_Classic_Rock = 0
|   |   |   |   Instrument_-_Male_Lead_Vocals-Solo = 0
|   |   |   |   |   Vocals-Breathy = 0
|   |   |   |   |   |   Song-Texture_Electric = 0
|   |   |   |   |   |   |   NOT-Emotion-Cheerful-Festive = 0: 0 (3.0)
|   |   |   |   |   |   |   NOT-Emotion-Cheerful-Festive = 1
|   |   |   |   |   |   |   |   Std_Acc1000_Std_Mem40_MFCC1_Power_powerFFT_WinHamming_HopSize512_WinSize512_AudioCh0 <= 0.45931: 1 (6.0)
|   |   |   |   |   |   |   |   Std_Acc1000_Std_Mem40_MFCC1_Power_powerFFT_WinHamming_HopSize512_WinSize512_AudioCh0 > 0.45931: 0 (3.0)
|   |   |   |   |   |   Song-Texture_Electric = 1: 1 (18.0/1.0)
|   |   |   |   |   Vocals-Breathy = 1: 0 (2.0)
|   |   |   |   Instrument_-_Male_Lead_Vocals-Solo = 1: 0 (3.0)
|   |   |   Genre-Best--_Classic_Rock = 1: 0 (4.0)
|   Vocals-Screaming = 1: 1 (8.0/1.0)
Vocals-Monotone = 1: 1 (6.0)

Number of Leaves  : 	20

Size of the tree : 	39


Prepare_CC.Base_CC: Node #29

J48 pruned tree
------------------

Vocals-Aggressive = 0
|   Instrument_-_Trumpet-Solo = 0
|   |   Vocals-Strong = 0
|   |   |   Usage-At_work = 0
|   |   |   |   Emotion-Exciting-Thrilling = 0
|   |   |   |   |   Genre--_Punk = 0
|   |   |   |   |   |   Genre-Best-Rock = 0
|   |   |   |   |   |   |   Genre-Jazz = 0
|   |   |   |   |   |   |   |   Usage-Getting_ready_to_go_out = 0
|   |   |   |   |   |   |   |   |   Mean_Acc1000_Std_Mem40_MFCC3_Power_powerFFT_WinHamming_HopSize512_WinSize512_AudioCh0 <= 0.869463: 0 (224.0/7.0)
|   |   |   |   |   |   |   |   |   Mean_Acc1000_Std_Mem40_MFCC3_Power_powerFFT_WinHamming_HopSize512_WinSize512_AudioCh0 > 0.869463
|   |   |   |   |   |   |   |   |   |   Std_Acc1000_Std_Mem40_ZeroCrossings_HopSize512_WinSize512_AudioCh0 <= 0.016038
|   |   |   |   |   |   |   |   |   |   |   NOT-Song-Changing_Energy_Level = 0: 1 (13.0)
|   |   |   |   |   |   |   |   |   |   |   NOT-Song-Changing_Energy_Level = 1: 0 (2.0)
|   |   |   |   |   |   |   |   |   |   Std_Acc1000_Std_Mem40_ZeroCrossings_HopSize512_WinSize512_AudioCh0 > 0.016038: 0 (28.0/1.0)
|   |   |   |   |   |   |   |   Usage-Getting_ready_to_go_out = 1
|   |   |   |   |   |   |   |   |   Instrument_-_Male_Lead_Vocals-Solo = 0: 0 (4.0)
|   |   |   |   |   |   |   |   |   Instrument_-_Male_Lead_Vocals-Solo = 1: 1 (3.0)
|   |   |   |   |   |   |   Genre-Jazz = 1
|   |   |   |   |   |   |   |   Mean_Acc1000_Mean_Mem40_Centroid_Power_powerFFT_WinHamming_HopSize512_WinSize512_AudioCh0 <= 0.08177: 0 (5.0)
|   |   |   |   |   |   |   |   Mean_Acc1000_Mean_Mem40_Centroid_Power_powerFFT_WinHamming_HopSize512_WinSize512_AudioCh0 > 0.08177: 1 (6.0)
|   |   |   |   |   |   Genre-Best-Rock = 1
|   |   |   |   |   |   |   Instrument_-_Backing_vocals = 0: 0 (4.0)
|   |   |   |   |   |   |   Instrument_-_Backing_vocals = 1: 1 (6.0)
|   |   |   |   |   Genre--_Punk = 1
|   |   |   |   |   |   NOT-Emotion-Touching-Loving = 0: 0 (4.0/1.0)
|   |   |   |   |   |   NOT-Emotion-Touching-Loving = 1: 1 (8.0)
|   |   |   |   Emotion-Exciting-Thrilling = 1
|   |   |   |   |   Emotion-Light-Playful = 0
|   |   |   |   |   |   Mean_Acc1000_Std_Mem40_ZeroCrossings_HopSize512_WinSize512_AudioCh0 <= 0.068062
|   |   |   |   |   |   |   Instrument_-_Acoustic_Guitar = 0
|   |   |   |   |   |   |   |   Std_Acc1000_Mean_Mem40_MFCC4_Power_powerFFT_WinHamming_HopSize512_WinSize512_AudioCh0 <= 0.255675: 0 (3.0)
|   |   |   |   |   |   |   |   Std_Acc1000_Mean_Mem40_MFCC4_Power_powerFFT_WinHamming_HopSize512_WinSize512_AudioCh0 > 0.255675: 1 (31.0)
|   |   |   |   |   |   |   Instrument_-_Acoustic_Guitar = 1: 0 (2.0)
|   |   |   |   |   |   Mean_Acc1000_Std_Mem40_ZeroCrossings_HopSize512_WinSize512_AudioCh0 > 0.068062: 0 (6.0)
|   |   |   |   |   Emotion-Light-Playful = 1
|   |   |   |   |   |   Mean_Acc1000_Std_Mem40_MFCC2_Power_powerFFT_WinHamming_HopSize512_WinSize512_AudioCh0 <= 0.701547: 1 (2.0)
|   |   |   |   |   |   Mean_Acc1000_Std_Mem40_MFCC2_Power_powerFFT_WinHamming_HopSize512_WinSize512_AudioCh0 > 0.701547: 0 (21.0)
|   |   |   Usage-At_work = 1
|   |   |   |   Song-Texture_Electric = 0: 0 (2.0)
|   |   |   |   Song-Texture_Electric = 1: 1 (5.0)
|   |   Vocals-Strong = 1
|   |   |   Emotion-Calming-Soothing = 0
|   |   |   |   Usage-Exercising = 0
|   |   |   |   |   Mean_Acc1000_Mean_Mem40_MFCC9_Power_powerFFT_WinHamming_HopSize512_WinSize512_AudioCh0 <= 0.819339: 1 (29.0)
|   |   |   |   |   Mean_Acc1000_Mean_Mem40_MFCC9_Power_powerFFT_WinHamming_HopSize512_WinSize512_AudioCh0 > 0.819339: 0 (2.0)
|   |   |   |   Usage-Exercising = 1: 0 (2.0)
|   |   |   Emotion-Calming-Soothing = 1: 0 (5.0)
|   Instrument_-_Trumpet-Solo = 1: 1 (8.0)
Vocals-Aggressive = 1: 1 (27.0)

Number of Leaves  : 	26

Size of the tree : 	51


Prepare_CC.Base_CC: Node #30

J48 pruned tree
------------------

NOT-Emotion-Exciting-Thrilling = 0: 0 (319.0/3.0)
NOT-Emotion-Exciting-Thrilling = 1
|   Emotion-Powerful-Strong = 0
|   |   Emotion-Arousing-Awakening = 0
|   |   |   Instrument_-_Trumpet = 0
|   |   |   |   Usage-Hanging_with_friends = 0
|   |   |   |   |   Genre--_Gospel = 0
|   |   |   |   |   |   Usage-Intensely_Listening = 0
|   |   |   |   |   |   |   Instrument_-_Violin-Fiddle = 0
|   |   |   |   |   |   |   |   Instrument_-_Electric_Guitar_(clean)-Solo = 0
|   |   |   |   |   |   |   |   |   Std_Acc1000_Std_Mem40_MFCC4_Power_powerFFT_WinHamming_HopSize512_WinSize512_AudioCh0 <= 0.100485: 0 (8.0)
|   |   |   |   |   |   |   |   |   Std_Acc1000_Std_Mem40_MFCC4_Power_powerFFT_WinHamming_HopSize512_WinSize512_AudioCh0 > 0.100485
|   |   |   |   |   |   |   |   |   |   Mean_Acc1000_Mean_Mem40_MFCC12_Power_powerFFT_WinHamming_HopSize512_WinSize512_AudioCh0 <= 0.08295: 0 (10.0)
|   |   |   |   |   |   |   |   |   |   Mean_Acc1000_Mean_Mem40_MFCC12_Power_powerFFT_WinHamming_HopSize512_WinSize512_AudioCh0 > 0.08295
|   |   |   |   |   |   |   |   |   |   |   Emotion-Sad = 0
|   |   |   |   |   |   |   |   |   |   |   |   Genre--_Classic_Rock = 0: 1 (61.0/4.0)
|   |   |   |   |   |   |   |   |   |   |   |   Genre--_Classic_Rock = 1
|   |   |   |   |   |   |   |   |   |   |   |   |   NOT-Emotion-Bizarre-Weird = 0: 0 (3.0)
|   |   |   |   |   |   |   |   |   |   |   |   |   NOT-Emotion-Bizarre-Weird = 1: 1 (3.0)
|   |   |   |   |   |   |   |   |   |   |   Emotion-Sad = 1
