Hamming_loss, 0.18758620689655178
Exact_match, 0.0
Accuracy, 0.21184351840060434
Averaging, 0.34141910383468416
== Model info

Model                          
Prepare_CC.Base_CC: Node #1

J48 pruned tree
------------------

Vocals-Screaming = 0
|   Genre--_Metal-Hard_Rock = 0
|   |   NOT-Emotion-Pleasant-Comfortable = 0
|   |   |   Vocals-Rapping = 0: 0 (363.0/8.0)
|   |   |   Vocals-Rapping = 1
|   |   |   |   Mean_Acc1000_Mean_Mem40_ZeroCrossings_HopSize512_WinSize512_AudioCh0 <= 0.130188: 0 (8.0)
|   |   |   |   Mean_Acc1000_Mean_Mem40_ZeroCrossings_HopSize512_WinSize512_AudioCh0 > 0.130188: 1 (3.0)
|   |   NOT-Emotion-Pleasant-Comfortable = 1
|   |   |   Emotion-Powerful-Strong = 0
|   |   |   |   Genre--_Alternative = 0: 0 (17.0)
|   |   |   |   Genre--_Alternative = 1
|   |   |   |   |   Std_Acc1000_Mean_Mem40_MFCC3_Power_powerFFT_WinHamming_HopSize512_WinSize512_AudioCh0 <= 0.562237: 0 (6.0)
|   |   |   |   |   Std_Acc1000_Mean_Mem40_MFCC3_Power_powerFFT_WinHamming_HopSize512_WinSize512_AudioCh0 > 0.562237: 1 (2.0)
|   |   |   Emotion-Powerful-Strong = 1
|   |   |   |   Mean_Acc1000_Std_Mem40_MFCC9_Power_powerFFT_WinHamming_HopSize512_WinSize512_AudioCh0 <= 0.482771: 1 (10.0)
|   |   |   |   Mean_Acc1000_Std_Mem40_MFCC9_Power_powerFFT_WinHamming_HopSize512_WinSize512_AudioCh0 > 0.482771: 0 (8.0/1.0)
|   Genre--_Metal-Hard_Rock = 1
|   |   NOT-Song-Tonality = 0
|   |   |   Std_Acc1000_Mean_Mem40_MFCC11_Power_powerFFT_WinHamming_HopSize512_WinSize512_AudioCh0 <= 0.355709
|   |   |   |   Mean_Acc1000_Std_Mem40_MFCC11_Power_powerFFT_WinHamming_HopSize512_WinSize512_AudioCh0 <= 0.408575: 1 (2.0)
|   |   |   |   Mean_Acc1000_Std_Mem40_MFCC11_Power_powerFFT_WinHamming_HopSize512_WinSize512_AudioCh0 > 0.408575: 0 (12.0)
|   |   |   Std_Acc1000_Mean_Mem40_MFCC11_Power_powerFFT_WinHamming_HopSize512_WinSize512_AudioCh0 > 0.355709: 1 (4.0)
|   |   NOT-Song-Tonality = 1: 1 (5.0)
Vocals-Screaming = 1
|   NOT-Emotion-Loving-Romantic = 0: 0 (3.0)
|   NOT-Emotion-Loving-Romantic = 1: 1 (9.0)

Number of Leaves  : 	14

Size of the tree : 	27


Prepare_CC.Base_CC: Node #2

J48 pruned tree
------------------

Genre--_Metal-Hard_Rock = 0
|   Genre-Hip_Hop-Rap = 0
|   |   NOT-Emotion-Exciting-Thrilling = 0
|   |   |   Genre-RandB = 0
|   |   |   |   NOT-Emotion-Powerful-Strong = 0
|   |   |   |   |   Emotion-Tender-Soft = 0
|   |   |   |   |   |   Genre--_Roots_Rock = 0
|   |   |   |   |   |   |   Instrument_-_Female_Lead_Vocals-Solo = 0
|   |   |   |   |   |   |   |   NOT-Emotion-Cheerful-Festive = 0
|   |   |   |   |   |   |   |   |   Usage-Hanging_with_friends = 0
|   |   |   |   |   |   |   |   |   |   Mean_Acc1000_Mean_Mem40_MFCC2_Power_powerFFT_WinHamming_HopSize512_WinSize512_AudioCh0 <= -0.583428: 0 (10.0)
|   |   |   |   |   |   |   |   |   |   Mean_Acc1000_Mean_Mem40_MFCC2_Power_powerFFT_WinHamming_HopSize512_WinSize512_AudioCh0 > -0.583428
|   |   |   |   |   |   |   |   |   |   |   Emotion-Powerful-Strong = 0
|   |   |   |   |   |   |   |   |   |   |   |   Vocals-Falsetto = 0
|   |   |   |   |   |   |   |   |   |   |   |   |   Std_Acc1000_Std_Mem40_MFCC5_Power_powerFFT_WinHamming_HopSize512_WinSize512_AudioCh0 <= 0.070967: 0 (4.0)
|   |   |   |   |   |   |   |   |   |   |   |   |   Std_Acc1000_Std_Mem40_MFCC5_Power_powerFFT_WinHamming_HopSize512_WinSize512_AudioCh0 > 0.070967: 1 (76.0/6.0)
|   |   |   |   |   |   |   |   |   |   |   |   Vocals-Falsetto = 1: 0 (2.0)
|   |   |   |   |   |   |   |   |   |   |   Emotion-Powerful-Strong = 1
|   |   |   |   |   |   |   |   |   |   |   |   Emotion-Loving-Romantic = 0
|   |   |   |   |   |   |   |   |   |   |   |   |   Emotion-Pleasant-Comfortable = 0
|   |   |   |   |   |   |   |   |   |   |   |   |   |   Std_Acc1000_Std_Mem40_MFCC0_Power_powerFFT_WinHamming_HopSize512_WinSize512_AudioCh0 <= 2.999565
|   |   |   |   |   |   |   |   |   |   |   |   |   |   |   Std_Acc1000_Std_Mem40_Centroid_Power_powerFFT_WinHamming_HopSize512_WinSize512_AudioCh0 <= 0.025247: 0 (30.0/1.0)
|   |   |   |   |   |   |   |   |   |   |   |   |   |   |   Std_Acc1000_Std_Mem40_Centroid_Power_powerFFT_WinHamming_HopSize512_WinSize512_AudioCh0 > 0.025247: 1 (3.0)
|   |   |   |   |   |   |   |   |   |   |   |   |   |   Std_Acc1000_Std_Mem40_MFCC0_Power_powerFFT_WinHamming_HopSize512_WinSize512_AudioCh0 > 2.999565: 1 (4.0)
|   |   |   |   |   |   |   |   |   |   |   |   |   Emotion-Pleasant-Comfortable = 1
|   |   |   |   |   |   |   |   |   |   |   |   |   |   Std_Acc1000_Std_Mem40_Flux_Power_powerFFT_WinHamming_HopSize512_WinSize512_AudioCh0 <= 0.032222: 1 (12.0)
|   |   |   |   |   |   |   |   |   |   |   |   |   |   Std_Acc1000_Std_Mem40_Flux_Power_powerFFT_WinHamming_HopSize512_WinSize512_AudioCh0 > 0.032222: 0 (6.0/1.0)
|   |   |   |   |   |   |   |   |   |   |   |   Emotion-Loving-Romantic = 1: 1 (4.0)
|   |   |   |   |   |   |   |   |   Usage-Hanging_with_friends = 1: 0 (12.0/2.0)
|   |   |   |   |   |   |   |   NOT-Emotion-Cheerful-Festive = 1
|   |   |   |   |   |   |   |   |   Usage-Exercising = 0
|   |   |   |   |   |   |   |   |   |   Genre-Electronica = 0: 0 (38.0/1.0)
|   |   |   |   |   |   |   |   |   |   Genre-Electronica = 1
|   |   |   |   |   |   |   |   |   |   |   Song-Heavy_Beat = 0
|   |   |   |   |   |   |   |   |   |   |   |   Emotion-Powerful-Strong = 0: 1 (8.0/1.0)
|   |   |   |   |   |   |   |   |   |   |   |   Emotion-Powerful-Strong = 1: 0 (2.0)
|   |   |   |   |   |   |   |   |   |   |   Song-Heavy_Beat = 1: 0 (4.0)
|   |   |   |   |   |   |   |   |   Usage-Exercising = 1: 1 (2.0)
|   |   |   |   |   |   |   Instrument_-_Female_Lead_Vocals-Solo = 1: 1 (3.0)
|   |   |   |   |   |   Genre--_Roots_Rock = 1: 1 (3.0)
|   |   |   |   |   Emotion-Tender-Soft = 1: 1 (26.0/1.0)
|   |   |   |   NOT-Emotion-Powerful-Strong = 1: 1 (14.0)
|   |   |   Genre-RandB = 1: 1 (20.0)
|   |   NOT-Emotion-Exciting-Thrilling = 1
|   |   |   NOT-Emotion-Laid-back-Mellow = 0
|   |   |   |   NOT-Emotion-Positive-Optimistic = 0: 1 (92.0/2.0)
|   |   |   |   NOT-Emotion-Positive-Optimistic = 1
|   |   |   |   |   Std_Acc1000_Mean_Mem40_Flux_Power_powerFFT_WinHamming_HopSize512_WinSize512_AudioCh0 <= 0.009666: 0 (5.0/1.0)
|   |   |   |   |   Std_Acc1000_Mean_Mem40_Flux_Power_powerFFT_WinHamming_HopSize512_WinSize512_AudioCh0 > 0.009666: 1 (18.0)
|   |   |   NOT-Emotion-Laid-back-Mellow = 1
|   |   |   |   NOT-Emotion-Positive-Optimistic = 0: 1 (2.0)
|   |   |   |   NOT-Emotion-Positive-Optimistic = 1: 0 (2.0)
|   Genre-Hip_Hop-Rap = 1
|   |   Std_Acc1000_Mean_Mem40_MFCC6_Power_powerFFT_WinHamming_HopSize512_WinSize512_AudioCh0 <= 0.198614: 1 (3.0/1.0)
|   |   Std_Acc1000_Mean_Mem40_MFCC6_Power_powerFFT_WinHamming_HopSize512_WinSize512_AudioCh0 > 0.198614: 0 (16.0)
Genre--_Metal-Hard_Rock = 1: 0 (31.0/1.0)

Number of Leaves  : 	29

Size of the tree : 	57


Prepare_CC.Base_CC: Node #3

J48 pruned tree
------------------

Emotion-Exciting-Thrilling = 0
|   Genre--_Bebop = 0
|   |   NOT-Emotion-Laid-back-Mellow = 0
|   |   |   Instrument_-_Sequencer = 0
|   |   |   |   Genre-RandB = 0: 0 (228.0/11.0)
|   |   |   |   Genre-RandB = 1
|   |   |   |   |   NOT-Song-Changing_Energy_Level = 0
|   |   |   |   |   |   Song-Like = 0: 1 (7.0)
|   |   |   |   |   |   Song-Like = 1: 0 (6.0)
|   |   |   |   |   NOT-Song-Changing_Energy_Level = 1: 0 (13.0)
|   |   |   Instrument_-_Sequencer = 1
|   |   |   |   Usage-At_a_party = 0
|   |   |   |   |   Mean_Acc1000_Std_Mem40_MFCC0_Power_powerFFT_WinHamming_HopSize512_WinSize512_AudioCh0 <= 6.096384: 0 (14.0/1.0)
|   |   |   |   |   Mean_Acc1000_Std_Mem40_MFCC0_Power_powerFFT_WinHamming_HopSize512_WinSize512_AudioCh0 > 6.096384: 1 (3.0)
|   |   |   |   Usage-At_a_party = 1: 1 (2.0)
|   |   NOT-Emotion-Laid-back-Mellow = 1
|   |   |   Usage-Reading = 0
|   |   |   |   Std_Acc1000_Mean_Mem40_MFCC11_Power_powerFFT_WinHamming_HopSize512_WinSize512_AudioCh0 <= 0.30628
|   |   |   |   |   Genre-Best-World = 0
|   |   |   |   |   |   Emotion-Pleasant-Comfortable = 0
|   |   |   |   |   |   |   Instrument_-_Male_Lead_Vocals-Solo = 0: 0 (44.0/4.0)
|   |   |   |   |   |   |   Instrument_-_Male_Lead_Vocals-Solo = 1
|   |   |   |   |   |   |   |   Emotion-Powerful-Strong = 0: 0 (2.0)
|   |   |   |   |   |   |   |   Emotion-Powerful-Strong = 1: 1 (2.0)
|   |   |   |   |   |   Emotion-Pleasant-Comfortable = 1
|   |   |   |   |   |   |   Emotion-Powerful-Strong = 0: 0 (3.0)
|   |   |   |   |   |   |   Emotion-Powerful-Strong = 1: 1 (3.0)
|   |   |   |   |   Genre-Best-World = 1: 1 (3.0/1.0)
|   |   |   |   Std_Acc1000_Mean_Mem40_MFCC11_Power_powerFFT_WinHamming_HopSize512_WinSize512_AudioCh0 > 0.30628
|   |   |   |   |   Mean_Acc1000_Mean_Mem40_MFCC7_Power_powerFFT_WinHamming_HopSize512_WinSize512_AudioCh0 <= 0.945611: 1 (17.0)
|   |   |   |   |   Mean_Acc1000_Mean_Mem40_MFCC7_Power_powerFFT_WinHamming_HopSize512_WinSize512_AudioCh0 > 0.945611: 0 (2.0)
|   |   |   Usage-Reading = 1: 1 (4.0)
|   Genre--_Bebop = 1: 1 (2.0)
Emotion-Exciting-Thrilling = 1
|   Emotion-Calming-Soothing = 0
|   |   Usage-Hanging_with_friends = 0: 1 (83.0/6.0)
|   |   Usage-Hanging_with_friends = 1
|   |   |   Song-Fast_Tempo = 0: 0 (4.0)
|   |   |   Song-Fast_Tempo = 1: 1 (4.0)
|   Emotion-Calming-Soothing = 1
|   |   Std_Acc1000_Std_Mem40_Flux_Power_powerFFT_WinHamming_HopSize512_WinSize512_AudioCh0 <= 0.031866: 1 (2.0)
|   |   Std_Acc1000_Std_Mem40_Flux_Power_powerFFT_WinHamming_HopSize512_WinSize512_AudioCh0 > 0.031866: 0 (4.0)

Number of Leaves  : 	22

Size of the tree : 	43


Prepare_CC.Base_CC: Node #4

J48 pruned tree
------------------

NOT-Emotion-Exciting-Thrilling = 0
|   NOT-Song-Like = 0
|   |   Emotion-Calming-Soothing = 0: 0 (253.0/6.0)
|   |   Emotion-Calming-Soothing = 1
|   |   |   Vocals-Falsetto = 0
|   |   |   |   Mean_Acc1000_Mean_Mem40_MFCC3_Power_powerFFT_WinHamming_HopSize512_WinSize512_AudioCh0 <= 1.904205: 0 (35.0/2.0)
|   |   |   |   Mean_Acc1000_Mean_Mem40_MFCC3_Power_powerFFT_WinHamming_HopSize512_WinSize512_AudioCh0 > 1.904205
|   |   |   |   |   Mean_Acc1000_Mean_Mem40_MFCC1_Power_powerFFT_WinHamming_HopSize512_WinSize512_AudioCh0 <= 5.674667: 0 (6.0)
|   |   |   |   |   Mean_Acc1000_Mean_Mem40_MFCC1_Power_powerFFT_WinHamming_HopSize512_WinSize512_AudioCh0 > 5.674667: 1 (6.0/1.0)
|   |   |   Vocals-Falsetto = 1: 1 (3.0/1.0)
|   NOT-Song-Like = 1
|   |   Std_Acc1000_Std_Mem40_ZeroCrossings_HopSize512_WinSize512_AudioCh0 <= 0.025473: 0 (17.0)
|   |   Std_Acc1000_Std_Mem40_ZeroCrossings_HopSize512_WinSize512_AudioCh0 > 0.025473
|   |   |   Mean_Acc1000_Mean_Mem40_Flux_Power_powerFFT_WinHamming_HopSize512_WinSize512_AudioCh0 <= 0.091365: 1 (8.0)
|   |   |   Mean_Acc1000_Mean_Mem40_Flux_Power_powerFFT_WinHamming_HopSize512_WinSize512_AudioCh0 > 0.091365: 0 (3.0)
NOT-Emotion-Exciting-Thrilling = 1
|   Mean_Acc1000_Std_Mem40_Flux_Power_powerFFT_WinHamming_HopSize512_WinSize512_AudioCh0 <= 0.041534
|   |   Song-Catchy-Memorable = 0
|   |   |   Usage-Hanging_with_friends = 0
|   |   |   |   Mean_Acc1000_Mean_Mem40_MFCC7_Power_powerFFT_WinHamming_HopSize512_WinSize512_AudioCh0 <= 0.503935
|   |   |   |   |   Std_Acc1000_Mean_Mem40_MFCC3_Power_powerFFT_WinHamming_HopSize512_WinSize512_AudioCh0 <= 0.505319: 0 (7.0)
|   |   |   |   |   Std_Acc1000_Mean_Mem40_MFCC3_Power_powerFFT_WinHamming_HopSize512_WinSize512_AudioCh0 > 0.505319
|   |   |   |   |   |   Std_Acc1000_Mean_Mem40_MFCC7_Power_powerFFT_WinHamming_HopSize512_WinSize512_AudioCh0 <= 0.497938: 1 (18.0)
|   |   |   |   |   |   Std_Acc1000_Mean_Mem40_MFCC7_Power_powerFFT_WinHamming_HopSize512_WinSize512_AudioCh0 > 0.497938: 0 (3.0)
|   |   |   |   Mean_Acc1000_Mean_Mem40_MFCC7_Power_powerFFT_WinHamming_HopSize512_WinSize512_AudioCh0 > 0.503935: 1 (34.0)
|   |   |   Usage-Hanging_with_friends = 1: 0 (3.0/1.0)
|   |   Song-Catchy-Memorable = 1
|   |   |   NOT-Emotion-Cheerful-Festive = 0: 0 (7.0)
|   |   |   NOT-Emotion-Cheerful-Festive = 1: 1 (2.0)
|   Mean_Acc1000_Std_Mem40_Flux_Power_powerFFT_WinHamming_HopSize512_WinSize512_AudioCh0 > 0.041534
|   |   Std_Acc1000_Mean_Mem40_Flux_Power_powerFFT_WinHamming_HopSize512_WinSize512_AudioCh0 <= 0.012409
|   |   |   Std_Acc1000_Mean_Mem40_MFCC8_Power_powerFFT_WinHamming_HopSize512_WinSize512_AudioCh0 <= 0.207969
|   |   |   |   Mean_Acc1000_Std_Mem40_MFCC7_Power_powerFFT_WinHamming_HopSize512_WinSize512_AudioCh0 <= 0.531237: 0 (3.0)
|   |   |   |   Mean_Acc1000_Std_Mem40_MFCC7_Power_powerFFT_WinHamming_HopSize512_WinSize512_AudioCh0 > 0.531237: 1 (6.0)
|   |   |   Std_Acc1000_Mean_Mem40_MFCC8_Power_powerFFT_WinHamming_HopSize512_WinSize512_AudioCh0 > 0.207969
|   |   |   |   Mean_Acc1000_Mean_Mem40_ZeroCrossings_HopSize512_WinSize512_AudioCh0 <= 0.037583: 1 (2.0)
|   |   |   |   Mean_Acc1000_Mean_Mem40_ZeroCrossings_HopSize512_WinSize512_AudioCh0 > 0.037583: 0 (31.0)
|   |   Std_Acc1000_Mean_Mem40_Flux_Power_powerFFT_WinHamming_HopSize512_WinSize512_AudioCh0 > 0.012409: 1 (5.0)

Number of Leaves  : 	20

Size of the tree : 	39


Prepare_CC.Base_CC: Node #5

J48 pruned tree
------------------

Genre-Best-Electronica = 0
|   Mean_Acc1000_Std_Mem40_MFCC6_Power_powerFFT_WinHamming_HopSize512_WinSize512_AudioCh0 <= 0.450596
|   |   NOT-Emotion-Bizarre-Weird = 0
|   |   |   Mean_Acc1000_Mean_Mem40_MFCC7_Power_powerFFT_WinHamming_HopSize512_WinSize512_AudioCh0 <= 0.839585: 0 (6.0/1.0)
|   |   |   Mean_Acc1000_Mean_Mem40_MFCC7_Power_powerFFT_WinHamming_HopSize512_WinSize512_AudioCh0 > 0.839585: 1 (4.0)
|   |   NOT-Emotion-Bizarre-Weird = 1: 0 (13.0)
|   Mean_Acc1000_Std_Mem40_MFCC6_Power_powerFFT_WinHamming_HopSize512_WinSize512_AudioCh0 > 0.450596: 0 (387.0/7.0)
Genre-Best-Electronica = 1
|   Std_Acc1000_Std_Mem40_MFCC2_Power_powerFFT_WinHamming_HopSize512_WinSize512_AudioCh0 <= 0.435602
|   |   Song-Tonality = 0
|   |   |   Mean_Acc1000_Mean_Mem40_MFCC5_Power_powerFFT_WinHamming_HopSize512_WinSize512_AudioCh0 <= 1.331538
|   |   |   |   Std_Acc1000_Mean_Mem40_MFCC1_Power_powerFFT_WinHamming_HopSize512_WinSize512_AudioCh0 <= 0.371263: 1 (2.0)
|   |   |   |   Std_Acc1000_Mean_Mem40_MFCC1_Power_powerFFT_WinHamming_HopSize512_WinSize512_AudioCh0 > 0.371263: 0 (31.0)
|   |   |   Mean_Acc1000_Mean_Mem40_MFCC5_Power_powerFFT_WinHamming_HopSize512_WinSize512_AudioCh0 > 1.331538: 1 (2.0)
|   |   Song-Tonality = 1: 1 (3.0/1.0)
|   Std_Acc1000_Std_Mem40_MFCC2_Power_powerFFT_WinHamming_HopSize512_WinSize512_AudioCh0 > 0.435602: 1 (4.0)

Number of Leaves  : 	9

Size of the tree : 	17


Prepare_CC.Base_CC: Node #6

J48 pruned tree
------------------

Vocals-Spoken = 0
|   Usage-Romancing = 0
|   |   Genre--_Soul = 0
|   |   |   Genre-RandB = 0
|   |   |   |   Genre-Best-Hip_Hop-Rap = 0
|   |   |   |   |   Genre--_Country_Blues = 0
|   |   |   |   |   |   Genre-Electronica = 0
|   |   |   |   |   |   |   Vocals-Monotone = 0
|   |   |   |   |   |   |   |   Genre--_Contemporary_RandB = 0
|   |   |   |   |   |   |   |   |   Genre--_Metal-Hard_Rock = 0
|   |   |   |   |   |   |   |   |   |   NOT-Song-Quality = 0
|   |   |   |   |   |   |   |   |   |   |   Instrument_-_Trumpet-Solo = 0
|   |   |   |   |   |   |   |   |   |   |   |   Usage-Driving = 0
|   |   |   |   |   |   |   |   |   |   |   |   |   NOT-Emotion-Angry-Agressive = 0
|   |   |   |   |   |   |   |   |   |   |   |   |   |   Usage-Getting_ready_to_go_out = 0
|   |   |   |   |   |   |   |   |   |   |   |   |   |   |   Emotion-Loving-Romantic = 0
|   |   |   |   |   |   |   |   |   |   |   |   |   |   |   |   Song-Changing_Energy_Level = 0
|   |   |   |   |   |   |   |   |   |   |   |   |   |   |   |   |   Mean_Acc1000_Std_Mem40_MFCC8_Power_powerFFT_WinHamming_HopSize512_WinSize512_AudioCh0 <= 0.496153
|   |   |   |   |   |   |   |   |   |   |   |   |   |   |   |   |   |   Std_Acc1000_Mean_Mem40_Centroid_Power_powerFFT_WinHamming_HopSize512_WinSize512_AudioCh0 <= 0.013243: 0 (4.0)
|   |   |   |   |   |   |   |   |   |   |   |   |   |   |   |   |   |   Std_Acc1000_Mean_Mem40_Centroid_Power_powerFFT_WinHamming_HopSize512_WinSize512_AudioCh0 > 0.013243: 1 (23.0/4.0)
|   |   |   |   |   |   |   |   |   |   |   |   |   |   |   |   |   Mean_Acc1000_Std_Mem40_MFCC8_Power_powerFFT_WinHamming_HopSize512_WinSize512_AudioCh0 > 0.496153
|   |   |   |   |   |   |   |   |   |   |   |   |   |   |   |   |   |   Mean_Acc1000_Mean_Mem40_MFCC2_Power_powerFFT_WinHamming_HopSize512_WinSize512_AudioCh0 <= 0.347813
|   |   |   |   |   |   |   |   |   |   |   |   |   |   |   |   |   |   |   NOT-Emotion-Light-Playful = 0: 0 (2.0)
|   |   |   |   |   |   |   |   |   |   |   |   |   |   |   |   |   |   |   NOT-Emotion-Light-Playful = 1: 1 (4.0)
|   |   |   |   |   |   |   |   |   |   |   |   |   |   |   |   |   |   Mean_Acc1000_Mean_Mem40_MFCC2_Power_powerFFT_WinHamming_HopSize512_WinSize512_AudioCh0 > 0.347813: 0 (21.0)
|   |   |   |   |   |   |   |   |   |   |   |   |   |   |   |   Song-Changing_Energy_Level = 1: 0 (8.0)
|   |   |   |   |   |   |   |   |   |   |   |   |   |   |   Emotion-Loving-Romantic = 1: 1 (2.0)
|   |   |   |   |   |   |   |   |   |   |   |   |   |   Usage-Getting_ready_to_go_out = 1: 1 (3.0)
|   |   |   |   |   |   |   |   |   |   |   |   |   NOT-Emotion-Angry-Agressive = 1
|   |   |   |   |   |   |   |   |   |   |   |   |   |   Instrument_-_Hand_Drums = 0
|   |   |   |   |   |   |   |   |   |   |   |   |   |   |   Std_Acc1000_Std_Mem40_MFCC12_Power_powerFFT_WinHamming_HopSize512_WinSize512_AudioCh0 <= 0.189912
|   |   |   |   |   |   |   |   |   |   |   |   |   |   |   |   Usage-Getting_ready_to_go_out = 0
|   |   |   |   |   |   |   |   |   |   |   |   |   |   |   |   |   Vocals-Breathy = 0
|   |   |   |   |   |   |   |   |   |   |   |   |   |   |   |   |   |   Genre-Folk = 0
|   |   |   |   |   |   |   |   |   |   |   |   |   |   |   |   |   |   |   Usage-At_a_party = 0
|   |   |   |   |   |   |   |   |   |   |   |   |   |   |   |   |   |   |   |   Genre-Best-Pop = 0
|   |   |   |   |   |   |   |   |   |   |   |   |   |   |   |   |   |   |   |   |   Song-Tonality = 0
|   |   |   |   |   |   |   |   |   |   |   |   |   |   |   |   |   |   |   |   |   |   Song-Recommend = 0
|   |   |   |   |   |   |   |   |   |   |   |   |   |   |   |   |   |   |   |   |   |   |   Std_Acc1000_Std_Mem40_Centroid_Power_powerFFT_WinHamming_HopSize512_WinSize512_AudioCh0 <= 0.011203: 0 (6.0/1.0)
|   |   |   |   |   |   |   |   |   |   |   |   |   |   |   |   |   |   |   |   |   |   |   Std_Acc1000_Std_Mem40_Centroid_Power_powerFFT_WinHamming_HopSize512_WinSize512_AudioCh0 > 0.011203
|   |   |   |   |   |   |   |   |   |   |   |   |   |   |   |   |   |   |   |   |   |   |   |   NOT-Song-Very_Danceable = 0
|   |   |   |   |   |   |   |   |   |   |   |   |   |   |   |   |   |   |   |   |   |   |   |   |   Mean_Acc1000_Mean_Mem40_MFCC10_Power_powerFFT_WinHamming_HopSize512_WinSize512_AudioCh0 <= 0.42597: 1 (5.0)
|   |   |   |   |   |   |   |   |   |   |   |   |   |   |   |   |   |   |   |   |   |   |   |   |   Mean_Acc1000_Mean_Mem40_MFCC10_Power_powerFFT_WinHamming_HopSize512_WinSize512_AudioCh0 > 0.42597: 0 (9.0/1.0)
|   |   |   |   |   |   |   |   |   |   |   |   |   |   |   |   |   |   |   |   |   |   |   |   NOT-Song-Very_Danceable = 1
|   |   |   |   |   |   |   |   |   |   |   |   |   |   |   |   |   |   |   |   |   |   |   |   |   Song-Texture_Electric = 0
|   |   |   |   |   |   |   |   |   |   |   |   |   |   |   |   |   |   |   |   |   |   |   |   |   |   Mean_Acc1000_Mean_Mem40_MFCC11_Power_powerFFT_WinHamming_HopSize512_WinSize512_AudioCh0 <= 0.427465: 0 (10.0/1.0)
|   |   |   |   |   |   |   |   |   |   |   |   |   |   |   |   |   |   |   |   |   |   |   |   |   |   Mean_Acc1000_Mean_Mem40_MFCC11_Power_powerFFT_WinHamming_HopSize512_WinSize512_AudioCh0 > 0.427465: 1 (14.0/2.0)
|   |   |   |   |   |   |   |   |   |   |   |   |   |   |   |   |   |   |   |   |   |   |   |   |   Song-Texture_Electric = 1: 1 (25.0)
|   |   |   |   |   |   |   |   |   |   |   |   |   |   |   |   |   |   |   |   |   |   Song-Recommend = 1: 1 (6.0)
|   |   |   |   |   |   |   |   |   |   |   |   |   |   |   |   |   |   |   |   |   Song-Tonality = 1: 1 (16.0)
|   |   |   |   |   |   |   |   |   |   |   |   |   |   |   |   |   |   |   |   Genre-Best-Pop = 1
|   |   |   |   |   |   |   |   |   |   |   |   |   |   |   |   |   |   |   |   |   Emotion-Loving-Romantic = 0: 0 (8.0)
|   |   |   |   |   |   |   |   |   |   |   |   |   |   |   |   |   |   |   |   |   Emotion-Loving-Romantic = 1: 1 (3.0)
|   |   |   |   |   |   |   |   |   |   |   |   |   |   |   |   |   |   |   Usage-At_a_party = 1: 1 (8.0)
|   |   |   |   |   |   |   |   |   |   |   |   |   |   |   |   |   |   Genre-Folk = 1: 1 (9.0)
|   |   |   |   |   |   |   |   |   |   |   |   |   |   |   |   |   Vocals-Breathy = 1: 0 (5.0/1.0)
|   |   |   |   |   |   |   |   |   |   |   |   |   |   |   |   Usage-Getting_ready_to_go_out = 1: 0 (3.0/1.0)
|   |   |   |   |   |   |   |   |   |   |   |   |   |   |   Std_Acc1000_Std_Mem40_MFCC12_Power_powerFFT_WinHamming_HopSize512_WinSize512_AudioCh0 > 0.189912: 0 (6.0)
|   |   |   |   |   |   |   |   |   |   |   |   |   |   Instrument_-_Hand_Drums = 1: 1 (6.0)
|   |   |   |   |   |   |   |   |   |   |   |   Usage-Driving = 1
|   |   |   |   |   |   |   |   |   |   |   |   |   Mean_Acc1000_Mean_Mem40_MFCC10_Power_powerFFT_WinHamming_HopSize512_WinSize512_AudioCh0 <= 0.217992: 0 (4.0)
|   |   |   |   |   |   |   |   |   |   |   |   |   Mean_Acc1000_Mean_Mem40_MFCC10_Power_powerFFT_WinHamming_HopSize512_WinSize512_AudioCh0 > 0.217992
|   |   |   |   |   |   |   |   |   |   |   |   |   |   NOT-Emotion-Loving-Romantic = 0: 1 (32.0)
|   |   |   |   |   |   |   |   |   |   |   |   |   |   NOT-Emotion-Loving-Romantic = 1
|   |   |   |   |   |   |   |   |   |   |   |   |   |   |   NOT-Emotion-Powerful-Strong = 0
|   |   |   |   |   |   |   |   |   |   |   |   |   |   |   |   NOT-Emotion-Arousing-Awakening = 0
|   |   |   |   |   |   |   |   |   |   |   |   |   |   |   |   |   Vocals-Vocal_Harmonies = 0: 1 (22.0/2.0)
|   |   |   |   |   |   |   |   |   |   |   |   |   |   |   |   |   Vocals-Vocal_Harmonies = 1
|   |   |   |   |   |   |   |   |   |   |   |   |   |   |   |   |   |   NOT-Emotion-Positive-Optimistic = 0: 0 (3.0)
|   |   |   |   |   |   |   |   |   |   |   |   |   |   |   |   |   |   NOT-Emotion-Positive-Optimistic = 1: 1 (2.0)
|   |   |   |   |   |   |   |   |   |   |   |   |   |   |   |   NOT-Emotion-Arousing-Awakening = 1: 0 (2.0)
|   |   |   |   |   |   |   |   |   |   |   |   |   |   |   NOT-Emotion-Powerful-Strong = 1: 0 (3.0)
|   |   |   |   |   |   |   |   |   |   |   Instrument_-_Trumpet-Solo = 1: 1 (2.0)
|   |   |   |   |   |   |   |   |   |   NOT-Song-Quality = 1
|   |   |   |   |   |   |   |   |   |   |   NOT-Song-Changing_Energy_Level = 0: 0 (6.0)
|   |   |   |   |   |   |   |   |   |   |   NOT-Song-Changing_Energy_Level = 1: 1 (2.0)
|   |   |   |   |   |   |   |   |   Genre--_Metal-Hard_Rock = 1
|   |   |   |   |   |   |   |   |   |   Usage-At_a_party = 0
|   |   |   |   |   |   |   |   |   |   |   Std_Acc1000_Mean_Mem40_MFCC7_Power_powerFFT_WinHamming_HopSize512_WinSize512_AudioCh0 <= 0.447622: 0 (24.0/3.0)
|   |   |   |   |   |   |   |   |   |   |   Std_Acc1000_Mean_Mem40_MFCC7_Power_powerFFT_WinHamming_HopSize512_WinSize512_AudioCh0 > 0.447622: 1 (3.0)
|   |   |   |   |   |   |   |   |   |   Usage-At_a_party = 1: 1 (2.0)
|   |   |   |   |   |   |   |   Genre--_Contemporary_RandB = 1: 0 (2.0)
|   |   |   |   |   |   |   Vocals-Monotone = 1: 0 (3.0)
|   |   |   |   |   |   Genre-Electronica = 1
|   |   |   |   |   |   |   Genre-Hip_Hop-Rap = 0
|   |   |   |   |   |   |   |   Song-Recommend = 0
|   |   |   |   |   |   |   |   |   Usage-Studying = 0
|   |   |   |   |   |   |   |   |   |   Std_Acc1000_Mean_Mem40_Flux_Power_powerFFT_WinHamming_HopSize512_WinSize512_AudioCh0 <= 0.01421
|   |   |   |   |   |   |   |   |   |   |   Std_Acc1000_Std_Mem40_MFCC4_Power_powerFFT_WinHamming_HopSize512_WinSize512_AudioCh0 <= 0.095864
|   |   |   |   |   |   |   |   |   |   |   |   Mean_Acc1000_Mean_Mem40_MFCC0_Power_powerFFT_WinHamming_HopSize512_WinSize512_AudioCh0 <= -66.783493: 1 (5.0)
|   |   |   |   |   |   |   |   |   |   |   |   Mean_Acc1000_Mean_Mem40_MFCC0_Power_powerFFT_WinHamming_HopSize512_WinSize512_AudioCh0 > -66.783493: 0 (4.0)
|   |   |   |   |   |   |   |   |   |   |   Std_Acc1000_Std_Mem40_MFCC4_Power_powerFFT_WinHamming_HopSize512_WinSize512_AudioCh0 > 0.095864: 0 (34.0/1.0)
|   |   |   |   |   |   |   |   |   |   Std_Acc1000_Mean_Mem40_Flux_Power_powerFFT_WinHamming_HopSize512_WinSize512_AudioCh0 > 0.01421: 1 (3.0)
|   |   |   |   |   |   |   |   |   Usage-Studying = 1: 1 (3.0/1.0)
|   |   |   |   |   |   |   |   Song-Recommend = 1: 1 (4.0/1.0)
|   |   |   |   |   |   |   Genre-Hip_Hop-Rap = 1: 1 (2.0)
|   |   |   |   |   Genre--_Country_Blues = 1: 1 (3.0)
|   |   |   |   Genre-Best-Hip_Hop-Rap = 1
|   |   |   |   |   Mean_Acc1000_Mean_Mem40_MFCC7_Power_powerFFT_WinHamming_HopSize512_WinSize512_AudioCh0 <= 0.391647: 1 (2.0)
|   |   |   |   |   Mean_Acc1000_Mean_Mem40_MFCC7_Power_powerFFT_WinHamming_HopSize512_WinSize512_AudioCh0 > 0.391647: 0 (12.0/1.0)
|   |   |   Genre-RandB = 1: 1 (9.0/1.0)
|   |   Genre--_Soul = 1
|   |   |   Std_Acc1000_Std_Mem40_Centroid_Power_powerFFT_WinHamming_HopSize512_WinSize512_AudioCh0 <= 0.012102: 0 (2.0)
|   |   |   Std_Acc1000_Std_Mem40_Centroid_Power_powerFFT_WinHamming_HopSize512_WinSize512_AudioCh0 > 0.012102: 1 (23.0)
|   Usage-Romancing = 1: 1 (21.0)
Vocals-Spoken = 1: 0 (7.0)

Number of Leaves  : 	54

Size of the tree : 	107


Prepare_CC.Base_CC: Node #7

J48 pruned tree
------------------

NOT-Emotion-Exciting-Thrilling = 0
|   Emotion-Pleasant-Comfortable = 0
|   |   Song-Texture_Electric = 0
|   |   |   Std_Acc1000_Std_Mem40_MFCC8_Power_powerFFT_WinHamming_HopSize512_WinSize512_AudioCh0 <= 0.184131
|   |   |   |   Std_Acc1000_Std_Mem40_MFCC11_Power_powerFFT_WinHamming_HopSize512_WinSize512_AudioCh0 <= 0.059684
|   |   |   |   |   NOT-Emotion-Cheerful-Festive = 0: 1 (2.0)
|   |   |   |   |   NOT-Emotion-Cheerful-Festive = 1: 0 (2.0)
|   |   |   |   Std_Acc1000_Std_Mem40_MFCC11_Power_powerFFT_WinHamming_HopSize512_WinSize512_AudioCh0 > 0.059684: 0 (42.0/1.0)
|   |   |   Std_Acc1000_Std_Mem40_MFCC8_Power_powerFFT_WinHamming_HopSize512_WinSize512_AudioCh0 > 0.184131: 1 (3.0)
|   |   Song-Texture_Electric = 1: 0 (184.0/3.0)
|   Emotion-Pleasant-Comfortable = 1
|   |   Mean_Acc1000_Std_Mem40_MFCC8_Power_powerFFT_WinHamming_HopSize512_WinSize512_AudioCh0 <= 0.441083: 1 (8.0)
|   |   Mean_Acc1000_Std_Mem40_MFCC8_Power_powerFFT_WinHamming_HopSize512_WinSize512_AudioCh0 > 0.441083
|   |   |   Mean_Acc1000_Std_Mem40_MFCC7_Power_powerFFT_WinHamming_HopSize512_WinSize512_AudioCh0 <= 0.604437
|   |   |   |   NOT-Song-Changing_Energy_Level = 0
|   |   |   |   |   Mean_Acc1000_Mean_Mem40_MFCC9_Power_powerFFT_WinHamming_HopSize512_WinSize512_AudioCh0 <= 0.804712
|   |   |   |   |   |   Std_Acc1000_Std_Mem40_MFCC3_Power_powerFFT_WinHamming_HopSize512_WinSize512_AudioCh0 <= 0.156037
|   |   |   |   |   |   |   Mean_Acc1000_Std_Mem40_MFCC0_Power_powerFFT_WinHamming_HopSize512_WinSize512_AudioCh0 <= 3.109197: 0 (7.0)
|   |   |   |   |   |   |   Mean_Acc1000_Std_Mem40_MFCC0_Power_powerFFT_WinHamming_HopSize512_WinSize512_AudioCh0 > 3.109197: 1 (4.0)
|   |   |   |   |   |   Std_Acc1000_Std_Mem40_MFCC3_Power_powerFFT_WinHamming_HopSize512_WinSize512_AudioCh0 > 0.156037: 0 (38.0)
|   |   |   |   |   Mean_Acc1000_Mean_Mem40_MFCC9_Power_powerFFT_WinHamming_HopSize512_WinSize512_AudioCh0 > 0.804712: 1 (3.0)
|   |   |   |   NOT-Song-Changing_Energy_Level = 1
|   |   |   |   |   NOT-Emotion-Loving-Romantic = 0
|   |   |   |   |   |   Song-Texture_Electric = 0: 0 (6.0/1.0)
|   |   |   |   |   |   Song-Texture_Electric = 1: 1 (13.0/1.0)
|   |   |   |   |   NOT-Emotion-Loving-Romantic = 1: 0 (4.0)
|   |   |   Mean_Acc1000_Std_Mem40_MFCC7_Power_powerFFT_WinHamming_HopSize512_WinSize512_AudioCh0 > 0.604437
|   |   |   |   Std_Acc1000_Std_Mem40_Flux_Power_powerFFT_WinHamming_HopSize512_WinSize512_AudioCh0 <= 0.031291: 0 (3.0/1.0)
|   |   |   |   Std_Acc1000_Std_Mem40_Flux_Power_powerFFT_WinHamming_HopSize512_WinSize512_AudioCh0 > 0.031291: 1 (12.0)
NOT-Emotion-Exciting-Thrilling = 1
|   NOT-Emotion-Loving-Romantic = 0
|   |   Std_Acc1000_Std_Mem40_MFCC9_Power_powerFFT_WinHamming_HopSize512_WinSize512_AudioCh0 <= 0.076377
|   |   |   Genre-World = 0
|   |   |   |   Song-Recommend = 0
|   |   |   |   |   Std_Acc1000_Mean_Mem40_Flux_Power_powerFFT_WinHamming_HopSize512_WinSize512_AudioCh0 <= 0.010175: 1 (5.0/1.0)
|   |   |   |   |   Std_Acc1000_Mean_Mem40_Flux_Power_powerFFT_WinHamming_HopSize512_WinSize512_AudioCh0 > 0.010175: 0 (10.0)
|   |   |   |   Song-Recommend = 1: 1 (2.0)
|   |   |   Genre-World = 1: 1 (2.0)
|   |   Std_Acc1000_Std_Mem40_MFCC9_Power_powerFFT_WinHamming_HopSize512_WinSize512_AudioCh0 > 0.076377
|   |   |   Std_Acc1000_Std_Mem40_MFCC12_Power_powerFFT_WinHamming_HopSize512_WinSize512_AudioCh0 <= 0.182957: 1 (61.0/2.0)
|   |   |   Std_Acc1000_Std_Mem40_MFCC12_Power_powerFFT_WinHamming_HopSize512_WinSize512_AudioCh0 > 0.182957
|   |   |   |   Song-Texture_Electric = 0: 1 (2.0)
|   |   |   |   Song-Texture_Electric = 1: 0 (3.0)
|   NOT-Emotion-Loving-Romantic = 1
|   |   Std_Acc1000_Mean_Mem40_MFCC3_Power_powerFFT_WinHamming_HopSize512_WinSize512_AudioCh0 <= 0.464399: 0 (12.0)
|   |   Std_Acc1000_Mean_Mem40_MFCC3_Power_powerFFT_WinHamming_HopSize512_WinSize512_AudioCh0 > 0.464399
|   |   |   Emotion-Pleasant-Comfortable = 0
|   |   |   |   Std_Acc1000_Mean_Mem40_MFCC10_Power_powerFFT_WinHamming_HopSize512_WinSize512_AudioCh0 <= 0.252553
|   |   |   |   |   Mean_Acc1000_Mean_Mem40_Flux_Power_powerFFT_WinHamming_HopSize512_WinSize512_AudioCh0 <= 0.090201: 1 (5.0)
|   |   |   |   |   Mean_Acc1000_Mean_Mem40_Flux_Power_powerFFT_WinHamming_HopSize512_WinSize512_AudioCh0 > 0.090201: 0 (2.0)
|   |   |   |   Std_Acc1000_Mean_Mem40_MFCC10_Power_powerFFT_WinHamming_HopSize512_WinSize512_AudioCh0 > 0.252553: 0 (10.0)
|   |   |   Emotion-Pleasant-Comfortable = 1: 1 (7.0)

Number of Leaves  : 	27

Size of the tree : 	53


Prepare_CC.Base_CC: Node #8

J48 pruned tree
------------------

Emotion-Calming-Soothing = 0
|   Genre--_Metal-Hard_Rock = 0
|   |   Usage-Romancing = 0
|   |   |   NOT-Emotion-Arousing-Awakening = 0
|   |   |   |   Song-Texture_Electric = 0
|   |   |   |   |   Vocals-Monotone = 0
|   |   |   |   |   |   Std_Acc1000_Mean_Mem40_MFCC4_Power_powerFFT_WinHamming_HopSize512_WinSize512_AudioCh0 <= 0.246439: 1 (5.0)
|   |   |   |   |   |   Std_Acc1000_Mean_Mem40_MFCC4_Power_powerFFT_WinHamming_HopSize512_WinSize512_AudioCh0 > 0.246439
|   |   |   |   |   |   |   Mean_Acc1000_Mean_Mem40_MFCC7_Power_powerFFT_WinHamming_HopSize512_WinSize512_AudioCh0 <= 0.265426: 1 (6.0/2.0)
|   |   |   |   |   |   |   Mean_Acc1000_Mean_Mem40_MFCC7_Power_powerFFT_WinHamming_HopSize512_WinSize512_AudioCh0 > 0.265426
|   |   |   |   |   |   |   |   Mean_Acc1000_Std_Mem40_Rolloff_Power_powerFFT_WinHamming_HopSize512_WinSize512_AudioCh0 <= 0.169072: 0 (43.0/3.0)
|   |   |   |   |   |   |   |   Mean_Acc1000_Std_Mem40_Rolloff_Power_powerFFT_WinHamming_HopSize512_WinSize512_AudioCh0 > 0.169072
|   |   |   |   |   |   |   |   |   Mean_Acc1000_Mean_Mem40_MFCC1_Power_powerFFT_WinHamming_HopSize512_WinSize512_AudioCh0 <= 3.793862: 1 (4.0)
|   |   |   |   |   |   |   |   |   Mean_Acc1000_Mean_Mem40_MFCC1_Power_powerFFT_WinHamming_HopSize512_WinSize512_AudioCh0 > 3.793862: 0 (6.0)
|   |   |   |   |   Vocals-Monotone = 1: 1 (3.0)
|   |   |   |   Song-Texture_Electric = 1
|   |   |   |   |   Emotion-Loving-Romantic = 0
|   |   |   |   |   |   Emotion-Powerful-Strong = 0
|   |   |   |   |   |   |   Mean_Acc1000_Mean_Mem40_MFCC12_Power_powerFFT_WinHamming_HopSize512_WinSize512_AudioCh0 <= 0.222891: 0 (11.0)
|   |   |   |   |   |   |   Mean_Acc1000_Mean_Mem40_MFCC12_Power_powerFFT_WinHamming_HopSize512_WinSize512_AudioCh0 > 0.222891
|   |   |   |   |   |   |   |   Instrument_-_Female_Lead_Vocals = 0
|   |   |   |   |   |   |   |   |   Std_Acc1000_Std_Mem40_MFCC11_Power_powerFFT_WinHamming_HopSize512_WinSize512_AudioCh0 <= 0.12584
|   |   |   |   |   |   |   |   |   |   Std_Acc1000_Std_Mem40_MFCC10_Power_powerFFT_WinHamming_HopSize512_WinSize512_AudioCh0 <= 0.089129
|   |   |   |   |   |   |   |   |   |   |   NOT-Emotion-Powerful-Strong = 0
|   |   |   |   |   |   |   |   |   |   |   |   Mean_Acc1000_Mean_Mem40_MFCC8_Power_powerFFT_WinHamming_HopSize512_WinSize512_AudioCh0 <= 0.600347
|   |   |   |   |   |   |   |   |   |   |   |   |   Instrument_-_Electric_Guitar_(distorted) = 0
|   |   |   |   |   |   |   |   |   |   |   |   |   |   Mean_Acc1000_Mean_Mem40_ZeroCrossings_HopSize512_WinSize512_AudioCh0 <= 0.129127
|   |   |   |   |   |   |   |   |   |   |   |   |   |   |   Mean_Acc1000_Std_Mem40_MFCC4_Power_powerFFT_WinHamming_HopSize512_WinSize512_AudioCh0 <= 0.512723: 0 (2.0)
|   |   |   |   |   |   |   |   |   |   |   |   |   |   |   Mean_Acc1000_Std_Mem40_MFCC4_Power_powerFFT_WinHamming_HopSize512_WinSize512_AudioCh0 > 0.512723: 1 (11.0)
|   |   |   |   |   |   |   |   |   |   |   |   |   |   Mean_Acc1000_Mean_Mem40_ZeroCrossings_HopSize512_WinSize512_AudioCh0 > 0.129127: 0 (6.0)
|   |   |   |   |   |   |   |   |   |   |   |   |   Instrument_-_Electric_Guitar_(distorted) = 1: 0 (4.0)
|   |   |   |   |   |   |   |   |   |   |   |   Mean_Acc1000_Mean_Mem40_MFCC8_Power_powerFFT_WinHamming_HopSize512_WinSize512_AudioCh0 > 0.600347: 1 (13.0)
|   |   |   |   |   |   |   |   |   |   |   NOT-Emotion-Powerful-Strong = 1: 1 (3.0)
|   |   |   |   |   |   |   |   |   |   Std_Acc1000_Std_Mem40_MFCC10_Power_powerFFT_WinHamming_HopSize512_WinSize512_AudioCh0 > 0.089129
|   |   |   |   |   |   |   |   |   |   |   Mean_Acc1000_Mean_Mem40_MFCC9_Power_powerFFT_WinHamming_HopSize512_WinSize512_AudioCh0 <= 0.562759
|   |   |   |   |   |   |   |   |   |   |   |   Mean_Acc1000_Std_Mem40_MFCC0_Power_powerFFT_WinHamming_HopSize512_WinSize512_AudioCh0 <= 4.367115: 1 (8.0/1.0)
|   |   |   |   |   |   |   |   |   |   |   |   Mean_Acc1000_Std_Mem40_MFCC0_Power_powerFFT_WinHamming_HopSize512_WinSize512_AudioCh0 > 4.367115: 0 (6.0)
|   |   |   |   |   |   |   |   |   |   |   Mean_Acc1000_Mean_Mem40_MFCC9_Power_powerFFT_WinHamming_HopSize512_WinSize512_AudioCh0 > 0.562759: 0 (20.0)
|   |   |   |   |   |   |   |   |   Std_Acc1000_Std_Mem40_MFCC11_Power_powerFFT_WinHamming_HopSize512_WinSize512_AudioCh0 > 0.12584: 1 (15.0)
|   |   |   |   |   |   |   |   Instrument_-_Female_Lead_Vocals = 1
|   |   |   |   |   |   |   |   |   Mean_Acc1000_Mean_Mem40_MFCC3_Power_powerFFT_WinHamming_HopSize512_WinSize512_AudioCh0 <= 1.12657: 1 (2.0)
|   |   |   |   |   |   |   |   |   Mean_Acc1000_Mean_Mem40_MFCC3_Power_powerFFT_WinHamming_HopSize512_WinSize512_AudioCh0 > 1.12657: 0 (12.0)
|   |   |   |   |   |   Emotion-Powerful-Strong = 1
|   |   |   |   |   |   |   Mean_Acc1000_Mean_Mem40_Centroid_Power_powerFFT_WinHamming_HopSize512_WinSize512_AudioCh0 <= 0.040971: 0 (6.0)
|   |   |   |   |   |   |   Mean_Acc1000_Mean_Mem40_Centroid_Power_powerFFT_WinHamming_HopSize512_WinSize512_AudioCh0 > 0.040971
|   |   |   |   |   |   |   |   Std_Acc1000_Std_Mem40_MFCC10_Power_powerFFT_WinHamming_HopSize512_WinSize512_AudioCh0 <= 0.166931
|   |   |   |   |   |   |   |   |   Emotion-Positive-Optimistic = 0
|   |   |   |   |   |   |   |   |   |   Mean_Acc1000_Mean_Mem40_MFCC3_Power_powerFFT_WinHamming_HopSize512_WinSize512_AudioCh0 <= 1.699466: 1 (20.0)
|   |   |   |   |   |   |   |   |   |   Mean_Acc1000_Mean_Mem40_MFCC3_Power_powerFFT_WinHamming_HopSize512_WinSize512_AudioCh0 > 1.699466
|   |   |   |   |   |   |   |   |   |   |   Vocals-Emotional = 0
|   |   |   |   |   |   |   |   |   |   |   |   Std_Acc1000_Std_Mem40_Flux_Power_powerFFT_WinHamming_HopSize512_WinSize512_AudioCh0 <= 0.031703: 0 (7.0/1.0)
|   |   |   |   |   |   |   |   |   |   |   |   Std_Acc1000_Std_Mem40_Flux_Power_powerFFT_WinHamming_HopSize512_WinSize512_AudioCh0 > 0.031703: 1 (7.0/1.0)
|   |   |   |   |   |   |   |   |   |   |   Vocals-Emotional = 1: 1 (12.0/1.0)
|   |   |   |   |   |   |   |   |   Emotion-Positive-Optimistic = 1: 1 (11.0)
|   |   |   |   |   |   |   |   Std_Acc1000_Std_Mem40_MFCC10_Power_powerFFT_WinHamming_HopSize512_WinSize512_AudioCh0 > 0.166931: 0 (5.0)
|   |   |   |   |   Emotion-Loving-Romantic = 1
|   |   |   |   |   |   Mean_Acc1000_Std_Mem40_MFCC9_Power_powerFFT_WinHamming_HopSize512_WinSize512_AudioCh0 <= 0.487017: 1 (4.0/1.0)
|   |   |   |   |   |   Mean_Acc1000_Std_Mem40_MFCC9_Power_powerFFT_WinHamming_HopSize512_WinSize512_AudioCh0 > 0.487017: 0 (10.0)
|   |   |   NOT-Emotion-Arousing-Awakening = 1
|   |   |   |   NOT-Emotion-Loving-Romantic = 0: 0 (16.0)
|   |   |   |   NOT-Emotion-Loving-Romantic = 1
|   |   |   |   |   Std_Acc1000_Mean_Mem40_MFCC4_Power_powerFFT_WinHamming_HopSize512_WinSize512_AudioCh0 <= 0.31449: 1 (3.0)
|   |   |   |   |   Std_Acc1000_Mean_Mem40_MFCC4_Power_powerFFT_WinHamming_HopSize512_WinSize512_AudioCh0 > 0.31449: 0 (6.0)
|   |   Usage-Romancing = 1: 0 (3.0)
|   Genre--_Metal-Hard_Rock = 1
|   |   Std_Acc1000_Mean_Mem40_MFCC0_Power_powerFFT_WinHamming_HopSize512_WinSize512_AudioCh0 <= 1.423601
|   |   |   Mean_Acc1000_Mean_Mem40_MFCC3_Power_powerFFT_WinHamming_HopSize512_WinSize512_AudioCh0 <= 1.39232: 0 (3.0)
|   |   |   Mean_Acc1000_Mean_Mem40_MFCC3_Power_powerFFT_WinHamming_HopSize512_WinSize512_AudioCh0 > 1.39232: 1 (2.0)
|   |   Std_Acc1000_Mean_Mem40_MFCC0_Power_powerFFT_WinHamming_HopSize512_WinSize512_AudioCh0 > 1.423601: 1 (26.0)
Emotion-Calming-Soothing = 1: 0 (131.0)

Number of Leaves  : 	36

Size of the tree : 	71


Prepare_CC.Base_CC: Node #9

J48 pruned tree
------------------

Emotion-Cheerful-Festive = 0
|   Usage-With_the_family = 0
|   |   Genre--_Brit_Pop = 0
|   |   |   NOT-Song-Quality = 0
|   |   |   |   Vocals-Falsetto = 0
|   |   |   |   |   Emotion-Happy = 0: 0 (295.0/10.0)
|   |   |   |   |   Emotion-Happy = 1
|   |   |   |   |   |   Genre-Country = 0
|   |   |   |   |   |   |   Vocals-Altered_with_Effects = 0
|   |   |   |   |   |   |   |   Usage-Cleaning_the_house = 0
|   |   |   |   |   |   |   |   |   Std_Acc1000_Std_Mem40_MFCC11_Power_powerFFT_WinHamming_HopSize512_WinSize512_AudioCh0 <= 0.063396: 1 (2.0)
|   |   |   |   |   |   |   |   |   Std_Acc1000_Std_Mem40_MFCC11_Power_powerFFT_WinHamming_HopSize512_WinSize512_AudioCh0 > 0.063396: 0 (28.0/1.0)
|   |   |   |   |   |   |   |   Usage-Cleaning_the_house = 1
|   |   |   |   |   |   |   |   |   Mean_Acc1000_Std_Mem40_MFCC1_Power_powerFFT_WinHamming_HopSize512_WinSize512_AudioCh0 <= 0.961455: 1 (3.0)
|   |   |   |   |   |   |   |   |   Mean_Acc1000_Std_Mem40_MFCC1_Power_powerFFT_WinHamming_HopSize512_WinSize512_AudioCh0 > 0.961455: 0 (3.0)
|   |   |   |   |   |   |   Vocals-Altered_with_Effects = 1: 1 (2.0)
|   |   |   |   |   |   Genre-Country = 1: 1 (2.0)
|   |   |   |   Vocals-Falsetto = 1
|   |   |   |   |   NOT-Emotion-Bizarre-Weird = 0: 0 (2.0)
|   |   |   |   |   NOT-Emotion-Bizarre-Weird = 1: 1 (2.0)
|   |   |   NOT-Song-Quality = 1
|   |   |   |   NOT-Emotion-Light-Playful = 0: 1 (3.0)
|   |   |   |   NOT-Emotion-Light-Playful = 1: 0 (3.0)
|   |   Genre--_Brit_Pop = 1: 1 (3.0/1.0)
|   Usage-With_the_family = 1: 1 (5.0/1.0)
Emotion-Cheerful-Festive = 1
|   NOT-Song-Like = 0
|   |   Genre-Best--_Alternative = 0
|   |   |   Instrument_-_Synthesizer = 0
|   |   |   |   Emotion-Happy = 0
|   |   |   |   |   Std_Acc1000_Std_Mem40_MFCC3_Power_powerFFT_WinHamming_HopSize512_WinSize512_AudioCh0 <= 0.23667: 0 (9.0)
|   |   |   |   |   Std_Acc1000_Std_Mem40_MFCC3_Power_powerFFT_WinHamming_HopSize512_WinSize512_AudioCh0 > 0.23667: 1 (5.0)
|   |   |   |   Emotion-Happy = 1: 1 (57.0/5.0)
|   |   |   Instrument_-_Synthesizer = 1
|   |   |   |   Mean_Acc1000_Mean_Mem40_MFCC4_Power_powerFFT_WinHamming_HopSize512_WinSize512_AudioCh0 <= 0.495881: 1 (7.0)
|   |   |   |   Mean_Acc1000_Mean_Mem40_MFCC4_Power_powerFFT_WinHamming_HopSize512_WinSize512_AudioCh0 > 0.495881
|   |   |   |   |   Std_Acc1000_Mean_Mem40_MFCC4_Power_powerFFT_WinHamming_HopSize512_WinSize512_AudioCh0 <= 0.389247: 0 (11.0)
|   |   |   |   |   Std_Acc1000_Mean_Mem40_MFCC4_Power_powerFFT_WinHamming_HopSize512_WinSize512_AudioCh0 > 0.389247: 1 (3.0)
|   |   Genre-Best--_Alternative = 1: 0 (5.0/1.0)
|   NOT-Song-Like = 1: 0 (2.0)

Number of Leaves  : 	21

Size of the tree : 	41


Prepare_CC.Base_CC: Node #10

J48 pruned tree
------------------

NOT-Emotion-Light-Playful = 0
|   Instrument_-_Samples = 0
|   |   NOT-Emotion-Cheerful-Festive = 0
|   |   |   Usage-Romancing = 0
|   |   |   |   Genre--_Contemporary_RandB = 0
|   |   |   |   |   Vocals-Emotional = 0: 0 (189.0/2.0)
|   |   |   |   |   Vocals-Emotional = 1
|   |   |   |   |   |   Mean_Acc1000_Mean_Mem40_MFCC9_Power_powerFFT_WinHamming_HopSize512_WinSize512_AudioCh0 <= 0.63215: 0 (24.0/1.0)
|   |   |   |   |   |   Mean_Acc1000_Mean_Mem40_MFCC9_Power_powerFFT_WinHamming_HopSize512_WinSize512_AudioCh0 > 0.63215: 1 (3.0)
|   |   |   |   Genre--_Contemporary_RandB = 1
|   |   |   |   |   Emotion-Positive-Optimistic = 0: 1 (2.0)
|   |   |   |   |   Emotion-Positive-Optimistic = 1: 0 (4.0)
|   |   |   Usage-Romancing = 1
|   |   |   |   Mean_Acc1000_Mean_Mem40_Flux_Power_powerFFT_WinHamming_HopSize512_WinSize512_AudioCh0 <= 0.096563: 0 (12.0)
|   |   |   |   Mean_Acc1000_Mean_Mem40_Flux_Power_powerFFT_WinHamming_HopSize512_WinSize512_AudioCh0 > 0.096563: 1 (3.0)
|   |   NOT-Emotion-Cheerful-Festive = 1
|   |   |   Song-Changing_Energy_Level = 0
|   |   |   |   Std_Acc1000_Mean_Mem40_Centroid_Power_powerFFT_WinHamming_HopSize512_WinSize512_AudioCh0 <= 0.029507: 0 (29.0/1.0)
|   |   |   |   Std_Acc1000_Mean_Mem40_Centroid_Power_powerFFT_WinHamming_HopSize512_WinSize512_AudioCh0 > 0.029507: 1 (3.0)
|   |   |   Song-Changing_Energy_Level = 1: 1 (3.0)
|   Instrument_-_Samples = 1
|   |   Std_Acc1000_Mean_Mem40_MFCC0_Power_powerFFT_WinHamming_HopSize512_WinSize512_AudioCh0 <= 3.831714: 0 (11.0/1.0)
|   |   Std_Acc1000_Mean_Mem40_MFCC0_Power_powerFFT_WinHamming_HopSize512_WinSize512_AudioCh0 > 3.831714: 1 (6.0)
NOT-Emotion-Light-Playful = 1
|   Instrument_-_Piano-Solo = 0
|   |   NOT-Song-Quality = 0
|   |   |   Emotion-Positive-Optimistic = 0
|   |   |   |   Genre-Hip_Hop-Rap = 0
|   |   |   |   |   Vocals-Spoken = 0
|   |   |   |   |   |   Usage-Exercising = 0
|   |   |   |   |   |   |   NOT-Emotion-Positive-Optimistic = 0
|   |   |   |   |   |   |   |   Genre-Best--_Soft_Rock = 0
|   |   |   |   |   |   |   |   |   Std_Acc1000_Mean_Mem40_Flux_Power_powerFFT_WinHamming_HopSize512_WinSize512_AudioCh0 <= 0.012624
|   |   |   |   |   |   |   |   |   |   Genre--_Punk = 0
|   |   |   |   |   |   |   |   |   |   |   Std_Acc1000_Std_Mem40_MFCC8_Power_powerFFT_WinHamming_HopSize512_WinSize512_AudioCh0 <= 0.140925
|   |   |   |   |   |   |   |   |   |   |   |   Std_Acc1000_Std_Mem40_MFCC6_Power_powerFFT_WinHamming_HopSize512_WinSize512_AudioCh0 <= 0.059518: 0 (2.0)
|   |   |   |   |   |   |   |   |   |   |   |   Std_Acc1000_Std_Mem40_MFCC6_Power_powerFFT_WinHamming_HopSize512_WinSize512_AudioCh0 > 0.059518
|   |   |   |   |   |   |   |   |   |   |   |   |   Std_Acc1000_Mean_Mem40_MFCC3_Power_powerFFT_WinHamming_HopSize512_WinSize512_AudioCh0 <= 0.333462: 0 (4.0/1.0)
|   |   |   |   |   |   |   |   |   |   |   |   |   Std_Acc1000_Mean_Mem40_MFCC3_Power_powerFFT_WinHamming_HopSize512_WinSize512_AudioCh0 > 0.333462: 1 (35.0/1.0)
|   |   |   |   |   |   |   |   |   |   |   Std_Acc1000_Std_Mem40_MFCC8_Power_powerFFT_WinHamming_HopSize512_WinSize512_AudioCh0 > 0.140925: 0 (5.0/1.0)
|   |   |   |   |   |   |   |   |   |   Genre--_Punk = 1: 0 (2.0)
|   |   |   |   |   |   |   |   |   Std_Acc1000_Mean_Mem40_Flux_Power_powerFFT_WinHamming_HopSize512_WinSize512_AudioCh0 > 0.012624: 0 (9.0)
|   |   |   |   |   |   |   |   Genre-Best--_Soft_Rock = 1: 0 (4.0)
|   |   |   |   |   |   |   NOT-Emotion-Positive-Optimistic = 1
|   |   |   |   |   |   |   |   Mean_Acc1000_Std_Mem40_MFCC8_Power_powerFFT_WinHamming_HopSize512_WinSize512_AudioCh0 <= 0.63767: 1 (69.0/5.0)
|   |   |   |   |   |   |   |   Mean_Acc1000_Std_Mem40_MFCC8_Power_powerFFT_WinHamming_HopSize512_WinSize512_AudioCh0 > 0.63767: 0 (5.0/1.0)
|   |   |   |   |   |   Usage-Exercising = 1: 0 (4.0/1.0)
|   |   |   |   |   Vocals-Spoken = 1: 0 (2.0)
|   |   |   |   Genre-Hip_Hop-Rap = 1: 1 (9.0)
|   |   |   Emotion-Positive-Optimistic = 1: 0 (6.0/1.0)
|   |   NOT-Song-Quality = 1: 0 (3.0)
|   Instrument_-_Piano-Solo = 1: 0 (4.0)

Number of Leaves  : 	27

Size of the tree : 	53


Prepare_CC.Base_CC: Node #11

J48 pruned tree
------------------

Emotion-Happy = 0
|   Instrument_-_Horn_Section = 0
|   |   Emotion-Positive-Optimistic = 0: 0 (289.0/7.0)
|   |   Emotion-Positive-Optimistic = 1
|   |   |   Genre-Best-Pop = 0: 0 (26.0/3.0)
|   |   |   Genre-Best-Pop = 1: 1 (4.0)
|   Instrument_-_Horn_Section = 1
|   |   Emotion-Calming-Soothing = 0: 1 (2.0)
|   |   Emotion-Calming-Soothing = 1: 0 (2.0)
Emotion-Happy = 1
|   NOT-Emotion-Carefree-Lighthearted = 0
|   |   NOT-Song-Catchy-Memorable = 0
|   |   |   Instrument_-_Samples = 0
|   |   |   |   Vocals-Breathy = 0
|   |   |   |   |   Genre-Folk = 0
|   |   |   |   |   |   NOT-Song-High_Energy = 0
|   |   |   |   |   |   |   Emotion-Positive-Optimistic = 0
|   |   |   |   |   |   |   |   Std_Acc1000_Std_Mem40_MFCC10_Power_powerFFT_WinHamming_HopSize512_WinSize512_AudioCh0 <= 0.11124
|   |   |   |   |   |   |   |   |   Std_Acc1000_Mean_Mem40_Rolloff_Power_powerFFT_WinHamming_HopSize512_WinSize512_AudioCh0 <= 0.054957: 1 (16.0)
|   |   |   |   |   |   |   |   |   Std_Acc1000_Mean_Mem40_Rolloff_Power_powerFFT_WinHamming_HopSize512_WinSize512_AudioCh0 > 0.054957
|   |   |   |   |   |   |   |   |   |   Std_Acc1000_Mean_Mem40_MFCC9_Power_powerFFT_WinHamming_HopSize512_WinSize512_AudioCh0 <= 0.199233: 1 (3.0)
|   |   |   |   |   |   |   |   |   |   Std_Acc1000_Mean_Mem40_MFCC9_Power_powerFFT_WinHamming_HopSize512_WinSize512_AudioCh0 > 0.199233: 0 (7.0)
|   |   |   |   |   |   |   |   Std_Acc1000_Std_Mem40_MFCC10_Power_powerFFT_WinHamming_HopSize512_WinSize512_AudioCh0 > 0.11124: 0 (11.0)
|   |   |   |   |   |   |   Emotion-Positive-Optimistic = 1
|   |   |   |   |   |   |   |   Genre-Pop = 0: 1 (49.0/1.0)
|   |   |   |   |   |   |   |   Genre-Pop = 1
|   |   |   |   |   |   |   |   |   Mean_Acc1000_Std_Mem40_ZeroCrossings_HopSize512_WinSize512_AudioCh0 <= 0.050828
|   |   |   |   |   |   |   |   |   |   NOT-Emotion-Exciting-Thrilling = 0: 1 (12.0)
|   |   |   |   |   |   |   |   |   |   NOT-Emotion-Exciting-Thrilling = 1: 0 (2.0)
|   |   |   |   |   |   |   |   |   Mean_Acc1000_Std_Mem40_ZeroCrossings_HopSize512_WinSize512_AudioCh0 > 0.050828: 0 (5.0)
|   |   |   |   |   |   NOT-Song-High_Energy = 1: 0 (3.0/1.0)
|   |   |   |   |   Genre-Folk = 1: 0 (4.0/1.0)
|   |   |   |   Vocals-Breathy = 1
|   |   |   |   |   Emotion-Calming-Soothing = 0: 0 (6.0)
|   |   |   |   |   Emotion-Calming-Soothing = 1: 1 (2.0)
|   |   |   Instrument_-_Samples = 1: 0 (2.0)
|   |   NOT-Song-Catchy-Memorable = 1: 0 (3.0)
|   NOT-Emotion-Carefree-Lighthearted = 1: 0 (4.0)

Number of Leaves  : 	20

Size of the tree : 	39


Prepare_CC.Base_CC: Node #12

J48 pruned tree
------------------

Emotion-Positive-Optimistic = 0
|   NOT-Song-Very_Danceable = 0
|   |   Genre-Hip_Hop-Rap = 0
|   |   |   Std_Acc1000_Mean_Mem40_MFCC0_Power_powerFFT_WinHamming_HopSize512_WinSize512_AudioCh0 <= 6.473441
|   |   |   |   NOT-Song-Like = 0
|   |   |   |   |   Genre--_Metal-Hard_Rock = 0
|   |   |   |   |   |   NOT-Emotion-Exciting-Thrilling = 0
|   |   |   |   |   |   |   Vocals-Emotional = 0
|   |   |   |   |   |   |   |   NOT-Song-Changing_Energy_Level = 0
|   |   |   |   |   |   |   |   |   Std_Acc1000_Mean_Mem40_MFCC12_Power_powerFFT_WinHamming_HopSize512_WinSize512_AudioCh0 <= 0.245302
|   |   |   |   |   |   |   |   |   |   Std_Acc1000_Std_Mem40_MFCC8_Power_powerFFT_WinHamming_HopSize512_WinSize512_AudioCh0 <= 0.089982: 0 (14.0)
|   |   |   |   |   |   |   |   |   |   Std_Acc1000_Std_Mem40_MFCC8_Power_powerFFT_WinHamming_HopSize512_WinSize512_AudioCh0 > 0.089982
|   |   |   |   |   |   |   |   |   |   |   Mean_Acc1000_Mean_Mem40_MFCC12_Power_powerFFT_WinHamming_HopSize512_WinSize512_AudioCh0 <= 0.371601: 1 (6.0)
|   |   |   |   |   |   |   |   |   |   |   Mean_Acc1000_Mean_Mem40_MFCC12_Power_powerFFT_WinHamming_HopSize512_WinSize512_AudioCh0 > 0.371601
|   |   |   |   |   |   |   |   |   |   |   |   Std_Acc1000_Mean_Mem40_MFCC0_Power_powerFFT_WinHamming_HopSize512_WinSize512_AudioCh0 <= 1.690172: 1 (4.0/1.0)
|   |   |   |   |   |   |   |   |   |   |   |   Std_Acc1000_Mean_Mem40_MFCC0_Power_powerFFT_WinHamming_HopSize512_WinSize512_AudioCh0 > 1.690172: 0 (12.0)
|   |   |   |   |   |   |   |   |   Std_Acc1000_Mean_Mem40_MFCC12_Power_powerFFT_WinHamming_HopSize512_WinSize512_AudioCh0 > 0.245302: 0 (32.0)
|   |   |   |   |   |   |   |   NOT-Song-Changing_Energy_Level = 1: 0 (21.0)
|   |   |   |   |   |   |   Vocals-Emotional = 1
|   |   |   |   |   |   |   |   Std_Acc1000_Std_Mem40_Centroid_Power_powerFFT_WinHamming_HopSize512_WinSize512_AudioCh0 <= 0.024682: 0 (7.0)
|   |   |   |   |   |   |   |   Std_Acc1000_Std_Mem40_Centroid_Power_powerFFT_WinHamming_HopSize512_WinSize512_AudioCh0 > 0.024682: 1 (5.0/1.0)
|   |   |   |   |   |   NOT-Emotion-Exciting-Thrilling = 1
|   |   |   |   |   |   |   Std_Acc1000_Mean_Mem40_MFCC1_Power_powerFFT_WinHamming_HopSize512_WinSize512_AudioCh0 <= 0.582068: 1 (8.0/1.0)
|   |   |   |   |   |   |   Std_Acc1000_Mean_Mem40_MFCC1_Power_powerFFT_WinHamming_HopSize512_WinSize512_AudioCh0 > 0.582068: 0 (13.0/1.0)
|   |   |   |   |   Genre--_Metal-Hard_Rock = 1
|   |   |   |   |   |   Song-Catchy-Memorable = 0
|   |   |   |   |   |   |   Mean_Acc1000_Std_Mem40_Centroid_Power_powerFFT_WinHamming_HopSize512_WinSize512_AudioCh0 <= 0.033794: 1 (5.0)
|   |   |   |   |   |   |   Mean_Acc1000_Std_Mem40_Centroid_Power_powerFFT_WinHamming_HopSize512_WinSize512_AudioCh0 > 0.033794: 0 (2.0)
|   |   |   |   |   |   Song-Catchy-Memorable = 1: 0 (2.0)
|   |   |   |   NOT-Song-Like = 1
|   |   |   |   |   Mean_Acc1000_Std_Mem40_Rolloff_Power_powerFFT_WinHamming_HopSize512_WinSize512_AudioCh0 <= 0.099792: 0 (2.0)
|   |   |   |   |   Mean_Acc1000_Std_Mem40_Rolloff_Power_powerFFT_WinHamming_HopSize512_WinSize512_AudioCh0 > 0.099792: 1 (4.0)
|   |   |   Std_Acc1000_Mean_Mem40_MFCC0_Power_powerFFT_WinHamming_HopSize512_WinSize512_AudioCh0 > 6.473441: 1 (10.0/1.0)
|   |   Genre-Hip_Hop-Rap = 1
|   |   |   Mean_Acc1000_Mean_Mem40_MFCC10_Power_powerFFT_WinHamming_HopSize512_WinSize512_AudioCh0 <= 0.279502: 0 (3.0)
|   |   |   Mean_Acc1000_Mean_Mem40_MFCC10_Power_powerFFT_WinHamming_HopSize512_WinSize512_AudioCh0 > 0.279502: 1 (12.0/1.0)
|   NOT-Song-Very_Danceable = 1
|   |   Std_Acc1000_Std_Mem40_Flux_Power_powerFFT_WinHamming_HopSize512_WinSize512_AudioCh0 <= 0.033209
|   |   |   Std_Acc1000_Std_Mem40_MFCC2_Power_powerFFT_WinHamming_HopSize512_WinSize512_AudioCh0 <= 0.348865
|   |   |   |   Mean_Acc1000_Mean_Mem40_MFCC9_Power_powerFFT_WinHamming_HopSize512_WinSize512_AudioCh0 <= 0.955794
|   |   |   |   |   Song-Catchy-Memorable = 0
|   |   |   |   |   |   Mean_Acc1000_Mean_Mem40_MFCC0_Power_powerFFT_WinHamming_HopSize512_WinSize512_AudioCh0 <= -86.94924: 0 (7.0)
|   |   |   |   |   |   Mean_Acc1000_Mean_Mem40_MFCC0_Power_powerFFT_WinHamming_HopSize512_WinSize512_AudioCh0 > -86.94924
|   |   |   |   |   |   |   Std_Acc1000_Std_Mem40_MFCC12_Power_powerFFT_WinHamming_HopSize512_WinSize512_AudioCh0 <= 0.13378
|   |   |   |   |   |   |   |   Std_Acc1000_Mean_Mem40_MFCC7_Power_powerFFT_WinHamming_HopSize512_WinSize512_AudioCh0 <= 0.467187
|   |   |   |   |   |   |   |   |   Vocals-Vocal_Harmonies = 0
|   |   |   |   |   |   |   |   |   |   Genre--_Metal-Hard_Rock = 0
|   |   |   |   |   |   |   |   |   |   |   Mean_Acc1000_Mean_Mem40_MFCC10_Power_powerFFT_WinHamming_HopSize512_WinSize512_AudioCh0 <= 0.215313: 1 (12.0)
|   |   |   |   |   |   |   |   |   |   |   Mean_Acc1000_Mean_Mem40_MFCC10_Power_powerFFT_WinHamming_HopSize512_WinSize512_AudioCh0 > 0.215313
|   |   |   |   |   |   |   |   |   |   |   |   Mean_Acc1000_Std_Mem40_MFCC8_Power_powerFFT_WinHamming_HopSize512_WinSize512_AudioCh0 <= 0.520165
|   |   |   |   |   |   |   |   |   |   |   |   |   Genre-World = 0
|   |   |   |   |   |   |   |   |   |   |   |   |   |   Mean_Acc1000_Mean_Mem40_MFCC4_Power_powerFFT_WinHamming_HopSize512_WinSize512_AudioCh0 <= 0.958498
|   |   |   |   |   |   |   |   |   |   |   |   |   |   |   Mean_Acc1000_Mean_Mem40_MFCC2_Power_powerFFT_WinHamming_HopSize512_WinSize512_AudioCh0 <= -0.273204: 0 (5.0)
|   |   |   |   |   |   |   |   |   |   |   |   |   |   |   Mean_Acc1000_Mean_Mem40_MFCC2_Power_powerFFT_WinHamming_HopSize512_WinSize512_AudioCh0 > -0.273204: 1 (36.0/4.0)
|   |   |   |   |   |   |   |   |   |   |   |   |   |   Mean_Acc1000_Mean_Mem40_MFCC4_Power_powerFFT_WinHamming_HopSize512_WinSize512_AudioCh0 > 0.958498: 0 (7.0/1.0)
|   |   |   |   |   |   |   |   |   |   |   |   |   Genre-World = 1: 1 (4.0)
|   |   |   |   |   |   |   |   |   |   |   |   Mean_Acc1000_Std_Mem40_MFCC8_Power_powerFFT_WinHamming_HopSize512_WinSize512_AudioCh0 > 0.520165
|   |   |   |   |   |   |   |   |   |   |   |   |   Mean_Acc1000_Mean_Mem40_MFCC0_Power_powerFFT_WinHamming_HopSize512_WinSize512_AudioCh0 <= -79.497272: 1 (2.0)
|   |   |   |   |   |   |   |   |   |   |   |   |   Mean_Acc1000_Mean_Mem40_MFCC0_Power_powerFFT_WinHamming_HopSize512_WinSize512_AudioCh0 > -79.497272: 0 (12.0/1.0)
|   |   |   |   |   |   |   |   |   |   Genre--_Metal-Hard_Rock = 1: 1 (14.0/1.0)
|   |   |   |   |   |   |   |   |   Vocals-Vocal_Harmonies = 1
|   |   |   |   |   |   |   |   |   |   NOT-Emotion-Loving-Romantic = 0: 0 (3.0)
|   |   |   |   |   |   |   |   |   |   NOT-Emotion-Loving-Romantic = 1: 1 (2.0)
|   |   |   |   |   |   |   |   Std_Acc1000_Mean_Mem40_MFCC7_Power_powerFFT_WinHamming_HopSize512_WinSize512_AudioCh0 > 0.467187: 0 (6.0)
|   |   |   |   |   |   |   Std_Acc1000_Std_Mem40_MFCC12_Power_powerFFT_WinHamming_HopSize512_WinSize512_AudioCh0 > 0.13378: 1 (18.0)
|   |   |   |   |   Song-Catchy-Memorable = 1
|   |   |   |   |   |   Std_Acc1000_Std_Mem40_MFCC9_Power_powerFFT_WinHamming_HopSize512_WinSize512_AudioCh0 <= 0.128853: 0 (8.0)
|   |   |   |   |   |   Std_Acc1000_Std_Mem40_MFCC9_Power_powerFFT_WinHamming_HopSize512_WinSize512_AudioCh0 > 0.128853: 1 (5.0/1.0)
|   |   |   |   Mean_Acc1000_Mean_Mem40_MFCC9_Power_powerFFT_WinHamming_HopSize512_WinSize512_AudioCh0 > 0.955794: 0 (9.0)
|   |   |   Std_Acc1000_Std_Mem40_MFCC2_Power_powerFFT_WinHamming_HopSize512_WinSize512_AudioCh0 > 0.348865: 1 (19.0)
|   |   Std_Acc1000_Std_Mem40_Flux_Power_powerFFT_WinHamming_HopSize512_WinSize512_AudioCh0 > 0.033209: 0 (9.0)
Emotion-Positive-Optimistic = 1
|   NOT-Song-Like = 0: 0 (107.0/2.0)
|   NOT-Song-Like = 1
|   |   NOT-Song-Very_Danceable = 0: 0 (2.0)
|   |   NOT-Song-Very_Danceable = 1: 1 (3.0)

Number of Leaves  : 	39

Size of the tree : 	77


Prepare_CC.Base_CC: Node #13

J48 pruned tree
------------------

Vocals-Emotional = 0
|   Emotion-Touching-Loving = 0
|   |   Instrument_-_Horn_Section = 0
|   |   |   Usage-With_the_family = 0
|   |   |   |   Instrument_-_Electric_Guitar_(distorted) = 0
|   |   |   |   |   Genre--_Country_Blues = 0
|   |   |   |   |   |   Mean_Acc1000_Mean_Mem40_MFCC8_Power_powerFFT_WinHamming_HopSize512_WinSize512_AudioCh0 <= 0.850614
|   |   |   |   |   |   |   Usage-Driving = 0
|   |   |   |   |   |   |   |   Song-Recommend = 0
|   |   |   |   |   |   |   |   |   Emotion-Positive-Optimistic = 0: 0 (152.0/1.0)
|   |   |   |   |   |   |   |   |   Emotion-Positive-Optimistic = 1
|   |   |   |   |   |   |   |   |   |   Mean_Acc1000_Std_Mem40_MFCC0_Power_powerFFT_WinHamming_HopSize512_WinSize512_AudioCh0 <= 2.896992
|   |   |   |   |   |   |   |   |   |   |   Mean_Acc1000_Mean_Mem40_ZeroCrossings_HopSize512_WinSize512_AudioCh0 <= 0.120829: 1 (5.0)
|   |   |   |   |   |   |   |   |   |   |   Mean_Acc1000_Mean_Mem40_ZeroCrossings_HopSize512_WinSize512_AudioCh0 > 0.120829: 0 (6.0/1.0)
|   |   |   |   |   |   |   |   |   |   Mean_Acc1000_Std_Mem40_MFCC0_Power_powerFFT_WinHamming_HopSize512_WinSize512_AudioCh0 > 2.896992: 0 (28.0)
|   |   |   |   |   |   |   |   Song-Recommend = 1
|   |   |   |   |   |   |   |   |   Song-Recorded = 0: 1 (2.0)
|   |   |   |   |   |   |   |   |   Song-Recorded = 1
|   |   |   |   |   |   |   |   |   |   Mean_Acc1000_Mean_Mem40_MFCC11_Power_powerFFT_WinHamming_HopSize512_WinSize512_AudioCh0 <= 0.695681: 0 (14.0)
|   |   |   |   |   |   |   |   |   |   Mean_Acc1000_Mean_Mem40_MFCC11_Power_powerFFT_WinHamming_HopSize512_WinSize512_AudioCh0 > 0.695681: 1 (2.0)
|   |   |   |   |   |   |   Usage-Driving = 1
|   |   |   |   |   |   |   |   Genre--_Metal-Hard_Rock = 0
|   |   |   |   |   |   |   |   |   Instrument_-_Acoustic_Guitar = 0
|   |   |   |   |   |   |   |   |   |   Instrument_-_Electric_Guitar_(clean) = 0
|   |   |   |   |   |   |   |   |   |   |   Mean_Acc1000_Std_Mem40_MFCC12_Power_powerFFT_WinHamming_HopSize512_WinSize512_AudioCh0 <= 0.610496: 0 (30.0)
|   |   |   |   |   |   |   |   |   |   |   Mean_Acc1000_Std_Mem40_MFCC12_Power_powerFFT_WinHamming_HopSize512_WinSize512_AudioCh0 > 0.610496: 1 (3.0/1.0)
|   |   |   |   |   |   |   |   |   |   Instrument_-_Electric_Guitar_(clean) = 1
|   |   |   |   |   |   |   |   |   |   |   Song-Changing_Energy_Level = 0
|   |   |   |   |   |   |   |   |   |   |   |   Mean_Acc1000_Mean_Mem40_MFCC6_Power_powerFFT_WinHamming_HopSize512_WinSize512_AudioCh0 <= 0.646074: 0 (9.0)
|   |   |   |   |   |   |   |   |   |   |   |   Mean_Acc1000_Mean_Mem40_MFCC6_Power_powerFFT_WinHamming_HopSize512_WinSize512_AudioCh0 > 0.646074: 1 (4.0/1.0)
|   |   |   |   |   |   |   |   |   |   |   Song-Changing_Energy_Level = 1: 1 (5.0)
|   |   |   |   |   |   |   |   |   Instrument_-_Acoustic_Guitar = 1: 1 (3.0/1.0)
|   |   |   |   |   |   |   |   Genre--_Metal-Hard_Rock = 1: 1 (3.0/1.0)
|   |   |   |   |   |   Mean_Acc1000_Mean_Mem40_MFCC8_Power_powerFFT_WinHamming_HopSize512_WinSize512_AudioCh0 > 0.850614
|   |   |   |   |   |   |   Mean_Acc1000_Mean_Mem40_MFCC11_Power_powerFFT_WinHamming_HopSize512_WinSize512_AudioCh0 <= 0.519626: 0 (8.0/1.0)
|   |   |   |   |   |   |   Mean_Acc1000_Mean_Mem40_MFCC11_Power_powerFFT_WinHamming_HopSize512_WinSize512_AudioCh0 > 0.519626: 1 (8.0)
|   |   |   |   |   Genre--_Country_Blues = 1
|   |   |   |   |   |   Emotion-Calming-Soothing = 0: 0 (2.0)
|   |   |   |   |   |   Emotion-Calming-Soothing = 1: 1 (2.0)
|   |   |   |   Instrument_-_Electric_Guitar_(distorted) = 1
|   |   |   |   |   Instrument_-_Piano-Solo = 0
|   |   |   |   |   |   Mean_Acc1000_Mean_Mem40_MFCC10_Power_powerFFT_WinHamming_HopSize512_WinSize512_AudioCh0 <= 0.615029
|   |   |   |   |   |   |   Std_Acc1000_Mean_Mem40_MFCC4_Power_powerFFT_WinHamming_HopSize512_WinSize512_AudioCh0 <= 0.180143: 1 (3.0)
|   |   |   |   |   |   |   Std_Acc1000_Mean_Mem40_MFCC4_Power_powerFFT_WinHamming_HopSize512_WinSize512_AudioCh0 > 0.180143: 0 (29.0/4.0)
|   |   |   |   |   |   Mean_Acc1000_Mean_Mem40_MFCC10_Power_powerFFT_WinHamming_HopSize512_WinSize512_AudioCh0 > 0.615029: 1 (8.0)
|   |   |   |   |   Instrument_-_Piano-Solo = 1: 1 (2.0)
|   |   |   Usage-With_the_family = 1: 1 (3.0/1.0)
|   |   Instrument_-_Horn_Section = 1
|   |   |   Std_Acc1000_Mean_Mem40_Flux_Power_powerFFT_WinHamming_HopSize512_WinSize512_AudioCh0 <= 0.010104: 0 (3.0)
|   |   |   Std_Acc1000_Mean_Mem40_Flux_Power_powerFFT_WinHamming_HopSize512_WinSize512_AudioCh0 > 0.010104: 1 (5.0)
|   Emotion-Touching-Loving = 1
|   |   Instrument_-_Horn_Section = 0
|   |   |   Genre--_Cool_Jazz = 0
|   |   |   |   Mean_Acc1000_Std_Mem40_Flux_Power_powerFFT_WinHamming_HopSize512_WinSize512_AudioCh0 <= 0.038791: 0 (4.0/1.0)
|   |   |   |   Mean_Acc1000_Std_Mem40_Flux_Power_powerFFT_WinHamming_HopSize512_WinSize512_AudioCh0 > 0.038791: 1 (25.0)
|   |   |   Genre--_Cool_Jazz = 1: 0 (3.0/1.0)
|   |   Instrument_-_Horn_Section = 1: 0 (4.0)
Vocals-Emotional = 1
|   Usage-Hanging_with_friends = 0
|   |   Mean_Acc1000_Mean_Mem40_MFCC12_Power_powerFFT_WinHamming_HopSize512_WinSize512_AudioCh0 <= 0.138963: 0 (7.0)
|   |   Mean_Acc1000_Mean_Mem40_MFCC12_Power_powerFFT_WinHamming_HopSize512_WinSize512_AudioCh0 > 0.138963
|   |   |   Genre-Electronica = 0
|   |   |   |   Std_Acc1000_Mean_Mem40_MFCC7_Power_powerFFT_WinHamming_HopSize512_WinSize512_AudioCh0 <= 0.396367: 1 (50.0/1.0)
|   |   |   |   Std_Acc1000_Mean_Mem40_MFCC7_Power_powerFFT_WinHamming_HopSize512_WinSize512_AudioCh0 > 0.396367
|   |   |   |   |   Instrument_-_Electric_Guitar_(clean) = 0
|   |   |   |   |   |   Instrument_-_Female_Lead_Vocals-Solo = 0: 0 (7.0/1.0)
|   |   |   |   |   |   Instrument_-_Female_Lead_Vocals-Solo = 1: 1 (2.0)
|   |   |   |   |   Instrument_-_Electric_Guitar_(clean) = 1: 1 (6.0)
|   |   |   Genre-Electronica = 1: 0 (3.0/1.0)
|   Usage-Hanging_with_friends = 1: 0 (2.0)

Number of Leaves  : 	36

Size of the tree : 	71


Prepare_CC.Base_CC: Node #14

J48 pruned tree
------------------

Instrument_-_Ambient_Sounds = 0
|   NOT-Song-Quality = 0
|   |   Genre-Best-Electronica = 0
|   |   |   NOT-Emotion-Powerful-Strong = 0: 0 (339.0/18.0)
|   |   |   NOT-Emotion-Powerful-Strong = 1
|   |   |   |   NOT-Emotion-Laid-back-Mellow = 0
|   |   |   |   |   Emotion-Tender-Soft = 0
|   |   |   |   |   |   Std_Acc1000_Std_Mem40_MFCC11_Power_powerFFT_WinHamming_HopSize512_WinSize512_AudioCh0 <= 0.068171: 1 (4.0)
|   |   |   |   |   |   Std_Acc1000_Std_Mem40_MFCC11_Power_powerFFT_WinHamming_HopSize512_WinSize512_AudioCh0 > 0.068171
|   |   |   |   |   |   |   Mean_Acc1000_Std_Mem40_MFCC6_Power_powerFFT_WinHamming_HopSize512_WinSize512_AudioCh0 <= 0.62783: 0 (19.0/2.0)
|   |   |   |   |   |   |   Mean_Acc1000_Std_Mem40_MFCC6_Power_powerFFT_WinHamming_HopSize512_WinSize512_AudioCh0 > 0.62783: 1 (5.0)
|   |   |   |   |   Emotion-Tender-Soft = 1: 0 (22.0)
|   |   |   |   NOT-Emotion-Laid-back-Mellow = 1: 1 (2.0)
|   |   Genre-Best-Electronica = 1
|   |   |   Emotion-Laid-back-Mellow = 0
|   |   |   |   Mean_Acc1000_Mean_Mem40_ZeroCrossings_HopSize512_WinSize512_AudioCh0 <= 0.120829
|   |   |   |   |   Mean_Acc1000_Mean_Mem40_MFCC0_Power_powerFFT_WinHamming_HopSize512_WinSize512_AudioCh0 <= -74.294221: 0 (2.0)
|   |   |   |   |   Mean_Acc1000_Mean_Mem40_MFCC0_Power_powerFFT_WinHamming_HopSize512_WinSize512_AudioCh0 > -74.294221: 1 (10.0)
|   |   |   |   Mean_Acc1000_Mean_Mem40_ZeroCrossings_HopSize512_WinSize512_AudioCh0 > 0.120829: 0 (6.0)
|   |   |   Emotion-Laid-back-Mellow = 1: 0 (3.0)
|   NOT-Song-Quality = 1
|   |   NOT-Emotion-Tender-Soft = 0: 0 (3.0)
|   |   NOT-Emotion-Tender-Soft = 1: 1 (5.0)
Instrument_-_Ambient_Sounds = 1
|   NOT-Emotion-Loving-Romantic = 0: 0 (6.0)
|   NOT-Emotion-Loving-Romantic = 1
|   |   Emotion-Powerful-Strong = 0
|   |   |   Genre--_Alternative = 0
|   |   |   |   Mean_Acc1000_Mean_Mem40_Flux_Power_powerFFT_WinHamming_HopSize512_WinSize512_AudioCh0 <= 0.09572: 1 (15.0)
|   |   |   |   Mean_Acc1000_Mean_Mem40_Flux_Power_powerFFT_WinHamming_HopSize512_WinSize512_AudioCh0 > 0.09572: 0 (4.0/1.0)
|   |   |   Genre--_Alternative = 1: 0 (2.0)
|   |   Emotion-Powerful-Strong = 1: 0 (5.0/1.0)

Number of Leaves  : 	17

Size of the tree : 	33


Prepare_CC.Base_CC: Node #15

J48 pruned tree
------------------

NOT-Emotion-Exciting-Thrilling = 0
|   Genre--_Bebop = 0
|   |   Genre--_Electric_Blues = 0
|   |   |   Instrument_-_Trumpet-Solo = 0
|   |   |   |   NOT-Emotion-Arousing-Awakening = 0
|   |   |   |   |   Genre--_Funk = 0
|   |   |   |   |   |   Emotion-Powerful-Strong = 0
|   |   |   |   |   |   |   Vocals-Rapping = 0
|   |   |   |   |   |   |   |   Usage-Driving = 0
|   |   |   |   |   |   |   |   |   Emotion-Cheerful-Festive = 0
|   |   |   |   |   |   |   |   |   |   Emotion-Bizarre-Weird = 0: 0 (87.0/1.0)
|   |   |   |   |   |   |   |   |   |   Emotion-Bizarre-Weird = 1
|   |   |   |   |   |   |   |   |   |   |   Usage-At_a_party = 0: 0 (9.0)
|   |   |   |   |   |   |   |   |   |   |   Usage-At_a_party = 1: 1 (2.0)
|   |   |   |   |   |   |   |   |   Emotion-Cheerful-Festive = 1
|   |   |   |   |   |   |   |   |   |   Vocals-High-pitched = 0
|   |   |   |   |   |   |   |   |   |   |   Mean_Acc1000_Std_Mem40_MFCC12_Power_powerFFT_WinHamming_HopSize512_WinSize512_AudioCh0 <= 0.510356: 0 (28.0/2.0)
|   |   |   |   |   |   |   |   |   |   |   Mean_Acc1000_Std_Mem40_MFCC12_Power_powerFFT_WinHamming_HopSize512_WinSize512_AudioCh0 > 0.510356: 1 (2.0)
|   |   |   |   |   |   |   |   |   |   Vocals-High-pitched = 1: 1 (2.0)
|   |   |   |   |   |   |   |   Usage-Driving = 1
|   |   |   |   |   |   |   |   |   Usage-Hanging_with_friends = 0
|   |   |   |   |   |   |   |   |   |   Vocals-Breathy = 0
|   |   |   |   |   |   |   |   |   |   |   Emotion-Cheerful-Festive = 0: 0 (20.0/1.0)
|   |   |   |   |   |   |   |   |   |   |   Emotion-Cheerful-Festive = 1
|   |   |   |   |   |   |   |   |   |   |   |   Std_Acc1000_Std_Mem40_Rolloff_Power_powerFFT_WinHamming_HopSize512_WinSize512_AudioCh0 <= 0.051776: 1 (6.0)
|   |   |   |   |   |   |   |   |   |   |   |   Std_Acc1000_Std_Mem40_Rolloff_Power_powerFFT_WinHamming_HopSize512_WinSize512_AudioCh0 > 0.051776: 0 (5.0)
|   |   |   |   |   |   |   |   |   |   Vocals-Breathy = 1: 1 (3.0)
|   |   |   |   |   |   |   |   |   Usage-Hanging_with_friends = 1: 1 (4.0)
|   |   |   |   |   |   |   Vocals-Rapping = 1: 1 (3.0/1.0)
|   |   |   |   |   |   Emotion-Powerful-Strong = 1
|   |   |   |   |   |   |   Mean_Acc1000_Mean_Mem40_Centroid_Power_powerFFT_WinHamming_HopSize512_WinSize512_AudioCh0 <= 0.099703
|   |   |   |   |   |   |   |   Genre--_Swing = 0
|   |   |   |   |   |   |   |   |   Vocals-Spoken = 0
|   |   |   |   |   |   |   |   |   |   NOT-Emotion-Tender-Soft = 0
|   |   |   |   |   |   |   |   |   |   |   Std_Acc1000_Mean_Mem40_Rolloff_Power_powerFFT_WinHamming_HopSize512_WinSize512_AudioCh0 <= 0.036182: 1 (3.0/1.0)
|   |   |   |   |   |   |   |   |   |   |   Std_Acc1000_Mean_Mem40_Rolloff_Power_powerFFT_WinHamming_HopSize512_WinSize512_AudioCh0 > 0.036182: 0 (36.0)
|   |   |   |   |   |   |   |   |   |   NOT-Emotion-Tender-Soft = 1
|   |   |   |   |   |   |   |   |   |   |   Song-Recommend = 0
|   |   |   |   |   |   |   |   |   |   |   |   Song-Tonality = 0
|   |   |   |   |   |   |   |   |   |   |   |   |   Vocals-High-pitched = 0
|   |   |   |   |   |   |   |   |   |   |   |   |   |   NOT-Emotion-Calming-Soothing = 0: 0 (8.0)
|   |   |   |   |   |   |   |   |   |   |   |   |   |   NOT-Emotion-Calming-Soothing = 1
|   |   |   |   |   |   |   |   |   |   |   |   |   |   |   Genre-Hip_Hop-Rap = 0
|   |   |   |   |   |   |   |   |   |   |   |   |   |   |   |   Song-Quality = 0: 0 (13.0/1.0)
|   |   |   |   |   |   |   |   |   |   |   |   |   |   |   |   Song-Quality = 1
|   |   |   |   |   |   |   |   |   |   |   |   |   |   |   |   |   Std_Acc1000_Mean_Mem40_MFCC8_Power_powerFFT_WinHamming_HopSize512_WinSize512_AudioCh0 <= 0.218276: 0 (6.0/1.0)
|   |   |   |   |   |   |   |   |   |   |   |   |   |   |   |   |   Std_Acc1000_Mean_Mem40_MFCC8_Power_powerFFT_WinHamming_HopSize512_WinSize512_AudioCh0 > 0.218276: 1 (9.0)
|   |   |   |   |   |   |   |   |   |   |   |   |   |   |   Genre-Hip_Hop-Rap = 1: 1 (3.0)
|   |   |   |   |   |   |   |   |   |   |   |   |   Vocals-High-pitched = 1: 1 (2.0)
|   |   |   |   |   |   |   |   |   |   |   |   Song-Tonality = 1: 1 (3.0)
|   |   |   |   |   |   |   |   |   |   |   Song-Recommend = 1: 1 (5.0)
|   |   |   |   |   |   |   |   |   Vocals-Spoken = 1: 1 (2.0)
|   |   |   |   |   |   |   |   Genre--_Swing = 1: 1 (2.0)
|   |   |   |   |   |   |   Mean_Acc1000_Mean_Mem40_Centroid_Power_powerFFT_WinHamming_HopSize512_WinSize512_AudioCh0 > 0.099703
|   |   |   |   |   |   |   |   Instrument_-_Female_Lead_Vocals = 0: 1 (28.0)
|   |   |   |   |   |   |   |   Instrument_-_Female_Lead_Vocals = 1: 0 (3.0/1.0)
|   |   |   |   |   Genre--_Funk = 1: 1 (5.0/1.0)
|   |   |   |   NOT-Emotion-Arousing-Awakening = 1: 0 (23.0)
|   |   |   Instrument_-_Trumpet-Solo = 1: 1 (2.0)
|   |   Genre--_Electric_Blues = 1: 1 (3.0)
|   Genre--_Bebop = 1: 1 (4.0)
NOT-Emotion-Exciting-Thrilling = 1: 0 (121.0)

Number of Leaves  : 	32

Size of the tree : 	63


Prepare_CC.Base_CC: Node #16

J48 pruned tree
------------------

Genre--_Metal-Hard_Rock = 0
|   Usage-At_a_party = 0
|   |   Song-Texture_Electric = 0
|   |   |   Mean_Acc1000_Std_Mem40_Flux_Power_powerFFT_WinHamming_HopSize512_WinSize512_AudioCh0 <= 0.036205: 1 (17.0/2.0)
|   |   |   Mean_Acc1000_Std_Mem40_Flux_Power_powerFFT_WinHamming_HopSize512_WinSize512_AudioCh0 > 0.036205
|   |   |   |   Mean_Acc1000_Std_Mem40_MFCC3_Power_powerFFT_WinHamming_HopSize512_WinSize512_AudioCh0 <= 0.685453
|   |   |   |   |   Mean_Acc1000_Mean_Mem40_MFCC2_Power_powerFFT_WinHamming_HopSize512_WinSize512_AudioCh0 <= 0.536928
|   |   |   |   |   |   Std_Acc1000_Mean_Mem40_MFCC0_Power_powerFFT_WinHamming_HopSize512_WinSize512_AudioCh0 <= 1.854738: 0 (9.0)
|   |   |   |   |   |   Std_Acc1000_Mean_Mem40_MFCC0_Power_powerFFT_WinHamming_HopSize512_WinSize512_AudioCh0 > 1.854738
|   |   |   |   |   |   |   Mean_Acc1000_Std_Mem40_MFCC1_Power_powerFFT_WinHamming_HopSize512_WinSize512_AudioCh0 <= 1.229107: 1 (6.0)
|   |   |   |   |   |   |   Mean_Acc1000_Std_Mem40_MFCC1_Power_powerFFT_WinHamming_HopSize512_WinSize512_AudioCh0 > 1.229107: 0 (2.0)
|   |   |   |   |   Mean_Acc1000_Mean_Mem40_MFCC2_Power_powerFFT_WinHamming_HopSize512_WinSize512_AudioCh0 > 0.536928: 0 (29.0)
|   |   |   |   Mean_Acc1000_Std_Mem40_MFCC3_Power_powerFFT_WinHamming_HopSize512_WinSize512_AudioCh0 > 0.685453
|   |   |   |   |   Mean_Acc1000_Mean_Mem40_ZeroCrossings_HopSize512_WinSize512_AudioCh0 <= 0.138886
|   |   |   |   |   |   Mean_Acc1000_Std_Mem40_MFCC5_Power_powerFFT_WinHamming_HopSize512_WinSize512_AudioCh0 <= 0.702858
|   |   |   |   |   |   |   Emotion-Positive-Optimistic = 0
|   |   |   |   |   |   |   |   Std_Acc1000_Std_Mem40_MFCC8_Power_powerFFT_WinHamming_HopSize512_WinSize512_AudioCh0 <= 0.099849
|   |   |   |   |   |   |   |   |   Mean_Acc1000_Mean_Mem40_MFCC7_Power_powerFFT_WinHamming_HopSize512_WinSize512_AudioCh0 <= 0.517014: 0 (10.0/1.0)
|   |   |   |   |   |   |   |   |   Mean_Acc1000_Mean_Mem40_MFCC7_Power_powerFFT_WinHamming_HopSize512_WinSize512_AudioCh0 > 0.517014
|   |   |   |   |   |   |   |   |   |   Mean_Acc1000_Mean_Mem40_MFCC2_Power_powerFFT_WinHamming_HopSize512_WinSize512_AudioCh0 <= 1.957365: 1 (12.0/1.0)
|   |   |   |   |   |   |   |   |   |   Mean_Acc1000_Mean_Mem40_MFCC2_Power_powerFFT_WinHamming_HopSize512_WinSize512_AudioCh0 > 1.957365: 0 (2.0)
|   |   |   |   |   |   |   |   Std_Acc1000_Std_Mem40_MFCC8_Power_powerFFT_WinHamming_HopSize512_WinSize512_AudioCh0 > 0.099849: 1 (25.0)
|   |   |   |   |   |   |   Emotion-Positive-Optimistic = 1
|   |   |   |   |   |   |   |   Mean_Acc1000_Std_Mem40_MFCC5_Power_powerFFT_WinHamming_HopSize512_WinSize512_AudioCh0 <= 0.647077
|   |   |   |   |   |   |   |   |   Std_Acc1000_Mean_Mem40_Centroid_Power_powerFFT_WinHamming_HopSize512_WinSize512_AudioCh0 <= 0.011001: 1 (2.0)
|   |   |   |   |   |   |   |   |   Std_Acc1000_Mean_Mem40_Centroid_Power_powerFFT_WinHamming_HopSize512_WinSize512_AudioCh0 > 0.011001: 0 (7.0)
|   |   |   |   |   |   |   |   Mean_Acc1000_Std_Mem40_MFCC5_Power_powerFFT_WinHamming_HopSize512_WinSize512_AudioCh0 > 0.647077: 1 (5.0)
|   |   |   |   |   |   Mean_Acc1000_Std_Mem40_MFCC5_Power_powerFFT_WinHamming_HopSize512_WinSize512_AudioCh0 > 0.702858: 0 (5.0)
|   |   |   |   |   Mean_Acc1000_Mean_Mem40_ZeroCrossings_HopSize512_WinSize512_AudioCh0 > 0.138886: 0 (6.0)
|   |   Song-Texture_Electric = 1
|   |   |   Vocals-Falsetto = 0
|   |   |   |   Mean_Acc1000_Std_Mem40_MFCC6_Power_powerFFT_WinHamming_HopSize512_WinSize512_AudioCh0 <= 0.62783
|   |   |   |   |   Std_Acc1000_Mean_Mem40_ZeroCrossings_HopSize512_WinSize512_AudioCh0 <= 0.023914
|   |   |   |   |   |   Std_Acc1000_Mean_Mem40_Flux_Power_powerFFT_WinHamming_HopSize512_WinSize512_AudioCh0 <= 0.012764
|   |   |   |   |   |   |   Instrument_-_Electric_Guitar_(distorted) = 0
|   |   |   |   |   |   |   |   Song-Catchy-Memorable = 0
|   |   |   |   |   |   |   |   |   Std_Acc1000_Mean_Mem40_MFCC11_Power_powerFFT_WinHamming_HopSize512_WinSize512_AudioCh0 <= 0.449572
|   |   |   |   |   |   |   |   |   |   Mean_Acc1000_Mean_Mem40_Rolloff_Power_powerFFT_WinHamming_HopSize512_WinSize512_AudioCh0 <= 0.245694
|   |   |   |   |   |   |   |   |   |   |   Std_Acc1000_Std_Mem40_MFCC9_Power_powerFFT_WinHamming_HopSize512_WinSize512_AudioCh0 <= 0.073134
|   |   |   |   |   |   |   |   |   |   |   |   Std_Acc1000_Mean_Mem40_MFCC5_Power_powerFFT_WinHamming_HopSize512_WinSize512_AudioCh0 <= 0.188939: 0 (4.0)
|   |   |   |   |   |   |   |   |   |   |   |   Std_Acc1000_Mean_Mem40_MFCC5_Power_powerFFT_WinHamming_HopSize512_WinSize512_AudioCh0 > 0.188939
|   |   |   |   |   |   |   |   |   |   |   |   |   Std_Acc1000_Mean_Mem40_Flux_Power_powerFFT_WinHamming_HopSize512_WinSize512_AudioCh0 <= 0.010429
|   |   |   |   |   |   |   |   |   |   |   |   |   |   Mean_Acc1000_Mean_Mem40_MFCC2_Power_powerFFT_WinHamming_HopSize512_WinSize512_AudioCh0 <= 0.789378: 0 (2.0)
|   |   |   |   |   |   |   |   |   |   |   |   |   |   Mean_Acc1000_Mean_Mem40_MFCC2_Power_powerFFT_WinHamming_HopSize512_WinSize512_AudioCh0 > 0.789378: 1 (2.0)
|   |   |   |   |   |   |   |   |   |   |   |   |   Std_Acc1000_Mean_Mem40_Flux_Power_powerFFT_WinHamming_HopSize512_WinSize512_AudioCh0 > 0.010429: 1 (7.0)
|   |   |   |   |   |   |   |   |   |   |   Std_Acc1000_Std_Mem40_MFCC9_Power_powerFFT_WinHamming_HopSize512_WinSize512_AudioCh0 > 0.073134
|   |   |   |   |   |   |   |   |   |   |   |   Mean_Acc1000_Mean_Mem40_MFCC0_Power_powerFFT_WinHamming_HopSize512_WinSize512_AudioCh0 <= -79.497272: 1 (4.0/1.0)
|   |   |   |   |   |   |   |   |   |   |   |   Mean_Acc1000_Mean_Mem40_MFCC0_Power_powerFFT_WinHamming_HopSize512_WinSize512_AudioCh0 > -79.497272: 0 (39.0/3.0)
|   |   |   |   |   |   |   |   |   |   Mean_Acc1000_Mean_Mem40_Rolloff_Power_powerFFT_WinHamming_HopSize512_WinSize512_AudioCh0 > 0.245694: 1 (4.0)
|   |   |   |   |   |   |   |   |   Std_Acc1000_Mean_Mem40_MFCC11_Power_powerFFT_WinHamming_HopSize512_WinSize512_AudioCh0 > 0.449572: 1 (5.0)
|   |   |   |   |   |   |   |   Song-Catchy-Memorable = 1
|   |   |   |   |   |   |   |   |   Mean_Acc1000_Mean_Mem40_MFCC0_Power_powerFFT_WinHamming_HopSize512_WinSize512_AudioCh0 <= -66.228119: 0 (24.0)
|   |   |   |   |   |   |   |   |   Mean_Acc1000_Mean_Mem40_MFCC0_Power_powerFFT_WinHamming_HopSize512_WinSize512_AudioCh0 > -66.228119
|   |   |   |   |   |   |   |   |   |   Mean_Acc1000_Mean_Mem40_ZeroCrossings_HopSize512_WinSize512_AudioCh0 <= 0.097921: 0 (2.0)
|   |   |   |   |   |   |   |   |   |   Mean_Acc1000_Mean_Mem40_ZeroCrossings_HopSize512_WinSize512_AudioCh0 > 0.097921: 1 (4.0)
|   |   |   |   |   |   |   Instrument_-_Electric_Guitar_(distorted) = 1
|   |   |   |   |   |   |   |   Std_Acc1000_Mean_Mem40_Rolloff_Power_powerFFT_WinHamming_HopSize512_WinSize512_AudioCh0 <= 0.026854: 1 (2.0)
|   |   |   |   |   |   |   |   Std_Acc1000_Mean_Mem40_Rolloff_Power_powerFFT_WinHamming_HopSize512_WinSize512_AudioCh0 > 0.026854: 0 (18.0)
|   |   |   |   |   |   Std_Acc1000_Mean_Mem40_Flux_Power_powerFFT_WinHamming_HopSize512_WinSize512_AudioCh0 > 0.012764: 1 (8.0)
|   |   |   |   |   Std_Acc1000_Mean_Mem40_ZeroCrossings_HopSize512_WinSize512_AudioCh0 > 0.023914: 0 (75.0/3.0)
|   |   |   |   Mean_Acc1000_Std_Mem40_MFCC6_Power_powerFFT_WinHamming_HopSize512_WinSize512_AudioCh0 > 0.62783
|   |   |   |   |   Instrument_-_Electric_Guitar_(distorted) = 0
|   |   |   |   |   |   Mean_Acc1000_Mean_Mem40_MFCC0_Power_powerFFT_WinHamming_HopSize512_WinSize512_AudioCh0 <= -72.205015: 1 (12.0)
|   |   |   |   |   |   Mean_Acc1000_Mean_Mem40_MFCC0_Power_powerFFT_WinHamming_HopSize512_WinSize512_AudioCh0 > -72.205015
|   |   |   |   |   |   |   Mean_Acc1000_Std_Mem40_MFCC12_Power_powerFFT_WinHamming_HopSize512_WinSize512_AudioCh0 <= 0.568401: 0 (6.0)
|   |   |   |   |   |   |   Mean_Acc1000_Std_Mem40_MFCC12_Power_powerFFT_WinHamming_HopSize512_WinSize512_AudioCh0 > 0.568401: 1 (2.0)
|   |   |   |   |   Instrument_-_Electric_Guitar_(distorted) = 1: 0 (2.0)
|   |   |   Vocals-Falsetto = 1: 0 (7.0)
|   Usage-At_a_party = 1: 0 (55.0/1.0)
Genre--_Metal-Hard_Rock = 1: 0 (31.0)

Number of Leaves  : 	36

Size of the tree : 	71


Prepare_CC.Base_CC: Node #17

J48 pruned tree
------------------

Emotion-Positive-Optimistic = 0
|   NOT-Emotion-Cheerful-Festive = 0
|   |   Vocals-Falsetto = 0
|   |   |   Vocals-Spoken = 0
|   |   |   |   NOT-Emotion-Arousing-Awakening = 0
|   |   |   |   |   Vocals-Emotional = 0
|   |   |   |   |   |   Vocals-Breathy = 0
|   |   |   |   |   |   |   Usage-Studying = 0
|   |   |   |   |   |   |   |   Vocals-Vocal_Harmonies = 0
|   |   |   |   |   |   |   |   |   Instrument_-_Horn_Section = 0
|   |   |   |   |   |   |   |   |   |   NOT-Song-Heavy_Beat = 0
|   |   |   |   |   |   |   |   |   |   |   Song-Texture_Electric = 0: 0 (22.0)
|   |   |   |   |   |   |   |   |   |   |   Song-Texture_Electric = 1
|   |   |   |   |   |   |   |   |   |   |   |   Genre-World = 0
|   |   |   |   |   |   |   |   |   |   |   |   |   Song-Positive_Feelings = 0
|   |   |   |   |   |   |   |   |   |   |   |   |   |   Usage-Getting_ready_to_go_out = 0
|   |   |   |   |   |   |   |   |   |   |   |   |   |   |   Mean_Acc1000_Std_Mem40_MFCC12_Power_powerFFT_WinHamming_HopSize512_WinSize512_AudioCh0 <= 0.594375: 0 (36.0/1.0)
|   |   |   |   |   |   |   |   |   |   |   |   |   |   |   Mean_Acc1000_Std_Mem40_MFCC12_Power_powerFFT_WinHamming_HopSize512_WinSize512_AudioCh0 > 0.594375: 1 (2.0)
|   |   |   |   |   |   |   |   |   |   |   |   |   |   Usage-Getting_ready_to_go_out = 1: 1 (3.0/1.0)
|   |   |   |   |   |   |   |   |   |   |   |   |   Song-Positive_Feelings = 1
|   |   |   |   |   |   |   |   |   |   |   |   |   |   Mean_Acc1000_Std_Mem40_MFCC3_Power_powerFFT_WinHamming_HopSize512_WinSize512_AudioCh0 <= 0.817332
|   |   |   |   |   |   |   |   |   |   |   |   |   |   |   Std_Acc1000_Std_Mem40_Rolloff_Power_powerFFT_WinHamming_HopSize512_WinSize512_AudioCh0 <= 0.031309: 1 (5.0/1.0)
|   |   |   |   |   |   |   |   |   |   |   |   |   |   |   Std_Acc1000_Std_Mem40_Rolloff_Power_powerFFT_WinHamming_HopSize512_WinSize512_AudioCh0 > 0.031309: 0 (14.0)
|   |   |   |   |   |   |   |   |   |   |   |   |   |   Mean_Acc1000_Std_Mem40_MFCC3_Power_powerFFT_WinHamming_HopSize512_WinSize512_AudioCh0 > 0.817332
|   |   |   |   |   |   |   |   |   |   |   |   |   |   |   Mean_Acc1000_Std_Mem40_MFCC12_Power_powerFFT_WinHamming_HopSize512_WinSize512_AudioCh0 <= 0.564908: 1 (12.0)
|   |   |   |   |   |   |   |   |   |   |   |   |   |   |   Mean_Acc1000_Std_Mem40_MFCC12_Power_powerFFT_WinHamming_HopSize512_WinSize512_AudioCh0 > 0.564908: 0 (2.0)
|   |   |   |   |   |   |   |   |   |   |   |   Genre-World = 1: 1 (3.0)
|   |   |   |   |   |   |   |   |   |   NOT-Song-Heavy_Beat = 1
|   |   |   |   |   |   |   |   |   |   |   Emotion-Pleasant-Comfortable = 0: 0 (2.0)
|   |   |   |   |   |   |   |   |   |   |   Emotion-Pleasant-Comfortable = 1: 1 (6.0)
|   |   |   |   |   |   |   |   |   Instrument_-_Horn_Section = 1: 1 (2.0)
|   |   |   |   |   |   |   |   Vocals-Vocal_Harmonies = 1: 0 (10.0)
|   |   |   |   |   |   |   Usage-Studying = 1
|   |   |   |   |   |   |   |   Song-Catchy-Memorable = 0: 1 (4.0)
|   |   |   |   |   |   |   |   Song-Catchy-Memorable = 1: 0 (3.0/1.0)
|   |   |   |   |   |   Vocals-Breathy = 1: 1 (5.0/1.0)
|   |   |   |   |   Vocals-Emotional = 1: 0 (15.0)
|   |   |   |   NOT-Emotion-Arousing-Awakening = 1: 0 (30.0)
|   |   |   Vocals-Spoken = 1: 1 (4.0/1.0)
|   |   Vocals-Falsetto = 1: 1 (2.0)
|   NOT-Emotion-Cheerful-Festive = 1
|   |   Vocals-Vocal_Harmonies = 0: 0 (149.0)
|   |   Vocals-Vocal_Harmonies = 1
|   |   |   Mean_Acc1000_Mean_Mem40_MFCC12_Power_powerFFT_WinHamming_HopSize512_WinSize512_AudioCh0 <= 0.257018: 1 (2.0)
|   |   |   Mean_Acc1000_Mean_Mem40_MFCC12_Power_powerFFT_WinHamming_HopSize512_WinSize512_AudioCh0 > 0.257018: 0 (7.0)
Emotion-Positive-Optimistic = 1
|   Instrument_-_Female_Lead_Vocals-Solo = 0
|   |   NOT-Song-Very_Danceable = 0
|   |   |   Mean_Acc1000_Mean_Mem40_MFCC6_Power_powerFFT_WinHamming_HopSize512_WinSize512_AudioCh0 <= -0.0804: 0 (4.0)
|   |   |   Mean_Acc1000_Mean_Mem40_MFCC6_Power_powerFFT_WinHamming_HopSize512_WinSize512_AudioCh0 > -0.0804
|   |   |   |   Mean_Acc1000_Std_Mem40_MFCC1_Power_powerFFT_WinHamming_HopSize512_WinSize512_AudioCh0 <= 1.607705: 1 (63.0/3.0)
|   |   |   |   Mean_Acc1000_Std_Mem40_MFCC1_Power_powerFFT_WinHamming_HopSize512_WinSize512_AudioCh0 > 1.607705: 0 (4.0/1.0)
|   |   NOT-Song-Very_Danceable = 1
|   |   |   NOT-Emotion-Arousing-Awakening = 0
|   |   |   |   NOT-Emotion-Loving-Romantic = 0
|   |   |   |   |   Emotion-Pleasant-Comfortable = 0
|   |   |   |   |   |   Song-Texture_Acoustic = 0: 1 (2.0)
|   |   |   |   |   |   Song-Texture_Acoustic = 1: 0 (5.0)
|   |   |   |   |   Emotion-Pleasant-Comfortable = 1
|   |   |   |   |   |   Mean_Acc1000_Std_Mem40_MFCC1_Power_powerFFT_WinHamming_HopSize512_WinSize512_AudioCh0 <= 0.714144: 0 (2.0)
|   |   |   |   |   |   Mean_Acc1000_Std_Mem40_MFCC1_Power_powerFFT_WinHamming_HopSize512_WinSize512_AudioCh0 > 0.714144: 1 (19.0/1.0)
|   |   |   |   NOT-Emotion-Loving-Romantic = 1: 0 (3.0)
|   |   |   NOT-Emotion-Arousing-Awakening = 1: 0 (8.0)
|   Instrument_-_Female_Lead_Vocals-Solo = 1: 0 (2.0)

Number of Leaves  : 	33

Size of the tree : 	65


Prepare_CC.Base_CC: Node #18

J48 pruned tree
------------------

NOT-Song-Positive_Feelings = 0
|   NOT-Emotion-Cheerful-Festive = 0
|   |   NOT-Song-Like = 0
|   |   |   Genre--_Metal-Hard_Rock = 0
|   |   |   |   NOT-Song-Tonality = 0: 0 (247.0/5.0)
|   |   |   |   NOT-Song-Tonality = 1
|   |   |   |   |   Std_Acc1000_Mean_Mem40_MFCC1_Power_powerFFT_WinHamming_HopSize512_WinSize512_AudioCh0 <= 0.993434: 0 (13.0/1.0)
|   |   |   |   |   Std_Acc1000_Mean_Mem40_MFCC1_Power_powerFFT_WinHamming_HopSize512_WinSize512_AudioCh0 > 0.993434: 1 (4.0)
|   |   |   Genre--_Metal-Hard_Rock = 1
|   |   |   |   Mean_Acc1000_Mean_Mem40_MFCC8_Power_powerFFT_WinHamming_HopSize512_WinSize512_AudioCh0 <= 0.53454: 0 (4.0)
|   |   |   |   Mean_Acc1000_Mean_Mem40_MFCC8_Power_powerFFT_WinHamming_HopSize512_WinSize512_AudioCh0 > 0.53454: 1 (3.0)
|   |   NOT-Song-Like = 1
|   |   |   NOT-Emotion-Positive-Optimistic = 0
|   |   |   |   Std_Acc1000_Mean_Mem40_MFCC4_Power_powerFFT_WinHamming_HopSize512_WinSize512_AudioCh0 <= 0.25926: 1 (3.0)
|   |   |   |   Std_Acc1000_Mean_Mem40_MFCC4_Power_powerFFT_WinHamming_HopSize512_WinSize512_AudioCh0 > 0.25926: 0 (8.0)
|   |   |   NOT-Emotion-Positive-Optimistic = 1: 1 (3.0)
|   NOT-Emotion-Cheerful-Festive = 1
|   |   Instrument_-_Hand_Drums = 0
|   |   |   Instrument_-_Male_Lead_Vocals-Solo = 0
|   |   |   |   Mean_Acc1000_Mean_Mem40_MFCC1_Power_powerFFT_WinHamming_HopSize512_WinSize512_AudioCh0 <= 7.871836
|   |   |   |   |   Song-Like = 0
|   |   |   |   |   |   NOT-Song-High_Energy = 0
|   |   |   |   |   |   |   Std_Acc1000_Mean_Mem40_Flux_Power_powerFFT_WinHamming_HopSize512_WinSize512_AudioCh0 <= 0.009798
|   |   |   |   |   |   |   |   Emotion-Calming-Soothing = 0: 1 (7.0/1.0)
|   |   |   |   |   |   |   |   Emotion-Calming-Soothing = 1: 0 (2.0)
|   |   |   |   |   |   |   Std_Acc1000_Mean_Mem40_Flux_Power_powerFFT_WinHamming_HopSize512_WinSize512_AudioCh0 > 0.009798: 0 (38.0/3.0)
|   |   |   |   |   |   NOT-Song-High_Energy = 1
|   |   |   |   |   |   |   Song-Texture_Electric = 0
|   |   |   |   |   |   |   |   Mean_Acc1000_Mean_Mem40_Rolloff_Power_powerFFT_WinHamming_HopSize512_WinSize512_AudioCh0 <= 0.198293: 0 (7.0)
|   |   |   |   |   |   |   |   Mean_Acc1000_Mean_Mem40_Rolloff_Power_powerFFT_WinHamming_HopSize512_WinSize512_AudioCh0 > 0.198293: 1 (3.0)
|   |   |   |   |   |   |   Song-Texture_Electric = 1: 1 (8.0)
|   |   |   |   |   Song-Like = 1: 0 (12.0)
|   |   |   |   Mean_Acc1000_Mean_Mem40_MFCC1_Power_powerFFT_WinHamming_HopSize512_WinSize512_AudioCh0 > 7.871836: 1 (7.0)
|   |   |   Instrument_-_Male_Lead_Vocals-Solo = 1: 1 (11.0/1.0)
|   |   Instrument_-_Hand_Drums = 1: 1 (2.0)
NOT-Song-Positive_Feelings = 1
|   NOT-Emotion-Cheerful-Festive = 0: 0 (4.0)
|   NOT-Emotion-Cheerful-Festive = 1
|   |   Mean_Acc1000_Std_Mem40_MFCC3_Power_powerFFT_WinHamming_HopSize512_WinSize512_AudioCh0 <= 1.162938
|   |   |   Genre--_Classic_Rock = 0
|   |   |   |   Instrument_-_Electric_Guitar_(distorted)-Solo = 0: 1 (54.0/3.0)
|   |   |   |   Instrument_-_Electric_Guitar_(distorted)-Solo = 1: 0 (3.0/1.0)
|   |   |   Genre--_Classic_Rock = 1
|   |   |   |   NOT-Song-Like = 0: 1 (3.0)
|   |   |   |   NOT-Song-Like = 1: 0 (2.0)
|   |   Mean_Acc1000_Std_Mem40_MFCC3_Power_powerFFT_WinHamming_HopSize512_WinSize512_AudioCh0 > 1.162938: 0 (4.0)

Number of Leaves  : 	24

Size of the tree : 	47


Prepare_CC.Base_CC: Node #19

J48 pruned tree
------------------

Emotion-Calming-Soothing = 0
|   Std_Acc1000_Std_Mem40_Flux_Power_powerFFT_WinHamming_HopSize512_WinSize512_AudioCh0 <= 0.032523: 0 (294.0/10.0)
|   Std_Acc1000_Std_Mem40_Flux_Power_powerFFT_WinHamming_HopSize512_WinSize512_AudioCh0 > 0.032523
|   |   Std_Acc1000_Mean_Mem40_MFCC10_Power_powerFFT_WinHamming_HopSize512_WinSize512_AudioCh0 <= 0.176285: 1 (5.0/1.0)
|   |   Std_Acc1000_Mean_Mem40_MFCC10_Power_powerFFT_WinHamming_HopSize512_WinSize512_AudioCh0 > 0.176285: 0 (22.0/1.0)
Emotion-Calming-Soothing = 1
|   Instrument_-_Trumpet = 0
|   |   NOT-Emotion-Laid-back-Mellow = 0
|   |   |   Vocals-Falsetto = 0
|   |   |   |   Genre--_Country_Blues = 0
|   |   |   |   |   Mean_Acc1000_Std_Mem40_MFCC0_Power_powerFFT_WinHamming_HopSize512_WinSize512_AudioCh0 <= 3.691945
|   |   |   |   |   |   Std_Acc1000_Mean_Mem40_ZeroCrossings_HopSize512_WinSize512_AudioCh0 <= 0.009461: 0 (3.0)
|   |   |   |   |   |   Std_Acc1000_Mean_Mem40_ZeroCrossings_HopSize512_WinSize512_AudioCh0 > 0.009461
|   |   |   |   |   |   |   Emotion-Touching-Loving = 0
|   |   |   |   |   |   |   |   Emotion-Loving-Romantic = 0
|   |   |   |   |   |   |   |   |   Genre--_Alternative = 0
|   |   |   |   |   |   |   |   |   |   Mean_Acc1000_Mean_Mem40_MFCC6_Power_powerFFT_WinHamming_HopSize512_WinSize512_AudioCh0 <= 0.210519: 0 (4.0/1.0)
|   |   |   |   |   |   |   |   |   |   Mean_Acc1000_Mean_Mem40_MFCC6_Power_powerFFT_WinHamming_HopSize512_WinSize512_AudioCh0 > 0.210519: 1 (28.0/1.0)
|   |   |   |   |   |   |   |   |   Genre--_Alternative = 1: 0 (3.0/1.0)
|   |   |   |   |   |   |   |   Emotion-Loving-Romantic = 1: 0 (3.0/1.0)
|   |   |   |   |   |   |   Emotion-Touching-Loving = 1: 1 (20.0)
|   |   |   |   |   Mean_Acc1000_Std_Mem40_MFCC0_Power_powerFFT_WinHamming_HopSize512_WinSize512_AudioCh0 > 3.691945
|   |   |   |   |   |   Instrument_-_Hand_Drums = 0
|   |   |   |   |   |   |   Usage-With_the_family = 0
|   |   |   |   |   |   |   |   Mean_Acc1000_Std_Mem40_MFCC4_Power_powerFFT_WinHamming_HopSize512_WinSize512_AudioCh0 <= 0.816656
|   |   |   |   |   |   |   |   |   Std_Acc1000_Std_Mem40_Rolloff_Power_powerFFT_WinHamming_HopSize512_WinSize512_AudioCh0 <= 0.030289: 1 (5.0)
|   |   |   |   |   |   |   |   |   Std_Acc1000_Std_Mem40_Rolloff_Power_powerFFT_WinHamming_HopSize512_WinSize512_AudioCh0 > 0.030289
|   |   |   |   |   |   |   |   |   |   Mean_Acc1000_Mean_Mem40_MFCC10_Power_powerFFT_WinHamming_HopSize512_WinSize512_AudioCh0 <= -0.058982: 1 (2.0)
|   |   |   |   |   |   |   |   |   |   Mean_Acc1000_Mean_Mem40_MFCC10_Power_powerFFT_WinHamming_HopSize512_WinSize512_AudioCh0 > -0.058982
|   |   |   |   |   |   |   |   |   |   |   NOT-Song-Catchy-Memorable = 0: 0 (31.0/1.0)
|   |   |   |   |   |   |   |   |   |   |   NOT-Song-Catchy-Memorable = 1
|   |   |   |   |   |   |   |   |   |   |   |   Mean_Acc1000_Mean_Mem40_MFCC8_Power_powerFFT_WinHamming_HopSize512_WinSize512_AudioCh0 <= 0.528661: 0 (5.0)
|   |   |   |   |   |   |   |   |   |   |   |   Mean_Acc1000_Mean_Mem40_MFCC8_Power_powerFFT_WinHamming_HopSize512_WinSize512_AudioCh0 > 0.528661: 1 (2.0)
|   |   |   |   |   |   |   |   Mean_Acc1000_Std_Mem40_MFCC4_Power_powerFFT_WinHamming_HopSize512_WinSize512_AudioCh0 > 0.816656: 1 (6.0)
|   |   |   |   |   |   |   Usage-With_the_family = 1: 1 (3.0)
|   |   |   |   |   |   Instrument_-_Hand_Drums = 1: 1 (3.0)
|   |   |   |   Genre--_Country_Blues = 1: 1 (2.0)
|   |   |   Vocals-Falsetto = 1: 1 (4.0)
|   |   NOT-Emotion-Laid-back-Mellow = 1: 0 (2.0)
|   Instrument_-_Trumpet = 1: 0 (5.0)

Number of Leaves  : 	21

Size of the tree : 	41


Prepare_CC.Base_CC: Node #20

J48 pruned tree
------------------

NOT-Emotion-Calming-Soothing = 0
|   Emotion-Calming-Soothing = 0
|   |   Genre-World = 0
|   |   |   Usage-Romancing = 0
|   |   |   |   NOT-Emotion-Arousing-Awakening = 0
|   |   |   |   |   NOT-Song-Like = 0
|   |   |   |   |   |   Usage-Exercising = 0
|   |   |   |   |   |   |   Usage-Getting_ready_to_go_out = 0
|   |   |   |   |   |   |   |   Std_Acc1000_Mean_Mem40_Flux_Power_powerFFT_WinHamming_HopSize512_WinSize512_AudioCh0 <= 0.013087: 0 (103.0/9.0)
|   |   |   |   |   |   |   |   Std_Acc1000_Mean_Mem40_Flux_Power_powerFFT_WinHamming_HopSize512_WinSize512_AudioCh0 > 0.013087
|   |   |   |   |   |   |   |   |   Std_Acc1000_Mean_Mem40_MFCC12_Power_powerFFT_WinHamming_HopSize512_WinSize512_AudioCh0 <= 0.265733: 0 (3.0)
|   |   |   |   |   |   |   |   |   Std_Acc1000_Mean_Mem40_MFCC12_Power_powerFFT_WinHamming_HopSize512_WinSize512_AudioCh0 > 0.265733: 1 (6.0)
|   |   |   |   |   |   |   Usage-Getting_ready_to_go_out = 1
|   |   |   |   |   |   |   |   Mean_Acc1000_Mean_Mem40_MFCC10_Power_powerFFT_WinHamming_HopSize512_WinSize512_AudioCh0 <= 0.289024: 0 (3.0)
|   |   |   |   |   |   |   |   Mean_Acc1000_Mean_Mem40_MFCC10_Power_powerFFT_WinHamming_HopSize512_WinSize512_AudioCh0 > 0.289024: 1 (3.0)
|   |   |   |   |   |   Usage-Exercising = 1
|   |   |   |   |   |   |   Emotion-Powerful-Strong = 0: 1 (4.0)
|   |   |   |   |   |   |   Emotion-Powerful-Strong = 1: 0 (4.0)
|   |   |   |   |   NOT-Song-Like = 1
|   |   |   |   |   |   Mean_Acc1000_Mean_Mem40_ZeroCrossings_HopSize512_WinSize512_AudioCh0 <= 0.093282: 0 (3.0)
|   |   |   |   |   |   Mean_Acc1000_Mean_Mem40_ZeroCrossings_HopSize512_WinSize512_AudioCh0 > 0.093282: 1 (7.0)
|   |   |   |   NOT-Emotion-Arousing-Awakening = 1: 0 (21.0)
|   |   |   Usage-Romancing = 1: 1 (3.0/1.0)
|   |   Genre-World = 1
|   |   |   Mean_Acc1000_Mean_Mem40_MFCC9_Power_powerFFT_WinHamming_HopSize512_WinSize512_AudioCh0 <= 0.529034: 0 (2.0)
|   |   |   Mean_Acc1000_Mean_Mem40_MFCC9_Power_powerFFT_WinHamming_HopSize512_WinSize512_AudioCh0 > 0.529034: 1 (6.0)
|   Emotion-Calming-Soothing = 1: 0 (131.0/2.0)
NOT-Emotion-Calming-Soothing = 1
|   NOT-Emotion-Powerful-Strong = 0
|   |   NOT-Emotion-Arousing-Awakening = 0
|   |   |   Emotion-Powerful-Strong = 0
|   |   |   |   Genre--_Funk = 0
|   |   |   |   |   Genre-World = 0
|   |   |   |   |   |   Std_Acc1000_Std_Mem40_MFCC4_Power_powerFFT_WinHamming_HopSize512_WinSize512_AudioCh0 <= 0.193696
|   |   |   |   |   |   |   Mean_Acc1000_Std_Mem40_MFCC7_Power_powerFFT_WinHamming_HopSize512_WinSize512_AudioCh0 <= 0.4415: 0 (7.0)
|   |   |   |   |   |   |   Mean_Acc1000_Std_Mem40_MFCC7_Power_powerFFT_WinHamming_HopSize512_WinSize512_AudioCh0 > 0.4415
|   |   |   |   |   |   |   |   Std_Acc1000_Std_Mem40_MFCC8_Power_powerFFT_WinHamming_HopSize512_WinSize512_AudioCh0 <= 0.098294
|   |   |   |   |   |   |   |   |   Std_Acc1000_Std_Mem40_MFCC10_Power_powerFFT_WinHamming_HopSize512_WinSize512_AudioCh0 <= 0.0772
|   |   |   |   |   |   |   |   |   |   Mean_Acc1000_Std_Mem40_MFCC7_Power_powerFFT_WinHamming_HopSize512_WinSize512_AudioCh0 <= 0.532566: 1 (8.0)
|   |   |   |   |   |   |   |   |   |   Mean_Acc1000_Std_Mem40_MFCC7_Power_powerFFT_WinHamming_HopSize512_WinSize512_AudioCh0 > 0.532566: 0 (3.0/1.0)
|   |   |   |   |   |   |   |   |   Std_Acc1000_Std_Mem40_MFCC10_Power_powerFFT_WinHamming_HopSize512_WinSize512_AudioCh0 > 0.0772: 0 (12.0)
|   |   |   |   |   |   |   |   Std_Acc1000_Std_Mem40_MFCC8_Power_powerFFT_WinHamming_HopSize512_WinSize512_AudioCh0 > 0.098294: 1 (20.0/1.0)
|   |   |   |   |   |   Std_Acc1000_Std_Mem40_MFCC4_Power_powerFFT_WinHamming_HopSize512_WinSize512_AudioCh0 > 0.193696: 0 (9.0)
|   |   |   |   |   Genre-World = 1: 1 (3.0)
|   |   |   |   Genre--_Funk = 1: 1 (3.0)
|   |   |   Emotion-Powerful-Strong = 1
|   |   |   |   NOT-Emotion-Loving-Romantic = 0
|   |   |   |   |   NOT-Emotion-Cheerful-Festive = 0
|   |   |   |   |   |   Usage-At_a_party = 0
|   |   |   |   |   |   |   Mean_Acc1000_Mean_Mem40_MFCC4_Power_powerFFT_WinHamming_HopSize512_WinSize512_AudioCh0 <= 0.759481: 1 (9.0)
|   |   |   |   |   |   |   Mean_Acc1000_Mean_Mem40_MFCC4_Power_powerFFT_WinHamming_HopSize512_WinSize512_AudioCh0 > 0.759481: 0 (2.0)
|   |   |   |   |   |   Usage-At_a_party = 1: 0 (3.0)
|   |   |   |   |   NOT-Emotion-Cheerful-Festive = 1: 0 (4.0)
|   |   |   |   NOT-Emotion-Loving-Romantic = 1
|   |   |   |   |   Mean_Acc1000_Std_Mem40_MFCC1_Power_powerFFT_WinHamming_HopSize512_WinSize512_AudioCh0 <= 1.336776: 1 (49.0)
|   |   |   |   |   Mean_Acc1000_Std_Mem40_MFCC1_Power_powerFFT_WinHamming_HopSize512_WinSize512_AudioCh0 > 1.336776
|   |   |   |   |   |   Song-Tonality = 0
|   |   |   |   |   |   |   Mean_Acc1000_Mean_Mem40_MFCC8_Power_powerFFT_WinHamming_HopSize512_WinSize512_AudioCh0 <= 0.754306: 1 (7.0)
|   |   |   |   |   |   |   Mean_Acc1000_Mean_Mem40_MFCC8_Power_powerFFT_WinHamming_HopSize512_WinSize512_AudioCh0 > 0.754306: 0 (2.0)
|   |   |   |   |   |   Song-Tonality = 1: 0 (2.0)
|   |   NOT-Emotion-Arousing-Awakening = 1: 1 (4.0)
|   NOT-Emotion-Powerful-Strong = 1: 0 (6.0/1.0)

Number of Leaves  : 	32

Size of the tree : 	63


Prepare_CC.Base_CC: Node #21

J48 pruned tree
------------------

Emotion-Carefree-Lighthearted = 0
|   Emotion-Happy = 0: 0 (301.0/4.0)
|   Emotion-Happy = 1
|   |   Mean_Acc1000_Std_Mem40_MFCC8_Power_powerFFT_WinHamming_HopSize512_WinSize512_AudioCh0 <= 0.608061
|   |   |   NOT-Song-Heavy_Beat = 0
|   |   |   |   Mean_Acc1000_Std_Mem40_MFCC12_Power_powerFFT_WinHamming_HopSize512_WinSize512_AudioCh0 <= 0.452945
|   |   |   |   |   Song-Positive_Feelings = 0: 0 (3.0)
|   |   |   |   |   Song-Positive_Feelings = 1: 1 (7.0/1.0)
|   |   |   |   Mean_Acc1000_Std_Mem40_MFCC12_Power_powerFFT_WinHamming_HopSize512_WinSize512_AudioCh0 > 0.452945: 0 (32.0/1.0)
|   |   |   NOT-Song-Heavy_Beat = 1: 1 (6.0/1.0)
|   |   Mean_Acc1000_Std_Mem40_MFCC8_Power_powerFFT_WinHamming_HopSize512_WinSize512_AudioCh0 > 0.608061: 1 (4.0)
Emotion-Carefree-Lighthearted = 1
|   Instrument_-_Samples = 0
|   |   Genre-Bluegrass = 0
|   |   |   NOT-Emotion-Cheerful-Festive = 0
|   |   |   |   Vocals-Call_and_Response = 0
|   |   |   |   |   Genre--_Swing = 0
|   |   |   |   |   |   Emotion-Bizarre-Weird = 0
|   |   |   |   |   |   |   NOT-Emotion-Bizarre-Weird = 0: 1 (18.0)
|   |   |   |   |   |   |   NOT-Emotion-Bizarre-Weird = 1
|   |   |   |   |   |   |   |   Std_Acc1000_Mean_Mem40_Centroid_Power_powerFFT_WinHamming_HopSize512_WinSize512_AudioCh0 <= 0.011789: 0 (7.0/1.0)
|   |   |   |   |   |   |   |   Std_Acc1000_Mean_Mem40_Centroid_Power_powerFFT_WinHamming_HopSize512_WinSize512_AudioCh0 > 0.011789
|   |   |   |   |   |   |   |   |   Emotion-Positive-Optimistic = 0
|   |   |   |   |   |   |   |   |   |   NOT-Song-Heavy_Beat = 0
|   |   |   |   |   |   |   |   |   |   |   Mean_Acc1000_Std_Mem40_MFCC2_Power_powerFFT_WinHamming_HopSize512_WinSize512_AudioCh0 <= 1.133487: 0 (7.0)
|   |   |   |   |   |   |   |   |   |   |   Mean_Acc1000_Std_Mem40_MFCC2_Power_powerFFT_WinHamming_HopSize512_WinSize512_AudioCh0 > 1.133487: 1 (2.0)
|   |   |   |   |   |   |   |   |   |   NOT-Song-Heavy_Beat = 1: 1 (4.0)
|   |   |   |   |   |   |   |   |   Emotion-Positive-Optimistic = 1: 1 (39.0/2.0)
|   |   |   |   |   |   Emotion-Bizarre-Weird = 1
|   |   |   |   |   |   |   Genre--_Alternative = 0: 0 (3.0)
|   |   |   |   |   |   |   Genre--_Alternative = 1: 1 (2.0)
|   |   |   |   |   Genre--_Swing = 1: 0 (3.0/1.0)
|   |   |   |   Vocals-Call_and_Response = 1: 0 (5.0/1.0)
|   |   |   NOT-Emotion-Cheerful-Festive = 1: 0 (2.0)
|   |   Genre-Bluegrass = 1: 0 (3.0)
|   Instrument_-_Samples = 1: 0 (4.0)

Number of Leaves  : 	19

Size of the tree : 	37


Prepare_CC.Base_CC: Node #22

J48 pruned tree
------------------

NOT-Emotion-Cheerful-Festive = 0
|   NOT-Emotion-Positive-Optimistic = 0
|   |   Genre-Best-Blues = 0
|   |   |   Emotion-Happy = 0
|   |   |   |   Instrument_-_Trumpet = 0
|   |   |   |   |   Instrument_-_Electric_Guitar_(distorted) = 0
|   |   |   |   |   |   Emotion-Positive-Optimistic = 0
|   |   |   |   |   |   |   Usage-Studying = 0
|   |   |   |   |   |   |   |   Instrument_-_Acoustic_Guitar = 0
|   |   |   |   |   |   |   |   |   Mean_Acc1000_Mean_Mem40_MFCC2_Power_powerFFT_WinHamming_HopSize512_WinSize512_AudioCh0 <= -0.420517: 1 (6.0/1.0)
|   |   |   |   |   |   |   |   |   Mean_Acc1000_Mean_Mem40_MFCC2_Power_powerFFT_WinHamming_HopSize512_WinSize512_AudioCh0 > -0.420517
|   |   |   |   |   |   |   |   |   |   Song-Catchy-Memorable = 0
|   |   |   |   |   |   |   |   |   |   |   Instrument_-_Bass = 0
|   |   |   |   |   |   |   |   |   |   |   |   Song-Texture_Electric = 0
|   |   |   |   |   |   |   |   |   |   |   |   |   Mean_Acc1000_Mean_Mem40_MFCC5_Power_powerFFT_WinHamming_HopSize512_WinSize512_AudioCh0 <= 0.80737: 1 (4.0/1.0)
|   |   |   |   |   |   |   |   |   |   |   |   |   Mean_Acc1000_Mean_Mem40_MFCC5_Power_powerFFT_WinHamming_HopSize512_WinSize512_AudioCh0 > 0.80737: 0 (8.0)
|   |   |   |   |   |   |   |   |   |   |   |   Song-Texture_Electric = 1: 0 (28.0)
|   |   |   |   |   |   |   |   |   |   |   Instrument_-_Bass = 1
|   |   |   |   |   |   |   |   |   |   |   |   NOT-Song-Changing_Energy_Level = 0: 0 (9.0/1.0)
|   |   |   |   |   |   |   |   |   |   |   |   NOT-Song-Changing_Energy_Level = 1: 1 (4.0)
|   |   |   |   |   |   |   |   |   |   Song-Catchy-Memorable = 1: 0 (20.0/1.0)
|   |   |   |   |   |   |   |   Instrument_-_Acoustic_Guitar = 1: 0 (15.0)
|   |   |   |   |   |   |   Usage-Studying = 1
|   |   |   |   |   |   |   |   Emotion-Tender-Soft = 0: 1 (2.0)
|   |   |   |   |   |   |   |   Emotion-Tender-Soft = 1: 0 (2.0)
|   |   |   |   |   |   Emotion-Positive-Optimistic = 1: 0 (23.0)
|   |   |   |   |   Instrument_-_Electric_Guitar_(distorted) = 1
|   |   |   |   |   |   Instrument_-_Drum_Set = 0: 1 (3.0)
|   |   |   |   |   |   Instrument_-_Drum_Set = 1
|   |   |   |   |   |   |   Song-Recommend = 0
|   |   |   |   |   |   |   |   Mean_Acc1000_Std_Mem40_MFCC5_Power_powerFFT_WinHamming_HopSize512_WinSize512_AudioCh0 <= 0.501047: 1 (3.0)
|   |   |   |   |   |   |   |   Mean_Acc1000_Std_Mem40_MFCC5_Power_powerFFT_WinHamming_HopSize512_WinSize512_AudioCh0 > 0.501047: 0 (10.0)
|   |   |   |   |   |   |   Song-Recommend = 1: 1 (2.0)
|   |   |   |   Instrument_-_Trumpet = 1: 1 (2.0)
|   |   |   Emotion-Happy = 1: 0 (124.0/2.0)
|   |   Genre-Best-Blues = 1
|   |   |   NOT-Emotion-Laid-back-Mellow = 0: 0 (2.0)
|   |   |   NOT-Emotion-Laid-back-Mellow = 1: 1 (2.0)
|   NOT-Emotion-Positive-Optimistic = 1
|   |   NOT-Emotion-Powerful-Strong = 0
|   |   |   Std_Acc1000_Mean_Mem40_MFCC10_Power_powerFFT_WinHamming_HopSize512_WinSize512_AudioCh0 <= 0.201724: 0 (4.0)
|   |   |   Std_Acc1000_Mean_Mem40_MFCC10_Power_powerFFT_WinHamming_HopSize512_WinSize512_AudioCh0 > 0.201724
|   |   |   |   Mean_Acc1000_Mean_Mem40_MFCC11_Power_powerFFT_WinHamming_HopSize512_WinSize512_AudioCh0 <= 0.506404: 1 (10.0)
|   |   |   |   Mean_Acc1000_Mean_Mem40_MFCC11_Power_powerFFT_WinHamming_HopSize512_WinSize512_AudioCh0 > 0.506404: 0 (3.0/1.0)
|   |   NOT-Emotion-Powerful-Strong = 1: 0 (3.0)
NOT-Emotion-Cheerful-Festive = 1
|   Emotion-Happy = 0
|   |   Instrument_-_Saxophone-Solo = 0
|   |   |   Emotion-Positive-Optimistic = 0
|   |   |   |   NOT-Emotion-Laid-back-Mellow = 0
|   |   |   |   |   Genre-Folk = 0
|   |   |   |   |   |   Instrument_-_Female_Lead_Vocals = 0
|   |   |   |   |   |   |   Instrument_-_Piano-Solo = 0
|   |   |   |   |   |   |   |   Instrument_-_Violin-Fiddle = 0
|   |   |   |   |   |   |   |   |   Usage-Hanging_with_friends = 0
