Hamming_loss, 0.17965517241379314
Exact_match, 0.0
Accuracy, 0.2355218628928483
Averaging, 0.35195556349301843
== Model info

Model                          
Prepare_CC.Base_CC: Node #1

J48 pruned tree
------------------

Vocals-Aggressive = 0
|   Genre--_Metal-Hard_Rock = 0: 0 (396.0/12.0)
|   Genre--_Metal-Hard_Rock = 1
|   |   NOT-Song-Tonality = 0: 0 (15.0/1.0)
|   |   NOT-Song-Tonality = 1: 1 (5.0)
Vocals-Aggressive = 1
|   Instrument_-_Backing_vocals = 0
|   |   Song-Tonality = 0: 1 (30.0/1.0)
|   |   Song-Tonality = 1: 0 (2.0)
|   Instrument_-_Backing_vocals = 1: 0 (4.0)

Number of Leaves  : 	6

Size of the tree : 	11


Prepare_CC.Base_CC: Node #2

J48 pruned tree
------------------

Vocals-Aggressive = 0
|   Genre--_Punk = 0
|   |   Instrument_-_Electric_Guitar_(distorted)-Solo = 0
|   |   |   Genre-Hip_Hop-Rap = 0
|   |   |   |   Genre-RandB = 0
|   |   |   |   |   Usage-Romancing = 0
|   |   |   |   |   |   NOT-Emotion-Carefree-Lighthearted = 0
|   |   |   |   |   |   |   Usage-Intensely_Listening = 0
|   |   |   |   |   |   |   |   Instrument_-_Acoustic_Guitar-Solo = 0
|   |   |   |   |   |   |   |   |   Vocals-Spoken = 0
|   |   |   |   |   |   |   |   |   |   Instrument_-_Electric_Guitar_(distorted) = 0
|   |   |   |   |   |   |   |   |   |   |   Mean_Acc1000_Mean_Mem40_MFCC1_Power_powerFFT_WinHamming_HopSize512_WinSize512_AudioCh0 <= 5.321928
|   |   |   |   |   |   |   |   |   |   |   |   Genre--_Dance_Pop = 0
|   |   |   |   |   |   |   |   |   |   |   |   |   NOT-Song-Recommend = 0
|   |   |   |   |   |   |   |   |   |   |   |   |   |   Instrument_-_Trombone = 0
|   |   |   |   |   |   |   |   |   |   |   |   |   |   |   Std_Acc1000_Std_Mem40_MFCC0_Power_powerFFT_WinHamming_HopSize512_WinSize512_AudioCh0 <= 2.788343
|   |   |   |   |   |   |   |   |   |   |   |   |   |   |   |   NOT-Song-Very_Danceable = 0
|   |   |   |   |   |   |   |   |   |   |   |   |   |   |   |   |   Mean_Acc1000_Std_Mem40_Flux_Power_powerFFT_WinHamming_HopSize512_WinSize512_AudioCh0 <= 0.036655: 0 (4.0)
|   |   |   |   |   |   |   |   |   |   |   |   |   |   |   |   |   Mean_Acc1000_Std_Mem40_Flux_Power_powerFFT_WinHamming_HopSize512_WinSize512_AudioCh0 > 0.036655
|   |   |   |   |   |   |   |   |   |   |   |   |   |   |   |   |   |   Song-Changing_Energy_Level = 0
|   |   |   |   |   |   |   |   |   |   |   |   |   |   |   |   |   |   |   Mean_Acc1000_Mean_Mem40_MFCC12_Power_powerFFT_WinHamming_HopSize512_WinSize512_AudioCh0 <= 0.390641: 1 (23.0)
|   |   |   |   |   |   |   |   |   |   |   |   |   |   |   |   |   |   |   Mean_Acc1000_Mean_Mem40_MFCC12_Power_powerFFT_WinHamming_HopSize512_WinSize512_AudioCh0 > 0.390641
|   |   |   |   |   |   |   |   |   |   |   |   |   |   |   |   |   |   |   |   Std_Acc1000_Std_Mem40_MFCC7_Power_powerFFT_WinHamming_HopSize512_WinSize512_AudioCh0 <= 0.096936: 0 (7.0)
|   |   |   |   |   |   |   |   |   |   |   |   |   |   |   |   |   |   |   |   Std_Acc1000_Std_Mem40_MFCC7_Power_powerFFT_WinHamming_HopSize512_WinSize512_AudioCh0 > 0.096936
|   |   |   |   |   |   |   |   |   |   |   |   |   |   |   |   |   |   |   |   |   Instrument_-_Backing_vocals = 0: 1 (15.0/1.0)
|   |   |   |   |   |   |   |   |   |   |   |   |   |   |   |   |   |   |   |   |   Instrument_-_Backing_vocals = 1: 0 (4.0/1.0)
|   |   |   |   |   |   |   |   |   |   |   |   |   |   |   |   |   |   Song-Changing_Energy_Level = 1: 0 (3.0/1.0)
|   |   |   |   |   |   |   |   |   |   |   |   |   |   |   |   NOT-Song-Very_Danceable = 1: 1 (35.0)
|   |   |   |   |   |   |   |   |   |   |   |   |   |   |   Std_Acc1000_Std_Mem40_MFCC0_Power_powerFFT_WinHamming_HopSize512_WinSize512_AudioCh0 > 2.788343: 0 (5.0)
|   |   |   |   |   |   |   |   |   |   |   |   |   |   Instrument_-_Trombone = 1: 1 (4.0)
|   |   |   |   |   |   |   |   |   |   |   |   |   NOT-Song-Recommend = 1: 1 (11.0/1.0)
|   |   |   |   |   |   |   |   |   |   |   |   Genre--_Dance_Pop = 1: 1 (8.0)
|   |   |   |   |   |   |   |   |   |   |   Mean_Acc1000_Mean_Mem40_MFCC1_Power_powerFFT_WinHamming_HopSize512_WinSize512_AudioCh0 > 5.321928: 1 (73.0)
|   |   |   |   |   |   |   |   |   |   Instrument_-_Electric_Guitar_(distorted) = 1
|   |   |   |   |   |   |   |   |   |   |   Std_Acc1000_Std_Mem40_MFCC9_Power_powerFFT_WinHamming_HopSize512_WinSize512_AudioCh0 <= 0.080877: 1 (7.0/1.0)
|   |   |   |   |   |   |   |   |   |   |   Std_Acc1000_Std_Mem40_MFCC9_Power_powerFFT_WinHamming_HopSize512_WinSize512_AudioCh0 > 0.080877
|   |   |   |   |   |   |   |   |   |   |   |   Mean_Acc1000_Mean_Mem40_MFCC5_Power_powerFFT_WinHamming_HopSize512_WinSize512_AudioCh0 <= 1.065988: 0 (5.0)
|   |   |   |   |   |   |   |   |   |   |   |   Mean_Acc1000_Mean_Mem40_MFCC5_Power_powerFFT_WinHamming_HopSize512_WinSize512_AudioCh0 > 1.065988: 1 (2.0)
|   |   |   |   |   |   |   |   |   Vocals-Spoken = 1
|   |   |   |   |   |   |   |   |   |   Emotion-Carefree-Lighthearted = 0: 0 (4.0)
|   |   |   |   |   |   |   |   |   |   Emotion-Carefree-Lighthearted = 1: 1 (4.0)
|   |   |   |   |   |   |   |   Instrument_-_Acoustic_Guitar-Solo = 1: 0 (3.0/1.0)
|   |   |   |   |   |   |   Usage-Intensely_Listening = 1
|   |   |   |   |   |   |   |   Mean_Acc1000_Mean_Mem40_MFCC7_Power_powerFFT_WinHamming_HopSize512_WinSize512_AudioCh0 <= 0.601834: 1 (4.0)
|   |   |   |   |   |   |   |   Mean_Acc1000_Mean_Mem40_MFCC7_Power_powerFFT_WinHamming_HopSize512_WinSize512_AudioCh0 > 0.601834: 0 (4.0)
|   |   |   |   |   |   NOT-Emotion-Carefree-Lighthearted = 1
|   |   |   |   |   |   |   Genre-Bluegrass = 0
|   |   |   |   |   |   |   |   Usage-Sleeping = 0
|   |   |   |   |   |   |   |   |   Vocals-High-pitched = 0
|   |   |   |   |   |   |   |   |   |   Instrument_-_Tambourine = 0
|   |   |   |   |   |   |   |   |   |   |   Vocals-Breathy = 0
|   |   |   |   |   |   |   |   |   |   |   |   Std_Acc1000_Std_Mem40_MFCC8_Power_powerFFT_WinHamming_HopSize512_WinSize512_AudioCh0 <= 0.129571
|   |   |   |   |   |   |   |   |   |   |   |   |   Genre--_Singer-Songwriter = 0
|   |   |   |   |   |   |   |   |   |   |   |   |   |   NOT-Emotion-Exciting-Thrilling = 0
|   |   |   |   |   |   |   |   |   |   |   |   |   |   |   Song-High_Energy = 0
|   |   |   |   |   |   |   |   |   |   |   |   |   |   |   |   Std_Acc1000_Std_Mem40_ZeroCrossings_HopSize512_WinSize512_AudioCh0 <= 0.01517: 0 (13.0/1.0)
|   |   |   |   |   |   |   |   |   |   |   |   |   |   |   |   Std_Acc1000_Std_Mem40_ZeroCrossings_HopSize512_WinSize512_AudioCh0 > 0.01517: 1 (8.0/1.0)
|   |   |   |   |   |   |   |   |   |   |   |   |   |   |   Song-High_Energy = 1: 0 (20.0)
|   |   |   |   |   |   |   |   |   |   |   |   |   |   NOT-Emotion-Exciting-Thrilling = 1: 1 (17.0/3.0)
|   |   |   |   |   |   |   |   |   |   |   |   |   Genre--_Singer-Songwriter = 1: 0 (3.0)
|   |   |   |   |   |   |   |   |   |   |   |   Std_Acc1000_Std_Mem40_MFCC8_Power_powerFFT_WinHamming_HopSize512_WinSize512_AudioCh0 > 0.129571: 1 (13.0)
|   |   |   |   |   |   |   |   |   |   |   Vocals-Breathy = 1: 0 (3.0)
|   |   |   |   |   |   |   |   |   |   Instrument_-_Tambourine = 1: 1 (4.0)
|   |   |   |   |   |   |   |   |   Vocals-High-pitched = 1: 0 (3.0)
|   |   |   |   |   |   |   |   Usage-Sleeping = 1: 1 (5.0)
|   |   |   |   |   |   |   Genre-Bluegrass = 1: 0 (2.0)
|   |   |   |   |   Usage-Romancing = 1: 1 (15.0)
|   |   |   |   Genre-RandB = 1: 1 (25.0)
|   |   |   Genre-Hip_Hop-Rap = 1
|   |   |   |   Std_Acc1000_Mean_Mem40_MFCC1_Power_powerFFT_WinHamming_HopSize512_WinSize512_AudioCh0 <= 0.60747: 1 (4.0)
|   |   |   |   Std_Acc1000_Mean_Mem40_MFCC1_Power_powerFFT_WinHamming_HopSize512_WinSize512_AudioCh0 > 0.60747: 0 (9.0)
|   |   Instrument_-_Electric_Guitar_(distorted)-Solo = 1
|   |   |   Std_Acc1000_Std_Mem40_MFCC7_Power_powerFFT_WinHamming_HopSize512_WinSize512_AudioCh0 <= 0.113929: 0 (24.0/1.0)
|   |   |   Std_Acc1000_Std_Mem40_MFCC7_Power_powerFFT_WinHamming_HopSize512_WinSize512_AudioCh0 > 0.113929: 1 (8.0)
|   Genre--_Punk = 1: 0 (15.0/1.0)
Vocals-Aggressive = 1: 0 (36.0/1.0)

Number of Leaves  : 	39

Size of the tree : 	77


Prepare_CC.Base_CC: Node #3

J48 pruned tree
------------------

Song-High_Energy = 0
|   Mean_Acc1000_Std_Mem40_MFCC9_Power_powerFFT_WinHamming_HopSize512_WinSize512_AudioCh0 <= 0.482801: 0 (106.0)
|   Mean_Acc1000_Std_Mem40_MFCC9_Power_powerFFT_WinHamming_HopSize512_WinSize512_AudioCh0 > 0.482801
|   |   Emotion-Bizarre-Weird = 0
|   |   |   Usage-Studying = 0
|   |   |   |   NOT-Song-Heavy_Beat = 0
|   |   |   |   |   Mean_Acc1000_Mean_Mem40_MFCC5_Power_powerFFT_WinHamming_HopSize512_WinSize512_AudioCh0 <= 1.017922
|   |   |   |   |   |   Std_Acc1000_Mean_Mem40_MFCC8_Power_powerFFT_WinHamming_HopSize512_WinSize512_AudioCh0 <= 0.163872: 1 (4.0/1.0)
|   |   |   |   |   |   Std_Acc1000_Mean_Mem40_MFCC8_Power_powerFFT_WinHamming_HopSize512_WinSize512_AudioCh0 > 0.163872: 0 (57.0/1.0)
|   |   |   |   |   Mean_Acc1000_Mean_Mem40_MFCC5_Power_powerFFT_WinHamming_HopSize512_WinSize512_AudioCh0 > 1.017922
|   |   |   |   |   |   Mean_Acc1000_Std_Mem40_MFCC5_Power_powerFFT_WinHamming_HopSize512_WinSize512_AudioCh0 <= 0.605018: 0 (5.0)
|   |   |   |   |   |   Mean_Acc1000_Std_Mem40_MFCC5_Power_powerFFT_WinHamming_HopSize512_WinSize512_AudioCh0 > 0.605018: 1 (6.0)
|   |   |   |   NOT-Song-Heavy_Beat = 1: 0 (50.0)
|   |   |   Usage-Studying = 1
|   |   |   |   Mean_Acc1000_Mean_Mem40_MFCC4_Power_powerFFT_WinHamming_HopSize512_WinSize512_AudioCh0 <= 0.256835: 1 (3.0)
|   |   |   |   Mean_Acc1000_Mean_Mem40_MFCC4_Power_powerFFT_WinHamming_HopSize512_WinSize512_AudioCh0 > 0.256835: 0 (8.0)
|   |   Emotion-Bizarre-Weird = 1
|   |   |   NOT-Emotion-Carefree-Lighthearted = 0: 1 (2.0)
|   |   |   NOT-Emotion-Carefree-Lighthearted = 1: 0 (2.0)
Song-High_Energy = 1
|   Genre-Best--_Soft_Rock = 0
|   |   Genre--_Singer-Songwriter = 0
|   |   |   Usage-At_a_party = 0
|   |   |   |   Mean_Acc1000_Std_Mem40_MFCC8_Power_powerFFT_WinHamming_HopSize512_WinSize512_AudioCh0 <= 0.546816
|   |   |   |   |   Std_Acc1000_Mean_Mem40_MFCC2_Power_powerFFT_WinHamming_HopSize512_WinSize512_AudioCh0 <= 0.834475
|   |   |   |   |   |   NOT-Song-Quality = 0
|   |   |   |   |   |   |   NOT-Song-Recommend = 0
|   |   |   |   |   |   |   |   Emotion-Bizarre-Weird = 0
|   |   |   |   |   |   |   |   |   Std_Acc1000_Mean_Mem40_MFCC7_Power_powerFFT_WinHamming_HopSize512_WinSize512_AudioCh0 <= 0.369465
|   |   |   |   |   |   |   |   |   |   NOT-Emotion-Tender-Soft = 0
|   |   |   |   |   |   |   |   |   |   |   Mean_Acc1000_Std_Mem40_MFCC12_Power_powerFFT_WinHamming_HopSize512_WinSize512_AudioCh0 <= 0.482316: 0 (18.0/1.0)
|   |   |   |   |   |   |   |   |   |   |   Mean_Acc1000_Std_Mem40_MFCC12_Power_powerFFT_WinHamming_HopSize512_WinSize512_AudioCh0 > 0.482316
|   |   |   |   |   |   |   |   |   |   |   |   Mean_Acc1000_Mean_Mem40_MFCC4_Power_powerFFT_WinHamming_HopSize512_WinSize512_AudioCh0 <= 0.406771: 0 (2.0)
|   |   |   |   |   |   |   |   |   |   |   |   Mean_Acc1000_Mean_Mem40_MFCC4_Power_powerFFT_WinHamming_HopSize512_WinSize512_AudioCh0 > 0.406771: 1 (6.0)
|   |   |   |   |   |   |   |   |   |   NOT-Emotion-Tender-Soft = 1
|   |   |   |   |   |   |   |   |   |   |   Mean_Acc1000_Std_Mem40_MFCC5_Power_powerFFT_WinHamming_HopSize512_WinSize512_AudioCh0 <= 0.599624
|   |   |   |   |   |   |   |   |   |   |   |   Mean_Acc1000_Mean_Mem40_MFCC5_Power_powerFFT_WinHamming_HopSize512_WinSize512_AudioCh0 <= 1.215507
|   |   |   |   |   |   |   |   |   |   |   |   |   Mean_Acc1000_Std_Mem40_MFCC11_Power_powerFFT_WinHamming_HopSize512_WinSize512_AudioCh0 <= 0.503645
|   |   |   |   |   |   |   |   |   |   |   |   |   |   Std_Acc1000_Mean_Mem40_MFCC0_Power_powerFFT_WinHamming_HopSize512_WinSize512_AudioCh0 <= 1.598412
|   |   |   |   |   |   |   |   |   |   |   |   |   |   |   Std_Acc1000_Mean_Mem40_MFCC8_Power_powerFFT_WinHamming_HopSize512_WinSize512_AudioCh0 <= 0.203408: 1 (4.0)
|   |   |   |   |   |   |   |   |   |   |   |   |   |   |   Std_Acc1000_Mean_Mem40_MFCC8_Power_powerFFT_WinHamming_HopSize512_WinSize512_AudioCh0 > 0.203408: 0 (4.0)
|   |   |   |   |   |   |   |   |   |   |   |   |   |   Std_Acc1000_Mean_Mem40_MFCC0_Power_powerFFT_WinHamming_HopSize512_WinSize512_AudioCh0 > 1.598412: 1 (25.0)
|   |   |   |   |   |   |   |   |   |   |   |   |   Mean_Acc1000_Std_Mem40_MFCC11_Power_powerFFT_WinHamming_HopSize512_WinSize512_AudioCh0 > 0.503645: 0 (3.0)
|   |   |   |   |   |   |   |   |   |   |   |   Mean_Acc1000_Mean_Mem40_MFCC5_Power_powerFFT_WinHamming_HopSize512_WinSize512_AudioCh0 > 1.215507: 0 (4.0)
|   |   |   |   |   |   |   |   |   |   |   Mean_Acc1000_Std_Mem40_MFCC5_Power_powerFFT_WinHamming_HopSize512_WinSize512_AudioCh0 > 0.599624: 0 (8.0)
|   |   |   |   |   |   |   |   |   Std_Acc1000_Mean_Mem40_MFCC7_Power_powerFFT_WinHamming_HopSize512_WinSize512_AudioCh0 > 0.369465: 1 (13.0)
|   |   |   |   |   |   |   |   Emotion-Bizarre-Weird = 1: 1 (4.0)
|   |   |   |   |   |   |   NOT-Song-Recommend = 1
|   |   |   |   |   |   |   |   Std_Acc1000_Mean_Mem40_MFCC4_Power_powerFFT_WinHamming_HopSize512_WinSize512_AudioCh0 <= 0.410953: 0 (14.0/1.0)
|   |   |   |   |   |   |   |   Std_Acc1000_Mean_Mem40_MFCC4_Power_powerFFT_WinHamming_HopSize512_WinSize512_AudioCh0 > 0.410953: 1 (2.0)
|   |   |   |   |   |   NOT-Song-Quality = 1: 0 (3.0)
|   |   |   |   |   Std_Acc1000_Mean_Mem40_MFCC2_Power_powerFFT_WinHamming_HopSize512_WinSize512_AudioCh0 > 0.834475: 1 (19.0)
|   |   |   |   Mean_Acc1000_Std_Mem40_MFCC8_Power_powerFFT_WinHamming_HopSize512_WinSize512_AudioCh0 > 0.546816
|   |   |   |   |   Song-Tonality = 0
|   |   |   |   |   |   Mean_Acc1000_Mean_Mem40_MFCC10_Power_powerFFT_WinHamming_HopSize512_WinSize512_AudioCh0 <= 0.225771: 1 (2.0)
|   |   |   |   |   |   Mean_Acc1000_Mean_Mem40_MFCC10_Power_powerFFT_WinHamming_HopSize512_WinSize512_AudioCh0 > 0.225771: 0 (24.0/1.0)
|   |   |   |   |   Song-Tonality = 1
|   |   |   |   |   |   Song-Quality = 0: 1 (3.0)
|   |   |   |   |   |   Song-Quality = 1: 0 (2.0)
|   |   |   Usage-At_a_party = 1
|   |   |   |   Mean_Acc1000_Mean_Mem40_MFCC10_Power_powerFFT_WinHamming_HopSize512_WinSize512_AudioCh0 <= 0.225: 0 (7.0)
|   |   |   |   Mean_Acc1000_Mean_Mem40_MFCC10_Power_powerFFT_WinHamming_HopSize512_WinSize512_AudioCh0 > 0.225
|   |   |   |   |   Mean_Acc1000_Mean_Mem40_MFCC12_Power_powerFFT_WinHamming_HopSize512_WinSize512_AudioCh0 <= 0.562713: 1 (30.0)
|   |   |   |   |   Mean_Acc1000_Mean_Mem40_MFCC12_Power_powerFFT_WinHamming_HopSize512_WinSize512_AudioCh0 > 0.562713
|   |   |   |   |   |   Mean_Acc1000_Mean_Mem40_MFCC9_Power_powerFFT_WinHamming_HopSize512_WinSize512_AudioCh0 <= 0.529034: 1 (3.0)
|   |   |   |   |   |   Mean_Acc1000_Mean_Mem40_MFCC9_Power_powerFFT_WinHamming_HopSize512_WinSize512_AudioCh0 > 0.529034: 0 (4.0)
|   |   Genre--_Singer-Songwriter = 1: 1 (3.0/1.0)
|   Genre-Best--_Soft_Rock = 1: 0 (2.0)

Number of Leaves  : 	35

Size of the tree : 	69


Prepare_CC.Base_CC: Node #4

J48 pruned tree
------------------

NOT-Song-High_Energy = 0
|   Emotion-Laid-back-Mellow = 0: 0 (307.0/9.0)
|   Emotion-Laid-back-Mellow = 1
|   |   Genre-Best-Jazz = 0
|   |   |   NOT-Emotion-Exciting-Thrilling = 0
|   |   |   |   Mean_Acc1000_Mean_Mem40_ZeroCrossings_HopSize512_WinSize512_AudioCh0 <= 0.043095: 1 (3.0)
|   |   |   |   Mean_Acc1000_Mean_Mem40_ZeroCrossings_HopSize512_WinSize512_AudioCh0 > 0.043095: 0 (32.0/2.0)
|   |   |   NOT-Emotion-Exciting-Thrilling = 1
|   |   |   |   Song-Catchy-Memorable = 0
|   |   |   |   |   Genre--_Classic_Rock = 0
|   |   |   |   |   |   Mean_Acc1000_Mean_Mem40_MFCC0_Power_powerFFT_WinHamming_HopSize512_WinSize512_AudioCh0 <= -67.447844: 1 (10.0)
|   |   |   |   |   |   Mean_Acc1000_Mean_Mem40_MFCC0_Power_powerFFT_WinHamming_HopSize512_WinSize512_AudioCh0 > -67.447844: 0 (2.0)
|   |   |   |   |   Genre--_Classic_Rock = 1: 0 (2.0)
|   |   |   |   Song-Catchy-Memorable = 1: 0 (3.0)
|   |   Genre-Best-Jazz = 1: 1 (2.0)
NOT-Song-High_Energy = 1
|   NOT-Emotion-Exciting-Thrilling = 0
|   |   Std_Acc1000_Std_Mem40_MFCC4_Power_powerFFT_WinHamming_HopSize512_WinSize512_AudioCh0 <= 0.147242: 0 (17.0)
|   |   Std_Acc1000_Std_Mem40_MFCC4_Power_powerFFT_WinHamming_HopSize512_WinSize512_AudioCh0 > 0.147242
|   |   |   Mean_Acc1000_Std_Mem40_MFCC1_Power_powerFFT_WinHamming_HopSize512_WinSize512_AudioCh0 <= 1.261577: 1 (7.0)
|   |   |   Mean_Acc1000_Std_Mem40_MFCC1_Power_powerFFT_WinHamming_HopSize512_WinSize512_AudioCh0 > 1.261577: 0 (3.0)
|   NOT-Emotion-Exciting-Thrilling = 1
|   |   Std_Acc1000_Std_Mem40_MFCC5_Power_powerFFT_WinHamming_HopSize512_WinSize512_AudioCh0 <= 0.181854
|   |   |   Std_Acc1000_Std_Mem40_MFCC9_Power_powerFFT_WinHamming_HopSize512_WinSize512_AudioCh0 <= 0.224663
|   |   |   |   Genre-Best--_Soft_Rock = 0
|   |   |   |   |   Std_Acc1000_Mean_Mem40_Flux_Power_powerFFT_WinHamming_HopSize512_WinSize512_AudioCh0 <= 0.00896: 0 (3.0/1.0)
|   |   |   |   |   Std_Acc1000_Mean_Mem40_Flux_Power_powerFFT_WinHamming_HopSize512_WinSize512_AudioCh0 > 0.00896: 1 (47.0)
|   |   |   |   Genre-Best--_Soft_Rock = 1
|   |   |   |   |   Std_Acc1000_Mean_Mem40_MFCC9_Power_powerFFT_WinHamming_HopSize512_WinSize512_AudioCh0 <= 0.361358: 0 (3.0)
|   |   |   |   |   Std_Acc1000_Mean_Mem40_MFCC9_Power_powerFFT_WinHamming_HopSize512_WinSize512_AudioCh0 > 0.361358: 1 (4.0)
|   |   |   Std_Acc1000_Std_Mem40_MFCC9_Power_powerFFT_WinHamming_HopSize512_WinSize512_AudioCh0 > 0.224663: 0 (3.0)
|   |   Std_Acc1000_Std_Mem40_MFCC5_Power_powerFFT_WinHamming_HopSize512_WinSize512_AudioCh0 > 0.181854: 0 (4.0)

Number of Leaves  : 	17

Size of the tree : 	33


Prepare_CC.Base_CC: Node #5

J48 pruned tree
------------------

Mean_Acc1000_Std_Mem40_MFCC10_Power_powerFFT_WinHamming_HopSize512_WinSize512_AudioCh0 <= 0.441857
|   Mean_Acc1000_Mean_Mem40_MFCC7_Power_powerFFT_WinHamming_HopSize512_WinSize512_AudioCh0 <= 0.837276: 0 (84.0/5.0)
|   Mean_Acc1000_Mean_Mem40_MFCC7_Power_powerFFT_WinHamming_HopSize512_WinSize512_AudioCh0 > 0.837276
|   |   Instrument_-_Backing_vocals = 0
|   |   |   Std_Acc1000_Mean_Mem40_MFCC4_Power_powerFFT_WinHamming_HopSize512_WinSize512_AudioCh0 <= 0.429107: 0 (11.0)
|   |   |   Std_Acc1000_Mean_Mem40_MFCC4_Power_powerFFT_WinHamming_HopSize512_WinSize512_AudioCh0 > 0.429107: 1 (6.0/1.0)
|   |   Instrument_-_Backing_vocals = 1: 1 (3.0)
Mean_Acc1000_Std_Mem40_MFCC10_Power_powerFFT_WinHamming_HopSize512_WinSize512_AudioCh0 > 0.441857: 0 (348.0/8.0)

Number of Leaves  : 	5

Size of the tree : 	9


Prepare_CC.Base_CC: Node #6

J48 pruned tree
------------------

Emotion-Bizarre-Weird = 0
|   Genre-Best--_Soft_Rock = 0
|   |   Song-Tonality = 0
|   |   |   NOT-Emotion-Positive-Optimistic = 0
|   |   |   |   NOT-Song-Recorded = 0
|   |   |   |   |   NOT-Song-Quality = 0
|   |   |   |   |   |   Vocals-Aggressive = 0
|   |   |   |   |   |   |   NOT-Emotion-Carefree-Lighthearted = 0
|   |   |   |   |   |   |   |   Usage-At_a_party = 0
|   |   |   |   |   |   |   |   |   NOT-Song-Tonality = 0
|   |   |   |   |   |   |   |   |   |   Genre--_Punk = 0
|   |   |   |   |   |   |   |   |   |   |   Instrument_-_Female_Lead_Vocals-Solo = 0
|   |   |   |   |   |   |   |   |   |   |   |   Usage-Waking_up = 0
|   |   |   |   |   |   |   |   |   |   |   |   |   Mean_Acc1000_Mean_Mem40_Flux_Power_powerFFT_WinHamming_HopSize512_WinSize512_AudioCh0 <= 0.096912
|   |   |   |   |   |   |   |   |   |   |   |   |   |   Genre-Best-Pop = 0
|   |   |   |   |   |   |   |   |   |   |   |   |   |   |   Std_Acc1000_Std_Mem40_MFCC5_Power_powerFFT_WinHamming_HopSize512_WinSize512_AudioCh0 <= 0.132518
|   |   |   |   |   |   |   |   |   |   |   |   |   |   |   |   Genre-Bluegrass = 0
|   |   |   |   |   |   |   |   |   |   |   |   |   |   |   |   |   Genre-Country = 0
|   |   |   |   |   |   |   |   |   |   |   |   |   |   |   |   |   |   Std_Acc1000_Mean_Mem40_MFCC7_Power_powerFFT_WinHamming_HopSize512_WinSize512_AudioCh0 <= 0.333846
|   |   |   |   |   |   |   |   |   |   |   |   |   |   |   |   |   |   |   Mean_Acc1000_Std_Mem40_MFCC7_Power_powerFFT_WinHamming_HopSize512_WinSize512_AudioCh0 <= 0.513908
|   |   |   |   |   |   |   |   |   |   |   |   |   |   |   |   |   |   |   |   NOT-Song-Recommend = 0
|   |   |   |   |   |   |   |   |   |   |   |   |   |   |   |   |   |   |   |   |   Song-Fast_Tempo = 0
|   |   |   |   |   |   |   |   |   |   |   |   |   |   |   |   |   |   |   |   |   |   Std_Acc1000_Std_Mem40_MFCC12_Power_powerFFT_WinHamming_HopSize512_WinSize512_AudioCh0 <= 0.086973
|   |   |   |   |   |   |   |   |   |   |   |   |   |   |   |   |   |   |   |   |   |   |   Mean_Acc1000_Mean_Mem40_MFCC11_Power_powerFFT_WinHamming_HopSize512_WinSize512_AudioCh0 <= 0.248397: 0 (2.0)
|   |   |   |   |   |   |   |   |   |   |   |   |   |   |   |   |   |   |   |   |   |   |   Mean_Acc1000_Mean_Mem40_MFCC11_Power_powerFFT_WinHamming_HopSize512_WinSize512_AudioCh0 > 0.248397: 1 (10.0)
|   |   |   |   |   |   |   |   |   |   |   |   |   |   |   |   |   |   |   |   |   |   Std_Acc1000_Std_Mem40_MFCC12_Power_powerFFT_WinHamming_HopSize512_WinSize512_AudioCh0 > 0.086973: 0 (6.0)
|   |   |   |   |   |   |   |   |   |   |   |   |   |   |   |   |   |   |   |   |   Song-Fast_Tempo = 1: 1 (9.0)
|   |   |   |   |   |   |   |   |   |   |   |   |   |   |   |   |   |   |   |   NOT-Song-Recommend = 1: 0 (3.0)
|   |   |   |   |   |   |   |   |   |   |   |   |   |   |   |   |   |   |   Mean_Acc1000_Std_Mem40_MFCC7_Power_powerFFT_WinHamming_HopSize512_WinSize512_AudioCh0 > 0.513908: 0 (19.0/2.0)
|   |   |   |   |   |   |   |   |   |   |   |   |   |   |   |   |   |   Std_Acc1000_Mean_Mem40_MFCC7_Power_powerFFT_WinHamming_HopSize512_WinSize512_AudioCh0 > 0.333846: 1 (18.0/1.0)
|   |   |   |   |   |   |   |   |   |   |   |   |   |   |   |   |   Genre-Country = 1: 1 (3.0)
|   |   |   |   |   |   |   |   |   |   |   |   |   |   |   |   Genre-Bluegrass = 1: 0 (2.0)
|   |   |   |   |   |   |   |   |   |   |   |   |   |   |   Std_Acc1000_Std_Mem40_MFCC5_Power_powerFFT_WinHamming_HopSize512_WinSize512_AudioCh0 > 0.132518
|   |   |   |   |   |   |   |   |   |   |   |   |   |   |   |   Std_Acc1000_Std_Mem40_MFCC10_Power_powerFFT_WinHamming_HopSize512_WinSize512_AudioCh0 <= 0.164992: 1 (38.0/1.0)
|   |   |   |   |   |   |   |   |   |   |   |   |   |   |   |   Std_Acc1000_Std_Mem40_MFCC10_Power_powerFFT_WinHamming_HopSize512_WinSize512_AudioCh0 > 0.164992
|   |   |   |   |   |   |   |   |   |   |   |   |   |   |   |   |   Mean_Acc1000_Mean_Mem40_ZeroCrossings_HopSize512_WinSize512_AudioCh0 <= 0.092697: 1 (2.0)
|   |   |   |   |   |   |   |   |   |   |   |   |   |   |   |   |   Mean_Acc1000_Mean_Mem40_ZeroCrossings_HopSize512_WinSize512_AudioCh0 > 0.092697: 0 (4.0)
|   |   |   |   |   |   |   |   |   |   |   |   |   |   Genre-Best-Pop = 1: 0 (5.0/1.0)
|   |   |   |   |   |   |   |   |   |   |   |   |   Mean_Acc1000_Mean_Mem40_Flux_Power_powerFFT_WinHamming_HopSize512_WinSize512_AudioCh0 > 0.096912: 1 (17.0)
|   |   |   |   |   |   |   |   |   |   |   |   Usage-Waking_up = 1: 1 (2.0)
|   |   |   |   |   |   |   |   |   |   |   Instrument_-_Female_Lead_Vocals-Solo = 1: 1 (3.0)
|   |   |   |   |   |   |   |   |   |   Genre--_Punk = 1: 1 (7.0)
|   |   |   |   |   |   |   |   |   NOT-Song-Tonality = 1: 1 (10.0)
|   |   |   |   |   |   |   |   Usage-At_a_party = 1
|   |   |   |   |   |   |   |   |   Mean_Acc1000_Mean_Mem40_MFCC0_Power_powerFFT_WinHamming_HopSize512_WinSize512_AudioCh0 <= -71.483899: 0 (9.0)
|   |   |   |   |   |   |   |   |   Mean_Acc1000_Mean_Mem40_MFCC0_Power_powerFFT_WinHamming_HopSize512_WinSize512_AudioCh0 > -71.483899
|   |   |   |   |   |   |   |   |   |   Mean_Acc1000_Mean_Mem40_MFCC10_Power_powerFFT_WinHamming_HopSize512_WinSize512_AudioCh0 <= 0.475525: 1 (7.0)
|   |   |   |   |   |   |   |   |   |   Mean_Acc1000_Mean_Mem40_MFCC10_Power_powerFFT_WinHamming_HopSize512_WinSize512_AudioCh0 > 0.475525: 0 (6.0/1.0)
|   |   |   |   |   |   |   NOT-Emotion-Carefree-Lighthearted = 1
|   |   |   |   |   |   |   |   Genre--_Cool_Jazz = 0
|   |   |   |   |   |   |   |   |   Vocals-Low-pitched = 0
|   |   |   |   |   |   |   |   |   |   Usage-At_work = 0
|   |   |   |   |   |   |   |   |   |   |   Genre-Best-Pop = 0
|   |   |   |   |   |   |   |   |   |   |   |   NOT-Emotion-Happy = 0
|   |   |   |   |   |   |   |   |   |   |   |   |   Song-High_Energy = 0
|   |   |   |   |   |   |   |   |   |   |   |   |   |   Mean_Acc1000_Std_Mem40_Rolloff_Power_powerFFT_WinHamming_HopSize512_WinSize512_AudioCh0 <= 0.075115: 1 (3.0)
|   |   |   |   |   |   |   |   |   |   |   |   |   |   Mean_Acc1000_Std_Mem40_Rolloff_Power_powerFFT_WinHamming_HopSize512_WinSize512_AudioCh0 > 0.075115: 0 (7.0)
|   |   |   |   |   |   |   |   |   |   |   |   |   Song-High_Energy = 1: 1 (10.0/1.0)
|   |   |   |   |   |   |   |   |   |   |   |   NOT-Emotion-Happy = 1: 0 (9.0)
|   |   |   |   |   |   |   |   |   |   |   Genre-Best-Pop = 1: 1 (2.0)
|   |   |   |   |   |   |   |   |   |   Usage-At_work = 1: 1 (2.0)
|   |   |   |   |   |   |   |   |   Vocals-Low-pitched = 1: 0 (7.0)
|   |   |   |   |   |   |   |   Genre--_Cool_Jazz = 1: 1 (2.0)
|   |   |   |   |   |   Vocals-Aggressive = 1
|   |   |   |   |   |   |   Emotion-Arousing-Awakening = 0: 1 (2.0)
|   |   |   |   |   |   |   Emotion-Arousing-Awakening = 1: 0 (6.0)
|   |   |   |   |   NOT-Song-Quality = 1: 0 (7.0/1.0)
|   |   |   |   NOT-Song-Recorded = 1: 1 (4.0)
|   |   |   NOT-Emotion-Positive-Optimistic = 1
|   |   |   |   Genre--_Singer-Songwriter = 0
|   |   |   |   |   Mean_Acc1000_Std_Mem40_Flux_Power_powerFFT_WinHamming_HopSize512_WinSize512_AudioCh0 <= 0.036433: 1 (7.0)
|   |   |   |   |   Mean_Acc1000_Std_Mem40_Flux_Power_powerFFT_WinHamming_HopSize512_WinSize512_AudioCh0 > 0.036433
|   |   |   |   |   |   Vocals-Aggressive = 0
|   |   |   |   |   |   |   Std_Acc1000_Mean_Mem40_MFCC1_Power_powerFFT_WinHamming_HopSize512_WinSize512_AudioCh0 <= 1.983469
|   |   |   |   |   |   |   |   NOT-Emotion-Happy = 0
|   |   |   |   |   |   |   |   |   Std_Acc1000_Mean_Mem40_MFCC5_Power_powerFFT_WinHamming_HopSize512_WinSize512_AudioCh0 <= 0.27892: 1 (6.0)
|   |   |   |   |   |   |   |   |   Std_Acc1000_Mean_Mem40_MFCC5_Power_powerFFT_WinHamming_HopSize512_WinSize512_AudioCh0 > 0.27892
|   |   |   |   |   |   |   |   |   |   Std_Acc1000_Mean_Mem40_MFCC6_Power_powerFFT_WinHamming_HopSize512_WinSize512_AudioCh0 <= 0.480959: 0 (16.0)
|   |   |   |   |   |   |   |   |   |   Std_Acc1000_Mean_Mem40_MFCC6_Power_powerFFT_WinHamming_HopSize512_WinSize512_AudioCh0 > 0.480959: 1 (2.0)
|   |   |   |   |   |   |   |   NOT-Emotion-Happy = 1
|   |   |   |   |   |   |   |   |   Instrument_-_Bass = 0: 0 (29.0)
|   |   |   |   |   |   |   |   |   Instrument_-_Bass = 1
|   |   |   |   |   |   |   |   |   |   Std_Acc1000_Mean_Mem40_MFCC4_Power_powerFFT_WinHamming_HopSize512_WinSize512_AudioCh0 <= 0.379345: 0 (9.0)
|   |   |   |   |   |   |   |   |   |   Std_Acc1000_Mean_Mem40_MFCC4_Power_powerFFT_WinHamming_HopSize512_WinSize512_AudioCh0 > 0.379345: 1 (2.0)
|   |   |   |   |   |   |   Std_Acc1000_Mean_Mem40_MFCC1_Power_powerFFT_WinHamming_HopSize512_WinSize512_AudioCh0 > 1.983469: 1 (4.0)
|   |   |   |   |   |   Vocals-Aggressive = 1
|   |   |   |   |   |   |   Instrument_-_Drum_Set = 0: 0 (2.0)
|   |   |   |   |   |   |   Instrument_-_Drum_Set = 1
|   |   |   |   |   |   |   |   Mean_Acc1000_Mean_Mem40_MFCC1_Power_powerFFT_WinHamming_HopSize512_WinSize512_AudioCh0 <= 3.168064: 0 (3.0)
|   |   |   |   |   |   |   |   Mean_Acc1000_Mean_Mem40_MFCC1_Power_powerFFT_WinHamming_HopSize512_WinSize512_AudioCh0 > 3.168064: 1 (14.0/1.0)
|   |   |   |   Genre--_Singer-Songwriter = 1: 1 (2.0)
|   |   Song-Tonality = 1
|   |   |   Usage-At_work = 0
|   |   |   |   Std_Acc1000_Std_Mem40_Centroid_Power_powerFFT_WinHamming_HopSize512_WinSize512_AudioCh0 <= 0.030984
|   |   |   |   |   Mean_Acc1000_Std_Mem40_MFCC0_Power_powerFFT_WinHamming_HopSize512_WinSize512_AudioCh0 <= 2.277966: 0 (3.0/1.0)
|   |   |   |   |   Mean_Acc1000_Std_Mem40_MFCC0_Power_powerFFT_WinHamming_HopSize512_WinSize512_AudioCh0 > 2.277966: 1 (55.0/1.0)
|   |   |   |   Std_Acc1000_Std_Mem40_Centroid_Power_powerFFT_WinHamming_HopSize512_WinSize512_AudioCh0 > 0.030984
|   |   |   |   |   Emotion-Pleasant-Comfortable = 0: 0 (4.0)
|   |   |   |   |   Emotion-Pleasant-Comfortable = 1: 1 (2.0)
|   |   |   Usage-At_work = 1: 0 (4.0)
|   Genre-Best--_Soft_Rock = 1: 1 (24.0/1.0)
Emotion-Bizarre-Weird = 1: 0 (21.0)

Number of Leaves  : 	52

Size of the tree : 	103


Prepare_CC.Base_CC: Node #7

J48 pruned tree
------------------

Emotion-Tender-Soft = 0
|   Emotion-Laid-back-Mellow = 0
|   |   NOT-Song-High_Energy = 0
|   |   |   Genre-Best-Jazz = 0
|   |   |   |   Emotion-Pleasant-Comfortable = 0
|   |   |   |   |   Usage-Studying = 0
|   |   |   |   |   |   Std_Acc1000_Mean_Mem40_MFCC11_Power_powerFFT_WinHamming_HopSize512_WinSize512_AudioCh0 <= 0.120117
|   |   |   |   |   |   |   NOT-Emotion-Loving-Romantic = 0: 1 (4.0/1.0)
|   |   |   |   |   |   |   NOT-Emotion-Loving-Romantic = 1: 0 (7.0)
|   |   |   |   |   |   Std_Acc1000_Mean_Mem40_MFCC11_Power_powerFFT_WinHamming_HopSize512_WinSize512_AudioCh0 > 0.120117: 0 (205.0)
|   |   |   |   |   Usage-Studying = 1
|   |   |   |   |   |   NOT-Emotion-Emotional-Passionate = 0: 0 (8.0)
|   |   |   |   |   |   NOT-Emotion-Emotional-Passionate = 1: 1 (2.0)
|   |   |   |   Emotion-Pleasant-Comfortable = 1
|   |   |   |   |   Genre-Best-Electronica = 0
|   |   |   |   |   |   Std_Acc1000_Std_Mem40_MFCC9_Power_powerFFT_WinHamming_HopSize512_WinSize512_AudioCh0 <= 0.129514: 0 (40.0)
|   |   |   |   |   |   Std_Acc1000_Std_Mem40_MFCC9_Power_powerFFT_WinHamming_HopSize512_WinSize512_AudioCh0 > 0.129514
|   |   |   |   |   |   |   Mean_Acc1000_Mean_Mem40_MFCC11_Power_powerFFT_WinHamming_HopSize512_WinSize512_AudioCh0 <= 0.322082: 0 (6.0)
|   |   |   |   |   |   |   Mean_Acc1000_Mean_Mem40_MFCC11_Power_powerFFT_WinHamming_HopSize512_WinSize512_AudioCh0 > 0.322082: 1 (9.0/1.0)
|   |   |   |   |   Genre-Best-Electronica = 1: 1 (2.0)
|   |   |   Genre-Best-Jazz = 1: 1 (3.0/1.0)
|   |   NOT-Song-High_Energy = 1
|   |   |   NOT-Emotion-Angry-Agressive = 0: 0 (7.0)
|   |   |   NOT-Emotion-Angry-Agressive = 1
|   |   |   |   Mean_Acc1000_Std_Mem40_MFCC0_Power_powerFFT_WinHamming_HopSize512_WinSize512_AudioCh0 <= 3.718834: 0 (3.0)
|   |   |   |   Mean_Acc1000_Std_Mem40_MFCC0_Power_powerFFT_WinHamming_HopSize512_WinSize512_AudioCh0 > 3.718834: 1 (16.0/1.0)
|   Emotion-Laid-back-Mellow = 1
|   |   Emotion-Pleasant-Comfortable = 0
|   |   |   Mean_Acc1000_Mean_Mem40_MFCC5_Power_powerFFT_WinHamming_HopSize512_WinSize512_AudioCh0 <= 1.179306: 0 (15.0/2.0)
|   |   |   Mean_Acc1000_Mean_Mem40_MFCC5_Power_powerFFT_WinHamming_HopSize512_WinSize512_AudioCh0 > 1.179306: 1 (5.0)
|   |   Emotion-Pleasant-Comfortable = 1
|   |   |   Std_Acc1000_Std_Mem40_Flux_Power_powerFFT_WinHamming_HopSize512_WinSize512_AudioCh0 <= 0.032694: 1 (31.0/1.0)
|   |   |   Std_Acc1000_Std_Mem40_Flux_Power_powerFFT_WinHamming_HopSize512_WinSize512_AudioCh0 > 0.032694: 0 (2.0)
Emotion-Tender-Soft = 1
|   NOT-Song-Quality = 0
|   |   Instrument_-_Violin-Fiddle = 0
|   |   |   Std_Acc1000_Mean_Mem40_MFCC6_Power_powerFFT_WinHamming_HopSize512_WinSize512_AudioCh0 <= 0.632876
|   |   |   |   Song-Changing_Energy_Level = 0: 1 (71.0/4.0)
|   |   |   |   Song-Changing_Energy_Level = 1
|   |   |   |   |   NOT-Emotion-Exciting-Thrilling = 0: 0 (3.0)
|   |   |   |   |   NOT-Emotion-Exciting-Thrilling = 1: 1 (3.0)
|   |   |   Std_Acc1000_Mean_Mem40_MFCC6_Power_powerFFT_WinHamming_HopSize512_WinSize512_AudioCh0 > 0.632876: 0 (5.0/1.0)
|   |   Instrument_-_Violin-Fiddle = 1: 0 (3.0/1.0)
|   NOT-Song-Quality = 1: 0 (2.0)

Number of Leaves  : 	23

Size of the tree : 	45


Prepare_CC.Base_CC: Node #8

J48 pruned tree
------------------

Angry-Agressive = 0
|   NOT-Emotion-Tender-Soft = 0
|   |   Emotion-Cheerful-Festive = 0: 0 (209.0/5.0)
|   |   Emotion-Cheerful-Festive = 1
|   |   |   Genre--_Dance_Pop = 0
|   |   |   |   Usage-At_work = 0
|   |   |   |   |   NOT-Emotion-Laid-back-Mellow = 0: 0 (40.0/1.0)
|   |   |   |   |   NOT-Emotion-Laid-back-Mellow = 1
|   |   |   |   |   |   Emotion-Carefree-Lighthearted = 0: 0 (4.0)
|   |   |   |   |   |   Emotion-Carefree-Lighthearted = 1: 1 (3.0)
|   |   |   |   Usage-At_work = 1: 1 (2.0)
|   |   |   Genre--_Dance_Pop = 1: 1 (2.0)
|   NOT-Emotion-Tender-Soft = 1
|   |   Emotion-Calming-Soothing = 0
|   |   |   Genre-Best-World = 0
|   |   |   |   Genre-Hip_Hop-Rap = 0
|   |   |   |   |   NOT-Emotion-Laid-back-Mellow = 0
|   |   |   |   |   |   Usage-At_a_party = 0
|   |   |   |   |   |   |   NOT-Emotion-Pleasant-Comfortable = 0
|   |   |   |   |   |   |   |   Emotion-Laid-back-Mellow = 0
|   |   |   |   |   |   |   |   |   NOT-Song-Changing_Energy_Level = 0
|   |   |   |   |   |   |   |   |   |   Instrument_-_Electric_Guitar_(distorted) = 0: 0 (21.0)
|   |   |   |   |   |   |   |   |   |   Instrument_-_Electric_Guitar_(distorted) = 1
|   |   |   |   |   |   |   |   |   |   |   Genre-Rock = 0: 1 (2.0)
|   |   |   |   |   |   |   |   |   |   |   Genre-Rock = 1: 0 (4.0)
|   |   |   |   |   |   |   |   |   NOT-Song-Changing_Energy_Level = 1
|   |   |   |   |   |   |   |   |   |   NOT-Emotion-Cheerful-Festive = 0: 1 (7.0/1.0)
|   |   |   |   |   |   |   |   |   |   NOT-Emotion-Cheerful-Festive = 1: 0 (3.0)
|   |   |   |   |   |   |   |   Emotion-Laid-back-Mellow = 1: 1 (2.0)
|   |   |   |   |   |   |   NOT-Emotion-Pleasant-Comfortable = 1: 1 (3.0)
|   |   |   |   |   |   Usage-At_a_party = 1: 1 (5.0)
|   |   |   |   |   NOT-Emotion-Laid-back-Mellow = 1
|   |   |   |   |   |   Genre-Best-Electronica = 0
|   |   |   |   |   |   |   Genre--_Classic_Rock = 0: 1 (44.0)
|   |   |   |   |   |   |   Genre--_Classic_Rock = 1
|   |   |   |   |   |   |   |   NOT-Emotion-Emotional-Passionate = 0
|   |   |   |   |   |   |   |   |   NOT-Song-Tonality = 0: 1 (19.0/1.0)
|   |   |   |   |   |   |   |   |   NOT-Song-Tonality = 1: 0 (2.0)
|   |   |   |   |   |   |   |   NOT-Emotion-Emotional-Passionate = 1: 0 (4.0)
|   |   |   |   |   |   Genre-Best-Electronica = 1
|   |   |   |   |   |   |   Emotion-Exciting-Thrilling = 0: 0 (4.0)
|   |   |   |   |   |   |   Emotion-Exciting-Thrilling = 1: 1 (3.0)
|   |   |   |   Genre-Hip_Hop-Rap = 1: 0 (9.0/1.0)
|   |   |   Genre-Best-World = 1: 0 (4.0)
|   |   Emotion-Calming-Soothing = 1: 0 (9.0)
Angry-Agressive = 1: 1 (47.0/1.0)

Number of Leaves  : 	24

Size of the tree : 	47


Prepare_CC.Base_CC: Node #9

J48 pruned tree
------------------

NOT-Emotion-Carefree-Lighthearted = 0
|   NOT-Emotion-Happy = 0
|   |   Usage-With_the_family = 0
|   |   |   Genre-Best-Rock = 0
|   |   |   |   Vocals-Aggressive = 0
|   |   |   |   |   Emotion-Sad = 0
|   |   |   |   |   |   Song-Fast_Tempo = 0
|   |   |   |   |   |   |   Std_Acc1000_Std_Mem40_MFCC7_Power_powerFFT_WinHamming_HopSize512_WinSize512_AudioCh0 <= 0.106311
|   |   |   |   |   |   |   |   Genre--_Punk = 0
|   |   |   |   |   |   |   |   |   NOT-Song-Recorded = 0
|   |   |   |   |   |   |   |   |   |   NOT-Song-Tonality = 0
|   |   |   |   |   |   |   |   |   |   |   Instrument_-_Electric_Guitar_(distorted)-Solo = 0
|   |   |   |   |   |   |   |   |   |   |   |   Std_Acc1000_Mean_Mem40_ZeroCrossings_HopSize512_WinSize512_AudioCh0 <= 0.030881
|   |   |   |   |   |   |   |   |   |   |   |   |   Usage-At_a_party = 0
|   |   |   |   |   |   |   |   |   |   |   |   |   |   Genre-Best--_Soft_Rock = 0
|   |   |   |   |   |   |   |   |   |   |   |   |   |   |   Std_Acc1000_Std_Mem40_MFCC4_Power_powerFFT_WinHamming_HopSize512_WinSize512_AudioCh0 <= 0.073484: 0 (3.0)
|   |   |   |   |   |   |   |   |   |   |   |   |   |   |   Std_Acc1000_Std_Mem40_MFCC4_Power_powerFFT_WinHamming_HopSize512_WinSize512_AudioCh0 > 0.073484: 1 (35.0/2.0)
|   |   |   |   |   |   |   |   |   |   |   |   |   |   Genre-Best--_Soft_Rock = 1: 0 (4.0/1.0)
|   |   |   |   |   |   |   |   |   |   |   |   |   Usage-At_a_party = 1: 0 (4.0/1.0)
|   |   |   |   |   |   |   |   |   |   |   |   Std_Acc1000_Mean_Mem40_ZeroCrossings_HopSize512_WinSize512_AudioCh0 > 0.030881: 0 (7.0)
|   |   |   |   |   |   |   |   |   |   |   Instrument_-_Electric_Guitar_(distorted)-Solo = 1: 0 (2.0)
|   |   |   |   |   |   |   |   |   |   NOT-Song-Tonality = 1: 0 (2.0)
|   |   |   |   |   |   |   |   |   NOT-Song-Recorded = 1: 0 (2.0)
|   |   |   |   |   |   |   |   Genre--_Punk = 1: 0 (2.0)
|   |   |   |   |   |   |   Std_Acc1000_Std_Mem40_MFCC7_Power_powerFFT_WinHamming_HopSize512_WinSize512_AudioCh0 > 0.106311
|   |   |   |   |   |   |   |   NOT-Song-Quality = 0
|   |   |   |   |   |   |   |   |   Genre--_Contemporary_RandB = 0
|   |   |   |   |   |   |   |   |   |   Genre-Country = 0
|   |   |   |   |   |   |   |   |   |   |   Usage-Studying = 0: 0 (71.0/2.0)
|   |   |   |   |   |   |   |   |   |   |   Usage-Studying = 1
|   |   |   |   |   |   |   |   |   |   |   |   NOT-Song-Very_Danceable = 0: 1 (3.0)
|   |   |   |   |   |   |   |   |   |   |   |   NOT-Song-Very_Danceable = 1: 0 (3.0)
|   |   |   |   |   |   |   |   |   |   Genre-Country = 1
|   |   |   |   |   |   |   |   |   |   |   NOT-Song-Heavy_Beat = 0: 0 (3.0)
|   |   |   |   |   |   |   |   |   |   |   NOT-Song-Heavy_Beat = 1: 1 (3.0)
|   |   |   |   |   |   |   |   |   Genre--_Contemporary_RandB = 1
|   |   |   |   |   |   |   |   |   |   Instrument_-_Drum_Set = 0: 1 (3.0)
|   |   |   |   |   |   |   |   |   |   Instrument_-_Drum_Set = 1: 0 (3.0)
|   |   |   |   |   |   |   |   NOT-Song-Quality = 1: 1 (3.0/1.0)
|   |   |   |   |   |   Song-Fast_Tempo = 1
|   |   |   |   |   |   |   Usage-Studying = 0
|   |   |   |   |   |   |   |   Instrument_-_Female_Lead_Vocals-Solo = 0
|   |   |   |   |   |   |   |   |   NOT-Song-Very_Danceable = 0
|   |   |   |   |   |   |   |   |   |   NOT-Song-Heavy_Beat = 0
|   |   |   |   |   |   |   |   |   |   |   Std_Acc1000_Mean_Mem40_MFCC6_Power_powerFFT_WinHamming_HopSize512_WinSize512_AudioCh0 <= 0.159127: 0 (3.0)
|   |   |   |   |   |   |   |   |   |   |   Std_Acc1000_Mean_Mem40_MFCC6_Power_powerFFT_WinHamming_HopSize512_WinSize512_AudioCh0 > 0.159127
|   |   |   |   |   |   |   |   |   |   |   |   Usage-At_a_party = 0: 1 (34.0/2.0)
|   |   |   |   |   |   |   |   |   |   |   |   Usage-At_a_party = 1
|   |   |   |   |   |   |   |   |   |   |   |   |   Std_Acc1000_Std_Mem40_MFCC12_Power_powerFFT_WinHamming_HopSize512_WinSize512_AudioCh0 <= 0.09833
|   |   |   |   |   |   |   |   |   |   |   |   |   |   Mean_Acc1000_Mean_Mem40_MFCC2_Power_powerFFT_WinHamming_HopSize512_WinSize512_AudioCh0 <= 0.207537: 1 (3.0)
|   |   |   |   |   |   |   |   |   |   |   |   |   |   Mean_Acc1000_Mean_Mem40_MFCC2_Power_powerFFT_WinHamming_HopSize512_WinSize512_AudioCh0 > 0.207537: 0 (4.0)
|   |   |   |   |   |   |   |   |   |   |   |   |   Std_Acc1000_Std_Mem40_MFCC12_Power_powerFFT_WinHamming_HopSize512_WinSize512_AudioCh0 > 0.09833: 1 (9.0)
|   |   |   |   |   |   |   |   |   |   NOT-Song-Heavy_Beat = 1: 0 (2.0)
|   |   |   |   |   |   |   |   |   NOT-Song-Very_Danceable = 1
|   |   |   |   |   |   |   |   |   |   NOT-Song-Heavy_Beat = 0: 0 (10.0)
|   |   |   |   |   |   |   |   |   |   NOT-Song-Heavy_Beat = 1: 1 (2.0)
|   |   |   |   |   |   |   |   Instrument_-_Female_Lead_Vocals-Solo = 1: 0 (3.0)
|   |   |   |   |   |   |   Usage-Studying = 1: 0 (4.0)
|   |   |   |   |   Emotion-Sad = 1: 0 (3.0)
|   |   |   |   Vocals-Aggressive = 1: 0 (7.0)
|   |   |   Genre-Best-Rock = 1: 0 (18.0)
|   |   Usage-With_the_family = 1: 1 (2.0)
|   NOT-Emotion-Happy = 1: 0 (51.0)
NOT-Emotion-Carefree-Lighthearted = 1: 0 (144.0)

Number of Leaves  : 	33

Size of the tree : 	65


Prepare_CC.Base_CC: Node #10

J48 pruned tree
------------------

Mean_Acc1000_Mean_Mem40_MFCC5_Power_powerFFT_WinHamming_HopSize512_WinSize512_AudioCh0 <= 0.528031
|   Mean_Acc1000_Std_Mem40_MFCC12_Power_powerFFT_WinHamming_HopSize512_WinSize512_AudioCh0 <= 0.418179: 1 (20.0)
|   Mean_Acc1000_Std_Mem40_MFCC12_Power_powerFFT_WinHamming_HopSize512_WinSize512_AudioCh0 > 0.418179
|   |   Std_Acc1000_Mean_Mem40_Centroid_Power_powerFFT_WinHamming_HopSize512_WinSize512_AudioCh0 <= 0.009124: 1 (6.0)
|   |   Std_Acc1000_Mean_Mem40_Centroid_Power_powerFFT_WinHamming_HopSize512_WinSize512_AudioCh0 > 0.009124
|   |   |   Std_Acc1000_Mean_Mem40_MFCC6_Power_powerFFT_WinHamming_HopSize512_WinSize512_AudioCh0 <= 0.271807: 0 (22.0/1.0)
|   |   |   Std_Acc1000_Mean_Mem40_MFCC6_Power_powerFFT_WinHamming_HopSize512_WinSize512_AudioCh0 > 0.271807
|   |   |   |   Usage-Studying = 0
|   |   |   |   |   Std_Acc1000_Mean_Mem40_MFCC9_Power_powerFFT_WinHamming_HopSize512_WinSize512_AudioCh0 <= 0.242014: 1 (8.0)
|   |   |   |   |   Std_Acc1000_Mean_Mem40_MFCC9_Power_powerFFT_WinHamming_HopSize512_WinSize512_AudioCh0 > 0.242014
|   |   |   |   |   |   Mean_Acc1000_Mean_Mem40_MFCC5_Power_powerFFT_WinHamming_HopSize512_WinSize512_AudioCh0 <= 0.48743
|   |   |   |   |   |   |   Instrument_-_Backing_vocals = 0
|   |   |   |   |   |   |   |   Mean_Acc1000_Std_Mem40_MFCC6_Power_powerFFT_WinHamming_HopSize512_WinSize512_AudioCh0 <= 0.606752
|   |   |   |   |   |   |   |   |   Mean_Acc1000_Std_Mem40_MFCC4_Power_powerFFT_WinHamming_HopSize512_WinSize512_AudioCh0 <= 0.559682
|   |   |   |   |   |   |   |   |   |   Mean_Acc1000_Mean_Mem40_Flux_Power_powerFFT_WinHamming_HopSize512_WinSize512_AudioCh0 <= 0.086917: 0 (2.0)
|   |   |   |   |   |   |   |   |   |   Mean_Acc1000_Mean_Mem40_Flux_Power_powerFFT_WinHamming_HopSize512_WinSize512_AudioCh0 > 0.086917: 1 (3.0)
|   |   |   |   |   |   |   |   |   Mean_Acc1000_Std_Mem40_MFCC4_Power_powerFFT_WinHamming_HopSize512_WinSize512_AudioCh0 > 0.559682: 0 (12.0)
|   |   |   |   |   |   |   |   Mean_Acc1000_Std_Mem40_MFCC6_Power_powerFFT_WinHamming_HopSize512_WinSize512_AudioCh0 > 0.606752: 1 (4.0)
|   |   |   |   |   |   |   Instrument_-_Backing_vocals = 1: 0 (7.0)
|   |   |   |   |   |   Mean_Acc1000_Mean_Mem40_MFCC5_Power_powerFFT_WinHamming_HopSize512_WinSize512_AudioCh0 > 0.48743: 1 (5.0)
|   |   |   |   Usage-Studying = 1: 1 (3.0)
Mean_Acc1000_Mean_Mem40_MFCC5_Power_powerFFT_WinHamming_HopSize512_WinSize512_AudioCh0 > 0.528031
|   Std_Acc1000_Mean_Mem40_MFCC0_Power_powerFFT_WinHamming_HopSize512_WinSize512_AudioCh0 <= 4.297321
|   |   Mean_Acc1000_Std_Mem40_Flux_Power_powerFFT_WinHamming_HopSize512_WinSize512_AudioCh0 <= 0.046298
|   |   |   Instrument_-_Backing_vocals = 0
|   |   |   |   Std_Acc1000_Std_Mem40_Centroid_Power_powerFFT_WinHamming_HopSize512_WinSize512_AudioCh0 <= 0.026874
|   |   |   |   |   Std_Acc1000_Std_Mem40_MFCC9_Power_powerFFT_WinHamming_HopSize512_WinSize512_AudioCh0 <= 0.08311
|   |   |   |   |   |   Mean_Acc1000_Mean_Mem40_MFCC4_Power_powerFFT_WinHamming_HopSize512_WinSize512_AudioCh0 <= 0.829236
|   |   |   |   |   |   |   Std_Acc1000_Mean_Mem40_MFCC2_Power_powerFFT_WinHamming_HopSize512_WinSize512_AudioCh0 <= 0.5104
|   |   |   |   |   |   |   |   Mean_Acc1000_Mean_Mem40_Flux_Power_powerFFT_WinHamming_HopSize512_WinSize512_AudioCh0 <= 0.093235
|   |   |   |   |   |   |   |   |   Mean_Acc1000_Std_Mem40_MFCC0_Power_powerFFT_WinHamming_HopSize512_WinSize512_AudioCh0 <= 2.015397: 0 (5.0/1.0)
|   |   |   |   |   |   |   |   |   Mean_Acc1000_Std_Mem40_MFCC0_Power_powerFFT_WinHamming_HopSize512_WinSize512_AudioCh0 > 2.015397: 1 (20.0)
|   |   |   |   |   |   |   |   Mean_Acc1000_Mean_Mem40_Flux_Power_powerFFT_WinHamming_HopSize512_WinSize512_AudioCh0 > 0.093235: 0 (5.0)
|   |   |   |   |   |   |   Std_Acc1000_Mean_Mem40_MFCC2_Power_powerFFT_WinHamming_HopSize512_WinSize512_AudioCh0 > 0.5104
|   |   |   |   |   |   |   |   Mean_Acc1000_Mean_Mem40_MFCC12_Power_powerFFT_WinHamming_HopSize512_WinSize512_AudioCh0 <= 0.24303: 1 (2.0)
|   |   |   |   |   |   |   |   Mean_Acc1000_Mean_Mem40_MFCC12_Power_powerFFT_WinHamming_HopSize512_WinSize512_AudioCh0 > 0.24303: 0 (17.0)
|   |   |   |   |   |   Mean_Acc1000_Mean_Mem40_MFCC4_Power_powerFFT_WinHamming_HopSize512_WinSize512_AudioCh0 > 0.829236: 0 (13.0)
|   |   |   |   |   Std_Acc1000_Std_Mem40_MFCC9_Power_powerFFT_WinHamming_HopSize512_WinSize512_AudioCh0 > 0.08311
|   |   |   |   |   |   Mean_Acc1000_Mean_Mem40_MFCC11_Power_powerFFT_WinHamming_HopSize512_WinSize512_AudioCh0 <= 0.06861
|   |   |   |   |   |   |   Std_Acc1000_Mean_Mem40_Flux_Power_powerFFT_WinHamming_HopSize512_WinSize512_AudioCh0 <= 0.010691: 1 (6.0)
|   |   |   |   |   |   |   Std_Acc1000_Mean_Mem40_Flux_Power_powerFFT_WinHamming_HopSize512_WinSize512_AudioCh0 > 0.010691: 0 (3.0)
|   |   |   |   |   |   Mean_Acc1000_Mean_Mem40_MFCC11_Power_powerFFT_WinHamming_HopSize512_WinSize512_AudioCh0 > 0.06861
|   |   |   |   |   |   |   Instrument_-_Bass = 0: 0 (63.0/2.0)
|   |   |   |   |   |   |   Instrument_-_Bass = 1
|   |   |   |   |   |   |   |   Mean_Acc1000_Std_Mem40_MFCC6_Power_powerFFT_WinHamming_HopSize512_WinSize512_AudioCh0 <= 0.629307
|   |   |   |   |   |   |   |   |   Mean_Acc1000_Mean_Mem40_MFCC4_Power_powerFFT_WinHamming_HopSize512_WinSize512_AudioCh0 <= 1.325486
|   |   |   |   |   |   |   |   |   |   Std_Acc1000_Std_Mem40_MFCC7_Power_powerFFT_WinHamming_HopSize512_WinSize512_AudioCh0 <= 0.101269
|   |   |   |   |   |   |   |   |   |   |   Mean_Acc1000_Mean_Mem40_MFCC4_Power_powerFFT_WinHamming_HopSize512_WinSize512_AudioCh0 <= 0.601714: 1 (3.0)
|   |   |   |   |   |   |   |   |   |   |   Mean_Acc1000_Mean_Mem40_MFCC4_Power_powerFFT_WinHamming_HopSize512_WinSize512_AudioCh0 > 0.601714: 0 (4.0)
|   |   |   |   |   |   |   |   |   |   Std_Acc1000_Std_Mem40_MFCC7_Power_powerFFT_WinHamming_HopSize512_WinSize512_AudioCh0 > 0.101269: 0 (23.0)
|   |   |   |   |   |   |   |   |   Mean_Acc1000_Mean_Mem40_MFCC4_Power_powerFFT_WinHamming_HopSize512_WinSize512_AudioCh0 > 1.325486: 1 (2.0)
|   |   |   |   |   |   |   |   Mean_Acc1000_Std_Mem40_MFCC6_Power_powerFFT_WinHamming_HopSize512_WinSize512_AudioCh0 > 0.629307: 1 (3.0)
|   |   |   |   Std_Acc1000_Std_Mem40_Centroid_Power_powerFFT_WinHamming_HopSize512_WinSize512_AudioCh0 > 0.026874: 0 (27.0)
|   |   |   Instrument_-_Backing_vocals = 1: 0 (74.0/6.0)
|   |   Mean_Acc1000_Std_Mem40_Flux_Power_powerFFT_WinHamming_HopSize512_WinSize512_AudioCh0 > 0.046298
|   |   |   Std_Acc1000_Std_Mem40_MFCC0_Power_powerFFT_WinHamming_HopSize512_WinSize512_AudioCh0 <= 2.048576
|   |   |   |   Mean_Acc1000_Mean_Mem40_MFCC10_Power_powerFFT_WinHamming_HopSize512_WinSize512_AudioCh0 <= 0.667824: 1 (13.0)
|   |   |   |   Mean_Acc1000_Mean_Mem40_MFCC10_Power_powerFFT_WinHamming_HopSize512_WinSize512_AudioCh0 > 0.667824: 0 (3.0)
|   |   |   Std_Acc1000_Std_Mem40_MFCC0_Power_powerFFT_WinHamming_HopSize512_WinSize512_AudioCh0 > 2.048576: 0 (10.0/1.0)
|   Std_Acc1000_Mean_Mem40_MFCC0_Power_powerFFT_WinHamming_HopSize512_WinSize512_AudioCh0 > 4.297321
|   |   Std_Acc1000_Mean_Mem40_MFCC12_Power_powerFFT_WinHamming_HopSize512_WinSize512_AudioCh0 <= 0.446772
|   |   |   Mean_Acc1000_Mean_Mem40_MFCC4_Power_powerFFT_WinHamming_HopSize512_WinSize512_AudioCh0 <= 1.049058
|   |   |   |   Std_Acc1000_Mean_Mem40_ZeroCrossings_HopSize512_WinSize512_AudioCh0 <= 0.036794
|   |   |   |   |   Genre-Best--_Punk = 0
|   |   |   |   |   |   Std_Acc1000_Mean_Mem40_MFCC4_Power_powerFFT_WinHamming_HopSize512_WinSize512_AudioCh0 <= 0.487568: 0 (14.0)
|   |   |   |   |   |   Std_Acc1000_Mean_Mem40_MFCC4_Power_powerFFT_WinHamming_HopSize512_WinSize512_AudioCh0 > 0.487568
|   |   |   |   |   |   |   Std_Acc1000_Std_Mem40_MFCC11_Power_powerFFT_WinHamming_HopSize512_WinSize512_AudioCh0 <= 0.106044: 1 (6.0)
|   |   |   |   |   |   |   Std_Acc1000_Std_Mem40_MFCC11_Power_powerFFT_WinHamming_HopSize512_WinSize512_AudioCh0 > 0.106044: 0 (5.0)
|   |   |   |   |   Genre-Best--_Punk = 1: 1 (2.0)
|   |   |   |   Std_Acc1000_Mean_Mem40_ZeroCrossings_HopSize512_WinSize512_AudioCh0 > 0.036794: 1 (8.0)
|   |   |   Mean_Acc1000_Mean_Mem40_MFCC4_Power_powerFFT_WinHamming_HopSize512_WinSize512_AudioCh0 > 1.049058: 1 (19.0)
|   |   Std_Acc1000_Mean_Mem40_MFCC12_Power_powerFFT_WinHamming_HopSize512_WinSize512_AudioCh0 > 0.446772: 0 (10.0)

Number of Leaves  : 	37

Size of the tree : 	73


Prepare_CC.Base_CC: Node #11

J48 pruned tree
------------------

Emotion-Carefree-Lighthearted = 0
|   Song-Tonality = 0
|   |   Song-High_Energy = 0: 0 (188.0/1.0)
|   |   Song-High_Energy = 1
|   |   |   NOT-Emotion-Carefree-Lighthearted = 0
|   |   |   |   Std_Acc1000_Std_Mem40_Centroid_Power_powerFFT_WinHamming_HopSize512_WinSize512_AudioCh0 <= 0.027074
|   |   |   |   |   Std_Acc1000_Std_Mem40_Rolloff_Power_powerFFT_WinHamming_HopSize512_WinSize512_AudioCh0 <= 0.065561
|   |   |   |   |   |   Mean_Acc1000_Std_Mem40_ZeroCrossings_HopSize512_WinSize512_AudioCh0 <= 0.018201: 1 (3.0/1.0)
|   |   |   |   |   |   Mean_Acc1000_Std_Mem40_ZeroCrossings_HopSize512_WinSize512_AudioCh0 > 0.018201: 0 (45.0)
|   |   |   |   |   Std_Acc1000_Std_Mem40_Rolloff_Power_powerFFT_WinHamming_HopSize512_WinSize512_AudioCh0 > 0.065561
|   |   |   |   |   |   Std_Acc1000_Mean_Mem40_MFCC8_Power_powerFFT_WinHamming_HopSize512_WinSize512_AudioCh0 <= 0.25095: 1 (4.0)
|   |   |   |   |   |   Std_Acc1000_Mean_Mem40_MFCC8_Power_powerFFT_WinHamming_HopSize512_WinSize512_AudioCh0 > 0.25095: 0 (4.0)
|   |   |   |   Std_Acc1000_Std_Mem40_Centroid_Power_powerFFT_WinHamming_HopSize512_WinSize512_AudioCh0 > 0.027074
|   |   |   |   |   Mean_Acc1000_Mean_Mem40_MFCC7_Power_powerFFT_WinHamming_HopSize512_WinSize512_AudioCh0 <= 0.522358: 0 (4.0)
|   |   |   |   |   Mean_Acc1000_Mean_Mem40_MFCC7_Power_powerFFT_WinHamming_HopSize512_WinSize512_AudioCh0 > 0.522358: 1 (7.0)
|   |   |   NOT-Emotion-Carefree-Lighthearted = 1: 0 (56.0)
|   Song-Tonality = 1
|   |   Mean_Acc1000_Mean_Mem40_MFCC0_Power_powerFFT_WinHamming_HopSize512_WinSize512_AudioCh0 <= -70.869329: 0 (19.0)
|   |   Mean_Acc1000_Mean_Mem40_MFCC0_Power_powerFFT_WinHamming_HopSize512_WinSize512_AudioCh0 > -70.869329
|   |   |   Std_Acc1000_Mean_Mem40_Flux_Power_powerFFT_WinHamming_HopSize512_WinSize512_AudioCh0 <= 0.011477
|   |   |   |   Std_Acc1000_Std_Mem40_MFCC10_Power_powerFFT_WinHamming_HopSize512_WinSize512_AudioCh0 <= 0.065831: 0 (2.0)
|   |   |   |   Std_Acc1000_Std_Mem40_MFCC10_Power_powerFFT_WinHamming_HopSize512_WinSize512_AudioCh0 > 0.065831
|   |   |   |   |   Mean_Acc1000_Mean_Mem40_MFCC6_Power_powerFFT_WinHamming_HopSize512_WinSize512_AudioCh0 <= 0.744029: 1 (15.0)
|   |   |   |   |   Mean_Acc1000_Mean_Mem40_MFCC6_Power_powerFFT_WinHamming_HopSize512_WinSize512_AudioCh0 > 0.744029: 0 (3.0/1.0)
|   |   |   Std_Acc1000_Mean_Mem40_Flux_Power_powerFFT_WinHamming_HopSize512_WinSize512_AudioCh0 > 0.011477: 0 (6.0)
Emotion-Carefree-Lighthearted = 1
|   Usage-With_the_family = 0
|   |   Std_Acc1000_Mean_Mem40_MFCC6_Power_powerFFT_WinHamming_HopSize512_WinSize512_AudioCh0 <= 0.480959
|   |   |   Genre-Best--_Soft_Rock = 0
|   |   |   |   Mean_Acc1000_Mean_Mem40_MFCC10_Power_powerFFT_WinHamming_HopSize512_WinSize512_AudioCh0 <= 0.195538
|   |   |   |   |   Mean_Acc1000_Mean_Mem40_MFCC0_Power_powerFFT_WinHamming_HopSize512_WinSize512_AudioCh0 <= -76.954411: 1 (2.0)
|   |   |   |   |   Mean_Acc1000_Mean_Mem40_MFCC0_Power_powerFFT_WinHamming_HopSize512_WinSize512_AudioCh0 > -76.954411: 0 (8.0)
|   |   |   |   Mean_Acc1000_Mean_Mem40_MFCC10_Power_powerFFT_WinHamming_HopSize512_WinSize512_AudioCh0 > 0.195538
|   |   |   |   |   NOT-Song-Very_Danceable = 0: 1 (58.0/5.0)
|   |   |   |   |   NOT-Song-Very_Danceable = 1
|   |   |   |   |   |   Mean_Acc1000_Mean_Mem40_MFCC1_Power_powerFFT_WinHamming_HopSize512_WinSize512_AudioCh0 <= 5.187283: 1 (10.0/1.0)
|   |   |   |   |   |   Mean_Acc1000_Mean_Mem40_MFCC1_Power_powerFFT_WinHamming_HopSize512_WinSize512_AudioCh0 > 5.187283: 0 (6.0)
|   |   |   Genre-Best--_Soft_Rock = 1: 0 (4.0/1.0)
|   |   Std_Acc1000_Mean_Mem40_MFCC6_Power_powerFFT_WinHamming_HopSize512_WinSize512_AudioCh0 > 0.480959: 0 (6.0)
|   Usage-With_the_family = 1: 0 (2.0)

Number of Leaves  : 	21

Size of the tree : 	41


Prepare_CC.Base_CC: Node #12

J48 pruned tree
------------------

NOT-Song-Positive_Feelings = 0
|   Emotion-Happy = 0
|   |   Mean_Acc1000_Std_Mem40_Centroid_Power_powerFFT_WinHamming_HopSize512_WinSize512_AudioCh0 <= 0.014772: 1 (14.0)
|   |   Mean_Acc1000_Std_Mem40_Centroid_Power_powerFFT_WinHamming_HopSize512_WinSize512_AudioCh0 > 0.014772
|   |   |   Emotion-Cheerful-Festive = 0
|   |   |   |   Genre-Best--_Metal-Hard_Rock = 0
|   |   |   |   |   Vocals-Gravelly = 0
|   |   |   |   |   |   NOT-Song-Recorded = 0
|   |   |   |   |   |   |   Genre--_Contemporary_Blues = 0
|   |   |   |   |   |   |   |   Vocals-Call_and_Response = 0
|   |   |   |   |   |   |   |   |   Usage-At_work = 0
|   |   |   |   |   |   |   |   |   |   Usage-Sleeping = 0
|   |   |   |   |   |   |   |   |   |   |   NOT-Emotion-Carefree-Lighthearted = 0
|   |   |   |   |   |   |   |   |   |   |   |   Instrument_-_Piano-Solo = 0
|   |   |   |   |   |   |   |   |   |   |   |   |   Genre-Best-Blues = 0
|   |   |   |   |   |   |   |   |   |   |   |   |   |   Genre-Best--_Soft_Rock = 0
|   |   |   |   |   |   |   |   |   |   |   |   |   |   |   Song-Recorded = 0: 1 (3.0/1.0)
|   |   |   |   |   |   |   |   |   |   |   |   |   |   |   Song-Recorded = 1
|   |   |   |   |   |   |   |   |   |   |   |   |   |   |   |   Std_Acc1000_Mean_Mem40_MFCC0_Power_powerFFT_WinHamming_HopSize512_WinSize512_AudioCh0 <= 1.646769
|   |   |   |   |   |   |   |   |   |   |   |   |   |   |   |   |   Mean_Acc1000_Mean_Mem40_MFCC4_Power_powerFFT_WinHamming_HopSize512_WinSize512_AudioCh0 <= 0.567155
|   |   |   |   |   |   |   |   |   |   |   |   |   |   |   |   |   |   Instrument_-_Electric_Guitar_(distorted)-Solo = 0: 0 (12.0/1.0)
|   |   |   |   |   |   |   |   |   |   |   |   |   |   |   |   |   |   Instrument_-_Electric_Guitar_(distorted)-Solo = 1: 1 (2.0)
|   |   |   |   |   |   |   |   |   |   |   |   |   |   |   |   |   Mean_Acc1000_Mean_Mem40_MFCC4_Power_powerFFT_WinHamming_HopSize512_WinSize512_AudioCh0 > 0.567155: 1 (8.0)
|   |   |   |   |   |   |   |   |   |   |   |   |   |   |   |   Std_Acc1000_Mean_Mem40_MFCC0_Power_powerFFT_WinHamming_HopSize512_WinSize512_AudioCh0 > 1.646769: 0 (92.0/6.0)
|   |   |   |   |   |   |   |   |   |   |   |   |   |   Genre-Best--_Soft_Rock = 1
|   |   |   |   |   |   |   |   |   |   |   |   |   |   |   Mean_Acc1000_Mean_Mem40_MFCC8_Power_powerFFT_WinHamming_HopSize512_WinSize512_AudioCh0 <= 0.53996: 1 (5.0)
|   |   |   |   |   |   |   |   |   |   |   |   |   |   |   Mean_Acc1000_Mean_Mem40_MFCC8_Power_powerFFT_WinHamming_HopSize512_WinSize512_AudioCh0 > 0.53996: 0 (5.0)
|   |   |   |   |   |   |   |   |   |   |   |   |   Genre-Best-Blues = 1: 1 (3.0/1.0)
|   |   |   |   |   |   |   |   |   |   |   |   Instrument_-_Piano-Solo = 1
|   |   |   |   |   |   |   |   |   |   |   |   |   Genre--_Cool_Jazz = 0: 1 (4.0)
|   |   |   |   |   |   |   |   |   |   |   |   |   Genre--_Cool_Jazz = 1: 0 (2.0)
|   |   |   |   |   |   |   |   |   |   |   NOT-Emotion-Carefree-Lighthearted = 1
|   |   |   |   |   |   |   |   |   |   |   |   Instrument_-_Electric_Guitar_(clean)-Solo = 0
|   |   |   |   |   |   |   |   |   |   |   |   |   Emotion-Touching-Loving = 0
|   |   |   |   |   |   |   |   |   |   |   |   |   |   Song-High_Energy = 0
|   |   |   |   |   |   |   |   |   |   |   |   |   |   |   Std_Acc1000_Std_Mem40_MFCC6_Power_powerFFT_WinHamming_HopSize512_WinSize512_AudioCh0 <= 0.070179: 0 (3.0)
|   |   |   |   |   |   |   |   |   |   |   |   |   |   |   Std_Acc1000_Std_Mem40_MFCC6_Power_powerFFT_WinHamming_HopSize512_WinSize512_AudioCh0 > 0.070179: 1 (27.0)
|   |   |   |   |   |   |   |   |   |   |   |   |   |   Song-High_Energy = 1
|   |   |   |   |   |   |   |   |   |   |   |   |   |   |   Vocals-Aggressive = 0
|   |   |   |   |   |   |   |   |   |   |   |   |   |   |   |   Mean_Acc1000_Std_Mem40_MFCC3_Power_powerFFT_WinHamming_HopSize512_WinSize512_AudioCh0 <= 0.584999: 1 (3.0)
|   |   |   |   |   |   |   |   |   |   |   |   |   |   |   |   Mean_Acc1000_Std_Mem40_MFCC3_Power_powerFFT_WinHamming_HopSize512_WinSize512_AudioCh0 > 0.584999: 0 (14.0/1.0)
|   |   |   |   |   |   |   |   |   |   |   |   |   |   |   Vocals-Aggressive = 1: 1 (6.0)
|   |   |   |   |   |   |   |   |   |   |   |   |   Emotion-Touching-Loving = 1: 0 (3.0)
|   |   |   |   |   |   |   |   |   |   |   |   Instrument_-_Electric_Guitar_(clean)-Solo = 1: 0 (5.0)
|   |   |   |   |   |   |   |   |   |   Usage-Sleeping = 1: 1 (4.0)
|   |   |   |   |   |   |   |   |   Usage-At_work = 1: 0 (11.0)
|   |   |   |   |   |   |   |   Vocals-Call_and_Response = 1: 1 (3.0)
|   |   |   |   |   |   |   Genre--_Contemporary_Blues = 1: 1 (3.0)
|   |   |   |   |   |   NOT-Song-Recorded = 1: 1 (4.0)
|   |   |   |   |   Vocals-Gravelly = 1: 0 (7.0)
|   |   |   |   Genre-Best--_Metal-Hard_Rock = 1: 1 (3.0)
|   |   |   Emotion-Cheerful-Festive = 1: 0 (18.0)
|   Emotion-Happy = 1: 0 (119.0/1.0)
NOT-Song-Positive_Feelings = 1
|   NOT-Emotion-Positive-Optimistic = 0
|   |   Mean_Acc1000_Mean_Mem40_MFCC7_Power_powerFFT_WinHamming_HopSize512_WinSize512_AudioCh0 <= 0.569864: 0 (4.0)
|   |   Mean_Acc1000_Mean_Mem40_MFCC7_Power_powerFFT_WinHamming_HopSize512_WinSize512_AudioCh0 > 0.569864: 1 (5.0)
|   NOT-Emotion-Positive-Optimistic = 1: 1 (60.0)

Number of Leaves  : 	30

Size of the tree : 	59


Prepare_CC.Base_CC: Node #13

J48 pruned tree
------------------

Genre-Best--_Soft_Rock = 0
|   Emotion-Sad = 0
|   |   Genre--_Contemporary_RandB = 0
|   |   |   NOT-Emotion-Positive-Optimistic = 0
|   |   |   |   Vocals-Aggressive = 0
|   |   |   |   |   NOT-Song-Quality = 0
|   |   |   |   |   |   Std_Acc1000_Mean_Mem40_ZeroCrossings_HopSize512_WinSize512_AudioCh0 <= 0.0344
|   |   |   |   |   |   |   Emotion-Arousing-Awakening = 0
|   |   |   |   |   |   |   |   Vocals-Falsetto = 0
|   |   |   |   |   |   |   |   |   NOT-Emotion-Tender-Soft = 0
|   |   |   |   |   |   |   |   |   |   Song-Fast_Tempo = 0
|   |   |   |   |   |   |   |   |   |   |   Instrument_-_Female_Lead_Vocals-Solo = 0
|   |   |   |   |   |   |   |   |   |   |   |   Mean_Acc1000_Std_Mem40_MFCC3_Power_powerFFT_WinHamming_HopSize512_WinSize512_AudioCh0 <= 0.584999: 0 (18.0)
|   |   |   |   |   |   |   |   |   |   |   |   Mean_Acc1000_Std_Mem40_MFCC3_Power_powerFFT_WinHamming_HopSize512_WinSize512_AudioCh0 > 0.584999
|   |   |   |   |   |   |   |   |   |   |   |   |   Std_Acc1000_Std_Mem40_Rolloff_Power_powerFFT_WinHamming_HopSize512_WinSize512_AudioCh0 <= 0.070939
|   |   |   |   |   |   |   |   |   |   |   |   |   |   Mean_Acc1000_Std_Mem40_MFCC0_Power_powerFFT_WinHamming_HopSize512_WinSize512_AudioCh0 <= 2.484214: 1 (5.0)
|   |   |   |   |   |   |   |   |   |   |   |   |   |   Mean_Acc1000_Std_Mem40_MFCC0_Power_powerFFT_WinHamming_HopSize512_WinSize512_AudioCh0 > 2.484214
|   |   |   |   |   |   |   |   |   |   |   |   |   |   |   Std_Acc1000_Std_Mem40_MFCC11_Power_powerFFT_WinHamming_HopSize512_WinSize512_AudioCh0 <= 0.08809: 0 (29.0)
|   |   |   |   |   |   |   |   |   |   |   |   |   |   |   Std_Acc1000_Std_Mem40_MFCC11_Power_powerFFT_WinHamming_HopSize512_WinSize512_AudioCh0 > 0.08809
|   |   |   |   |   |   |   |   |   |   |   |   |   |   |   |   Mean_Acc1000_Mean_Mem40_MFCC4_Power_powerFFT_WinHamming_HopSize512_WinSize512_AudioCh0 <= 0.947206
|   |   |   |   |   |   |   |   |   |   |   |   |   |   |   |   |   Genre-Best-Pop = 0
|   |   |   |   |   |   |   |   |   |   |   |   |   |   |   |   |   |   Std_Acc1000_Mean_Mem40_MFCC8_Power_powerFFT_WinHamming_HopSize512_WinSize512_AudioCh0 <= 0.376948
|   |   |   |   |   |   |   |   |   |   |   |   |   |   |   |   |   |   |   Instrument_-_Drum_Set = 0: 1 (6.0)
|   |   |   |   |   |   |   |   |   |   |   |   |   |   |   |   |   |   |   Instrument_-_Drum_Set = 1
|   |   |   |   |   |   |   |   |   |   |   |   |   |   |   |   |   |   |   |   Mean_Acc1000_Mean_Mem40_Flux_Power_powerFFT_WinHamming_HopSize512_WinSize512_AudioCh0 <= 0.092581: 0 (9.0)
|   |   |   |   |   |   |   |   |   |   |   |   |   |   |   |   |   |   |   |   Mean_Acc1000_Mean_Mem40_Flux_Power_powerFFT_WinHamming_HopSize512_WinSize512_AudioCh0 > 0.092581: 1 (2.0)
|   |   |   |   |   |   |   |   |   |   |   |   |   |   |   |   |   |   Std_Acc1000_Mean_Mem40_MFCC8_Power_powerFFT_WinHamming_HopSize512_WinSize512_AudioCh0 > 0.376948: 0 (10.0)
|   |   |   |   |   |   |   |   |   |   |   |   |   |   |   |   |   Genre-Best-Pop = 1: 0 (4.0)
|   |   |   |   |   |   |   |   |   |   |   |   |   |   |   |   Mean_Acc1000_Mean_Mem40_MFCC4_Power_powerFFT_WinHamming_HopSize512_WinSize512_AudioCh0 > 0.947206: 1 (7.0/1.0)
|   |   |   |   |   |   |   |   |   |   |   |   |   Std_Acc1000_Std_Mem40_Rolloff_Power_powerFFT_WinHamming_HopSize512_WinSize512_AudioCh0 > 0.070939: 1 (8.0/1.0)
|   |   |   |   |   |   |   |   |   |   |   Instrument_-_Female_Lead_Vocals-Solo = 1: 1 (2.0)
|   |   |   |   |   |   |   |   |   |   Song-Fast_Tempo = 1: 0 (7.0)
|   |   |   |   |   |   |   |   |   NOT-Emotion-Tender-Soft = 1
|   |   |   |   |   |   |   |   |   |   Std_Acc1000_Mean_Mem40_MFCC6_Power_powerFFT_WinHamming_HopSize512_WinSize512_AudioCh0 <= 0.152406: 1 (3.0)
|   |   |   |   |   |   |   |   |   |   Std_Acc1000_Mean_Mem40_MFCC6_Power_powerFFT_WinHamming_HopSize512_WinSize512_AudioCh0 > 0.152406: 0 (39.0)
|   |   |   |   |   |   |   |   Vocals-Falsetto = 1: 1 (4.0/1.0)
|   |   |   |   |   |   |   Emotion-Arousing-Awakening = 1
|   |   |   |   |   |   |   |   Genre--_Singer-Songwriter = 0
|   |   |   |   |   |   |   |   |   NOT-Emotion-Tender-Soft = 0
|   |   |   |   |   |   |   |   |   |   Std_Acc1000_Std_Mem40_MFCC11_Power_powerFFT_WinHamming_HopSize512_WinSize512_AudioCh0 <= 0.095257: 1 (13.0)
|   |   |   |   |   |   |   |   |   |   Std_Acc1000_Std_Mem40_MFCC11_Power_powerFFT_WinHamming_HopSize512_WinSize512_AudioCh0 > 0.095257
|   |   |   |   |   |   |   |   |   |   |   Mean_Acc1000_Mean_Mem40_MFCC3_Power_powerFFT_WinHamming_HopSize512_WinSize512_AudioCh0 <= 1.703306: 0 (8.0)
|   |   |   |   |   |   |   |   |   |   |   Mean_Acc1000_Mean_Mem40_MFCC3_Power_powerFFT_WinHamming_HopSize512_WinSize512_AudioCh0 > 1.703306: 1 (5.0/1.0)
|   |   |   |   |   |   |   |   |   NOT-Emotion-Tender-Soft = 1
|   |   |   |   |   |   |   |   |   |   Mean_Acc1000_Std_Mem40_MFCC8_Power_powerFFT_WinHamming_HopSize512_WinSize512_AudioCh0 <= 0.452836: 1 (4.0)
|   |   |   |   |   |   |   |   |   |   Mean_Acc1000_Std_Mem40_MFCC8_Power_powerFFT_WinHamming_HopSize512_WinSize512_AudioCh0 > 0.452836
|   |   |   |   |   |   |   |   |   |   |   Usage-At_a_party = 0
|   |   |   |   |   |   |   |   |   |   |   |   Mean_Acc1000_Mean_Mem40_MFCC7_Power_powerFFT_WinHamming_HopSize512_WinSize512_AudioCh0 <= 0.412783
|   |   |   |   |   |   |   |   |   |   |   |   |   NOT-Emotion-Carefree-Lighthearted = 0: 1 (4.0)
|   |   |   |   |   |   |   |   |   |   |   |   |   NOT-Emotion-Carefree-Lighthearted = 1: 0 (2.0)
|   |   |   |   |   |   |   |   |   |   |   |   Mean_Acc1000_Mean_Mem40_MFCC7_Power_powerFFT_WinHamming_HopSize512_WinSize512_AudioCh0 > 0.412783: 0 (28.0)
|   |   |   |   |   |   |   |   |   |   |   Usage-At_a_party = 1
|   |   |   |   |   |   |   |   |   |   |   |   Instrument_-_Drum_Set = 0
|   |   |   |   |   |   |   |   |   |   |   |   |   Std_Acc1000_Std_Mem40_ZeroCrossings_HopSize512_WinSize512_AudioCh0 <= 0.011529: 1 (3.0/1.0)
|   |   |   |   |   |   |   |   |   |   |   |   |   Std_Acc1000_Std_Mem40_ZeroCrossings_HopSize512_WinSize512_AudioCh0 > 0.011529: 0 (7.0)
|   |   |   |   |   |   |   |   |   |   |   |   Instrument_-_Drum_Set = 1: 1 (3.0)
|   |   |   |   |   |   |   |   Genre--_Singer-Songwriter = 1: 1 (2.0)
|   |   |   |   |   |   Std_Acc1000_Mean_Mem40_ZeroCrossings_HopSize512_WinSize512_AudioCh0 > 0.0344: 0 (36.0/1.0)
|   |   |   |   |   NOT-Song-Quality = 1: 0 (9.0)
|   |   |   |   Vocals-Aggressive = 1
|   |   |   |   |   Mean_Acc1000_Mean_Mem40_MFCC6_Power_powerFFT_WinHamming_HopSize512_WinSize512_AudioCh0 <= 0.440515: 1 (9.0)
|   |   |   |   |   Mean_Acc1000_Mean_Mem40_MFCC6_Power_powerFFT_WinHamming_HopSize512_WinSize512_AudioCh0 > 0.440515: 0 (4.0)
|   |   |   NOT-Emotion-Positive-Optimistic = 1
|   |   |   |   Std_Acc1000_Std_Mem40_MFCC6_Power_powerFFT_WinHamming_HopSize512_WinSize512_AudioCh0 <= 0.154348
|   |   |   |   |   Mean_Acc1000_Mean_Mem40_MFCC0_Power_powerFFT_WinHamming_HopSize512_WinSize512_AudioCh0 <= -65.764794: 0 (59.0)
|   |   |   |   |   Mean_Acc1000_Mean_Mem40_MFCC0_Power_powerFFT_WinHamming_HopSize512_WinSize512_AudioCh0 > -65.764794
|   |   |   |   |   |   Mean_Acc1000_Mean_Mem40_ZeroCrossings_HopSize512_WinSize512_AudioCh0 <= 0.117918: 1 (3.0)
|   |   |   |   |   |   Mean_Acc1000_Mean_Mem40_ZeroCrossings_HopSize512_WinSize512_AudioCh0 > 0.117918: 0 (7.0)
|   |   |   |   Std_Acc1000_Std_Mem40_MFCC6_Power_powerFFT_WinHamming_HopSize512_WinSize512_AudioCh0 > 0.154348
|   |   |   |   |   Std_Acc1000_Std_Mem40_Flux_Power_powerFFT_WinHamming_HopSize512_WinSize512_AudioCh0 <= 0.031579: 0 (2.0)
|   |   |   |   |   Std_Acc1000_Std_Mem40_Flux_Power_powerFFT_WinHamming_HopSize512_WinSize512_AudioCh0 > 0.031579: 1 (5.0/1.0)
|   |   Genre--_Contemporary_RandB = 1
|   |   |   Mean_Acc1000_Std_Mem40_MFCC0_Power_powerFFT_WinHamming_HopSize512_WinSize512_AudioCh0 <= 4.058082: 1 (6.0)
|   |   |   Mean_Acc1000_Std_Mem40_MFCC0_Power_powerFFT_WinHamming_HopSize512_WinSize512_AudioCh0 > 4.058082: 0 (6.0/1.0)
|   Emotion-Sad = 1
|   |   Song-Fast_Tempo = 0
|   |   |   Std_Acc1000_Std_Mem40_MFCC3_Power_powerFFT_WinHamming_HopSize512_WinSize512_AudioCh0 <= 0.153173: 0 (7.0)
|   |   |   Std_Acc1000_Std_Mem40_MFCC3_Power_powerFFT_WinHamming_HopSize512_WinSize512_AudioCh0 > 0.153173
|   |   |   |   Std_Acc1000_Std_Mem40_Centroid_Power_powerFFT_WinHamming_HopSize512_WinSize512_AudioCh0 <= 0.033431
|   |   |   |   |   Mean_Acc1000_Mean_Mem40_MFCC11_Power_powerFFT_WinHamming_HopSize512_WinSize512_AudioCh0 <= 0.634296: 1 (31.0)
|   |   |   |   |   Mean_Acc1000_Mean_Mem40_MFCC11_Power_powerFFT_WinHamming_HopSize512_WinSize512_AudioCh0 > 0.634296
|   |   |   |   |   |   Instrument_-_Bass = 0: 0 (4.0)
|   |   |   |   |   |   Instrument_-_Bass = 1: 1 (2.0)
|   |   |   |   Std_Acc1000_Std_Mem40_Centroid_Power_powerFFT_WinHamming_HopSize512_WinSize512_AudioCh0 > 0.033431: 0 (4.0)
|   |   Song-Fast_Tempo = 1: 0 (2.0)
Genre-Best--_Soft_Rock = 1
|   Song-Quality = 0
|   |   Usage-Studying = 0: 0 (3.0)
|   |   Usage-Studying = 1: 1 (2.0)
|   Song-Quality = 1: 1 (19.0/2.0)

Number of Leaves  : 	46

Size of the tree : 	91


Prepare_CC.Base_CC: Node #14

J48 pruned tree
------------------

Emotion-Emotional-Passionate = 0
|   Instrument_-_Samples = 0
|   |   Genre-Hip_Hop-Rap = 0
|   |   |   NOT-Emotion-Touching-Loving = 0
|   |   |   |   Emotion-Bizarre-Weird = 0: 0 (117.0/2.0)
|   |   |   |   Emotion-Bizarre-Weird = 1
|   |   |   |   |   Std_Acc1000_Mean_Mem40_MFCC6_Power_powerFFT_WinHamming_HopSize512_WinSize512_AudioCh0 <= 0.249205: 1 (2.0)
|   |   |   |   |   Std_Acc1000_Mean_Mem40_MFCC6_Power_powerFFT_WinHamming_HopSize512_WinSize512_AudioCh0 > 0.249205: 0 (4.0)
|   |   |   NOT-Emotion-Touching-Loving = 1
|   |   |   |   NOT-Emotion-Angry-Agressive = 0
|   |   |   |   |   Genre-Best-Electronica = 0
|   |   |   |   |   |   Mean_Acc1000_Mean_Mem40_Flux_Power_powerFFT_WinHamming_HopSize512_WinSize512_AudioCh0 <= 0.094315
|   |   |   |   |   |   |   Emotion-Carefree-Lighthearted = 0: 0 (58.0)
|   |   |   |   |   |   |   Emotion-Carefree-Lighthearted = 1
|   |   |   |   |   |   |   |   Mean_Acc1000_Mean_Mem40_MFCC2_Power_powerFFT_WinHamming_HopSize512_WinSize512_AudioCh0 <= 1.392878: 0 (5.0)
|   |   |   |   |   |   |   |   Mean_Acc1000_Mean_Mem40_MFCC2_Power_powerFFT_WinHamming_HopSize512_WinSize512_AudioCh0 > 1.392878: 1 (2.0)
|   |   |   |   |   |   Mean_Acc1000_Mean_Mem40_Flux_Power_powerFFT_WinHamming_HopSize512_WinSize512_AudioCh0 > 0.094315: 1 (4.0/1.0)
|   |   |   |   |   Genre-Best-Electronica = 1: 1 (4.0/1.0)
|   |   |   |   NOT-Emotion-Angry-Agressive = 1
|   |   |   |   |   Emotion-Laid-back-Mellow = 0
|   |   |   |   |   |   Genre-Country = 0
|   |   |   |   |   |   |   NOT-Song-Heavy_Beat = 0
|   |   |   |   |   |   |   |   NOT-Emotion-Arousing-Awakening = 0
|   |   |   |   |   |   |   |   |   Song-Changing_Energy_Level = 0
|   |   |   |   |   |   |   |   |   |   Genre-Best-Pop = 0
|   |   |   |   |   |   |   |   |   |   |   Genre--_Roots_Rock = 0
|   |   |   |   |   |   |   |   |   |   |   |   Instrument_-_Tambourine = 0
|   |   |   |   |   |   |   |   |   |   |   |   |   Usage-Studying = 0
|   |   |   |   |   |   |   |   |   |   |   |   |   |   Std_Acc1000_Mean_Mem40_Rolloff_Power_powerFFT_WinHamming_HopSize512_WinSize512_AudioCh0 <= 0.046696: 1 (18.0)
|   |   |   |   |   |   |   |   |   |   |   |   |   |   Std_Acc1000_Mean_Mem40_Rolloff_Power_powerFFT_WinHamming_HopSize512_WinSize512_AudioCh0 > 0.046696
|   |   |   |   |   |   |   |   |   |   |   |   |   |   |   Std_Acc1000_Std_Mem40_Rolloff_Power_powerFFT_WinHamming_HopSize512_WinSize512_AudioCh0 <= 0.050191
|   |   |   |   |   |   |   |   |   |   |   |   |   |   |   |   Song-Fast_Tempo = 0: 0 (9.0)
|   |   |   |   |   |   |   |   |   |   |   |   |   |   |   |   Song-Fast_Tempo = 1
|   |   |   |   |   |   |   |   |   |   |   |   |   |   |   |   |   Emotion-Arousing-Awakening = 0: 1 (3.0)
|   |   |   |   |   |   |   |   |   |   |   |   |   |   |   |   |   Emotion-Arousing-Awakening = 1: 0 (3.0)
|   |   |   |   |   |   |   |   |   |   |   |   |   |   |   Std_Acc1000_Std_Mem40_Rolloff_Power_powerFFT_WinHamming_HopSize512_WinSize512_AudioCh0 > 0.050191: 1 (6.0)
|   |   |   |   |   |   |   |   |   |   |   |   |   Usage-Studying = 1: 0 (2.0)
|   |   |   |   |   |   |   |   |   |   |   |   Instrument_-_Tambourine = 1: 0 (2.0)
|   |   |   |   |   |   |   |   |   |   |   Genre--_Roots_Rock = 1: 0 (2.0)
|   |   |   |   |   |   |   |   |   |   Genre-Best-Pop = 1: 0 (4.0)
|   |   |   |   |   |   |   |   |   Song-Changing_Energy_Level = 1: 0 (3.0)
|   |   |   |   |   |   |   |   NOT-Emotion-Arousing-Awakening = 1: 0 (4.0)
|   |   |   |   |   |   |   NOT-Song-Heavy_Beat = 1: 1 (5.0)
|   |   |   |   |   |   Genre-Country = 1: 0 (5.0)
|   |   |   |   |   Emotion-Laid-back-Mellow = 1: 0 (7.0)
|   |   Genre-Hip_Hop-Rap = 1
|   |   |   Mean_Acc1000_Std_Mem40_MFCC11_Power_powerFFT_WinHamming_HopSize512_WinSize512_AudioCh0 <= 0.478702: 1 (7.0)
|   |   |   Mean_Acc1000_Std_Mem40_MFCC11_Power_powerFFT_WinHamming_HopSize512_WinSize512_AudioCh0 > 0.478702: 0 (6.0)
|   Instrument_-_Samples = 1
|   |   Mean_Acc1000_Mean_Mem40_MFCC5_Power_powerFFT_WinHamming_HopSize512_WinSize512_AudioCh0 <= 0.823713: 0 (9.0)
|   |   Mean_Acc1000_Mean_Mem40_MFCC5_Power_powerFFT_WinHamming_HopSize512_WinSize512_AudioCh0 > 0.823713
|   |   |   Mean_Acc1000_Mean_Mem40_ZeroCrossings_HopSize512_WinSize512_AudioCh0 <= 0.110056: 1 (16.0/1.0)
|   |   |   Mean_Acc1000_Mean_Mem40_ZeroCrossings_HopSize512_WinSize512_AudioCh0 > 0.110056: 0 (3.0)
Emotion-Emotional-Passionate = 1: 0 (142.0)

Number of Leaves  : 	28

Size of the tree : 	55


Prepare_CC.Base_CC: Node #15

J48 pruned tree
------------------

Emotion-Arousing-Awakening = 0
|   Genre-Best--_Punk = 0
|   |   Usage-Hanging_with_friends = 0
|   |   |   Usage-Exercising = 0
|   |   |   |   Vocals-Breathy = 0: 0 (271.0/5.0)
|   |   |   |   Vocals-Breathy = 1
|   |   |   |   |   Genre--_Classic_Rock = 0: 0 (13.0)
|   |   |   |   |   Genre--_Classic_Rock = 1: 1 (3.0)
|   |   |   Usage-Exercising = 1
|   |   |   |   Song-Tonality = 0: 0 (5.0)
|   |   |   |   Song-Tonality = 1: 1 (3.0)
|   |   Usage-Hanging_with_friends = 1
|   |   |   Instrument_-_Electric_Guitar_(distorted)-Solo = 0
|   |   |   |   NOT-Emotion-Laid-back-Mellow = 0: 0 (16.0/1.0)
|   |   |   |   NOT-Emotion-Laid-back-Mellow = 1: 1 (2.0)
|   |   |   Instrument_-_Electric_Guitar_(distorted)-Solo = 1: 1 (4.0)
|   Genre-Best--_Punk = 1
|   |   Angry-Agressive = 0: 0 (2.0)
|   |   Angry-Agressive = 1: 1 (2.0)
Emotion-Arousing-Awakening = 1
|   Song-High_Energy = 0: 0 (15.0/1.0)
|   Song-High_Energy = 1
|   |   Usage-Reading = 0
|   |   |   NOT-Emotion-Exciting-Thrilling = 0
|   |   |   |   Instrument_-_Tambourine = 0
|   |   |   |   |   Genre--_Singer-Songwriter = 0
|   |   |   |   |   |   Instrument_-_String_Ensemble = 0
|   |   |   |   |   |   |   Usage-Studying = 0
|   |   |   |   |   |   |   |   NOT-Song-Recommend = 0
|   |   |   |   |   |   |   |   |   Genre--_Dance_Pop = 0
|   |   |   |   |   |   |   |   |   |   Song-Texture_Synthesized = 0: 1 (61.0/4.0)
|   |   |   |   |   |   |   |   |   |   Song-Texture_Synthesized = 1
|   |   |   |   |   |   |   |   |   |   |   Emotion-Cheerful-Festive = 0: 1 (12.0)
|   |   |   |   |   |   |   |   |   |   |   Emotion-Cheerful-Festive = 1
|   |   |   |   |   |   |   |   |   |   |   |   Song-Tonality = 0: 0 (5.0)
|   |   |   |   |   |   |   |   |   |   |   |   Song-Tonality = 1: 1 (3.0)
|   |   |   |   |   |   |   |   |   Genre--_Dance_Pop = 1
|   |   |   |   |   |   |   |   |   |   Std_Acc1000_Mean_Mem40_MFCC6_Power_powerFFT_WinHamming_HopSize512_WinSize512_AudioCh0 <= 0.337314: 0 (3.0)
|   |   |   |   |   |   |   |   |   |   Std_Acc1000_Mean_Mem40_MFCC6_Power_powerFFT_WinHamming_HopSize512_WinSize512_AudioCh0 > 0.337314: 1 (4.0)
|   |   |   |   |   |   |   |   NOT-Song-Recommend = 1
|   |   |   |   |   |   |   |   |   Std_Acc1000_Mean_Mem40_Flux_Power_powerFFT_WinHamming_HopSize512_WinSize512_AudioCh0 <= 0.011477: 0 (9.0)
|   |   |   |   |   |   |   |   |   Std_Acc1000_Mean_Mem40_Flux_Power_powerFFT_WinHamming_HopSize512_WinSize512_AudioCh0 > 0.011477: 1 (2.0)
|   |   |   |   |   |   |   Usage-Studying = 1: 0 (3.0/1.0)
|   |   |   |   |   |   Instrument_-_String_Ensemble = 1: 0 (2.0)
|   |   |   |   |   Genre--_Singer-Songwriter = 1: 0 (2.0)
|   |   |   |   Instrument_-_Tambourine = 1: 0 (3.0)
|   |   |   NOT-Emotion-Exciting-Thrilling = 1: 0 (3.0)
|   |   Usage-Reading = 1: 0 (4.0)

Number of Leaves  : 	25

Size of the tree : 	49


Prepare_CC.Base_CC: Node #16

J48 pruned tree
------------------

Song-High_Energy = 0
|   Genre--_Cool_Jazz = 0
|   |   Genre-Best--_Soul = 0
|   |   |   Instrument_-_Electric_Guitar_(distorted)-Solo = 0
|   |   |   |   Emotion-Bizarre-Weird = 0
|   |   |   |   |   Emotion-Cheerful-Festive = 0
|   |   |   |   |   |   NOT-Emotion-Tender-Soft = 0
|   |   |   |   |   |   |   Usage-Intensely_Listening = 0
|   |   |   |   |   |   |   |   Instrument_-_Bass = 0
|   |   |   |   |   |   |   |   |   Instrument_-_Electric_Guitar_(distorted) = 0
|   |   |   |   |   |   |   |   |   |   Genre-Best-Rock = 0
|   |   |   |   |   |   |   |   |   |   |   NOT-Song-Heavy_Beat = 0
|   |   |   |   |   |   |   |   |   |   |   |   Mean_Acc1000_Mean_Mem40_MFCC12_Power_powerFFT_WinHamming_HopSize512_WinSize512_AudioCh0 <= 0.435984: 1 (17.0/1.0)
|   |   |   |   |   |   |   |   |   |   |   |   Mean_Acc1000_Mean_Mem40_MFCC12_Power_powerFFT_WinHamming_HopSize512_WinSize512_AudioCh0 > 0.435984
|   |   |   |   |   |   |   |   |   |   |   |   |   Instrument_-_Acoustic_Guitar = 0
|   |   |   |   |   |   |   |   |   |   |   |   |   |   Mean_Acc1000_Mean_Mem40_Rolloff_Power_powerFFT_WinHamming_HopSize512_WinSize512_AudioCh0 <= 0.093739: 1 (5.0)
|   |   |   |   |   |   |   |   |   |   |   |   |   |   Mean_Acc1000_Mean_Mem40_Rolloff_Power_powerFFT_WinHamming_HopSize512_WinSize512_AudioCh0 > 0.093739
|   |   |   |   |   |   |   |   |   |   |   |   |   |   |   Std_Acc1000_Std_Mem40_MFCC10_Power_powerFFT_WinHamming_HopSize512_WinSize512_AudioCh0 <= 0.0772: 1 (3.0/1.0)
|   |   |   |   |   |   |   |   |   |   |   |   |   |   |   Std_Acc1000_Std_Mem40_MFCC10_Power_powerFFT_WinHamming_HopSize512_WinSize512_AudioCh0 > 0.0772: 0 (15.0)
|   |   |   |   |   |   |   |   |   |   |   |   |   Instrument_-_Acoustic_Guitar = 1: 1 (2.0)
|   |   |   |   |   |   |   |   |   |   |   NOT-Song-Heavy_Beat = 1
|   |   |   |   |   |   |   |   |   |   |   |   Song-Recommend = 0: 1 (46.0/2.0)
|   |   |   |   |   |   |   |   |   |   |   |   Song-Recommend = 1
|   |   |   |   |   |   |   |   |   |   |   |   |   NOT-Emotion-Happy = 0: 1 (7.0)
|   |   |   |   |   |   |   |   |   |   |   |   |   NOT-Emotion-Happy = 1: 0 (3.0)
|   |   |   |   |   |   |   |   |   |   Genre-Best-Rock = 1: 0 (3.0/1.0)
|   |   |   |   |   |   |   |   |   Instrument_-_Electric_Guitar_(distorted) = 1: 0 (4.0/1.0)
|   |   |   |   |   |   |   |   Instrument_-_Bass = 1
|   |   |   |   |   |   |   |   |   Mean_Acc1000_Mean_Mem40_MFCC10_Power_powerFFT_WinHamming_HopSize512_WinSize512_AudioCh0 <= 0.637518
|   |   |   |   |   |   |   |   |   |   NOT-Song-Catchy-Memorable = 0
|   |   |   |   |   |   |   |   |   |   |   NOT-Song-Very_Danceable = 0: 0 (17.0)
|   |   |   |   |   |   |   |   |   |   |   NOT-Song-Very_Danceable = 1
|   |   |   |   |   |   |   |   |   |   |   |   NOT-Emotion-Bizarre-Weird = 0: 0 (4.0)
|   |   |   |   |   |   |   |   |   |   |   |   NOT-Emotion-Bizarre-Weird = 1
|   |   |   |   |   |   |   |   |   |   |   |   |   Mean_Acc1000_Mean_Mem40_Centroid_Power_powerFFT_WinHamming_HopSize512_WinSize512_AudioCh0 <= 0.060767: 1 (3.0)
|   |   |   |   |   |   |   |   |   |   |   |   |   Mean_Acc1000_Mean_Mem40_Centroid_Power_powerFFT_WinHamming_HopSize512_WinSize512_AudioCh0 > 0.060767: 0 (2.0)
|   |   |   |   |   |   |   |   |   |   NOT-Song-Catchy-Memorable = 1: 1 (7.0/1.0)
|   |   |   |   |   |   |   |   |   Mean_Acc1000_Mean_Mem40_MFCC10_Power_powerFFT_WinHamming_HopSize512_WinSize512_AudioCh0 > 0.637518: 1 (8.0)
|   |   |   |   |   |   |   Usage-Intensely_Listening = 1
|   |   |   |   |   |   |   |   NOT-Emotion-Bizarre-Weird = 0: 0 (6.0)
|   |   |   |   |   |   |   |   NOT-Emotion-Bizarre-Weird = 1: 1 (2.0)
|   |   |   |   |   |   NOT-Emotion-Tender-Soft = 1
|   |   |   |   |   |   |   Genre--_Singer-Songwriter = 0
|   |   |   |   |   |   |   |   Genre-Hip_Hop-Rap = 0
|   |   |   |   |   |   |   |   |   Vocals-High-pitched = 0
|   |   |   |   |   |   |   |   |   |   Std_Acc1000_Mean_Mem40_MFCC5_Power_powerFFT_WinHamming_HopSize512_WinSize512_AudioCh0 <= 0.466847: 0 (24.0)
|   |   |   |   |   |   |   |   |   |   Std_Acc1000_Mean_Mem40_MFCC5_Power_powerFFT_WinHamming_HopSize512_WinSize512_AudioCh0 > 0.466847: 1 (2.0)
|   |   |   |   |   |   |   |   |   Vocals-High-pitched = 1: 1 (2.0)
|   |   |   |   |   |   |   |   Genre-Hip_Hop-Rap = 1: 1 (3.0/1.0)
|   |   |   |   |   |   |   Genre--_Singer-Songwriter = 1: 1 (3.0)
|   |   |   |   |   Emotion-Cheerful-Festive = 1
|   |   |   |   |   |   Std_Acc1000_Std_Mem40_MFCC9_Power_powerFFT_WinHamming_HopSize512_WinSize512_AudioCh0 <= 0.066587: 1 (3.0)
|   |   |   |   |   |   Std_Acc1000_Std_Mem40_MFCC9_Power_powerFFT_WinHamming_HopSize512_WinSize512_AudioCh0 > 0.066587: 0 (12.0)
|   |   |   |   Emotion-Bizarre-Weird = 1: 0 (13.0/1.0)
|   |   |   Instrument_-_Electric_Guitar_(distorted)-Solo = 1: 0 (16.0/1.0)
|   |   Genre-Best--_Soul = 1: 0 (3.0)
|   Genre--_Cool_Jazz = 1: 0 (8.0/1.0)
Song-High_Energy = 1
|   Instrument_-_Drum_Set = 0
|   |   NOT-Emotion-Carefree-Lighthearted = 0: 0 (60.0/2.0)
|   |   NOT-Emotion-Carefree-Lighthearted = 1
|   |   |   Std_Acc1000_Mean_Mem40_MFCC5_Power_powerFFT_WinHamming_HopSize512_WinSize512_AudioCh0 <= 0.382943: 0 (18.0/1.0)
|   |   |   Std_Acc1000_Mean_Mem40_MFCC5_Power_powerFFT_WinHamming_HopSize512_WinSize512_AudioCh0 > 0.382943: 1 (6.0/1.0)
|   Instrument_-_Drum_Set = 1: 0 (125.0/3.0)

Number of Leaves  : 	33

Size of the tree : 	65


Prepare_CC.Base_CC: Node #17

J48 pruned tree
------------------

Emotion-Cheerful-Festive = 0
|   Emotion-Light-Playful = 0
|   |   Emotion-Carefree-Lighthearted = 0
|   |   |   Usage-Getting_ready_to_go_out = 0
|   |   |   |   Usage-Studying = 0
|   |   |   |   |   Song-Positive_Feelings = 0
|   |   |   |   |   |   Song-Very_Danceable = 0: 0 (232.0/1.0)
|   |   |   |   |   |   Song-Very_Danceable = 1
|   |   |   |   |   |   |   NOT-Emotion-Sad = 0: 0 (7.0)
|   |   |   |   |   |   |   NOT-Emotion-Sad = 1: 1 (2.0)
|   |   |   |   |   Song-Positive_Feelings = 1
|   |   |   |   |   |   Mean_Acc1000_Mean_Mem40_MFCC6_Power_powerFFT_WinHamming_HopSize512_WinSize512_AudioCh0 <= 0.085969: 1 (4.0)
|   |   |   |   |   |   Mean_Acc1000_Mean_Mem40_MFCC6_Power_powerFFT_WinHamming_HopSize512_WinSize512_AudioCh0 > 0.085969
|   |   |   |   |   |   |   Song-Changing_Energy_Level = 0
|   |   |   |   |   |   |   |   Mean_Acc1000_Mean_Mem40_Rolloff_Power_powerFFT_WinHamming_HopSize512_WinSize512_AudioCh0 <= 0.294836: 0 (34.0/1.0)
|   |   |   |   |   |   |   |   Mean_Acc1000_Mean_Mem40_Rolloff_Power_powerFFT_WinHamming_HopSize512_WinSize512_AudioCh0 > 0.294836: 1 (2.0)
|   |   |   |   |   |   |   Song-Changing_Energy_Level = 1: 1 (3.0/1.0)
|   |   |   |   Usage-Studying = 1
|   |   |   |   |   Mean_Acc1000_Mean_Mem40_Rolloff_Power_powerFFT_WinHamming_HopSize512_WinSize512_AudioCh0 <= 0.092075: 1 (4.0)
|   |   |   |   |   Mean_Acc1000_Mean_Mem40_Rolloff_Power_powerFFT_WinHamming_HopSize512_WinSize512_AudioCh0 > 0.092075: 0 (13.0)
|   |   |   Usage-Getting_ready_to_go_out = 1
|   |   |   |   Song-Quality = 0: 1 (3.0)
|   |   |   |   Song-Quality = 1
|   |   |   |   |   Std_Acc1000_Mean_Mem40_MFCC11_Power_powerFFT_WinHamming_HopSize512_WinSize512_AudioCh0 <= 0.167815: 1 (2.0)
|   |   |   |   |   Std_Acc1000_Mean_Mem40_MFCC11_Power_powerFFT_WinHamming_HopSize512_WinSize512_AudioCh0 > 0.167815: 0 (12.0)
|   |   Emotion-Carefree-Lighthearted = 1
|   |   |   Mean_Acc1000_Std_Mem40_MFCC9_Power_powerFFT_WinHamming_HopSize512_WinSize512_AudioCh0 <= 0.51343: 0 (11.0/1.0)
|   |   |   Mean_Acc1000_Std_Mem40_MFCC9_Power_powerFFT_WinHamming_HopSize512_WinSize512_AudioCh0 > 0.51343: 1 (5.0)
|   Emotion-Light-Playful = 1
|   |   Mean_Acc1000_Std_Mem40_MFCC11_Power_powerFFT_WinHamming_HopSize512_WinSize512_AudioCh0 <= 0.502613: 1 (15.0/1.0)
|   |   Mean_Acc1000_Std_Mem40_MFCC11_Power_powerFFT_WinHamming_HopSize512_WinSize512_AudioCh0 > 0.502613: 0 (8.0/1.0)
Emotion-Cheerful-Festive = 1
|   NOT-Emotion-Carefree-Lighthearted = 0
|   |   Instrument_-_Samples = 0
|   |   |   Vocals-Spoken = 0
|   |   |   |   Genre-Hip_Hop-Rap = 0
|   |   |   |   |   NOT-Emotion-Exciting-Thrilling = 0
|   |   |   |   |   |   Std_Acc1000_Std_Mem40_MFCC0_Power_powerFFT_WinHamming_HopSize512_WinSize512_AudioCh0 <= 3.021106
|   |   |   |   |   |   |   Std_Acc1000_Mean_Mem40_MFCC8_Power_powerFFT_WinHamming_HopSize512_WinSize512_AudioCh0 <= 0.393884: 1 (63.0)
|   |   |   |   |   |   |   Std_Acc1000_Mean_Mem40_MFCC8_Power_powerFFT_WinHamming_HopSize512_WinSize512_AudioCh0 > 0.393884
|   |   |   |   |   |   |   |   Mean_Acc1000_Mean_Mem40_MFCC0_Power_powerFFT_WinHamming_HopSize512_WinSize512_AudioCh0 <= -66.974793: 1 (7.0)
|   |   |   |   |   |   |   |   Mean_Acc1000_Mean_Mem40_MFCC0_Power_powerFFT_WinHamming_HopSize512_WinSize512_AudioCh0 > -66.974793: 0 (3.0)
|   |   |   |   |   |   Std_Acc1000_Std_Mem40_MFCC0_Power_powerFFT_WinHamming_HopSize512_WinSize512_AudioCh0 > 3.021106: 0 (4.0/1.0)
|   |   |   |   |   NOT-Emotion-Exciting-Thrilling = 1
|   |   |   |   |   |   Emotion-Emotional-Passionate = 0: 0 (4.0/1.0)
|   |   |   |   |   |   Emotion-Emotional-Passionate = 1: 1 (2.0)
|   |   |   |   Genre-Hip_Hop-Rap = 1
|   |   |   |   |   NOT-Emotion-Angry-Agressive = 0: 1 (2.0)
|   |   |   |   |   NOT-Emotion-Angry-Agressive = 1: 0 (3.0)
|   |   |   Vocals-Spoken = 1: 0 (3.0/1.0)
|   |   Instrument_-_Samples = 1: 0 (2.0)
|   NOT-Emotion-Carefree-Lighthearted = 1: 0 (2.0)

Number of Leaves  : 	27

Size of the tree : 	53


Prepare_CC.Base_CC: Node #18

J48 pruned tree
------------------

NOT-Emotion-Positive-Optimistic = 0
|   Emotion-Sad = 0
|   |   Genre-Best--_Punk = 0
|   |   |   Usage-Sleeping = 0
|   |   |   |   Song-Fast_Tempo = 0
|   |   |   |   |   Mean_Acc1000_Std_Mem40_Flux_Power_powerFFT_WinHamming_HopSize512_WinSize512_AudioCh0 <= 0.035763
|   |   |   |   |   |   NOT-Song-Heavy_Beat = 0: 0 (6.0)
|   |   |   |   |   |   NOT-Song-Heavy_Beat = 1: 1 (9.0/1.0)
|   |   |   |   |   Mean_Acc1000_Std_Mem40_Flux_Power_powerFFT_WinHamming_HopSize512_WinSize512_AudioCh0 > 0.035763
|   |   |   |   |   |   NOT-Emotion-Carefree-Lighthearted = 0
|   |   |   |   |   |   |   Std_Acc1000_Mean_Mem40_MFCC0_Power_powerFFT_WinHamming_HopSize512_WinSize512_AudioCh0 <= 1.249619
|   |   |   |   |   |   |   |   Std_Acc1000_Mean_Mem40_Flux_Power_powerFFT_WinHamming_HopSize512_WinSize512_AudioCh0 <= 0.0098: 1 (3.0)
|   |   |   |   |   |   |   |   Std_Acc1000_Mean_Mem40_Flux_Power_powerFFT_WinHamming_HopSize512_WinSize512_AudioCh0 > 0.0098: 0 (7.0)
|   |   |   |   |   |   |   Std_Acc1000_Mean_Mem40_MFCC0_Power_powerFFT_WinHamming_HopSize512_WinSize512_AudioCh0 > 1.249619: 0 (155.0/5.0)
|   |   |   |   |   |   NOT-Emotion-Carefree-Lighthearted = 1
|   |   |   |   |   |   |   Mean_Acc1000_Mean_Mem40_MFCC9_Power_powerFFT_WinHamming_HopSize512_WinSize512_AudioCh0 <= 0.724611
|   |   |   |   |   |   |   |   Mean_Acc1000_Std_Mem40_MFCC8_Power_powerFFT_WinHamming_HopSize512_WinSize512_AudioCh0 <= 0.543497: 0 (27.0)
|   |   |   |   |   |   |   |   Mean_Acc1000_Std_Mem40_MFCC8_Power_powerFFT_WinHamming_HopSize512_WinSize512_AudioCh0 > 0.543497: 1 (6.0/1.0)
|   |   |   |   |   |   |   Mean_Acc1000_Mean_Mem40_MFCC9_Power_powerFFT_WinHamming_HopSize512_WinSize512_AudioCh0 > 0.724611: 1 (6.0)
|   |   |   |   Song-Fast_Tempo = 1: 0 (89.0)
|   |   |   Usage-Sleeping = 1
|   |   |   |   Mean_Acc1000_Mean_Mem40_MFCC8_Power_powerFFT_WinHamming_HopSize512_WinSize512_AudioCh0 <= 0.631942: 1 (3.0)
|   |   |   |   Mean_Acc1000_Mean_Mem40_MFCC8_Power_powerFFT_WinHamming_HopSize512_WinSize512_AudioCh0 > 0.631942: 0 (2.0)
|   |   Genre-Best--_Punk = 1: 1 (3.0/1.0)
|   Emotion-Sad = 1
|   |   Std_Acc1000_Mean_Mem40_Flux_Power_powerFFT_WinHamming_HopSize512_WinSize512_AudioCh0 <= 0.009257: 0 (4.0)
|   |   Std_Acc1000_Mean_Mem40_Flux_Power_powerFFT_WinHamming_HopSize512_WinSize512_AudioCh0 > 0.009257: 1 (21.0/2.0)
NOT-Emotion-Positive-Optimistic = 1
|   NOT-Song-Heavy_Beat = 0
|   |   Usage-Studying = 0
|   |   |   Instrument_-_Backing_vocals = 0
|   |   |   |   NOT-Song-Recommend = 0
|   |   |   |   |   Genre--_Singer-Songwriter = 0
|   |   |   |   |   |   Song-Quality = 0
|   |   |   |   |   |   |   Instrument_-_Bass = 0: 1 (11.0)
|   |   |   |   |   |   |   Instrument_-_Bass = 1
|   |   |   |   |   |   |   |   Mean_Acc1000_Std_Mem40_MFCC2_Power_powerFFT_WinHamming_HopSize512_WinSize512_AudioCh0 <= 0.873413: 1 (4.0)
|   |   |   |   |   |   |   |   Mean_Acc1000_Std_Mem40_MFCC2_Power_powerFFT_WinHamming_HopSize512_WinSize512_AudioCh0 > 0.873413: 0 (4.0)
|   |   |   |   |   |   Song-Quality = 1
|   |   |   |   |   |   |   Std_Acc1000_Std_Mem40_MFCC9_Power_powerFFT_WinHamming_HopSize512_WinSize512_AudioCh0 <= 0.064621: 1 (5.0)
|   |   |   |   |   |   |   Std_Acc1000_Std_Mem40_MFCC9_Power_powerFFT_WinHamming_HopSize512_WinSize512_AudioCh0 > 0.064621
|   |   |   |   |   |   |   |   Mean_Acc1000_Mean_Mem40_MFCC9_Power_powerFFT_WinHamming_HopSize512_WinSize512_AudioCh0 <= 0.423266: 1 (3.0/1.0)
|   |   |   |   |   |   |   |   Mean_Acc1000_Mean_Mem40_MFCC9_Power_powerFFT_WinHamming_HopSize512_WinSize512_AudioCh0 > 0.423266: 0 (15.0)
|   |   |   |   |   Genre--_Singer-Songwriter = 1: 1 (3.0)
|   |   |   |   NOT-Song-Recommend = 1
|   |   |   |   |   Song-Quality = 0
|   |   |   |   |   |   Mean_Acc1000_Mean_Mem40_MFCC2_Power_powerFFT_WinHamming_HopSize512_WinSize512_AudioCh0 <= 0.55592
|   |   |   |   |   |   |   Mean_Acc1000_Mean_Mem40_Rolloff_Power_powerFFT_WinHamming_HopSize512_WinSize512_AudioCh0 <= 0.120777: 1 (2.0)
|   |   |   |   |   |   |   Mean_Acc1000_Mean_Mem40_Rolloff_Power_powerFFT_WinHamming_HopSize512_WinSize512_AudioCh0 > 0.120777: 0 (3.0)
|   |   |   |   |   |   Mean_Acc1000_Mean_Mem40_MFCC2_Power_powerFFT_WinHamming_HopSize512_WinSize512_AudioCh0 > 0.55592: 1 (13.0)
|   |   |   |   |   Song-Quality = 1: 1 (15.0)
|   |   |   Instrument_-_Backing_vocals = 1: 0 (9.0/1.0)
|   |   Usage-Studying = 1: 0 (2.0)
|   NOT-Song-Heavy_Beat = 1: 1 (22.0)

Number of Leaves  : 	28

Size of the tree : 	55


Prepare_CC.Base_CC: Node #19

J48 pruned tree
------------------

NOT-Song-Heavy_Beat = 0
|   NOT-Emotion-Tender-Soft = 0
|   |   Emotion-Bizarre-Weird = 0
|   |   |   Usage-With_the_family = 0
|   |   |   |   Genre-Best-Rock = 0
|   |   |   |   |   Std_Acc1000_Std_Mem40_MFCC3_Power_powerFFT_WinHamming_HopSize512_WinSize512_AudioCh0 <= 0.139258
|   |   |   |   |   |   Song-Positive_Feelings = 0: 0 (7.0/2.0)
|   |   |   |   |   |   Song-Positive_Feelings = 1: 1 (11.0)
|   |   |   |   |   Std_Acc1000_Std_Mem40_MFCC3_Power_powerFFT_WinHamming_HopSize512_WinSize512_AudioCh0 > 0.139258
|   |   |   |   |   |   Song-High_Energy = 0
|   |   |   |   |   |   |   Mean_Acc1000_Mean_Mem40_MFCC10_Power_powerFFT_WinHamming_HopSize512_WinSize512_AudioCh0 <= 0.745457
|   |   |   |   |   |   |   |   Usage-Intensely_Listening = 0
|   |   |   |   |   |   |   |   |   Mean_Acc1000_Std_Mem40_Rolloff_Power_powerFFT_WinHamming_HopSize512_WinSize512_AudioCh0 <= 0.053455: 1 (6.0/1.0)
|   |   |   |   |   |   |   |   |   Mean_Acc1000_Std_Mem40_Rolloff_Power_powerFFT_WinHamming_HopSize512_WinSize512_AudioCh0 > 0.053455
|   |   |   |   |   |   |   |   |   |   Instrument_-_Acoustic_Guitar = 0
|   |   |   |   |   |   |   |   |   |   |   Std_Acc1000_Mean_Mem40_MFCC2_Power_powerFFT_WinHamming_HopSize512_WinSize512_AudioCh0 <= 0.3745: 1 (5.0)
|   |   |   |   |   |   |   |   |   |   |   Std_Acc1000_Mean_Mem40_MFCC2_Power_powerFFT_WinHamming_HopSize512_WinSize512_AudioCh0 > 0.3745: 0 (50.0/3.0)
|   |   |   |   |   |   |   |   |   |   Instrument_-_Acoustic_Guitar = 1
|   |   |   |   |   |   |   |   |   |   |   Emotion-Emotional-Passionate = 0: 1 (2.0)
|   |   |   |   |   |   |   |   |   |   |   Emotion-Emotional-Passionate = 1: 0 (2.0)
|   |   |   |   |   |   |   |   Usage-Intensely_Listening = 1: 1 (3.0/1.0)
|   |   |   |   |   |   |   Mean_Acc1000_Mean_Mem40_MFCC10_Power_powerFFT_WinHamming_HopSize512_WinSize512_AudioCh0 > 0.745457: 1 (6.0)
|   |   |   |   |   |   Song-High_Energy = 1: 0 (51.0/1.0)
|   |   |   |   Genre-Best-Rock = 1: 0 (13.0)
|   |   |   Usage-With_the_family = 1: 1 (3.0/1.0)
|   |   Emotion-Bizarre-Weird = 1: 1 (4.0/1.0)
|   NOT-Emotion-Tender-Soft = 1: 0 (185.0/1.0)
NOT-Song-Heavy_Beat = 1
|   Genre-Best-Rock = 0
|   |   Emotion-Bizarre-Weird = 0
|   |   |   Genre--_Singer-Songwriter = 0
|   |   |   |   Instrument_-_Tambourine = 0
|   |   |   |   |   Genre-Country = 0
|   |   |   |   |   |   Genre-RandB = 0
|   |   |   |   |   |   |   Std_Acc1000_Mean_Mem40_ZeroCrossings_HopSize512_WinSize512_AudioCh0 <= 0.033868
|   |   |   |   |   |   |   |   NOT-Emotion-Positive-Optimistic = 0
|   |   |   |   |   |   |   |   |   Std_Acc1000_Mean_Mem40_Flux_Power_powerFFT_WinHamming_HopSize512_WinSize512_AudioCh0 <= 0.012165: 1 (40.0/2.0)
|   |   |   |   |   |   |   |   |   Std_Acc1000_Mean_Mem40_Flux_Power_powerFFT_WinHamming_HopSize512_WinSize512_AudioCh0 > 0.012165: 0 (3.0/1.0)
|   |   |   |   |   |   |   |   NOT-Emotion-Positive-Optimistic = 1
|   |   |   |   |   |   |   |   |   Mean_Acc1000_Mean_Mem40_MFCC5_Power_powerFFT_WinHamming_HopSize512_WinSize512_AudioCh0 <= 0.892209: 1 (5.0)
|   |   |   |   |   |   |   |   |   Mean_Acc1000_Mean_Mem40_MFCC5_Power_powerFFT_WinHamming_HopSize512_WinSize512_AudioCh0 > 0.892209: 0 (7.0/1.0)
|   |   |   |   |   |   |   Std_Acc1000_Mean_Mem40_ZeroCrossings_HopSize512_WinSize512_AudioCh0 > 0.033868: 0 (10.0)
|   |   |   |   |   |   Genre-RandB = 1: 0 (7.0/1.0)
|   |   |   |   |   Genre-Country = 1: 0 (9.0/1.0)
|   |   |   |   Instrument_-_Tambourine = 1: 0 (3.0)
|   |   |   Genre--_Singer-Songwriter = 1: 1 (13.0)
|   |   Emotion-Bizarre-Weird = 1: 0 (3.0)
|   Genre-Best-Rock = 1: 0 (4.0)

Number of Leaves  : 	25

Size of the tree : 	49


Prepare_CC.Base_CC: Node #20

J48 pruned tree
------------------

NOT-Emotion-Tender-Soft = 0
|   Genre-Best-Blues = 0
|   |   Emotion-Laid-back-Mellow = 0
|   |   |   NOT-Emotion-Arousing-Awakening = 0
|   |   |   |   NOT-Song-Recommend = 0
|   |   |   |   |   Genre-Best-Jazz = 0
|   |   |   |   |   |   Vocals-Emotional = 0
|   |   |   |   |   |   |   Std_Acc1000_Std_Mem40_ZeroCrossings_HopSize512_WinSize512_AudioCh0 <= 0.006169: 1 (3.0/1.0)
|   |   |   |   |   |   |   Std_Acc1000_Std_Mem40_ZeroCrossings_HopSize512_WinSize512_AudioCh0 > 0.006169: 0 (67.0/4.0)
|   |   |   |   |   |   Vocals-Emotional = 1
|   |   |   |   |   |   |   Instrument_-_Backing_vocals = 0
|   |   |   |   |   |   |   |   NOT-Emotion-Exciting-Thrilling = 0
|   |   |   |   |   |   |   |   |   Std_Acc1000_Std_Mem40_MFCC0_Power_powerFFT_WinHamming_HopSize512_WinSize512_AudioCh0 <= 2.141711: 0 (5.0/1.0)
|   |   |   |   |   |   |   |   |   Std_Acc1000_Std_Mem40_MFCC0_Power_powerFFT_WinHamming_HopSize512_WinSize512_AudioCh0 > 2.141711: 1 (8.0/1.0)
|   |   |   |   |   |   |   |   NOT-Emotion-Exciting-Thrilling = 1: 0 (3.0)
|   |   |   |   |   |   |   Instrument_-_Backing_vocals = 1: 0 (20.0)
|   |   |   |   |   Genre-Best-Jazz = 1: 0 (2.0/1.0)
|   |   |   |   NOT-Song-Recommend = 1
|   |   |   |   |   Std_Acc1000_Mean_Mem40_MFCC6_Power_powerFFT_WinHamming_HopSize512_WinSize512_AudioCh0 <= 0.308547
|   |   |   |   |   |   Mean_Acc1000_Mean_Mem40_Centroid_Power_powerFFT_WinHamming_HopSize512_WinSize512_AudioCh0 <= 0.100148: 0 (10.0)
|   |   |   |   |   |   Mean_Acc1000_Mean_Mem40_Centroid_Power_powerFFT_WinHamming_HopSize512_WinSize512_AudioCh0 > 0.100148: 1 (2.0)
|   |   |   |   |   Std_Acc1000_Mean_Mem40_MFCC6_Power_powerFFT_WinHamming_HopSize512_WinSize512_AudioCh0 > 0.308547: 1 (9.0)
|   |   |   NOT-Emotion-Arousing-Awakening = 1: 0 (28.0)
|   |   Emotion-Laid-back-Mellow = 1: 0 (97.0)
|   Genre-Best-Blues = 1
|   |   Instrument_-_Drum_Set = 0: 0 (3.0)
|   |   Instrument_-_Drum_Set = 1: 1 (4.0)
NOT-Emotion-Tender-Soft = 1
|   Emotion-Laid-back-Mellow = 0
|   |   Usage-Intensely_Listening = 0
|   |   |   Vocals-Breathy = 0
|   |   |   |   Emotion-Pleasant-Comfortable = 0
|   |   |   |   |   Genre--_Punk = 0
|   |   |   |   |   |   Emotion-Bizarre-Weird = 0
|   |   |   |   |   |   |   Instrument_-_Female_Lead_Vocals = 0
|   |   |   |   |   |   |   |   Instrument_-_Acoustic_Guitar = 0
|   |   |   |   |   |   |   |   |   Vocals-Emotional = 0
|   |   |   |   |   |   |   |   |   |   Vocals-Spoken = 0
|   |   |   |   |   |   |   |   |   |   |   NOT-Song-Recorded = 0
|   |   |   |   |   |   |   |   |   |   |   |   Usage-Studying = 0
|   |   |   |   |   |   |   |   |   |   |   |   |   Emotion-Arousing-Awakening = 0
|   |   |   |   |   |   |   |   |   |   |   |   |   |   Song-Catchy-Memorable = 0
|   |   |   |   |   |   |   |   |   |   |   |   |   |   |   Std_Acc1000_Mean_Mem40_MFCC1_Power_powerFFT_WinHamming_HopSize512_WinSize512_AudioCh0 <= 0.797973
|   |   |   |   |   |   |   |   |   |   |   |   |   |   |   |   Mean_Acc1000_Mean_Mem40_MFCC8_Power_powerFFT_WinHamming_HopSize512_WinSize512_AudioCh0 <= 0.590722: 1 (15.0)
|   |   |   |   |   |   |   |   |   |   |   |   |   |   |   |   Mean_Acc1000_Mean_Mem40_MFCC8_Power_powerFFT_WinHamming_HopSize512_WinSize512_AudioCh0 > 0.590722
|   |   |   |   |   |   |   |   |   |   |   |   |   |   |   |   |   Instrument_-_Backing_vocals = 0: 0 (7.0/1.0)
|   |   |   |   |   |   |   |   |   |   |   |   |   |   |   |   |   Instrument_-_Backing_vocals = 1: 1 (2.0)
|   |   |   |   |   |   |   |   |   |   |   |   |   |   |   Std_Acc1000_Mean_Mem40_MFCC1_Power_powerFFT_WinHamming_HopSize512_WinSize512_AudioCh0 > 0.797973: 0 (10.0/1.0)
|   |   |   |   |   |   |   |   |   |   |   |   |   |   Song-Catchy-Memorable = 1: 0 (8.0)
|   |   |   |   |   |   |   |   |   |   |   |   |   Emotion-Arousing-Awakening = 1
|   |   |   |   |   |   |   |   |   |   |   |   |   |   Std_Acc1000_Std_Mem40_MFCC4_Power_powerFFT_WinHamming_HopSize512_WinSize512_AudioCh0 <= 0.245392: 1 (47.0/5.0)
|   |   |   |   |   |   |   |   |   |   |   |   |   |   Std_Acc1000_Std_Mem40_MFCC4_Power_powerFFT_WinHamming_HopSize512_WinSize512_AudioCh0 > 0.245392: 0 (4.0)
|   |   |   |   |   |   |   |   |   |   |   |   Usage-Studying = 1: 1 (4.0)
|   |   |   |   |   |   |   |   |   |   |   NOT-Song-Recorded = 1: 1 (4.0)
|   |   |   |   |   |   |   |   |   |   Vocals-Spoken = 1: 1 (5.0)
|   |   |   |   |   |   |   |   |   Vocals-Emotional = 1: 1 (11.0)
|   |   |   |   |   |   |   |   Instrument_-_Acoustic_Guitar = 1: 0 (6.0/1.0)
|   |   |   |   |   |   |   Instrument_-_Female_Lead_Vocals = 1: 1 (7.0)
|   |   |   |   |   |   Emotion-Bizarre-Weird = 1: 1 (8.0)
|   |   |   |   |   Genre--_Punk = 1: 1 (17.0)
|   |   |   |   Emotion-Pleasant-Comfortable = 1
|   |   |   |   |   NOT-Emotion-Bizarre-Weird = 0: 1 (4.0)
|   |   |   |   |   NOT-Emotion-Bizarre-Weird = 1
|   |   |   |   |   |   Std_Acc1000_Mean_Mem40_MFCC6_Power_powerFFT_WinHamming_HopSize512_WinSize512_AudioCh0 <= 0.343927: 0 (11.0)
|   |   |   |   |   |   Std_Acc1000_Mean_Mem40_MFCC6_Power_powerFFT_WinHamming_HopSize512_WinSize512_AudioCh0 > 0.343927: 1 (4.0/1.0)
|   |   |   Vocals-Breathy = 1: 0 (5.0/1.0)
|   |   Usage-Intensely_Listening = 1: 0 (7.0/1.0)
|   Emotion-Laid-back-Mellow = 1: 0 (5.0)

Number of Leaves  : 	35

Size of the tree : 	69


Prepare_CC.Base_CC: Node #21

J48 pruned tree
------------------

Emotion-Carefree-Lighthearted = 0
|   Emotion-Cheerful-Festive = 0: 0 (326.0/8.0)
|   Emotion-Cheerful-Festive = 1
|   |   Genre-Hip_Hop-Rap = 0
|   |   |   Std_Acc1000_Std_Mem40_MFCC6_Power_powerFFT_WinHamming_HopSize512_WinSize512_AudioCh0 <= 0.132349
|   |   |   |   Std_Acc1000_Std_Mem40_MFCC2_Power_powerFFT_WinHamming_HopSize512_WinSize512_AudioCh0 <= 0.191706: 1 (6.0/1.0)
|   |   |   |   Std_Acc1000_Std_Mem40_MFCC2_Power_powerFFT_WinHamming_HopSize512_WinSize512_AudioCh0 > 0.191706: 0 (16.0)
|   |   |   Std_Acc1000_Std_Mem40_MFCC6_Power_powerFFT_WinHamming_HopSize512_WinSize512_AudioCh0 > 0.132349: 1 (5.0)
|   |   Genre-Hip_Hop-Rap = 1: 1 (3.0)
Emotion-Carefree-Lighthearted = 1
|   Instrument_-_Samples = 0
|   |   NOT-Song-Tonality = 0
|   |   |   NOT-Song-Recommend = 0
|   |   |   |   Mean_Acc1000_Mean_Mem40_MFCC9_Power_powerFFT_WinHamming_HopSize512_WinSize512_AudioCh0 <= 0.681254
|   |   |   |   |   Instrument_-_Harmonica-Solo = 0
|   |   |   |   |   |   NOT-Song-Heavy_Beat = 0
|   |   |   |   |   |   |   Vocals-Emotional = 0
|   |   |   |   |   |   |   |   Genre--_Classic_Rock = 0
|   |   |   |   |   |   |   |   |   Mean_Acc1000_Std_Mem40_MFCC4_Power_powerFFT_WinHamming_HopSize512_WinSize512_AudioCh0 <= 0.745296
|   |   |   |   |   |   |   |   |   |   Std_Acc1000_Std_Mem40_MFCC7_Power_powerFFT_WinHamming_HopSize512_WinSize512_AudioCh0 <= 0.099042
|   |   |   |   |   |   |   |   |   |   |   Instrument_-_Drum_Set = 0: 0 (3.0)
|   |   |   |   |   |   |   |   |   |   |   Instrument_-_Drum_Set = 1: 1 (6.0/1.0)
|   |   |   |   |   |   |   |   |   |   Std_Acc1000_Std_Mem40_MFCC7_Power_powerFFT_WinHamming_HopSize512_WinSize512_AudioCh0 > 0.099042: 1 (28.0)
|   |   |   |   |   |   |   |   |   Mean_Acc1000_Std_Mem40_MFCC4_Power_powerFFT_WinHamming_HopSize512_WinSize512_AudioCh0 > 0.745296: 0 (5.0/1.0)
|   |   |   |   |   |   |   |   Genre--_Classic_Rock = 1
|   |   |   |   |   |   |   |   |   Mean_Acc1000_Mean_Mem40_MFCC6_Power_powerFFT_WinHamming_HopSize512_WinSize512_AudioCh0 <= 0.404607: 1 (4.0)
|   |   |   |   |   |   |   |   |   Mean_Acc1000_Mean_Mem40_MFCC6_Power_powerFFT_WinHamming_HopSize512_WinSize512_AudioCh0 > 0.404607: 0 (5.0)
|   |   |   |   |   |   |   Vocals-Emotional = 1: 1 (7.0)
|   |   |   |   |   |   NOT-Song-Heavy_Beat = 1: 1 (14.0)
|   |   |   |   |   Instrument_-_Harmonica-Solo = 1: 0 (3.0/1.0)
|   |   |   |   Mean_Acc1000_Mean_Mem40_MFCC9_Power_powerFFT_WinHamming_HopSize512_WinSize512_AudioCh0 > 0.681254: 0 (6.0)
|   |   |   NOT-Song-Recommend = 1: 0 (5.0/1.0)
|   |   NOT-Song-Tonality = 1: 0 (4.0)
|   Instrument_-_Samples = 1: 0 (6.0)

Number of Leaves  : 	18

Size of the tree : 	35


Prepare_CC.Base_CC: Node #22

J48 pruned tree
------------------

NOT-Emotion-Carefree-Lighthearted = 0
|   NOT-Emotion-Cheerful-Festive = 0
|   |   NOT-Song-Recorded = 0
|   |   |   Genre-Best--_Punk = 0
|   |   |   |   Std_Acc1000_Std_Mem40_MFCC0_Power_powerFFT_WinHamming_HopSize512_WinSize512_AudioCh0 <= 2.737112
|   |   |   |   |   Usage-Studying = 0: 0 (207.0/7.0)
|   |   |   |   |   Usage-Studying = 1
|   |   |   |   |   |   Emotion-Happy = 0: 1 (3.0)
|   |   |   |   |   |   Emotion-Happy = 1: 0 (11.0)
|   |   |   |   Std_Acc1000_Std_Mem40_MFCC0_Power_powerFFT_WinHamming_HopSize512_WinSize512_AudioCh0 > 2.737112
|   |   |   |   |   NOT-Song-Fast_Tempo = 0
