Hamming_loss, 0.1844827586206896
Exact_match, 0.0
Accuracy, 0.231467131145339
Averaging, 0.34899479084154983
== Model info

Model                          
Prepare_CC.Base_CC: Node #1

J48 pruned tree
------------------

Vocals-Gravelly = 0
|   Genre-Best--_Metal-Hard_Rock = 0
|   |   Genre-Best-Hip_Hop-Rap = 0
|   |   |   Genre--_Metal-Hard_Rock = 0
|   |   |   |   NOT-Emotion-Angry-Agressive = 0
|   |   |   |   |   Vocals-Call_and_Response = 0
|   |   |   |   |   |   Emotion-Bizarre-Weird = 0
|   |   |   |   |   |   |   NOT-Emotion-Calming-Soothing = 0: 0 (56.0/2.0)
|   |   |   |   |   |   |   NOT-Emotion-Calming-Soothing = 1
|   |   |   |   |   |   |   |   Mean_Acc1000_Mean_Mem40_MFCC5_Power_powerFFT_WinHamming_HopSize512_WinSize512_AudioCh0 <= 1.176124
|   |   |   |   |   |   |   |   |   Std_Acc1000_Std_Mem40_MFCC11_Power_powerFFT_WinHamming_HopSize512_WinSize512_AudioCh0 <= 0.060793: 1 (4.0)
|   |   |   |   |   |   |   |   |   Std_Acc1000_Std_Mem40_MFCC11_Power_powerFFT_WinHamming_HopSize512_WinSize512_AudioCh0 > 0.060793
|   |   |   |   |   |   |   |   |   |   Mean_Acc1000_Std_Mem40_MFCC9_Power_powerFFT_WinHamming_HopSize512_WinSize512_AudioCh0 <= 0.549716: 0 (37.0/1.0)
|   |   |   |   |   |   |   |   |   |   Mean_Acc1000_Std_Mem40_MFCC9_Power_powerFFT_WinHamming_HopSize512_WinSize512_AudioCh0 > 0.549716: 1 (4.0/1.0)
|   |   |   |   |   |   |   |   Mean_Acc1000_Mean_Mem40_MFCC5_Power_powerFFT_WinHamming_HopSize512_WinSize512_AudioCh0 > 1.176124: 1 (5.0)
|   |   |   |   |   |   Emotion-Bizarre-Weird = 1
|   |   |   |   |   |   |   Mean_Acc1000_Mean_Mem40_Flux_Power_powerFFT_WinHamming_HopSize512_WinSize512_AudioCh0 <= 0.086593: 0 (2.0)
|   |   |   |   |   |   |   Mean_Acc1000_Mean_Mem40_Flux_Power_powerFFT_WinHamming_HopSize512_WinSize512_AudioCh0 > 0.086593: 1 (3.0)
|   |   |   |   |   Vocals-Call_and_Response = 1: 1 (2.0)
|   |   |   |   NOT-Emotion-Angry-Agressive = 1: 0 (281.0)
|   |   |   Genre--_Metal-Hard_Rock = 1
|   |   |   |   NOT-Emotion-Bizarre-Weird = 0
|   |   |   |   |   NOT-Song-Positive_Feelings = 0
|   |   |   |   |   |   NOT-Emotion-Cheerful-Festive = 0: 1 (3.0/1.0)
|   |   |   |   |   |   NOT-Emotion-Cheerful-Festive = 1: 0 (5.0)
|   |   |   |   |   NOT-Song-Positive_Feelings = 1: 1 (9.0)
|   |   |   |   NOT-Emotion-Bizarre-Weird = 1: 0 (6.0/1.0)
|   |   Genre-Best-Hip_Hop-Rap = 1
|   |   |   NOT-Emotion-Calming-Soothing = 0: 0 (4.0)
|   |   |   NOT-Emotion-Calming-Soothing = 1
|   |   |   |   Emotion-Happy = 0: 1 (9.0)
|   |   |   |   Emotion-Happy = 1: 0 (2.0)
|   Genre-Best--_Metal-Hard_Rock = 1
|   |   Genre--_Alternative = 0: 1 (5.0)
|   |   Genre--_Alternative = 1: 0 (2.0)
Vocals-Gravelly = 1
|   NOT-Emotion-Angry-Agressive = 0: 1 (11.0)
|   NOT-Emotion-Angry-Agressive = 1: 0 (2.0)

Number of Leaves  : 	20

Size of the tree : 	39


Prepare_CC.Base_CC: Node #2

J48 pruned tree
------------------

Vocals-Rapping = 0
|   NOT-Emotion-Calming-Soothing = 0
|   |   Instrument_-_Electric_Guitar_(distorted)-Solo = 0
|   |   |   Usage-Hanging_with_friends = 0
|   |   |   |   NOT-Emotion-Laid-back-Mellow = 0
|   |   |   |   |   Instrument_-_Acoustic_Guitar-Solo = 0
|   |   |   |   |   |   Instrument_-_Male_Lead_Vocals-Solo = 0
|   |   |   |   |   |   |   Usage-Cleaning_the_house = 0: 1 (200.0/11.0)
|   |   |   |   |   |   |   Usage-Cleaning_the_house = 1
|   |   |   |   |   |   |   |   Mean_Acc1000_Mean_Mem40_ZeroCrossings_HopSize512_WinSize512_AudioCh0 <= 0.090995: 1 (7.0)
|   |   |   |   |   |   |   |   Mean_Acc1000_Mean_Mem40_ZeroCrossings_HopSize512_WinSize512_AudioCh0 > 0.090995: 0 (4.0)
|   |   |   |   |   |   Instrument_-_Male_Lead_Vocals-Solo = 1
|   |   |   |   |   |   |   Mean_Acc1000_Mean_Mem40_MFCC11_Power_powerFFT_WinHamming_HopSize512_WinSize512_AudioCh0 <= 0.408166: 0 (6.0/1.0)
|   |   |   |   |   |   |   Mean_Acc1000_Mean_Mem40_MFCC11_Power_powerFFT_WinHamming_HopSize512_WinSize512_AudioCh0 > 0.408166: 1 (10.0)
|   |   |   |   |   Instrument_-_Acoustic_Guitar-Solo = 1
|   |   |   |   |   |   Mean_Acc1000_Mean_Mem40_MFCC3_Power_powerFFT_WinHamming_HopSize512_WinSize512_AudioCh0 <= 1.779206: 0 (2.0)
|   |   |   |   |   |   Mean_Acc1000_Mean_Mem40_MFCC3_Power_powerFFT_WinHamming_HopSize512_WinSize512_AudioCh0 > 1.779206: 1 (2.0)
|   |   |   |   NOT-Emotion-Laid-back-Mellow = 1
|   |   |   |   |   Emotion-Happy = 0
|   |   |   |   |   |   Mean_Acc1000_Std_Mem40_MFCC5_Power_powerFFT_WinHamming_HopSize512_WinSize512_AudioCh0 <= 0.58599
|   |   |   |   |   |   |   Mean_Acc1000_Mean_Mem40_MFCC2_Power_powerFFT_WinHamming_HopSize512_WinSize512_AudioCh0 <= -0.316612: 1 (3.0/1.0)
|   |   |   |   |   |   |   Mean_Acc1000_Mean_Mem40_MFCC2_Power_powerFFT_WinHamming_HopSize512_WinSize512_AudioCh0 > -0.316612: 0 (15.0)
|   |   |   |   |   |   Mean_Acc1000_Std_Mem40_MFCC5_Power_powerFFT_WinHamming_HopSize512_WinSize512_AudioCh0 > 0.58599: 1 (6.0)
|   |   |   |   |   Emotion-Happy = 1: 1 (9.0)
|   |   |   Usage-Hanging_with_friends = 1
|   |   |   |   Std_Acc1000_Mean_Mem40_MFCC11_Power_powerFFT_WinHamming_HopSize512_WinSize512_AudioCh0 <= 0.327634: 0 (6.0)
|   |   |   |   Std_Acc1000_Mean_Mem40_MFCC11_Power_powerFFT_WinHamming_HopSize512_WinSize512_AudioCh0 > 0.327634: 1 (4.0)
|   |   Instrument_-_Electric_Guitar_(distorted)-Solo = 1
|   |   |   Mean_Acc1000_Std_Mem40_MFCC8_Power_powerFFT_WinHamming_HopSize512_WinSize512_AudioCh0 <= 0.524674
|   |   |   |   Mean_Acc1000_Mean_Mem40_MFCC4_Power_powerFFT_WinHamming_HopSize512_WinSize512_AudioCh0 <= 0.097472: 1 (2.0)
|   |   |   |   Mean_Acc1000_Mean_Mem40_MFCC4_Power_powerFFT_WinHamming_HopSize512_WinSize512_AudioCh0 > 0.097472: 0 (14.0)
|   |   |   Mean_Acc1000_Std_Mem40_MFCC8_Power_powerFFT_WinHamming_HopSize512_WinSize512_AudioCh0 > 0.524674: 1 (6.0)
|   NOT-Emotion-Calming-Soothing = 1
|   |   Emotion-Positive-Optimistic = 0
|   |   |   Genre--_Dance_Pop = 0
|   |   |   |   Emotion-Cheerful-Festive = 0
|   |   |   |   |   Song-High_Energy = 0
|   |   |   |   |   |   NOT-Emotion-Cheerful-Festive = 0: 1 (6.0/1.0)
|   |   |   |   |   |   NOT-Emotion-Cheerful-Festive = 1
|   |   |   |   |   |   |   Mean_Acc1000_Mean_Mem40_MFCC0_Power_powerFFT_WinHamming_HopSize512_WinSize512_AudioCh0 <= -64.917624
|   |   |   |   |   |   |   |   Mean_Acc1000_Mean_Mem40_MFCC3_Power_powerFFT_WinHamming_HopSize512_WinSize512_AudioCh0 <= 1.411059: 1 (4.0/1.0)
|   |   |   |   |   |   |   |   Mean_Acc1000_Mean_Mem40_MFCC3_Power_powerFFT_WinHamming_HopSize512_WinSize512_AudioCh0 > 1.411059: 0 (19.0)
|   |   |   |   |   |   |   Mean_Acc1000_Mean_Mem40_MFCC0_Power_powerFFT_WinHamming_HopSize512_WinSize512_AudioCh0 > -64.917624: 1 (5.0)
|   |   |   |   |   Song-High_Energy = 1: 0 (63.0/3.0)
|   |   |   |   Emotion-Cheerful-Festive = 1: 1 (6.0/1.0)
|   |   |   Genre--_Dance_Pop = 1: 1 (4.0/1.0)
|   |   Emotion-Positive-Optimistic = 1
|   |   |   Mean_Acc1000_Mean_Mem40_MFCC2_Power_powerFFT_WinHamming_HopSize512_WinSize512_AudioCh0 <= -0.160357: 0 (3.0)
|   |   |   Mean_Acc1000_Mean_Mem40_MFCC2_Power_powerFFT_WinHamming_HopSize512_WinSize512_AudioCh0 > -0.160357
|   |   |   |   Mean_Acc1000_Std_Mem40_ZeroCrossings_HopSize512_WinSize512_AudioCh0 <= 0.056005: 1 (21.0)
|   |   |   |   Mean_Acc1000_Std_Mem40_ZeroCrossings_HopSize512_WinSize512_AudioCh0 > 0.056005: 0 (3.0/1.0)
Vocals-Rapping = 1
|   Std_Acc1000_Mean_Mem40_MFCC2_Power_powerFFT_WinHamming_HopSize512_WinSize512_AudioCh0 <= 0.789244: 0 (20.0)
|   Std_Acc1000_Mean_Mem40_MFCC2_Power_powerFFT_WinHamming_HopSize512_WinSize512_AudioCh0 > 0.789244: 1 (2.0)

Number of Leaves  : 	28

Size of the tree : 	55


Prepare_CC.Base_CC: Node #3

J48 pruned tree
------------------

Emotion-Exciting-Thrilling = 0
|   Song-High_Energy = 0: 0 (238.0/7.0)
|   Song-High_Energy = 1
|   |   Instrument_-_Horn_Section = 0
|   |   |   Genre-Best-Rock = 0
|   |   |   |   Song-Changing_Energy_Level = 0
|   |   |   |   |   Emotion-Tender-Soft = 0
|   |   |   |   |   |   Usage-At_work = 0
|   |   |   |   |   |   |   Genre--_Soft_Rock = 0
|   |   |   |   |   |   |   |   Genre-Hip_Hop-Rap = 0
|   |   |   |   |   |   |   |   |   Genre-Best-Pop = 0
|   |   |   |   |   |   |   |   |   |   Emotion-Calming-Soothing = 0
|   |   |   |   |   |   |   |   |   |   |   Instrument_-_Acoustic_Guitar = 0
|   |   |   |   |   |   |   |   |   |   |   |   Vocals-High-pitched = 0
|   |   |   |   |   |   |   |   |   |   |   |   |   Vocals-Monotone = 0
|   |   |   |   |   |   |   |   |   |   |   |   |   |   Std_Acc1000_Std_Mem40_MFCC6_Power_powerFFT_WinHamming_HopSize512_WinSize512_AudioCh0 <= 0.077394: 0 (5.0)
|   |   |   |   |   |   |   |   |   |   |   |   |   |   Std_Acc1000_Std_Mem40_MFCC6_Power_powerFFT_WinHamming_HopSize512_WinSize512_AudioCh0 > 0.077394
|   |   |   |   |   |   |   |   |   |   |   |   |   |   |   NOT-Emotion-Sad = 0: 1 (16.0)
|   |   |   |   |   |   |   |   |   |   |   |   |   |   |   NOT-Emotion-Sad = 1
|   |   |   |   |   |   |   |   |   |   |   |   |   |   |   |   NOT-Song-Recommend = 0
|   |   |   |   |   |   |   |   |   |   |   |   |   |   |   |   |   Mean_Acc1000_Mean_Mem40_MFCC12_Power_powerFFT_WinHamming_HopSize512_WinSize512_AudioCh0 <= 0.564646: 1 (12.0/1.0)
|   |   |   |   |   |   |   |   |   |   |   |   |   |   |   |   |   Mean_Acc1000_Mean_Mem40_MFCC12_Power_powerFFT_WinHamming_HopSize512_WinSize512_AudioCh0 > 0.564646: 0 (3.0)
|   |   |   |   |   |   |   |   |   |   |   |   |   |   |   |   NOT-Song-Recommend = 1: 0 (3.0)
|   |   |   |   |   |   |   |   |   |   |   |   |   Vocals-Monotone = 1: 0 (2.0)
|   |   |   |   |   |   |   |   |   |   |   |   Vocals-High-pitched = 1: 0 (2.0)
|   |   |   |   |   |   |   |   |   |   |   Instrument_-_Acoustic_Guitar = 1: 0 (3.0)
|   |   |   |   |   |   |   |   |   |   Emotion-Calming-Soothing = 1: 0 (3.0)
|   |   |   |   |   |   |   |   |   Genre-Best-Pop = 1: 0 (4.0)
|   |   |   |   |   |   |   |   Genre-Hip_Hop-Rap = 1: 0 (5.0)
|   |   |   |   |   |   |   Genre--_Soft_Rock = 1: 0 (5.0)
|   |   |   |   |   |   Usage-At_work = 1: 1 (2.0)
|   |   |   |   |   Emotion-Tender-Soft = 1: 0 (10.0/1.0)
|   |   |   |   Song-Changing_Energy_Level = 1: 0 (7.0)
|   |   |   Genre-Best-Rock = 1: 0 (17.0)
|   |   Instrument_-_Horn_Section = 1: 1 (2.0)
Emotion-Exciting-Thrilling = 1
|   Instrument_-_Ambient_Sounds = 0
|   |   Vocals-Low-pitched = 0
|   |   |   Emotion-Calming-Soothing = 0
|   |   |   |   Usage-Hanging_with_friends = 0
|   |   |   |   |   Song-Changing_Energy_Level = 0: 1 (78.0/3.0)
|   |   |   |   |   Song-Changing_Energy_Level = 1
|   |   |   |   |   |   NOT-Emotion-Loving-Romantic = 0: 1 (3.0)
|   |   |   |   |   |   NOT-Emotion-Loving-Romantic = 1: 0 (3.0)
|   |   |   |   Usage-Hanging_with_friends = 1
|   |   |   |   |   Mean_Acc1000_Mean_Mem40_MFCC7_Power_powerFFT_WinHamming_HopSize512_WinSize512_AudioCh0 <= 0.653137: 0 (8.0)
|   |   |   |   |   Mean_Acc1000_Mean_Mem40_MFCC7_Power_powerFFT_WinHamming_HopSize512_WinSize512_AudioCh0 > 0.653137: 1 (4.0)
|   |   |   Emotion-Calming-Soothing = 1: 0 (3.0/1.0)
|   |   Vocals-Low-pitched = 1
|   |   |   Mean_Acc1000_Mean_Mem40_Flux_Power_powerFFT_WinHamming_HopSize512_WinSize512_AudioCh0 <= 0.089276: 0 (5.0)
|   |   |   Mean_Acc1000_Mean_Mem40_Flux_Power_powerFFT_WinHamming_HopSize512_WinSize512_AudioCh0 > 0.089276: 1 (3.0)
|   Instrument_-_Ambient_Sounds = 1
|   |   NOT-Emotion-Cheerful-Festive = 0: 1 (2.0)
|   |   NOT-Emotion-Cheerful-Festive = 1: 0 (4.0)

Number of Leaves  : 	28

Size of the tree : 	55


Prepare_CC.Base_CC: Node #4

J48 pruned tree
------------------

NOT-Song-High_Energy = 0
|   Genre-Country = 0
|   |   NOT-Song-Fast_Tempo = 0
|   |   |   Genre-Best-Jazz = 0
|   |   |   |   Genre--_Classic_Rock = 0
|   |   |   |   |   Mean_Acc1000_Mean_Mem40_MFCC8_Power_powerFFT_WinHamming_HopSize512_WinSize512_AudioCh0 <= -0.065317
|   |   |   |   |   |   Mean_Acc1000_Mean_Mem40_MFCC0_Power_powerFFT_WinHamming_HopSize512_WinSize512_AudioCh0 <= -70.321611: 0 (3.0)
|   |   |   |   |   |   Mean_Acc1000_Mean_Mem40_MFCC0_Power_powerFFT_WinHamming_HopSize512_WinSize512_AudioCh0 > -70.321611: 1 (6.0/1.0)
|   |   |   |   |   Mean_Acc1000_Mean_Mem40_MFCC8_Power_powerFFT_WinHamming_HopSize512_WinSize512_AudioCh0 > -0.065317
|   |   |   |   |   |   Song-High_Energy = 0
|   |   |   |   |   |   |   Usage-Cleaning_the_house = 0
|   |   |   |   |   |   |   |   Emotion-Cheerful-Festive = 0
|   |   |   |   |   |   |   |   |   Std_Acc1000_Mean_Mem40_MFCC3_Power_powerFFT_WinHamming_HopSize512_WinSize512_AudioCh0 <= 0.522986: 0 (51.0/2.0)
|   |   |   |   |   |   |   |   |   Std_Acc1000_Mean_Mem40_MFCC3_Power_powerFFT_WinHamming_HopSize512_WinSize512_AudioCh0 > 0.522986
|   |   |   |   |   |   |   |   |   |   NOT-Song-Positive_Feelings = 0
|   |   |   |   |   |   |   |   |   |   |   Instrument_-_Drum_Set = 0: 0 (8.0)
|   |   |   |   |   |   |   |   |   |   |   Instrument_-_Drum_Set = 1
|   |   |   |   |   |   |   |   |   |   |   |   Std_Acc1000_Mean_Mem40_Flux_Power_powerFFT_WinHamming_HopSize512_WinSize512_AudioCh0 <= 0.010973: 0 (5.0)
|   |   |   |   |   |   |   |   |   |   |   |   Std_Acc1000_Mean_Mem40_Flux_Power_powerFFT_WinHamming_HopSize512_WinSize512_AudioCh0 > 0.010973: 1 (4.0)
|   |   |   |   |   |   |   |   |   |   NOT-Song-Positive_Feelings = 1: 1 (4.0)
|   |   |   |   |   |   |   |   Emotion-Cheerful-Festive = 1: 0 (13.0/1.0)
|   |   |   |   |   |   |   Usage-Cleaning_the_house = 1: 0 (2.0/1.0)
|   |   |   |   |   |   Song-High_Energy = 1: 0 (147.0/1.0)
|   |   |   |   Genre--_Classic_Rock = 1: 0 (56.0)
|   |   |   Genre-Best-Jazz = 1
|   |   |   |   Mean_Acc1000_Mean_Mem40_Rolloff_Power_powerFFT_WinHamming_HopSize512_WinSize512_AudioCh0 <= 0.116946: 1 (2.0)
|   |   |   |   Mean_Acc1000_Mean_Mem40_Rolloff_Power_powerFFT_WinHamming_HopSize512_WinSize512_AudioCh0 > 0.116946: 0 (3.0)
|   |   NOT-Song-Fast_Tempo = 1
|   |   |   Vocals-Call_and_Response = 0
|   |   |   |   NOT-Song-Positive_Feelings = 0
|   |   |   |   |   Genre-Jazz = 0
|   |   |   |   |   |   NOT-Song-Recommend = 0
|   |   |   |   |   |   |   Mean_Acc1000_Mean_Mem40_Flux_Power_powerFFT_WinHamming_HopSize512_WinSize512_AudioCh0 <= 0.083851: 1 (6.0/1.0)
|   |   |   |   |   |   |   Mean_Acc1000_Mean_Mem40_Flux_Power_powerFFT_WinHamming_HopSize512_WinSize512_AudioCh0 > 0.083851: 0 (19.0/1.0)
|   |   |   |   |   |   NOT-Song-Recommend = 1: 1 (5.0/1.0)
|   |   |   |   |   Genre-Jazz = 1: 1 (2.0)
|   |   |   |   NOT-Song-Positive_Feelings = 1: 0 (13.0)
|   |   |   Vocals-Call_and_Response = 1: 1 (3.0)
|   Genre-Country = 1
|   |   Mean_Acc1000_Mean_Mem40_MFCC8_Power_powerFFT_WinHamming_HopSize512_WinSize512_AudioCh0 <= 0.508313
|   |   |   NOT-Emotion-Tender-Soft = 0: 1 (9.0)
|   |   |   NOT-Emotion-Tender-Soft = 1: 0 (2.0)
|   |   Mean_Acc1000_Mean_Mem40_MFCC8_Power_powerFFT_WinHamming_HopSize512_WinSize512_AudioCh0 > 0.508313: 0 (9.0)
NOT-Song-High_Energy = 1
|   Genre-Best-Jazz = 0
|   |   Usage-At_work = 0
|   |   |   Std_Acc1000_Std_Mem40_MFCC9_Power_powerFFT_WinHamming_HopSize512_WinSize512_AudioCh0 <= 0.165822
|   |   |   |   Genre-Best--_Soft_Rock = 0
|   |   |   |   |   Std_Acc1000_Mean_Mem40_MFCC2_Power_powerFFT_WinHamming_HopSize512_WinSize512_AudioCh0 <= 0.307724: 0 (4.0)
|   |   |   |   |   Std_Acc1000_Mean_Mem40_MFCC2_Power_powerFFT_WinHamming_HopSize512_WinSize512_AudioCh0 > 0.307724
|   |   |   |   |   |   NOT-Emotion-Tender-Soft = 0
|   |   |   |   |   |   |   NOT-Song-Fast_Tempo = 0
|   |   |   |   |   |   |   |   Mean_Acc1000_Mean_Mem40_MFCC0_Power_powerFFT_WinHamming_HopSize512_WinSize512_AudioCh0 <= -70.08568: 0 (3.0)
|   |   |   |   |   |   |   |   Mean_Acc1000_Mean_Mem40_MFCC0_Power_powerFFT_WinHamming_HopSize512_WinSize512_AudioCh0 > -70.08568: 1 (4.0)
|   |   |   |   |   |   |   NOT-Song-Fast_Tempo = 1: 1 (47.0/4.0)
|   |   |   |   |   |   NOT-Emotion-Tender-Soft = 1
|   |   |   |   |   |   |   Mean_Acc1000_Mean_Mem40_MFCC8_Power_powerFFT_WinHamming_HopSize512_WinSize512_AudioCh0 <= 0.396418: 0 (3.0)
|   |   |   |   |   |   |   Mean_Acc1000_Mean_Mem40_MFCC8_Power_powerFFT_WinHamming_HopSize512_WinSize512_AudioCh0 > 0.396418: 1 (2.0)
|   |   |   |   Genre-Best--_Soft_Rock = 1
|   |   |   |   |   Song-Texture_Synthesized = 0: 0 (4.0)
|   |   |   |   |   Song-Texture_Synthesized = 1: 1 (2.0)
|   |   |   Std_Acc1000_Std_Mem40_MFCC9_Power_powerFFT_WinHamming_HopSize512_WinSize512_AudioCh0 > 0.165822: 0 (5.0)
|   |   Usage-At_work = 1: 0 (2.0)
|   Genre-Best-Jazz = 1: 0 (4.0)

Number of Leaves  : 	33

Size of the tree : 	65


Prepare_CC.Base_CC: Node #5

J48 pruned tree
------------------

Genre--_Alternative_Folk = 0
|   Instrument_-_Ambient_Sounds = 0
|   |   NOT-Song-Recorded = 0
|   |   |   Mean_Acc1000_Std_Mem40_MFCC11_Power_powerFFT_WinHamming_HopSize512_WinSize512_AudioCh0 <= 0.390968
|   |   |   |   Usage-Hanging_with_friends = 0
|   |   |   |   |   Song-Quality = 0: 1 (3.0/1.0)
|   |   |   |   |   Song-Quality = 1: 0 (15.0/1.0)
|   |   |   |   Usage-Hanging_with_friends = 1: 1 (3.0)
|   |   |   Mean_Acc1000_Std_Mem40_MFCC11_Power_powerFFT_WinHamming_HopSize512_WinSize512_AudioCh0 > 0.390968: 0 (395.0/3.0)
|   |   NOT-Song-Recorded = 1: 0 (3.0/1.0)
|   Instrument_-_Ambient_Sounds = 1
|   |   Vocals-Emotional = 0
|   |   |   Std_Acc1000_Mean_Mem40_MFCC11_Power_powerFFT_WinHamming_HopSize512_WinSize512_AudioCh0 <= 0.166629: 1 (5.0/1.0)
|   |   |   Std_Acc1000_Mean_Mem40_MFCC11_Power_powerFFT_WinHamming_HopSize512_WinSize512_AudioCh0 > 0.166629: 0 (19.0)
|   |   Vocals-Emotional = 1: 1 (2.0)
Genre--_Alternative_Folk = 1
|   Mean_Acc1000_Mean_Mem40_MFCC6_Power_powerFFT_WinHamming_HopSize512_WinSize512_AudioCh0 <= 0.633708: 0 (4.0)
|   Mean_Acc1000_Mean_Mem40_MFCC6_Power_powerFFT_WinHamming_HopSize512_WinSize512_AudioCh0 > 0.633708: 1 (3.0)

Number of Leaves  : 	10

Size of the tree : 	19


Prepare_CC.Base_CC: Node #6

J48 pruned tree
------------------

Vocals-Altered_with_Effects = 0
|   Instrument_-_Acoustic_Guitar-Solo = 0
|   |   Vocals-Call_and_Response = 0
|   |   |   Genre-Best--_Soft_Rock = 0
|   |   |   |   NOT-Emotion-Loving-Romantic = 0
|   |   |   |   |   Instrument_-_Tambourine = 0
|   |   |   |   |   |   Instrument_-_Synthesizer = 0
|   |   |   |   |   |   |   Mean_Acc1000_Mean_Mem40_MFCC7_Power_powerFFT_WinHamming_HopSize512_WinSize512_AudioCh0 <= 0.158542: 0 (9.0/1.0)
|   |   |   |   |   |   |   Mean_Acc1000_Mean_Mem40_MFCC7_Power_powerFFT_WinHamming_HopSize512_WinSize512_AudioCh0 > 0.158542
|   |   |   |   |   |   |   |   NOT-Song-Positive_Feelings = 0
|   |   |   |   |   |   |   |   |   Std_Acc1000_Mean_Mem40_MFCC6_Power_powerFFT_WinHamming_HopSize512_WinSize512_AudioCh0 <= 0.185209: 0 (7.0/1.0)
|   |   |   |   |   |   |   |   |   Std_Acc1000_Mean_Mem40_MFCC6_Power_powerFFT_WinHamming_HopSize512_WinSize512_AudioCh0 > 0.185209
|   |   |   |   |   |   |   |   |   |   Genre-Electronica = 0
|   |   |   |   |   |   |   |   |   |   |   Song-Changing_Energy_Level = 0
|   |   |   |   |   |   |   |   |   |   |   |   Genre-Country = 0: 1 (116.0/14.0)
|   |   |   |   |   |   |   |   |   |   |   |   Genre-Country = 1
|   |   |   |   |   |   |   |   |   |   |   |   |   Std_Acc1000_Mean_Mem40_MFCC7_Power_powerFFT_WinHamming_HopSize512_WinSize512_AudioCh0 <= 0.251347: 0 (3.0)
|   |   |   |   |   |   |   |   |   |   |   |   |   Std_Acc1000_Mean_Mem40_MFCC7_Power_powerFFT_WinHamming_HopSize512_WinSize512_AudioCh0 > 0.251347: 1 (12.0)
|   |   |   |   |   |   |   |   |   |   |   Song-Changing_Energy_Level = 1
|   |   |   |   |   |   |   |   |   |   |   |   Mean_Acc1000_Mean_Mem40_ZeroCrossings_HopSize512_WinSize512_AudioCh0 <= 0.124486: 1 (5.0)
|   |   |   |   |   |   |   |   |   |   |   |   Mean_Acc1000_Mean_Mem40_ZeroCrossings_HopSize512_WinSize512_AudioCh0 > 0.124486: 0 (4.0)
|   |   |   |   |   |   |   |   |   |   Genre-Electronica = 1
|   |   |   |   |   |   |   |   |   |   |   NOT-Song-High_Energy = 0: 1 (2.0)
|   |   |   |   |   |   |   |   |   |   |   NOT-Song-High_Energy = 1: 0 (2.0)
|   |   |   |   |   |   |   |   NOT-Song-Positive_Feelings = 1
|   |   |   |   |   |   |   |   |   Genre-Country = 0
|   |   |   |   |   |   |   |   |   |   Mean_Acc1000_Mean_Mem40_Flux_Power_powerFFT_WinHamming_HopSize512_WinSize512_AudioCh0 <= 0.089907: 1 (5.0/1.0)
|   |   |   |   |   |   |   |   |   |   Mean_Acc1000_Mean_Mem40_Flux_Power_powerFFT_WinHamming_HopSize512_WinSize512_AudioCh0 > 0.089907: 0 (5.0)
|   |   |   |   |   |   |   |   |   Genre-Country = 1: 1 (2.0)
|   |   |   |   |   |   Instrument_-_Synthesizer = 1
|   |   |   |   |   |   |   Usage-Driving = 0
|   |   |   |   |   |   |   |   Std_Acc1000_Std_Mem40_MFCC7_Power_powerFFT_WinHamming_HopSize512_WinSize512_AudioCh0 <= 0.132498: 0 (17.0/2.0)
|   |   |   |   |   |   |   |   Std_Acc1000_Std_Mem40_MFCC7_Power_powerFFT_WinHamming_HopSize512_WinSize512_AudioCh0 > 0.132498: 1 (2.0)
|   |   |   |   |   |   |   Usage-Driving = 1: 1 (7.0)
|   |   |   |   |   Instrument_-_Tambourine = 1: 1 (6.0)
|   |   |   |   NOT-Emotion-Loving-Romantic = 1
|   |   |   |   |   Genre-Best-Blues = 0
|   |   |   |   |   |   Instrument_-_Electric_Guitar_(distorted)-Solo = 0
|   |   |   |   |   |   |   Vocals-Gravelly = 0
|   |   |   |   |   |   |   |   Mean_Acc1000_Std_Mem40_Centroid_Power_powerFFT_WinHamming_HopSize512_WinSize512_AudioCh0 <= 0.01504: 1 (12.0/1.0)
|   |   |   |   |   |   |   |   Mean_Acc1000_Std_Mem40_Centroid_Power_powerFFT_WinHamming_HopSize512_WinSize512_AudioCh0 > 0.01504
|   |   |   |   |   |   |   |   |   Instrument_-_Violin-Fiddle = 0
|   |   |   |   |   |   |   |   |   |   Std_Acc1000_Std_Mem40_ZeroCrossings_HopSize512_WinSize512_AudioCh0 <= 0.008322: 0 (17.0)
|   |   |   |   |   |   |   |   |   |   Std_Acc1000_Std_Mem40_ZeroCrossings_HopSize512_WinSize512_AudioCh0 > 0.008322
|   |   |   |   |   |   |   |   |   |   |   Genre-Electronica = 0
|   |   |   |   |   |   |   |   |   |   |   |   NOT-Emotion-Sad = 0
|   |   |   |   |   |   |   |   |   |   |   |   |   Std_Acc1000_Std_Mem40_MFCC2_Power_powerFFT_WinHamming_HopSize512_WinSize512_AudioCh0 <= 0.308858
|   |   |   |   |   |   |   |   |   |   |   |   |   |   Mean_Acc1000_Mean_Mem40_MFCC0_Power_powerFFT_WinHamming_HopSize512_WinSize512_AudioCh0 <= -79.744694: 1 (4.0/1.0)
|   |   |   |   |   |   |   |   |   |   |   |   |   |   Mean_Acc1000_Mean_Mem40_MFCC0_Power_powerFFT_WinHamming_HopSize512_WinSize512_AudioCh0 > -79.744694
|   |   |   |   |   |   |   |   |   |   |   |   |   |   |   Mean_Acc1000_Mean_Mem40_MFCC6_Power_powerFFT_WinHamming_HopSize512_WinSize512_AudioCh0 <= 0.993121
|   |   |   |   |   |   |   |   |   |   |   |   |   |   |   |   Mean_Acc1000_Mean_Mem40_MFCC1_Power_powerFFT_WinHamming_HopSize512_WinSize512_AudioCh0 <= 3.211969
|   |   |   |   |   |   |   |   |   |   |   |   |   |   |   |   |   NOT-Song-Recommend = 0: 1 (4.0)
|   |   |   |   |   |   |   |   |   |   |   |   |   |   |   |   |   NOT-Song-Recommend = 1: 0 (3.0)
|   |   |   |   |   |   |   |   |   |   |   |   |   |   |   |   Mean_Acc1000_Mean_Mem40_MFCC1_Power_powerFFT_WinHamming_HopSize512_WinSize512_AudioCh0 > 3.211969: 0 (31.0/1.0)
|   |   |   |   |   |   |   |   |   |   |   |   |   |   |   Mean_Acc1000_Mean_Mem40_MFCC6_Power_powerFFT_WinHamming_HopSize512_WinSize512_AudioCh0 > 0.993121: 1 (3.0)
|   |   |   |   |   |   |   |   |   |   |   |   |   Std_Acc1000_Std_Mem40_MFCC2_Power_powerFFT_WinHamming_HopSize512_WinSize512_AudioCh0 > 0.308858: 1 (5.0)
|   |   |   |   |   |   |   |   |   |   |   |   NOT-Emotion-Sad = 1
|   |   |   |   |   |   |   |   |   |   |   |   |   Song-Changing_Energy_Level = 0
|   |   |   |   |   |   |   |   |   |   |   |   |   |   Mean_Acc1000_Mean_Mem40_MFCC8_Power_powerFFT_WinHamming_HopSize512_WinSize512_AudioCh0 <= 0.449928
|   |   |   |   |   |   |   |   |   |   |   |   |   |   |   Mean_Acc1000_Mean_Mem40_MFCC6_Power_powerFFT_WinHamming_HopSize512_WinSize512_AudioCh0 <= 0.484653
|   |   |   |   |   |   |   |   |   |   |   |   |   |   |   |   Mean_Acc1000_Std_Mem40_Rolloff_Power_powerFFT_WinHamming_HopSize512_WinSize512_AudioCh0 <= 0.069188: 0 (2.0)
|   |   |   |   |   |   |   |   |   |   |   |   |   |   |   |   Mean_Acc1000_Std_Mem40_Rolloff_Power_powerFFT_WinHamming_HopSize512_WinSize512_AudioCh0 > 0.069188: 1 (7.0)
|   |   |   |   |   |   |   |   |   |   |   |   |   |   |   Mean_Acc1000_Mean_Mem40_MFCC6_Power_powerFFT_WinHamming_HopSize512_WinSize512_AudioCh0 > 0.484653: 0 (11.0)
|   |   |   |   |   |   |   |   |   |   |   |   |   |   Mean_Acc1000_Mean_Mem40_MFCC8_Power_powerFFT_WinHamming_HopSize512_WinSize512_AudioCh0 > 0.449928: 1 (22.0/3.0)
|   |   |   |   |   |   |   |   |   |   |   |   |   Song-Changing_Energy_Level = 1: 0 (3.0)
|   |   |   |   |   |   |   |   |   |   |   Genre-Electronica = 1
|   |   |   |   |   |   |   |   |   |   |   |   Mean_Acc1000_Mean_Mem40_MFCC10_Power_powerFFT_WinHamming_HopSize512_WinSize512_AudioCh0 <= 0.244634: 1 (4.0/1.0)
|   |   |   |   |   |   |   |   |   |   |   |   Mean_Acc1000_Mean_Mem40_MFCC10_Power_powerFFT_WinHamming_HopSize512_WinSize512_AudioCh0 > 0.244634: 0 (15.0/1.0)
|   |   |   |   |   |   |   |   |   Instrument_-_Violin-Fiddle = 1: 0 (4.0)
|   |   |   |   |   |   |   Vocals-Gravelly = 1: 1 (6.0/1.0)
|   |   |   |   |   |   Instrument_-_Electric_Guitar_(distorted)-Solo = 1
|   |   |   |   |   |   |   Mean_Acc1000_Std_Mem40_Flux_Power_powerFFT_WinHamming_HopSize512_WinSize512_AudioCh0 <= 0.04342: 1 (13.0)
|   |   |   |   |   |   |   Mean_Acc1000_Std_Mem40_Flux_Power_powerFFT_WinHamming_HopSize512_WinSize512_AudioCh0 > 0.04342: 0 (5.0/1.0)
|   |   |   |   |   Genre-Best-Blues = 1: 1 (3.0)
|   |   |   Genre-Best--_Soft_Rock = 1
|   |   |   |   NOT-Song-Recommend = 0: 1 (21.0)
|   |   |   |   NOT-Song-Recommend = 1
|   |   |   |   |   Mean_Acc1000_Mean_Mem40_MFCC7_Power_powerFFT_WinHamming_HopSize512_WinSize512_AudioCh0 <= 0.733615: 1 (2.0)
|   |   |   |   |   Mean_Acc1000_Mean_Mem40_MFCC7_Power_powerFFT_WinHamming_HopSize512_WinSize512_AudioCh0 > 0.733615: 0 (2.0)
|   |   Vocals-Call_and_Response = 1: 1 (17.0/1.0)
|   Instrument_-_Acoustic_Guitar-Solo = 1: 1 (4.0)
Vocals-Altered_with_Effects = 1
|   Mean_Acc1000_Mean_Mem40_MFCC11_Power_powerFFT_WinHamming_HopSize512_WinSize512_AudioCh0 <= 0.229173: 1 (4.0/1.0)
|   Mean_Acc1000_Mean_Mem40_MFCC11_Power_powerFFT_WinHamming_HopSize512_WinSize512_AudioCh0 > 0.229173: 0 (24.0)

Number of Leaves  : 	43

Size of the tree : 	85


Prepare_CC.Base_CC: Node #7

J48 pruned tree
------------------

Emotion-Tender-Soft = 0
|   NOT-Song-High_Energy = 0
|   |   Genre--_Cool_Jazz = 0
|   |   |   Vocals-Falsetto = 0
|   |   |   |   Usage-Reading = 0
|   |   |   |   |   NOT-Emotion-Calming-Soothing = 0
|   |   |   |   |   |   Genre-Best--_Alternative = 0
|   |   |   |   |   |   |   NOT-Song-Fast_Tempo = 0
|   |   |   |   |   |   |   |   NOT-Song-Changing_Energy_Level = 0
|   |   |   |   |   |   |   |   |   Mean_Acc1000_Mean_Mem40_MFCC4_Power_powerFFT_WinHamming_HopSize512_WinSize512_AudioCh0 <= 1.154735: 0 (93.0/1.0)
|   |   |   |   |   |   |   |   |   Mean_Acc1000_Mean_Mem40_MFCC4_Power_powerFFT_WinHamming_HopSize512_WinSize512_AudioCh0 > 1.154735
|   |   |   |   |   |   |   |   |   |   Mean_Acc1000_Std_Mem40_MFCC2_Power_powerFFT_WinHamming_HopSize512_WinSize512_AudioCh0 <= 1.010153: 1 (4.0)
|   |   |   |   |   |   |   |   |   |   Mean_Acc1000_Std_Mem40_MFCC2_Power_powerFFT_WinHamming_HopSize512_WinSize512_AudioCh0 > 1.010153: 0 (4.0)
|   |   |   |   |   |   |   |   NOT-Song-Changing_Energy_Level = 1
|   |   |   |   |   |   |   |   |   Instrument_-_Backing_vocals = 0
|   |   |   |   |   |   |   |   |   |   NOT-Emotion-Arousing-Awakening = 0
|   |   |   |   |   |   |   |   |   |   |   Std_Acc1000_Mean_Mem40_Flux_Power_powerFFT_WinHamming_HopSize512_WinSize512_AudioCh0 <= 0.011689: 0 (17.0)
|   |   |   |   |   |   |   |   |   |   |   Std_Acc1000_Mean_Mem40_Flux_Power_powerFFT_WinHamming_HopSize512_WinSize512_AudioCh0 > 0.011689: 1 (3.0/1.0)
|   |   |   |   |   |   |   |   |   |   NOT-Emotion-Arousing-Awakening = 1
|   |   |   |   |   |   |   |   |   |   |   Instrument_-_Drum_Set = 0: 0 (2.0)
|   |   |   |   |   |   |   |   |   |   |   Instrument_-_Drum_Set = 1: 1 (3.0)
|   |   |   |   |   |   |   |   |   Instrument_-_Backing_vocals = 1: 1 (4.0/1.0)
|   |   |   |   |   |   |   NOT-Song-Fast_Tempo = 1
|   |   |   |   |   |   |   |   Mean_Acc1000_Mean_Mem40_MFCC12_Power_powerFFT_WinHamming_HopSize512_WinSize512_AudioCh0 <= 0.494319
|   |   |   |   |   |   |   |   |   NOT-Song-Positive_Feelings = 0: 1 (7.0)
|   |   |   |   |   |   |   |   |   NOT-Song-Positive_Feelings = 1: 0 (2.0)
|   |   |   |   |   |   |   |   Mean_Acc1000_Mean_Mem40_MFCC12_Power_powerFFT_WinHamming_HopSize512_WinSize512_AudioCh0 > 0.494319: 0 (9.0)
|   |   |   |   |   |   Genre-Best--_Alternative = 1
|   |   |   |   |   |   |   Std_Acc1000_Mean_Mem40_Rolloff_Power_powerFFT_WinHamming_HopSize512_WinSize512_AudioCh0 <= 0.052042: 0 (4.0)
|   |   |   |   |   |   |   Std_Acc1000_Mean_Mem40_Rolloff_Power_powerFFT_WinHamming_HopSize512_WinSize512_AudioCh0 > 0.052042: 1 (5.0)
|   |   |   |   |   NOT-Emotion-Calming-Soothing = 1: 0 (139.0)
|   |   |   |   Usage-Reading = 1
|   |   |   |   |   NOT-Emotion-Loving-Romantic = 0: 1 (3.0)
|   |   |   |   |   NOT-Emotion-Loving-Romantic = 1: 0 (2.0)
|   |   |   Vocals-Falsetto = 1
|   |   |   |   NOT-Emotion-Calming-Soothing = 0: 1 (5.0)
|   |   |   |   NOT-Emotion-Calming-Soothing = 1: 0 (3.0)
|   |   Genre--_Cool_Jazz = 1: 1 (2.0)
|   NOT-Song-High_Energy = 1
|   |   NOT-Emotion-Angry-Agressive = 0: 0 (5.0)
|   |   NOT-Emotion-Angry-Agressive = 1
|   |   |   Genre-Best--_Alternative = 0
|   |   |   |   Instrument_-_Violin-Fiddle = 0
|   |   |   |   |   Genre-Best-Blues = 0
|   |   |   |   |   |   NOT-Emotion-Bizarre-Weird = 0
|   |   |   |   |   |   |   NOT-Emotion-Cheerful-Festive = 0: 0 (3.0)
|   |   |   |   |   |   |   NOT-Emotion-Cheerful-Festive = 1
|   |   |   |   |   |   |   |   Mean_Acc1000_Mean_Mem40_MFCC11_Power_powerFFT_WinHamming_HopSize512_WinSize512_AudioCh0 <= 0.297388: 0 (2.0)
|   |   |   |   |   |   |   |   Mean_Acc1000_Mean_Mem40_MFCC11_Power_powerFFT_WinHamming_HopSize512_WinSize512_AudioCh0 > 0.297388: 1 (6.0)
|   |   |   |   |   |   NOT-Emotion-Bizarre-Weird = 1: 1 (17.0)
|   |   |   |   |   Genre-Best-Blues = 1: 0 (2.0)
|   |   |   |   Instrument_-_Violin-Fiddle = 1: 0 (2.0)
|   |   |   Genre-Best--_Alternative = 1: 0 (5.0)
Emotion-Tender-Soft = 1
|   Mean_Acc1000_Mean_Mem40_MFCC3_Power_powerFFT_WinHamming_HopSize512_WinSize512_AudioCh0 <= 0.907405
|   |   NOT-Song-Fast_Tempo = 0: 0 (6.0)
|   |   NOT-Song-Fast_Tempo = 1: 1 (2.0)
|   Mean_Acc1000_Mean_Mem40_MFCC3_Power_powerFFT_WinHamming_HopSize512_WinSize512_AudioCh0 > 0.907405
|   |   Genre-Country = 0
|   |   |   Mean_Acc1000_Mean_Mem40_MFCC11_Power_powerFFT_WinHamming_HopSize512_WinSize512_AudioCh0 <= 0.06861: 0 (4.0/1.0)
|   |   |   Mean_Acc1000_Mean_Mem40_MFCC11_Power_powerFFT_WinHamming_HopSize512_WinSize512_AudioCh0 > 0.06861: 1 (69.0/4.0)
|   |   Genre-Country = 1
|   |   |   Mean_Acc1000_Mean_Mem40_MFCC2_Power_powerFFT_WinHamming_HopSize512_WinSize512_AudioCh0 <= 0.455494: 0 (9.0)
|   |   |   Mean_Acc1000_Mean_Mem40_MFCC2_Power_powerFFT_WinHamming_HopSize512_WinSize512_AudioCh0 > 0.455494: 1 (9.0/1.0)

Number of Leaves  : 	33

Size of the tree : 	65


Prepare_CC.Base_CC: Node #8

J48 pruned tree
------------------

NOT-Emotion-Tender-Soft = 0
|   NOT-Emotion-Laid-back-Mellow = 0: 0 (234.0/7.0)
|   NOT-Emotion-Laid-back-Mellow = 1
|   |   NOT-Emotion-Sad = 0: 0 (15.0)
|   |   NOT-Emotion-Sad = 1
|   |   |   Std_Acc1000_Std_Mem40_Centroid_Power_powerFFT_WinHamming_HopSize512_WinSize512_AudioCh0 <= 0.01582: 1 (5.0)
|   |   |   Std_Acc1000_Std_Mem40_Centroid_Power_powerFFT_WinHamming_HopSize512_WinSize512_AudioCh0 > 0.01582: 0 (7.0)
NOT-Emotion-Tender-Soft = 1
|   Instrument_-_Tambourine = 0
|   |   Genre--_Contemporary_RandB = 0
|   |   |   NOT-Emotion-Laid-back-Mellow = 0
|   |   |   |   NOT-Song-Positive_Feelings = 0
|   |   |   |   |   Song-Quality = 0
|   |   |   |   |   |   Genre-Jazz = 0
|   |   |   |   |   |   |   Mean_Acc1000_Mean_Mem40_MFCC12_Power_powerFFT_WinHamming_HopSize512_WinSize512_AudioCh0 <= 0.404085: 0 (7.0/1.0)
|   |   |   |   |   |   |   Mean_Acc1000_Mean_Mem40_MFCC12_Power_powerFFT_WinHamming_HopSize512_WinSize512_AudioCh0 > 0.404085: 1 (12.0/1.0)
|   |   |   |   |   |   Genre-Jazz = 1: 0 (4.0)
|   |   |   |   |   Song-Quality = 1
|   |   |   |   |   |   NOT-Emotion-Loving-Romantic = 0
|   |   |   |   |   |   |   Mean_Acc1000_Mean_Mem40_MFCC8_Power_powerFFT_WinHamming_HopSize512_WinSize512_AudioCh0 <= 0.558893: 0 (3.0)
|   |   |   |   |   |   |   Mean_Acc1000_Mean_Mem40_MFCC8_Power_powerFFT_WinHamming_HopSize512_WinSize512_AudioCh0 > 0.558893: 1 (5.0)
|   |   |   |   |   |   NOT-Emotion-Loving-Romantic = 1: 0 (23.0)
|   |   |   |   NOT-Song-Positive_Feelings = 1: 1 (11.0/1.0)
|   |   |   NOT-Emotion-Laid-back-Mellow = 1
|   |   |   |   Usage-Studying = 0
|   |   |   |   |   Mean_Acc1000_Std_Mem40_MFCC3_Power_powerFFT_WinHamming_HopSize512_WinSize512_AudioCh0 <= 0.972609: 1 (108.0/6.0)
|   |   |   |   |   Mean_Acc1000_Std_Mem40_MFCC3_Power_powerFFT_WinHamming_HopSize512_WinSize512_AudioCh0 > 0.972609
|   |   |   |   |   |   NOT-Emotion-Light-Playful = 0: 0 (4.0)
|   |   |   |   |   |   NOT-Emotion-Light-Playful = 1: 1 (3.0)
|   |   |   |   Usage-Studying = 1: 0 (3.0/1.0)
|   |   Genre--_Contemporary_RandB = 1: 0 (3.0)
|   Instrument_-_Tambourine = 1: 0 (5.0)

Number of Leaves  : 	17

Size of the tree : 	33


Prepare_CC.Base_CC: Node #9

J48 pruned tree
------------------

Emotion-Cheerful-Festive = 0
|   Genre--_Cool_Jazz = 0
|   |   NOT-Emotion-Emotional-Passionate = 0
|   |   |   Genre-RandB = 0: 0 (281.0/5.0)
|   |   |   Genre-RandB = 1
|   |   |   |   NOT-Emotion-Sad = 0: 0 (16.0)
|   |   |   |   NOT-Emotion-Sad = 1: 1 (3.0)
|   |   NOT-Emotion-Emotional-Passionate = 1
|   |   |   Genre-Jazz = 0
|   |   |   |   Mean_Acc1000_Mean_Mem40_MFCC3_Power_powerFFT_WinHamming_HopSize512_WinSize512_AudioCh0 <= 2.653088
|   |   |   |   |   Usage-Cleaning_the_house = 0
|   |   |   |   |   |   Mean_Acc1000_Mean_Mem40_Rolloff_Power_powerFFT_WinHamming_HopSize512_WinSize512_AudioCh0 <= 0.100352
|   |   |   |   |   |   |   Mean_Acc1000_Mean_Mem40_Rolloff_Power_powerFFT_WinHamming_HopSize512_WinSize512_AudioCh0 <= 0.085298: 0 (5.0)
|   |   |   |   |   |   |   Mean_Acc1000_Mean_Mem40_Rolloff_Power_powerFFT_WinHamming_HopSize512_WinSize512_AudioCh0 > 0.085298: 1 (3.0)
|   |   |   |   |   |   Mean_Acc1000_Mean_Mem40_Rolloff_Power_powerFFT_WinHamming_HopSize512_WinSize512_AudioCh0 > 0.100352: 0 (36.0/1.0)
|   |   |   |   |   Usage-Cleaning_the_house = 1: 1 (4.0/1.0)
|   |   |   |   Mean_Acc1000_Mean_Mem40_MFCC3_Power_powerFFT_WinHamming_HopSize512_WinSize512_AudioCh0 > 2.653088: 1 (3.0)
|   |   |   Genre-Jazz = 1: 1 (2.0)
|   Genre--_Cool_Jazz = 1
|   |   Mean_Acc1000_Mean_Mem40_Rolloff_Power_powerFFT_WinHamming_HopSize512_WinSize512_AudioCh0 <= 0.136268: 1 (5.0)
|   |   Mean_Acc1000_Mean_Mem40_Rolloff_Power_powerFFT_WinHamming_HopSize512_WinSize512_AudioCh0 > 0.136268: 0 (5.0)
Emotion-Cheerful-Festive = 1
|   NOT-Emotion-Carefree-Lighthearted = 0
|   |   NOT-Song-Positive_Feelings = 0
|   |   |   Genre-Electronica = 0
|   |   |   |   Instrument_-_Drum_Machine = 0
|   |   |   |   |   Genre--_Gospel = 0
|   |   |   |   |   |   Mean_Acc1000_Std_Mem40_MFCC1_Power_powerFFT_WinHamming_HopSize512_WinSize512_AudioCh0 <= 1.401182
|   |   |   |   |   |   |   NOT-Emotion-Calming-Soothing = 0: 1 (32.0)
|   |   |   |   |   |   |   NOT-Emotion-Calming-Soothing = 1
|   |   |   |   |   |   |   |   Instrument_-_Synthesizer = 0
|   |   |   |   |   |   |   |   |   Std_Acc1000_Std_Mem40_Flux_Power_powerFFT_WinHamming_HopSize512_WinSize512_AudioCh0 <= 0.032369: 1 (22.0/1.0)
|   |   |   |   |   |   |   |   |   Std_Acc1000_Std_Mem40_Flux_Power_powerFFT_WinHamming_HopSize512_WinSize512_AudioCh0 > 0.032369: 0 (4.0/1.0)
|   |   |   |   |   |   |   |   Instrument_-_Synthesizer = 1: 0 (3.0/1.0)
|   |   |   |   |   |   Mean_Acc1000_Std_Mem40_MFCC1_Power_powerFFT_WinHamming_HopSize512_WinSize512_AudioCh0 > 1.401182
|   |   |   |   |   |   |   Genre--_Bebop = 0: 0 (5.0)
|   |   |   |   |   |   |   Genre--_Bebop = 1: 1 (2.0)
|   |   |   |   |   Genre--_Gospel = 1
|   |   |   |   |   |   Emotion-Happy = 0: 0 (2.0)
|   |   |   |   |   |   Emotion-Happy = 1: 1 (2.0)
|   |   |   |   Instrument_-_Drum_Machine = 1
|   |   |   |   |   Genre-Hip_Hop-Rap = 0: 0 (4.0)
|   |   |   |   |   Genre-Hip_Hop-Rap = 1: 1 (2.0)
|   |   |   Genre-Electronica = 1
|   |   |   |   Emotion-Bizarre-Weird = 0: 0 (5.0)
|   |   |   |   Emotion-Bizarre-Weird = 1: 1 (2.0)
|   |   NOT-Song-Positive_Feelings = 1: 0 (2.0)
|   NOT-Emotion-Carefree-Lighthearted = 1: 0 (2.0)

Number of Leaves  : 	25

Size of the tree : 	49


Prepare_CC.Base_CC: Node #10

J48 pruned tree
------------------

NOT-Emotion-Light-Playful = 0
|   Instrument_-_Ambient_Sounds = 0
|   |   Song-Changing_Energy_Level = 0: 0 (250.0/7.0)
|   |   Song-Changing_Energy_Level = 1
|   |   |   Genre--_Contemporary_RandB = 0: 0 (11.0/1.0)
|   |   |   Genre--_Contemporary_RandB = 1: 1 (3.0)
|   Instrument_-_Ambient_Sounds = 1
|   |   Mean_Acc1000_Mean_Mem40_Flux_Power_powerFFT_WinHamming_HopSize512_WinSize512_AudioCh0 <= 0.092953: 0 (8.0/1.0)
|   |   Mean_Acc1000_Mean_Mem40_Flux_Power_powerFFT_WinHamming_HopSize512_WinSize512_AudioCh0 > 0.092953: 1 (3.0)
NOT-Emotion-Light-Playful = 1
|   Emotion-Positive-Optimistic = 0
|   |   Instrument_-_Violin-Fiddle = 0
|   |   |   Genre--_Roots_Rock = 0
|   |   |   |   Genre-Best-Pop = 0
|   |   |   |   |   Genre-World = 0
|   |   |   |   |   |   Vocals-Falsetto = 0
|   |   |   |   |   |   |   Genre-Best-Jazz = 0
|   |   |   |   |   |   |   |   Genre-Jazz = 0
|   |   |   |   |   |   |   |   |   Usage-Studying = 0
|   |   |   |   |   |   |   |   |   |   Std_Acc1000_Std_Mem40_ZeroCrossings_HopSize512_WinSize512_AudioCh0 <= 0.009365: 1 (29.0)
|   |   |   |   |   |   |   |   |   |   Std_Acc1000_Std_Mem40_ZeroCrossings_HopSize512_WinSize512_AudioCh0 > 0.009365
|   |   |   |   |   |   |   |   |   |   |   Std_Acc1000_Mean_Mem40_MFCC0_Power_powerFFT_WinHamming_HopSize512_WinSize512_AudioCh0 <= 3.69545
|   |   |   |   |   |   |   |   |   |   |   |   Instrument_-_Ambient_Sounds = 0
|   |   |   |   |   |   |   |   |   |   |   |   |   Mean_Acc1000_Mean_Mem40_MFCC5_Power_powerFFT_WinHamming_HopSize512_WinSize512_AudioCh0 <= 0.403524: 1 (17.0)
|   |   |   |   |   |   |   |   |   |   |   |   |   Mean_Acc1000_Mean_Mem40_MFCC5_Power_powerFFT_WinHamming_HopSize512_WinSize512_AudioCh0 > 0.403524
|   |   |   |   |   |   |   |   |   |   |   |   |   |   Instrument_-_Drum_Set = 0
|   |   |   |   |   |   |   |   |   |   |   |   |   |   |   Mean_Acc1000_Mean_Mem40_MFCC12_Power_powerFFT_WinHamming_HopSize512_WinSize512_AudioCh0 <= 0.640844: 1 (22.0/2.0)
|   |   |   |   |   |   |   |   |   |   |   |   |   |   |   Mean_Acc1000_Mean_Mem40_MFCC12_Power_powerFFT_WinHamming_HopSize512_WinSize512_AudioCh0 > 0.640844: 0 (3.0)
|   |   |   |   |   |   |   |   |   |   |   |   |   |   Instrument_-_Drum_Set = 1
|   |   |   |   |   |   |   |   |   |   |   |   |   |   |   Instrument_-_Synthesizer = 0
|   |   |   |   |   |   |   |   |   |   |   |   |   |   |   |   Song-Quality = 0: 0 (19.0/1.0)
|   |   |   |   |   |   |   |   |   |   |   |   |   |   |   |   Song-Quality = 1
|   |   |   |   |   |   |   |   |   |   |   |   |   |   |   |   |   NOT-Song-Fast_Tempo = 0: 1 (5.0)
|   |   |   |   |   |   |   |   |   |   |   |   |   |   |   |   |   NOT-Song-Fast_Tempo = 1: 0 (5.0/1.0)
|   |   |   |   |   |   |   |   |   |   |   |   |   |   |   Instrument_-_Synthesizer = 1: 1 (2.0)
|   |   |   |   |   |   |   |   |   |   |   |   Instrument_-_Ambient_Sounds = 1: 1 (5.0)
|   |   |   |   |   |   |   |   |   |   |   Std_Acc1000_Mean_Mem40_MFCC0_Power_powerFFT_WinHamming_HopSize512_WinSize512_AudioCh0 > 3.69545: 1 (32.0/1.0)
|   |   |   |   |   |   |   |   |   Usage-Studying = 1: 0 (3.0/1.0)
|   |   |   |   |   |   |   |   Genre-Jazz = 1: 0 (3.0)
|   |   |   |   |   |   |   Genre-Best-Jazz = 1: 1 (4.0)
|   |   |   |   |   |   Vocals-Falsetto = 1: 1 (5.0)
|   |   |   |   |   Genre-World = 1: 1 (5.0)
|   |   |   |   Genre-Best-Pop = 1: 0 (3.0/1.0)
|   |   |   Genre--_Roots_Rock = 1: 0 (5.0/1.0)
|   |   Instrument_-_Violin-Fiddle = 1: 0 (6.0/1.0)
|   Emotion-Positive-Optimistic = 1: 0 (4.0)

Number of Leaves  : 	24

Size of the tree : 	47


Prepare_CC.Base_CC: Node #11

J48 pruned tree
------------------

Genre--_Bebop = 0
|   NOT-Song-Positive_Feelings = 0
|   |   Mean_Acc1000_Std_Mem40_MFCC1_Power_powerFFT_WinHamming_HopSize512_WinSize512_AudioCh0 <= 1.422484
|   |   |   Std_Acc1000_Mean_Mem40_Centroid_Power_powerFFT_WinHamming_HopSize512_WinSize512_AudioCh0 <= 0.039333
|   |   |   |   Std_Acc1000_Mean_Mem40_MFCC6_Power_powerFFT_WinHamming_HopSize512_WinSize512_AudioCh0 <= 0.481277
|   |   |   |   |   Mean_Acc1000_Std_Mem40_MFCC6_Power_powerFFT_WinHamming_HopSize512_WinSize512_AudioCh0 <= 0.639742
|   |   |   |   |   |   Mean_Acc1000_Std_Mem40_MFCC4_Power_powerFFT_WinHamming_HopSize512_WinSize512_AudioCh0 <= 0.478342: 0 (20.0)
|   |   |   |   |   |   Mean_Acc1000_Std_Mem40_MFCC4_Power_powerFFT_WinHamming_HopSize512_WinSize512_AudioCh0 > 0.478342
|   |   |   |   |   |   |   Mean_Acc1000_Std_Mem40_MFCC3_Power_powerFFT_WinHamming_HopSize512_WinSize512_AudioCh0 <= 0.605408
|   |   |   |   |   |   |   |   Std_Acc1000_Mean_Mem40_MFCC0_Power_powerFFT_WinHamming_HopSize512_WinSize512_AudioCh0 <= 1.2251: 0 (8.0)
|   |   |   |   |   |   |   |   Std_Acc1000_Mean_Mem40_MFCC0_Power_powerFFT_WinHamming_HopSize512_WinSize512_AudioCh0 > 1.2251
|   |   |   |   |   |   |   |   |   Std_Acc1000_Std_Mem40_MFCC10_Power_powerFFT_WinHamming_HopSize512_WinSize512_AudioCh0 <= 0.09692
|   |   |   |   |   |   |   |   |   |   Mean_Acc1000_Mean_Mem40_MFCC7_Power_powerFFT_WinHamming_HopSize512_WinSize512_AudioCh0 <= 0.559198
|   |   |   |   |   |   |   |   |   |   |   Mean_Acc1000_Mean_Mem40_MFCC1_Power_powerFFT_WinHamming_HopSize512_WinSize512_AudioCh0 <= 4.58831: 0 (4.0)
|   |   |   |   |   |   |   |   |   |   |   Mean_Acc1000_Mean_Mem40_MFCC1_Power_powerFFT_WinHamming_HopSize512_WinSize512_AudioCh0 > 4.58831: 1 (3.0)
|   |   |   |   |   |   |   |   |   |   Mean_Acc1000_Mean_Mem40_MFCC7_Power_powerFFT_WinHamming_HopSize512_WinSize512_AudioCh0 > 0.559198: 1 (14.0)
|   |   |   |   |   |   |   |   |   Std_Acc1000_Std_Mem40_MFCC10_Power_powerFFT_WinHamming_HopSize512_WinSize512_AudioCh0 > 0.09692: 0 (4.0)
|   |   |   |   |   |   |   Mean_Acc1000_Std_Mem40_MFCC3_Power_powerFFT_WinHamming_HopSize512_WinSize512_AudioCh0 > 0.605408
|   |   |   |   |   |   |   |   Mean_Acc1000_Std_Mem40_MFCC8_Power_powerFFT_WinHamming_HopSize512_WinSize512_AudioCh0 <= 0.467122: 0 (38.0/1.0)
|   |   |   |   |   |   |   |   Mean_Acc1000_Std_Mem40_MFCC8_Power_powerFFT_WinHamming_HopSize512_WinSize512_AudioCh0 > 0.467122
|   |   |   |   |   |   |   |   |   Vocals-Emotional = 0
|   |   |   |   |   |   |   |   |   |   Mean_Acc1000_Mean_Mem40_MFCC0_Power_powerFFT_WinHamming_HopSize512_WinSize512_AudioCh0 <= -65.903862
|   |   |   |   |   |   |   |   |   |   |   Mean_Acc1000_Std_Mem40_MFCC10_Power_powerFFT_WinHamming_HopSize512_WinSize512_AudioCh0 <= 0.442035
|   |   |   |   |   |   |   |   |   |   |   |   Std_Acc1000_Mean_Mem40_MFCC2_Power_powerFFT_WinHamming_HopSize512_WinSize512_AudioCh0 <= 0.505321: 0 (5.0)
|   |   |   |   |   |   |   |   |   |   |   |   Std_Acc1000_Mean_Mem40_MFCC2_Power_powerFFT_WinHamming_HopSize512_WinSize512_AudioCh0 > 0.505321: 1 (6.0)
|   |   |   |   |   |   |   |   |   |   |   Mean_Acc1000_Std_Mem40_MFCC10_Power_powerFFT_WinHamming_HopSize512_WinSize512_AudioCh0 > 0.442035
|   |   |   |   |   |   |   |   |   |   |   |   Mean_Acc1000_Std_Mem40_MFCC9_Power_powerFFT_WinHamming_HopSize512_WinSize512_AudioCh0 <= 0.60077
|   |   |   |   |   |   |   |   |   |   |   |   |   Std_Acc1000_Std_Mem40_Centroid_Power_powerFFT_WinHamming_HopSize512_WinSize512_AudioCh0 <= 0.014759: 0 (37.0)
|   |   |   |   |   |   |   |   |   |   |   |   |   Std_Acc1000_Std_Mem40_Centroid_Power_powerFFT_WinHamming_HopSize512_WinSize512_AudioCh0 > 0.014759
|   |   |   |   |   |   |   |   |   |   |   |   |   |   Std_Acc1000_Mean_Mem40_MFCC12_Power_powerFFT_WinHamming_HopSize512_WinSize512_AudioCh0 <= 0.337249
|   |   |   |   |   |   |   |   |   |   |   |   |   |   |   Std_Acc1000_Std_Mem40_MFCC2_Power_powerFFT_WinHamming_HopSize512_WinSize512_AudioCh0 <= 0.250857
|   |   |   |   |   |   |   |   |   |   |   |   |   |   |   |   Std_Acc1000_Mean_Mem40_Centroid_Power_powerFFT_WinHamming_HopSize512_WinSize512_AudioCh0 <= 0.022911
|   |   |   |   |   |   |   |   |   |   |   |   |   |   |   |   |   Mean_Acc1000_Mean_Mem40_MFCC0_Power_powerFFT_WinHamming_HopSize512_WinSize512_AudioCh0 <= -72.795717: 0 (3.0)
|   |   |   |   |   |   |   |   |   |   |   |   |   |   |   |   |   Mean_Acc1000_Mean_Mem40_MFCC0_Power_powerFFT_WinHamming_HopSize512_WinSize512_AudioCh0 > -72.795717
|   |   |   |   |   |   |   |   |   |   |   |   |   |   |   |   |   |   Mean_Acc1000_Std_Mem40_MFCC0_Power_powerFFT_WinHamming_HopSize512_WinSize512_AudioCh0 <= 2.792236: 0 (6.0)
|   |   |   |   |   |   |   |   |   |   |   |   |   |   |   |   |   |   Mean_Acc1000_Std_Mem40_MFCC0_Power_powerFFT_WinHamming_HopSize512_WinSize512_AudioCh0 > 2.792236: 1 (9.0)
|   |   |   |   |   |   |   |   |   |   |   |   |   |   |   |   Std_Acc1000_Mean_Mem40_Centroid_Power_powerFFT_WinHamming_HopSize512_WinSize512_AudioCh0 > 0.022911: 0 (13.0)
|   |   |   |   |   |   |   |   |   |   |   |   |   |   |   Std_Acc1000_Std_Mem40_MFCC2_Power_powerFFT_WinHamming_HopSize512_WinSize512_AudioCh0 > 0.250857: 0 (19.0)
|   |   |   |   |   |   |   |   |   |   |   |   |   |   Std_Acc1000_Mean_Mem40_MFCC12_Power_powerFFT_WinHamming_HopSize512_WinSize512_AudioCh0 > 0.337249: 1 (4.0)
|   |   |   |   |   |   |   |   |   |   |   |   Mean_Acc1000_Std_Mem40_MFCC9_Power_powerFFT_WinHamming_HopSize512_WinSize512_AudioCh0 > 0.60077: 1 (4.0)
|   |   |   |   |   |   |   |   |   |   Mean_Acc1000_Mean_Mem40_MFCC0_Power_powerFFT_WinHamming_HopSize512_WinSize512_AudioCh0 > -65.903862
|   |   |   |   |   |   |   |   |   |   |   Std_Acc1000_Mean_Mem40_Rolloff_Power_powerFFT_WinHamming_HopSize512_WinSize512_AudioCh0 <= 0.036362: 0 (5.0)
|   |   |   |   |   |   |   |   |   |   |   Std_Acc1000_Mean_Mem40_Rolloff_Power_powerFFT_WinHamming_HopSize512_WinSize512_AudioCh0 > 0.036362
|   |   |   |   |   |   |   |   |   |   |   |   Std_Acc1000_Std_Mem40_MFCC1_Power_powerFFT_WinHamming_HopSize512_WinSize512_AudioCh0 <= 0.390184: 1 (13.0/1.0)
|   |   |   |   |   |   |   |   |   |   |   |   Std_Acc1000_Std_Mem40_MFCC1_Power_powerFFT_WinHamming_HopSize512_WinSize512_AudioCh0 > 0.390184: 0 (2.0)
|   |   |   |   |   |   |   |   |   Vocals-Emotional = 1
|   |   |   |   |   |   |   |   |   |   Std_Acc1000_Std_Mem40_MFCC2_Power_powerFFT_WinHamming_HopSize512_WinSize512_AudioCh0 <= 0.190865: 1 (4.0)
|   |   |   |   |   |   |   |   |   |   Std_Acc1000_Std_Mem40_MFCC2_Power_powerFFT_WinHamming_HopSize512_WinSize512_AudioCh0 > 0.190865: 0 (24.0/1.0)
|   |   |   |   |   Mean_Acc1000_Std_Mem40_MFCC6_Power_powerFFT_WinHamming_HopSize512_WinSize512_AudioCh0 > 0.639742
|   |   |   |   |   |   Std_Acc1000_Mean_Mem40_ZeroCrossings_HopSize512_WinSize512_AudioCh0 <= 0.023761: 1 (9.0)
|   |   |   |   |   |   Std_Acc1000_Mean_Mem40_ZeroCrossings_HopSize512_WinSize512_AudioCh0 > 0.023761
|   |   |   |   |   |   |   Mean_Acc1000_Mean_Mem40_MFCC0_Power_powerFFT_WinHamming_HopSize512_WinSize512_AudioCh0 <= -68.463773: 0 (5.0)
|   |   |   |   |   |   |   Mean_Acc1000_Mean_Mem40_MFCC0_Power_powerFFT_WinHamming_HopSize512_WinSize512_AudioCh0 > -68.463773: 1 (2.0)
|   |   |   |   Std_Acc1000_Mean_Mem40_MFCC6_Power_powerFFT_WinHamming_HopSize512_WinSize512_AudioCh0 > 0.481277: 0 (26.0)
|   |   |   Std_Acc1000_Mean_Mem40_Centroid_Power_powerFFT_WinHamming_HopSize512_WinSize512_AudioCh0 > 0.039333
|   |   |   |   Std_Acc1000_Std_Mem40_Flux_Power_powerFFT_WinHamming_HopSize512_WinSize512_AudioCh0 <= 0.031984: 1 (10.0)
|   |   |   |   Std_Acc1000_Std_Mem40_Flux_Power_powerFFT_WinHamming_HopSize512_WinSize512_AudioCh0 > 0.031984: 0 (6.0/1.0)
|   |   Mean_Acc1000_Std_Mem40_MFCC1_Power_powerFFT_WinHamming_HopSize512_WinSize512_AudioCh0 > 1.422484: 0 (66.0/4.0)
|   NOT-Song-Positive_Feelings = 1
|   |   Mean_Acc1000_Mean_Mem40_MFCC4_Power_powerFFT_WinHamming_HopSize512_WinSize512_AudioCh0 <= -0.401405
|   |   |   Vocals-Emotional = 0: 0 (2.0)
|   |   |   Vocals-Emotional = 1: 1 (2.0)
|   |   Mean_Acc1000_Mean_Mem40_MFCC4_Power_powerFFT_WinHamming_HopSize512_WinSize512_AudioCh0 > -0.401405: 0 (75.0)
Genre--_Bebop = 1: 1 (4.0/1.0)

Number of Leaves  : 	33

Size of the tree : 	65


Prepare_CC.Base_CC: Node #12

J48 pruned tree
------------------

NOT-Song-Positive_Feelings = 0
|   Emotion-Happy = 0
|   |   Emotion-Cheerful-Festive = 0
|   |   |   Genre--_Dance_Pop = 0
|   |   |   |   Usage-Cleaning_the_house = 0
|   |   |   |   |   NOT-Song-Recommend = 0
|   |   |   |   |   |   Vocals-Altered_with_Effects = 0
|   |   |   |   |   |   |   Song-Very_Danceable = 0
|   |   |   |   |   |   |   |   Usage-At_work = 0
|   |   |   |   |   |   |   |   |   Genre--_Classic_Rock = 0
|   |   |   |   |   |   |   |   |   |   Instrument_-_Electric_Guitar_(distorted)-Solo = 0
|   |   |   |   |   |   |   |   |   |   |   Vocals-Gravelly = 0
|   |   |   |   |   |   |   |   |   |   |   |   Vocals-Breathy = 0
|   |   |   |   |   |   |   |   |   |   |   |   |   Std_Acc1000_Std_Mem40_Centroid_Power_powerFFT_WinHamming_HopSize512_WinSize512_AudioCh0 <= 0.010857: 1 (6.0)
|   |   |   |   |   |   |   |   |   |   |   |   |   Std_Acc1000_Std_Mem40_Centroid_Power_powerFFT_WinHamming_HopSize512_WinSize512_AudioCh0 > 0.010857
|   |   |   |   |   |   |   |   |   |   |   |   |   |   Genre--_Singer-Songwriter = 0
|   |   |   |   |   |   |   |   |   |   |   |   |   |   |   Instrument_-_Acoustic_Guitar = 0
|   |   |   |   |   |   |   |   |   |   |   |   |   |   |   |   NOT-Emotion-Loving-Romantic = 0
|   |   |   |   |   |   |   |   |   |   |   |   |   |   |   |   |   Mean_Acc1000_Std_Mem40_ZeroCrossings_HopSize512_WinSize512_AudioCh0 <= 0.055768
|   |   |   |   |   |   |   |   |   |   |   |   |   |   |   |   |   |   Mean_Acc1000_Std_Mem40_MFCC0_Power_powerFFT_WinHamming_HopSize512_WinSize512_AudioCh0 <= 2.090886: 1 (3.0)
|   |   |   |   |   |   |   |   |   |   |   |   |   |   |   |   |   |   Mean_Acc1000_Std_Mem40_MFCC0_Power_powerFFT_WinHamming_HopSize512_WinSize512_AudioCh0 > 2.090886
|   |   |   |   |   |   |   |   |   |   |   |   |   |   |   |   |   |   |   Std_Acc1000_Mean_Mem40_MFCC7_Power_powerFFT_WinHamming_HopSize512_WinSize512_AudioCh0 <= 0.354978: 0 (46.0/3.0)
|   |   |   |   |   |   |   |   |   |   |   |   |   |   |   |   |   |   |   Std_Acc1000_Mean_Mem40_MFCC7_Power_powerFFT_WinHamming_HopSize512_WinSize512_AudioCh0 > 0.354978
|   |   |   |   |   |   |   |   |   |   |   |   |   |   |   |   |   |   |   |   Mean_Acc1000_Mean_Mem40_Flux_Power_powerFFT_WinHamming_HopSize512_WinSize512_AudioCh0 <= 0.089732: 1 (5.0)
|   |   |   |   |   |   |   |   |   |   |   |   |   |   |   |   |   |   |   |   Mean_Acc1000_Mean_Mem40_Flux_Power_powerFFT_WinHamming_HopSize512_WinSize512_AudioCh0 > 0.089732: 0 (3.0)
|   |   |   |   |   |   |   |   |   |   |   |   |   |   |   |   |   Mean_Acc1000_Std_Mem40_ZeroCrossings_HopSize512_WinSize512_AudioCh0 > 0.055768: 1 (5.0)
|   |   |   |   |   |   |   |   |   |   |   |   |   |   |   |   NOT-Emotion-Loving-Romantic = 1
|   |   |   |   |   |   |   |   |   |   |   |   |   |   |   |   |   NOT-Song-Fast_Tempo = 0
|   |   |   |   |   |   |   |   |   |   |   |   |   |   |   |   |   |   Mean_Acc1000_Std_Mem40_MFCC10_Power_powerFFT_WinHamming_HopSize512_WinSize512_AudioCh0 <= 0.461972
|   |   |   |   |   |   |   |   |   |   |   |   |   |   |   |   |   |   |   Std_Acc1000_Std_Mem40_MFCC5_Power_powerFFT_WinHamming_HopSize512_WinSize512_AudioCh0 <= 0.077675: 0 (4.0)
|   |   |   |   |   |   |   |   |   |   |   |   |   |   |   |   |   |   |   Std_Acc1000_Std_Mem40_MFCC5_Power_powerFFT_WinHamming_HopSize512_WinSize512_AudioCh0 > 0.077675: 1 (10.0)
|   |   |   |   |   |   |   |   |   |   |   |   |   |   |   |   |   |   Mean_Acc1000_Std_Mem40_MFCC10_Power_powerFFT_WinHamming_HopSize512_WinSize512_AudioCh0 > 0.461972: 0 (12.0)
|   |   |   |   |   |   |   |   |   |   |   |   |   |   |   |   |   NOT-Song-Fast_Tempo = 1: 1 (6.0)
|   |   |   |   |   |   |   |   |   |   |   |   |   |   |   Instrument_-_Acoustic_Guitar = 1: 0 (5.0)
|   |   |   |   |   |   |   |   |   |   |   |   |   |   Genre--_Singer-Songwriter = 1: 0 (9.0)
|   |   |   |   |   |   |   |   |   |   |   |   Vocals-Breathy = 1: 1 (4.0)
|   |   |   |   |   |   |   |   |   |   |   Vocals-Gravelly = 1: 0 (5.0)
|   |   |   |   |   |   |   |   |   |   Instrument_-_Electric_Guitar_(distorted)-Solo = 1: 1 (6.0)
|   |   |   |   |   |   |   |   |   Genre--_Classic_Rock = 1
|   |   |   |   |   |   |   |   |   |   Mean_Acc1000_Std_Mem40_MFCC1_Power_powerFFT_WinHamming_HopSize512_WinSize512_AudioCh0 <= 1.565211: 0 (26.0)
|   |   |   |   |   |   |   |   |   |   Mean_Acc1000_Std_Mem40_MFCC1_Power_powerFFT_WinHamming_HopSize512_WinSize512_AudioCh0 > 1.565211: 1 (3.0/1.0)
|   |   |   |   |   |   |   |   Usage-At_work = 1: 0 (7.0)
|   |   |   |   |   |   |   Song-Very_Danceable = 1: 0 (7.0)
|   |   |   |   |   |   Vocals-Altered_with_Effects = 1
|   |   |   |   |   |   |   Mean_Acc1000_Mean_Mem40_MFCC6_Power_powerFFT_WinHamming_HopSize512_WinSize512_AudioCh0 <= 0.263271: 0 (4.0/1.0)
|   |   |   |   |   |   |   Mean_Acc1000_Mean_Mem40_MFCC6_Power_powerFFT_WinHamming_HopSize512_WinSize512_AudioCh0 > 0.263271: 1 (8.0)
|   |   |   |   |   NOT-Song-Recommend = 1
|   |   |   |   |   |   Mean_Acc1000_Mean_Mem40_MFCC11_Power_powerFFT_WinHamming_HopSize512_WinSize512_AudioCh0 <= 0.465166
|   |   |   |   |   |   |   Mean_Acc1000_Mean_Mem40_Flux_Power_powerFFT_WinHamming_HopSize512_WinSize512_AudioCh0 <= 0.083492: 0 (2.0)
|   |   |   |   |   |   |   Mean_Acc1000_Mean_Mem40_Flux_Power_powerFFT_WinHamming_HopSize512_WinSize512_AudioCh0 > 0.083492: 1 (22.0)
|   |   |   |   |   |   Mean_Acc1000_Mean_Mem40_MFCC11_Power_powerFFT_WinHamming_HopSize512_WinSize512_AudioCh0 > 0.465166
|   |   |   |   |   |   |   Mean_Acc1000_Mean_Mem40_MFCC11_Power_powerFFT_WinHamming_HopSize512_WinSize512_AudioCh0 <= 0.580834: 0 (12.0/1.0)
|   |   |   |   |   |   |   Mean_Acc1000_Mean_Mem40_MFCC11_Power_powerFFT_WinHamming_HopSize512_WinSize512_AudioCh0 > 0.580834
|   |   |   |   |   |   |   |   Mean_Acc1000_Mean_Mem40_MFCC9_Power_powerFFT_WinHamming_HopSize512_WinSize512_AudioCh0 <= 0.534045: 1 (8.0)
|   |   |   |   |   |   |   |   Mean_Acc1000_Mean_Mem40_MFCC9_Power_powerFFT_WinHamming_HopSize512_WinSize512_AudioCh0 > 0.534045: 0 (3.0)
|   |   |   |   Usage-Cleaning_the_house = 1
|   |   |   |   |   Usage-Driving = 0: 0 (4.0/1.0)
|   |   |   |   |   Usage-Driving = 1: 1 (10.0/1.0)
|   |   |   Genre--_Dance_Pop = 1: 0 (7.0)
|   |   Emotion-Cheerful-Festive = 1: 0 (11.0)
|   Emotion-Happy = 1: 0 (109.0/1.0)
NOT-Song-Positive_Feelings = 1
|   Emotion-Cheerful-Festive = 0
|   |   Instrument_-_Drum_Set = 0: 1 (33.0)
|   |   Instrument_-_Drum_Set = 1
|   |   |   Std_Acc1000_Std_Mem40_MFCC3_Power_powerFFT_WinHamming_HopSize512_WinSize512_AudioCh0 <= 0.214732: 1 (35.0)
|   |   |   Std_Acc1000_Std_Mem40_MFCC3_Power_powerFFT_WinHamming_HopSize512_WinSize512_AudioCh0 > 0.214732
|   |   |   |   Instrument_-_Acoustic_Guitar = 0
|   |   |   |   |   Mean_Acc1000_Mean_Mem40_MFCC7_Power_powerFFT_WinHamming_HopSize512_WinSize512_AudioCh0 <= 0.865782: 0 (6.0)
|   |   |   |   |   Mean_Acc1000_Mean_Mem40_MFCC7_Power_powerFFT_WinHamming_HopSize512_WinSize512_AudioCh0 > 0.865782: 1 (2.0)
|   |   |   |   Instrument_-_Acoustic_Guitar = 1: 1 (2.0)
|   Emotion-Cheerful-Festive = 1: 0 (2.0)

Number of Leaves  : 	37

Size of the tree : 	73


Prepare_CC.Base_CC: Node #13

J48 pruned tree
------------------

NOT-Emotion-Emotional-Passionate = 0
|   Instrument_-_Harmonica = 0
|   |   Instrument_-_Ambient_Sounds = 0
|   |   |   Instrument_-_Hand_Drums = 0
|   |   |   |   Emotion-Touching-Loving = 0
|   |   |   |   |   Vocals-Emotional = 0
|   |   |   |   |   |   Genre-RandB = 0
|   |   |   |   |   |   |   Usage-Reading = 0
|   |   |   |   |   |   |   |   Vocals-Low-pitched = 0
|   |   |   |   |   |   |   |   |   Instrument_-_Electric_Guitar_(distorted)-Solo = 0
|   |   |   |   |   |   |   |   |   |   Genre-Best-Pop = 0
|   |   |   |   |   |   |   |   |   |   |   Instrument_-_Male_Lead_Vocals-Solo = 0
|   |   |   |   |   |   |   |   |   |   |   |   Genre--_Soft_Rock = 0: 0 (143.0/15.0)
|   |   |   |   |   |   |   |   |   |   |   |   Genre--_Soft_Rock = 1
|   |   |   |   |   |   |   |   |   |   |   |   |   Mean_Acc1000_Mean_Mem40_MFCC6_Power_powerFFT_WinHamming_HopSize512_WinSize512_AudioCh0 <= 0.644851: 0 (12.0/1.0)
|   |   |   |   |   |   |   |   |   |   |   |   |   Mean_Acc1000_Mean_Mem40_MFCC6_Power_powerFFT_WinHamming_HopSize512_WinSize512_AudioCh0 > 0.644851: 1 (8.0/2.0)
|   |   |   |   |   |   |   |   |   |   |   Instrument_-_Male_Lead_Vocals-Solo = 1
|   |   |   |   |   |   |   |   |   |   |   |   Emotion-Tender-Soft = 0: 0 (12.0/1.0)
|   |   |   |   |   |   |   |   |   |   |   |   Emotion-Tender-Soft = 1: 1 (3.0)
|   |   |   |   |   |   |   |   |   |   Genre-Best-Pop = 1
|   |   |   |   |   |   |   |   |   |   |   NOT-Emotion-Calming-Soothing = 0: 1 (6.0/1.0)
|   |   |   |   |   |   |   |   |   |   |   NOT-Emotion-Calming-Soothing = 1: 0 (6.0)
|   |   |   |   |   |   |   |   |   Instrument_-_Electric_Guitar_(distorted)-Solo = 1
|   |   |   |   |   |   |   |   |   |   Std_Acc1000_Mean_Mem40_MFCC7_Power_powerFFT_WinHamming_HopSize512_WinSize512_AudioCh0 <= 0.236682: 1 (8.0/1.0)
|   |   |   |   |   |   |   |   |   |   Std_Acc1000_Mean_Mem40_MFCC7_Power_powerFFT_WinHamming_HopSize512_WinSize512_AudioCh0 > 0.236682: 0 (9.0)
|   |   |   |   |   |   |   |   Vocals-Low-pitched = 1
|   |   |   |   |   |   |   |   |   Vocals-Gravelly = 0
|   |   |   |   |   |   |   |   |   |   Genre-Best--_Classic_Rock = 0: 0 (6.0)
|   |   |   |   |   |   |   |   |   |   Genre-Best--_Classic_Rock = 1: 1 (2.0)
|   |   |   |   |   |   |   |   |   Vocals-Gravelly = 1: 1 (5.0)
|   |   |   |   |   |   |   Usage-Reading = 1
|   |   |   |   |   |   |   |   Instrument_-_Drum_Set = 0: 0 (2.0)
|   |   |   |   |   |   |   |   Instrument_-_Drum_Set = 1: 1 (3.0)
|   |   |   |   |   |   Genre-RandB = 1
|   |   |   |   |   |   |   Std_Acc1000_Mean_Mem40_MFCC10_Power_powerFFT_WinHamming_HopSize512_WinSize512_AudioCh0 <= 0.249632: 1 (8.0)
|   |   |   |   |   |   |   Std_Acc1000_Mean_Mem40_MFCC10_Power_powerFFT_WinHamming_HopSize512_WinSize512_AudioCh0 > 0.249632: 0 (4.0)
|   |   |   |   |   Vocals-Emotional = 1
|   |   |   |   |   |   Genre--_Roots_Rock = 0
|   |   |   |   |   |   |   Genre-Best-Folk = 0
|   |   |   |   |   |   |   |   Mean_Acc1000_Mean_Mem40_MFCC11_Power_powerFFT_WinHamming_HopSize512_WinSize512_AudioCh0 <= 0.304599
|   |   |   |   |   |   |   |   |   Genre-Folk = 0
|   |   |   |   |   |   |   |   |   |   Std_Acc1000_Mean_Mem40_MFCC12_Power_powerFFT_WinHamming_HopSize512_WinSize512_AudioCh0 <= 0.149555: 1 (2.0)
|   |   |   |   |   |   |   |   |   |   Std_Acc1000_Mean_Mem40_MFCC12_Power_powerFFT_WinHamming_HopSize512_WinSize512_AudioCh0 > 0.149555: 0 (11.0)
|   |   |   |   |   |   |   |   |   Genre-Folk = 1: 1 (2.0)
|   |   |   |   |   |   |   |   Mean_Acc1000_Mean_Mem40_MFCC11_Power_powerFFT_WinHamming_HopSize512_WinSize512_AudioCh0 > 0.304599
|   |   |   |   |   |   |   |   |   Mean_Acc1000_Std_Mem40_Centroid_Power_powerFFT_WinHamming_HopSize512_WinSize512_AudioCh0 <= 0.054247: 1 (33.0/1.0)
|   |   |   |   |   |   |   |   |   Mean_Acc1000_Std_Mem40_Centroid_Power_powerFFT_WinHamming_HopSize512_WinSize512_AudioCh0 > 0.054247: 0 (5.0)
|   |   |   |   |   |   |   Genre-Best-Folk = 1: 0 (2.0)
|   |   |   |   |   |   Genre--_Roots_Rock = 1: 0 (2.0)
|   |   |   |   Emotion-Touching-Loving = 1
|   |   |   |   |   Genre-Best-Jazz = 0
|   |   |   |   |   |   Instrument_-_Organ = 0
|   |   |   |   |   |   |   Std_Acc1000_Mean_Mem40_MFCC11_Power_powerFFT_WinHamming_HopSize512_WinSize512_AudioCh0 <= 0.522287
|   |   |   |   |   |   |   |   NOT-Emotion-Powerful-Strong = 0
|   |   |   |   |   |   |   |   |   Genre--_Funk = 0: 1 (46.0/3.0)
|   |   |   |   |   |   |   |   |   Genre--_Funk = 1
|   |   |   |   |   |   |   |   |   |   Emotion-Laid-back-Mellow = 0: 1 (2.0)
|   |   |   |   |   |   |   |   |   |   Emotion-Laid-back-Mellow = 1: 0 (2.0)
|   |   |   |   |   |   |   |   NOT-Emotion-Powerful-Strong = 1
|   |   |   |   |   |   |   |   |   Emotion-Laid-back-Mellow = 0: 0 (2.0)
|   |   |   |   |   |   |   |   |   Emotion-Laid-back-Mellow = 1: 1 (2.0)
|   |   |   |   |   |   |   Std_Acc1000_Mean_Mem40_MFCC11_Power_powerFFT_WinHamming_HopSize512_WinSize512_AudioCh0 > 0.522287: 0 (6.0)
|   |   |   |   |   |   Instrument_-_Organ = 1: 0 (2.0)
|   |   |   |   |   Genre-Best-Jazz = 1: 0 (4.0)
|   |   |   Instrument_-_Hand_Drums = 1: 1 (8.0/1.0)
|   |   Instrument_-_Ambient_Sounds = 1: 0 (15.0)
|   Instrument_-_Harmonica = 1: 1 (2.0)
NOT-Emotion-Emotional-Passionate = 1: 0 (67.0)

Number of Leaves  : 	35

Size of the tree : 	69


Prepare_CC.Base_CC: Node #14

J48 pruned tree
------------------

Emotion-Tender-Soft = 0
|   Vocals-Emotional = 0
|   |   Genre--_Soft_Rock = 0
|   |   |   Instrument_-_Violin-Fiddle = 0
|   |   |   |   Genre--_Singer-Songwriter = 0
|   |   |   |   |   Genre-Best--_Alternative = 0
|   |   |   |   |   |   Emotion-Powerful-Strong = 0
|   |   |   |   |   |   |   Usage-At_work = 0
|   |   |   |   |   |   |   |   Instrument_-_Saxophone-Solo = 0
|   |   |   |   |   |   |   |   |   NOT-Emotion-Loving-Romantic = 0
|   |   |   |   |   |   |   |   |   |   Mean_Acc1000_Mean_Mem40_MFCC2_Power_powerFFT_WinHamming_HopSize512_WinSize512_AudioCh0 <= 1.259328
|   |   |   |   |   |   |   |   |   |   |   Mean_Acc1000_Mean_Mem40_MFCC2_Power_powerFFT_WinHamming_HopSize512_WinSize512_AudioCh0 <= -0.011778
|   |   |   |   |   |   |   |   |   |   |   |   Mean_Acc1000_Mean_Mem40_MFCC11_Power_powerFFT_WinHamming_HopSize512_WinSize512_AudioCh0 <= 0.47996: 1 (4.0)
|   |   |   |   |   |   |   |   |   |   |   |   Mean_Acc1000_Mean_Mem40_MFCC11_Power_powerFFT_WinHamming_HopSize512_WinSize512_AudioCh0 > 0.47996: 0 (8.0)
|   |   |   |   |   |   |   |   |   |   |   Mean_Acc1000_Mean_Mem40_MFCC2_Power_powerFFT_WinHamming_HopSize512_WinSize512_AudioCh0 > -0.011778: 0 (36.0)
|   |   |   |   |   |   |   |   |   |   Mean_Acc1000_Mean_Mem40_MFCC2_Power_powerFFT_WinHamming_HopSize512_WinSize512_AudioCh0 > 1.259328
|   |   |   |   |   |   |   |   |   |   |   Emotion-Positive-Optimistic = 0
|   |   |   |   |   |   |   |   |   |   |   |   NOT-Emotion-Calming-Soothing = 0: 1 (9.0)
|   |   |   |   |   |   |   |   |   |   |   |   NOT-Emotion-Calming-Soothing = 1: 0 (2.0)
|   |   |   |   |   |   |   |   |   |   |   Emotion-Positive-Optimistic = 1: 0 (5.0)
|   |   |   |   |   |   |   |   |   NOT-Emotion-Loving-Romantic = 1
|   |   |   |   |   |   |   |   |   |   Genre--_Dance_Pop = 0
|   |   |   |   |   |   |   |   |   |   |   Genre-Hip_Hop-Rap = 0
|   |   |   |   |   |   |   |   |   |   |   |   Genre-Best-World = 0
|   |   |   |   |   |   |   |   |   |   |   |   |   Mean_Acc1000_Mean_Mem40_MFCC7_Power_powerFFT_WinHamming_HopSize512_WinSize512_AudioCh0 <= 0.355801
|   |   |   |   |   |   |   |   |   |   |   |   |   |   Mean_Acc1000_Std_Mem40_Rolloff_Power_powerFFT_WinHamming_HopSize512_WinSize512_AudioCh0 <= 0.042776: 1 (2.0)
|   |   |   |   |   |   |   |   |   |   |   |   |   |   Mean_Acc1000_Std_Mem40_Rolloff_Power_powerFFT_WinHamming_HopSize512_WinSize512_AudioCh0 > 0.042776: 0 (15.0)
|   |   |   |   |   |   |   |   |   |   |   |   |   Mean_Acc1000_Mean_Mem40_MFCC7_Power_powerFFT_WinHamming_HopSize512_WinSize512_AudioCh0 > 0.355801
|   |   |   |   |   |   |   |   |   |   |   |   |   |   Instrument_-_Ambient_Sounds = 0
|   |   |   |   |   |   |   |   |   |   |   |   |   |   |   NOT-Emotion-Angry-Agressive = 0
|   |   |   |   |   |   |   |   |   |   |   |   |   |   |   |   Mean_Acc1000_Std_Mem40_ZeroCrossings_HopSize512_WinSize512_AudioCh0 <= 0.022675: 1 (4.0)
|   |   |   |   |   |   |   |   |   |   |   |   |   |   |   |   Mean_Acc1000_Std_Mem40_ZeroCrossings_HopSize512_WinSize512_AudioCh0 > 0.022675: 0 (11.0/1.0)
|   |   |   |   |   |   |   |   |   |   |   |   |   |   |   NOT-Emotion-Angry-Agressive = 1
|   |   |   |   |   |   |   |   |   |   |   |   |   |   |   |   Emotion-Laid-back-Mellow = 0
|   |   |   |   |   |   |   |   |   |   |   |   |   |   |   |   |   Mean_Acc1000_Std_Mem40_Rolloff_Power_powerFFT_WinHamming_HopSize512_WinSize512_AudioCh0 <= 0.189192: 1 (20.0/1.0)
|   |   |   |   |   |   |   |   |   |   |   |   |   |   |   |   |   Mean_Acc1000_Std_Mem40_Rolloff_Power_powerFFT_WinHamming_HopSize512_WinSize512_AudioCh0 > 0.189192: 0 (2.0)
|   |   |   |   |   |   |   |   |   |   |   |   |   |   |   |   Emotion-Laid-back-Mellow = 1: 0 (5.0/1.0)
|   |   |   |   |   |   |   |   |   |   |   |   |   |   Instrument_-_Ambient_Sounds = 1: 1 (9.0)
|   |   |   |   |   |   |   |   |   |   |   |   Genre-Best-World = 1: 1 (3.0)
|   |   |   |   |   |   |   |   |   |   |   Genre-Hip_Hop-Rap = 1: 1 (3.0)
|   |   |   |   |   |   |   |   |   |   Genre--_Dance_Pop = 1: 0 (2.0)
|   |   |   |   |   |   |   |   Instrument_-_Saxophone-Solo = 1: 0 (3.0)
|   |   |   |   |   |   |   Usage-At_work = 1: 0 (3.0)
|   |   |   |   |   |   Emotion-Powerful-Strong = 1
|   |   |   |   |   |   |   Vocals-Altered_with_Effects = 0
|   |   |   |   |   |   |   |   Std_Acc1000_Std_Mem40_Rolloff_Power_powerFFT_WinHamming_HopSize512_WinSize512_AudioCh0 <= 0.027739
|   |   |   |   |   |   |   |   |   Angry-Agressive = 0: 1 (3.0)
|   |   |   |   |   |   |   |   |   Angry-Agressive = 1: 0 (3.0)
|   |   |   |   |   |   |   |   Std_Acc1000_Std_Mem40_Rolloff_Power_powerFFT_WinHamming_HopSize512_WinSize512_AudioCh0 > 0.027739: 0 (86.0/2.0)
|   |   |   |   |   |   |   Vocals-Altered_with_Effects = 1
|   |   |   |   |   |   |   |   Mean_Acc1000_Std_Mem40_MFCC2_Power_powerFFT_WinHamming_HopSize512_WinSize512_AudioCh0 <= 0.82884: 0 (4.0)
|   |   |   |   |   |   |   |   Mean_Acc1000_Std_Mem40_MFCC2_Power_powerFFT_WinHamming_HopSize512_WinSize512_AudioCh0 > 0.82884: 1 (5.0)
|   |   |   |   |   Genre-Best--_Alternative = 1: 0 (21.0)
|   |   |   |   Genre--_Singer-Songwriter = 1: 1 (3.0/1.0)
|   |   |   Instrument_-_Violin-Fiddle = 1: 0 (6.0)
|   |   Genre--_Soft_Rock = 1: 0 (20.0)
|   Vocals-Emotional = 1: 0 (56.0)
Emotion-Tender-Soft = 1: 0 (99.0)

Number of Leaves  : 	30

Size of the tree : 	59


Prepare_CC.Base_CC: Node #15

J48 pruned tree
------------------

Genre--_Bebop = 0
|   NOT-Song-Fast_Tempo = 0
|   |   Vocals-Altered_with_Effects = 0
|   |   |   Emotion-Cheerful-Festive = 0
|   |   |   |   Mean_Acc1000_Mean_Mem40_Centroid_Power_powerFFT_WinHamming_HopSize512_WinSize512_AudioCh0 <= 0.111068
|   |   |   |   |   Std_Acc1000_Mean_Mem40_Rolloff_Power_powerFFT_WinHamming_HopSize512_WinSize512_AudioCh0 <= 0.088235
|   |   |   |   |   |   Mean_Acc1000_Std_Mem40_MFCC11_Power_powerFFT_WinHamming_HopSize512_WinSize512_AudioCh0 <= 0.420754: 0 (40.0)
|   |   |   |   |   |   Mean_Acc1000_Std_Mem40_MFCC11_Power_powerFFT_WinHamming_HopSize512_WinSize512_AudioCh0 > 0.420754
|   |   |   |   |   |   |   Vocals-Emotional = 0
|   |   |   |   |   |   |   |   Std_Acc1000_Mean_Mem40_MFCC6_Power_powerFFT_WinHamming_HopSize512_WinSize512_AudioCh0 <= 0.500679
|   |   |   |   |   |   |   |   |   NOT-Song-Positive_Feelings = 0
|   |   |   |   |   |   |   |   |   |   Mean_Acc1000_Mean_Mem40_MFCC0_Power_powerFFT_WinHamming_HopSize512_WinSize512_AudioCh0 <= -61.142051
|   |   |   |   |   |   |   |   |   |   |   Usage-Driving = 0
|   |   |   |   |   |   |   |   |   |   |   |   Mean_Acc1000_Mean_Mem40_MFCC10_Power_powerFFT_WinHamming_HopSize512_WinSize512_AudioCh0 <= 0.420265: 0 (29.0)
|   |   |   |   |   |   |   |   |   |   |   |   Mean_Acc1000_Mean_Mem40_MFCC10_Power_powerFFT_WinHamming_HopSize512_WinSize512_AudioCh0 > 0.420265
|   |   |   |   |   |   |   |   |   |   |   |   |   Mean_Acc1000_Mean_Mem40_MFCC4_Power_powerFFT_WinHamming_HopSize512_WinSize512_AudioCh0 <= 0.692683
|   |   |   |   |   |   |   |   |   |   |   |   |   |   Mean_Acc1000_Mean_Mem40_MFCC5_Power_powerFFT_WinHamming_HopSize512_WinSize512_AudioCh0 <= 0.959522
|   |   |   |   |   |   |   |   |   |   |   |   |   |   |   Std_Acc1000_Std_Mem40_MFCC6_Power_powerFFT_WinHamming_HopSize512_WinSize512_AudioCh0 <= 0.099133: 1 (4.0/1.0)
|   |   |   |   |   |   |   |   |   |   |   |   |   |   |   Std_Acc1000_Std_Mem40_MFCC6_Power_powerFFT_WinHamming_HopSize512_WinSize512_AudioCh0 > 0.099133: 0 (14.0)
|   |   |   |   |   |   |   |   |   |   |   |   |   |   Mean_Acc1000_Mean_Mem40_MFCC5_Power_powerFFT_WinHamming_HopSize512_WinSize512_AudioCh0 > 0.959522: 1 (5.0)
|   |   |   |   |   |   |   |   |   |   |   |   |   Mean_Acc1000_Mean_Mem40_MFCC4_Power_powerFFT_WinHamming_HopSize512_WinSize512_AudioCh0 > 0.692683: 0 (16.0)
|   |   |   |   |   |   |   |   |   |   |   Usage-Driving = 1
|   |   |   |   |   |   |   |   |   |   |   |   Std_Acc1000_Std_Mem40_MFCC5_Power_powerFFT_WinHamming_HopSize512_WinSize512_AudioCh0 <= 0.099576: 1 (6.0/1.0)
|   |   |   |   |   |   |   |   |   |   |   |   Std_Acc1000_Std_Mem40_MFCC5_Power_powerFFT_WinHamming_HopSize512_WinSize512_AudioCh0 > 0.099576
|   |   |   |   |   |   |   |   |   |   |   |   |   Std_Acc1000_Std_Mem40_MFCC1_Power_powerFFT_WinHamming_HopSize512_WinSize512_AudioCh0 <= 0.520704: 0 (29.0/1.0)
|   |   |   |   |   |   |   |   |   |   |   |   |   Std_Acc1000_Std_Mem40_MFCC1_Power_powerFFT_WinHamming_HopSize512_WinSize512_AudioCh0 > 0.520704: 1 (2.0)
|   |   |   |   |   |   |   |   |   |   Mean_Acc1000_Mean_Mem40_MFCC0_Power_powerFFT_WinHamming_HopSize512_WinSize512_AudioCh0 > -61.142051: 1 (6.0/1.0)
|   |   |   |   |   |   |   |   |   NOT-Song-Positive_Feelings = 1
|   |   |   |   |   |   |   |   |   |   Std_Acc1000_Std_Mem40_MFCC12_Power_powerFFT_WinHamming_HopSize512_WinSize512_AudioCh0 <= 0.123944: 0 (15.0/2.0)
|   |   |   |   |   |   |   |   |   |   Std_Acc1000_Std_Mem40_MFCC12_Power_powerFFT_WinHamming_HopSize512_WinSize512_AudioCh0 > 0.123944: 1 (3.0)
|   |   |   |   |   |   |   |   Std_Acc1000_Mean_Mem40_MFCC6_Power_powerFFT_WinHamming_HopSize512_WinSize512_AudioCh0 > 0.500679
|   |   |   |   |   |   |   |   |   Mean_Acc1000_Mean_Mem40_Centroid_Power_powerFFT_WinHamming_HopSize512_WinSize512_AudioCh0 <= 0.041467: 0 (2.0)
|   |   |   |   |   |   |   |   |   Mean_Acc1000_Mean_Mem40_Centroid_Power_powerFFT_WinHamming_HopSize512_WinSize512_AudioCh0 > 0.041467: 1 (6.0)
|   |   |   |   |   |   |   Vocals-Emotional = 1
|   |   |   |   |   |   |   |   Std_Acc1000_Std_Mem40_Flux_Power_powerFFT_WinHamming_HopSize512_WinSize512_AudioCh0 <= 0.032523: 0 (22.0/1.0)
|   |   |   |   |   |   |   |   Std_Acc1000_Std_Mem40_Flux_Power_powerFFT_WinHamming_HopSize512_WinSize512_AudioCh0 > 0.032523: 1 (2.0)
|   |   |   |   |   Std_Acc1000_Mean_Mem40_Rolloff_Power_powerFFT_WinHamming_HopSize512_WinSize512_AudioCh0 > 0.088235
|   |   |   |   |   |   Mean_Acc1000_Mean_Mem40_MFCC8_Power_powerFFT_WinHamming_HopSize512_WinSize512_AudioCh0 <= 0.658328: 1 (9.0)
|   |   |   |   |   |   Mean_Acc1000_Mean_Mem40_MFCC8_Power_powerFFT_WinHamming_HopSize512_WinSize512_AudioCh0 > 0.658328: 0 (2.0)
|   |   |   |   Mean_Acc1000_Mean_Mem40_Centroid_Power_powerFFT_WinHamming_HopSize512_WinSize512_AudioCh0 > 0.111068
|   |   |   |   |   Std_Acc1000_Std_Mem40_MFCC1_Power_powerFFT_WinHamming_HopSize512_WinSize512_AudioCh0 <= 0.394145: 1 (12.0/1.0)
|   |   |   |   |   Std_Acc1000_Std_Mem40_MFCC1_Power_powerFFT_WinHamming_HopSize512_WinSize512_AudioCh0 > 0.394145: 0 (4.0)
|   |   |   Emotion-Cheerful-Festive = 1
|   |   |   |   Emotion-Happy = 0: 0 (9.0/1.0)
|   |   |   |   Emotion-Happy = 1
|   |   |   |   |   NOT-Song-Positive_Feelings = 0
|   |   |   |   |   |   Std_Acc1000_Std_Mem40_Rolloff_Power_powerFFT_WinHamming_HopSize512_WinSize512_AudioCh0 <= 0.080589
|   |   |   |   |   |   |   Mean_Acc1000_Std_Mem40_MFCC4_Power_powerFFT_WinHamming_HopSize512_WinSize512_AudioCh0 <= 0.523746
|   |   |   |   |   |   |   |   Mean_Acc1000_Mean_Mem40_MFCC7_Power_powerFFT_WinHamming_HopSize512_WinSize512_AudioCh0 <= 0.520862: 1 (4.0)
|   |   |   |   |   |   |   |   Mean_Acc1000_Mean_Mem40_MFCC7_Power_powerFFT_WinHamming_HopSize512_WinSize512_AudioCh0 > 0.520862: 0 (13.0)
|   |   |   |   |   |   |   Mean_Acc1000_Std_Mem40_MFCC4_Power_powerFFT_WinHamming_HopSize512_WinSize512_AudioCh0 > 0.523746
|   |   |   |   |   |   |   |   Std_Acc1000_Mean_Mem40_MFCC1_Power_powerFFT_WinHamming_HopSize512_WinSize512_AudioCh0 <= 1.238757
|   |   |   |   |   |   |   |   |   Mean_Acc1000_Mean_Mem40_MFCC4_Power_powerFFT_WinHamming_HopSize512_WinSize512_AudioCh0 <= 0.801301: 1 (32.0/2.0)
|   |   |   |   |   |   |   |   |   Mean_Acc1000_Mean_Mem40_MFCC4_Power_powerFFT_WinHamming_HopSize512_WinSize512_AudioCh0 > 0.801301
|   |   |   |   |   |   |   |   |   |   Std_Acc1000_Mean_Mem40_Rolloff_Power_powerFFT_WinHamming_HopSize512_WinSize512_AudioCh0 <= 0.049275: 1 (4.0)
|   |   |   |   |   |   |   |   |   |   Std_Acc1000_Mean_Mem40_Rolloff_Power_powerFFT_WinHamming_HopSize512_WinSize512_AudioCh0 > 0.049275: 0 (6.0)
|   |   |   |   |   |   |   |   Std_Acc1000_Mean_Mem40_MFCC1_Power_powerFFT_WinHamming_HopSize512_WinSize512_AudioCh0 > 1.238757: 0 (3.0)
|   |   |   |   |   |   Std_Acc1000_Std_Mem40_Rolloff_Power_powerFFT_WinHamming_HopSize512_WinSize512_AudioCh0 > 0.080589: 0 (7.0)
|   |   |   |   |   NOT-Song-Positive_Feelings = 1: 0 (2.0)
|   |   Vocals-Altered_with_Effects = 1
|   |   |   NOT-Song-Positive_Feelings = 0
|   |   |   |   Emotion-Cheerful-Festive = 0: 1 (10.0)
|   |   |   |   Emotion-Cheerful-Festive = 1: 0 (5.0/1.0)
|   |   |   NOT-Song-Positive_Feelings = 1: 0 (2.0)
|   NOT-Song-Fast_Tempo = 1
|   |   Std_Acc1000_Std_Mem40_MFCC7_Power_powerFFT_WinHamming_HopSize512_WinSize512_AudioCh0 <= 0.061887
|   |   |   Mean_Acc1000_Mean_Mem40_MFCC0_Power_powerFFT_WinHamming_HopSize512_WinSize512_AudioCh0 <= -71.483899: 1 (4.0)
|   |   |   Mean_Acc1000_Mean_Mem40_MFCC0_Power_powerFFT_WinHamming_HopSize512_WinSize512_AudioCh0 > -71.483899: 0 (5.0)
|   |   Std_Acc1000_Std_Mem40_MFCC7_Power_powerFFT_WinHamming_HopSize512_WinSize512_AudioCh0 > 0.061887: 0 (114.0)
Genre--_Bebop = 1: 1 (4.0)

Number of Leaves  : 	36

Size of the tree : 	71


Prepare_CC.Base_CC: Node #16

J48 pruned tree
------------------

NOT-Song-High_Energy = 0
|   NOT-Emotion-Arousing-Awakening = 0
|   |   NOT-Emotion-Powerful-Strong = 0
|   |   |   Usage-Reading = 0
|   |   |   |   Emotion-Exciting-Thrilling = 0
|   |   |   |   |   Instrument_-_Hand_Drums = 0
|   |   |   |   |   |   Genre--_Singer-Songwriter = 0
|   |   |   |   |   |   |   NOT-Emotion-Angry-Agressive = 0: 0 (75.0/1.0)
|   |   |   |   |   |   |   NOT-Emotion-Angry-Agressive = 1
|   |   |   |   |   |   |   |   Instrument_-_Electric_Guitar_(distorted)-Solo = 0
|   |   |   |   |   |   |   |   |   Song-Recorded = 0
|   |   |   |   |   |   |   |   |   |   Mean_Acc1000_Std_Mem40_MFCC1_Power_powerFFT_WinHamming_HopSize512_WinSize512_AudioCh0 <= 1.137254: 0 (4.0)
|   |   |   |   |   |   |   |   |   |   Mean_Acc1000_Std_Mem40_MFCC1_Power_powerFFT_WinHamming_HopSize512_WinSize512_AudioCh0 > 1.137254: 1 (4.0)
|   |   |   |   |   |   |   |   |   Song-Recorded = 1
|   |   |   |   |   |   |   |   |   |   Instrument_-_Female_Lead_Vocals = 0
|   |   |   |   |   |   |   |   |   |   |   Mean_Acc1000_Mean_Mem40_MFCC11_Power_powerFFT_WinHamming_HopSize512_WinSize512_AudioCh0 <= 0.680672: 0 (64.0/2.0)
|   |   |   |   |   |   |   |   |   |   |   Mean_Acc1000_Mean_Mem40_MFCC11_Power_powerFFT_WinHamming_HopSize512_WinSize512_AudioCh0 > 0.680672
|   |   |   |   |   |   |   |   |   |   |   |   Emotion-Arousing-Awakening = 0: 0 (2.0)
|   |   |   |   |   |   |   |   |   |   |   |   Emotion-Arousing-Awakening = 1: 1 (2.0)
|   |   |   |   |   |   |   |   |   |   Instrument_-_Female_Lead_Vocals = 1
|   |   |   |   |   |   |   |   |   |   |   NOT-Emotion-Happy = 0
|   |   |   |   |   |   |   |   |   |   |   |   Mean_Acc1000_Mean_Mem40_MFCC7_Power_powerFFT_WinHamming_HopSize512_WinSize512_AudioCh0 <= 0.748065: 0 (14.0)
|   |   |   |   |   |   |   |   |   |   |   |   Mean_Acc1000_Mean_Mem40_MFCC7_Power_powerFFT_WinHamming_HopSize512_WinSize512_AudioCh0 > 0.748065: 1 (3.0/1.0)
|   |   |   |   |   |   |   |   |   |   |   NOT-Emotion-Happy = 1: 1 (4.0)
|   |   |   |   |   |   |   |   Instrument_-_Electric_Guitar_(distorted)-Solo = 1
|   |   |   |   |   |   |   |   |   Emotion-Carefree-Lighthearted = 0: 1 (5.0)
|   |   |   |   |   |   |   |   |   Emotion-Carefree-Lighthearted = 1: 0 (2.0)
|   |   |   |   |   |   Genre--_Singer-Songwriter = 1
|   |   |   |   |   |   |   NOT-Emotion-Happy = 0: 0 (3.0)
|   |   |   |   |   |   |   NOT-Emotion-Happy = 1: 1 (2.0)
|   |   |   |   |   Instrument_-_Hand_Drums = 1: 1 (3.0/1.0)
|   |   |   |   Emotion-Exciting-Thrilling = 1: 0 (112.0)
|   |   |   Usage-Reading = 1
|   |   |   |   Mean_Acc1000_Mean_Mem40_MFCC0_Power_powerFFT_WinHamming_HopSize512_WinSize512_AudioCh0 <= -66.577886: 0 (3.0)
|   |   |   |   Mean_Acc1000_Mean_Mem40_MFCC0_Power_powerFFT_WinHamming_HopSize512_WinSize512_AudioCh0 > -66.577886: 1 (3.0)
|   |   NOT-Emotion-Powerful-Strong = 1
|   |   |   Std_Acc1000_Std_Mem40_Centroid_Power_powerFFT_WinHamming_HopSize512_WinSize512_AudioCh0 <= 0.018435: 0 (10.0)
|   |   |   Std_Acc1000_Std_Mem40_Centroid_Power_powerFFT_WinHamming_HopSize512_WinSize512_AudioCh0 > 0.018435
|   |   |   |   Mean_Acc1000_Mean_Mem40_MFCC12_Power_powerFFT_WinHamming_HopSize512_WinSize512_AudioCh0 <= 0.471668: 1 (9.0)
|   |   |   |   Mean_Acc1000_Mean_Mem40_MFCC12_Power_powerFFT_WinHamming_HopSize512_WinSize512_AudioCh0 > 0.471668: 0 (4.0/1.0)
|   NOT-Emotion-Arousing-Awakening = 1
|   |   Genre-RandB = 0
|   |   |   Song-Fast_Tempo = 0
|   |   |   |   Instrument_-_Piano-Solo = 0
|   |   |   |   |   Genre--_Brit_Pop = 0
|   |   |   |   |   |   Mean_Acc1000_Mean_Mem40_MFCC8_Power_powerFFT_WinHamming_HopSize512_WinSize512_AudioCh0 <= -0.065317: 0 (3.0)
|   |   |   |   |   |   Mean_Acc1000_Mean_Mem40_MFCC8_Power_powerFFT_WinHamming_HopSize512_WinSize512_AudioCh0 > -0.065317
|   |   |   |   |   |   |   Mean_Acc1000_Std_Mem40_MFCC11_Power_powerFFT_WinHamming_HopSize512_WinSize512_AudioCh0 <= 0.410786: 0 (3.0/1.0)
|   |   |   |   |   |   |   Mean_Acc1000_Std_Mem40_MFCC11_Power_powerFFT_WinHamming_HopSize512_WinSize512_AudioCh0 > 0.410786: 1 (25.0)
|   |   |   |   |   Genre--_Brit_Pop = 1: 0 (2.0)
|   |   |   |   Instrument_-_Piano-Solo = 1: 0 (3.0)
|   |   |   Song-Fast_Tempo = 1: 0 (3.0)
|   |   Genre-RandB = 1: 0 (5.0)
NOT-Song-High_Energy = 1
|   Genre-Best-Jazz = 0
|   |   Genre-Best-Folk = 0
|   |   |   Mean_Acc1000_Std_Mem40_MFCC12_Power_powerFFT_WinHamming_HopSize512_WinSize512_AudioCh0 <= 0.583428
|   |   |   |   Emotion-Cheerful-Festive = 0
|   |   |   |   |   Std_Acc1000_Mean_Mem40_MFCC0_Power_powerFFT_WinHamming_HopSize512_WinSize512_AudioCh0 <= 1.51061: 0 (4.0/1.0)
|   |   |   |   |   Std_Acc1000_Mean_Mem40_MFCC0_Power_powerFFT_WinHamming_HopSize512_WinSize512_AudioCh0 > 1.51061
|   |   |   |   |   |   NOT-Emotion-Sad = 0: 1 (57.0/1.0)
|   |   |   |   |   |   NOT-Emotion-Sad = 1
|   |   |   |   |   |   |   Mean_Acc1000_Std_Mem40_Rolloff_Power_powerFFT_WinHamming_HopSize512_WinSize512_AudioCh0 <= 0.086455: 1 (5.0)
|   |   |   |   |   |   |   Mean_Acc1000_Std_Mem40_Rolloff_Power_powerFFT_WinHamming_HopSize512_WinSize512_AudioCh0 > 0.086455: 0 (2.0)
|   |   |   |   Emotion-Cheerful-Festive = 1: 0 (2.0/1.0)
|   |   |   Mean_Acc1000_Std_Mem40_MFCC12_Power_powerFFT_WinHamming_HopSize512_WinSize512_AudioCh0 > 0.583428: 0 (4.0)
|   |   Genre-Best-Folk = 1: 0 (2.0)
|   Genre-Best-Jazz = 1: 0 (4.0)

Number of Leaves  : 	35

Size of the tree : 	69


Prepare_CC.Base_CC: Node #17

J48 pruned tree
------------------

Emotion-Cheerful-Festive = 0
|   NOT-Song-Positive_Feelings = 0
|   |   Vocals-Emotional = 0
|   |   |   Std_Acc1000_Mean_Mem40_MFCC10_Power_powerFFT_WinHamming_HopSize512_WinSize512_AudioCh0 <= 0.176285: 0 (48.0)
|   |   |   Std_Acc1000_Mean_Mem40_MFCC10_Power_powerFFT_WinHamming_HopSize512_WinSize512_AudioCh0 > 0.176285
|   |   |   |   Mean_Acc1000_Mean_Mem40_MFCC9_Power_powerFFT_WinHamming_HopSize512_WinSize512_AudioCh0 <= 0.579523
|   |   |   |   |   Mean_Acc1000_Mean_Mem40_MFCC0_Power_powerFFT_WinHamming_HopSize512_WinSize512_AudioCh0 <= -66.688857
|   |   |   |   |   |   Std_Acc1000_Mean_Mem40_MFCC10_Power_powerFFT_WinHamming_HopSize512_WinSize512_AudioCh0 <= 0.441706: 0 (81.0/1.0)
|   |   |   |   |   |   Std_Acc1000_Mean_Mem40_MFCC10_Power_powerFFT_WinHamming_HopSize512_WinSize512_AudioCh0 > 0.441706
|   |   |   |   |   |   |   Std_Acc1000_Mean_Mem40_MFCC12_Power_powerFFT_WinHamming_HopSize512_WinSize512_AudioCh0 <= 0.369227: 1 (4.0)
|   |   |   |   |   |   |   Std_Acc1000_Mean_Mem40_MFCC12_Power_powerFFT_WinHamming_HopSize512_WinSize512_AudioCh0 > 0.369227: 0 (12.0)
|   |   |   |   |   Mean_Acc1000_Mean_Mem40_MFCC0_Power_powerFFT_WinHamming_HopSize512_WinSize512_AudioCh0 > -66.688857
|   |   |   |   |   |   Mean_Acc1000_Std_Mem40_MFCC11_Power_powerFFT_WinHamming_HopSize512_WinSize512_AudioCh0 <= 0.446196: 0 (9.0)
|   |   |   |   |   |   Mean_Acc1000_Std_Mem40_MFCC11_Power_powerFFT_WinHamming_HopSize512_WinSize512_AudioCh0 > 0.446196
|   |   |   |   |   |   |   Mean_Acc1000_Mean_Mem40_ZeroCrossings_HopSize512_WinSize512_AudioCh0 <= 0.091176: 0 (2.0)
|   |   |   |   |   |   |   Mean_Acc1000_Mean_Mem40_ZeroCrossings_HopSize512_WinSize512_AudioCh0 > 0.091176: 1 (6.0)
|   |   |   |   Mean_Acc1000_Mean_Mem40_MFCC9_Power_powerFFT_WinHamming_HopSize512_WinSize512_AudioCh0 > 0.579523
|   |   |   |   |   Mean_Acc1000_Mean_Mem40_MFCC12_Power_powerFFT_WinHamming_HopSize512_WinSize512_AudioCh0 <= 0.19783: 1 (4.0)
|   |   |   |   |   Mean_Acc1000_Mean_Mem40_MFCC12_Power_powerFFT_WinHamming_HopSize512_WinSize512_AudioCh0 > 0.19783
|   |   |   |   |   |   Mean_Acc1000_Std_Mem40_MFCC4_Power_powerFFT_WinHamming_HopSize512_WinSize512_AudioCh0 <= 0.774493
|   |   |   |   |   |   |   Std_Acc1000_Mean_Mem40_ZeroCrossings_HopSize512_WinSize512_AudioCh0 <= 0.030881: 0 (43.0/4.0)
|   |   |   |   |   |   |   Std_Acc1000_Mean_Mem40_ZeroCrossings_HopSize512_WinSize512_AudioCh0 > 0.030881
|   |   |   |   |   |   |   |   Std_Acc1000_Mean_Mem40_MFCC7_Power_powerFFT_WinHamming_HopSize512_WinSize512_AudioCh0 <= 0.333925: 1 (8.0)
|   |   |   |   |   |   |   |   Std_Acc1000_Mean_Mem40_MFCC7_Power_powerFFT_WinHamming_HopSize512_WinSize512_AudioCh0 > 0.333925: 0 (4.0)
|   |   |   |   |   |   Mean_Acc1000_Std_Mem40_MFCC4_Power_powerFFT_WinHamming_HopSize512_WinSize512_AudioCh0 > 0.774493: 1 (4.0)
|   |   Vocals-Emotional = 1
|   |   |   Std_Acc1000_Mean_Mem40_MFCC7_Power_powerFFT_WinHamming_HopSize512_WinSize512_AudioCh0 <= 0.423399: 0 (51.0)
|   |   |   Std_Acc1000_Mean_Mem40_MFCC7_Power_powerFFT_WinHamming_HopSize512_WinSize512_AudioCh0 > 0.423399
|   |   |   |   Mean_Acc1000_Std_Mem40_Rolloff_Power_powerFFT_WinHamming_HopSize512_WinSize512_AudioCh0 <= 0.073556: 1 (2.0)
|   |   |   |   Mean_Acc1000_Std_Mem40_Rolloff_Power_powerFFT_WinHamming_HopSize512_WinSize512_AudioCh0 > 0.073556: 0 (7.0)
|   NOT-Song-Positive_Feelings = 1: 0 (78.0)
Emotion-Cheerful-Festive = 1
|   Mean_Acc1000_Mean_Mem40_MFCC2_Power_powerFFT_WinHamming_HopSize512_WinSize512_AudioCh0 <= -0.058434
|   |   Std_Acc1000_Std_Mem40_MFCC11_Power_powerFFT_WinHamming_HopSize512_WinSize512_AudioCh0 <= 0.074826: 1 (6.0)
|   |   Std_Acc1000_Std_Mem40_MFCC11_Power_powerFFT_WinHamming_HopSize512_WinSize512_AudioCh0 > 0.074826: 0 (8.0/2.0)
|   Mean_Acc1000_Mean_Mem40_MFCC2_Power_powerFFT_WinHamming_HopSize512_WinSize512_AudioCh0 > -0.058434
|   |   Std_Acc1000_Std_Mem40_MFCC8_Power_powerFFT_WinHamming_HopSize512_WinSize512_AudioCh0 <= 0.086493
|   |   |   Mean_Acc1000_Std_Mem40_MFCC0_Power_powerFFT_WinHamming_HopSize512_WinSize512_AudioCh0 <= 4.374422
|   |   |   |   Mean_Acc1000_Mean_Mem40_MFCC5_Power_powerFFT_WinHamming_HopSize512_WinSize512_AudioCh0 <= 1.019503: 1 (16.0)
|   |   |   |   Mean_Acc1000_Mean_Mem40_MFCC5_Power_powerFFT_WinHamming_HopSize512_WinSize512_AudioCh0 > 1.019503: 0 (3.0/1.0)
|   |   |   Mean_Acc1000_Std_Mem40_MFCC0_Power_powerFFT_WinHamming_HopSize512_WinSize512_AudioCh0 > 4.374422: 0 (3.0)
|   |   Std_Acc1000_Std_Mem40_MFCC8_Power_powerFFT_WinHamming_HopSize512_WinSize512_AudioCh0 > 0.086493: 1 (53.0)

Number of Leaves  : 	22

Size of the tree : 	43


Prepare_CC.Base_CC: Node #18

J48 pruned tree
------------------

NOT-Song-Positive_Feelings = 0
|   NOT-Emotion-Cheerful-Festive = 0
|   |   Emotion-Happy = 0
|   |   |   Genre--_Contemporary_RandB = 0
|   |   |   |   Genre-Folk = 0
|   |   |   |   |   NOT-Emotion-Light-Playful = 0: 0 (111.0/6.0)
|   |   |   |   |   NOT-Emotion-Light-Playful = 1
|   |   |   |   |   |   NOT-Emotion-Emotional-Passionate = 0
|   |   |   |   |   |   |   NOT-Emotion-Bizarre-Weird = 0
|   |   |   |   |   |   |   |   Instrument_-_Piano = 0
|   |   |   |   |   |   |   |   |   Mean_Acc1000_Mean_Mem40_MFCC11_Power_powerFFT_WinHamming_HopSize512_WinSize512_AudioCh0 <= 0.334321: 1 (4.0/1.0)
|   |   |   |   |   |   |   |   |   Mean_Acc1000_Mean_Mem40_MFCC11_Power_powerFFT_WinHamming_HopSize512_WinSize512_AudioCh0 > 0.334321: 0 (9.0)
|   |   |   |   |   |   |   |   Instrument_-_Piano = 1: 1 (2.0)
|   |   |   |   |   |   |   NOT-Emotion-Bizarre-Weird = 1: 0 (20.0/1.0)
|   |   |   |   |   |   NOT-Emotion-Emotional-Passionate = 1: 1 (4.0/1.0)
|   |   |   |   Genre-Folk = 1
|   |   |   |   |   Instrument_-_Backing_vocals = 0: 0 (3.0)
|   |   |   |   |   Instrument_-_Backing_vocals = 1: 1 (2.0)
|   |   |   Genre--_Contemporary_RandB = 1
|   |   |   |   NOT-Emotion-Bizarre-Weird = 0: 1 (3.0)
|   |   |   |   NOT-Emotion-Bizarre-Weird = 1: 0 (5.0/1.0)
|   |   Emotion-Happy = 1: 0 (108.0)
|   NOT-Emotion-Cheerful-Festive = 1
|   |   Usage-Reading = 0
|   |   |   Usage-Waking_up = 0
|   |   |   |   Song-Recorded = 0: 1 (7.0/1.0)
|   |   |   |   Song-Recorded = 1
|   |   |   |   |   Usage-Cleaning_the_house = 0
|   |   |   |   |   |   Instrument_-_Male_Lead_Vocals-Solo = 0
|   |   |   |   |   |   |   Genre-Hip_Hop-Rap = 0
|   |   |   |   |   |   |   |   Vocals-Breathy = 0
|   |   |   |   |   |   |   |   |   Genre--_Classic_Rock = 0
|   |   |   |   |   |   |   |   |   |   Instrument_-_Bass = 0
|   |   |   |   |   |   |   |   |   |   |   Genre-Best--_Alternative = 0
|   |   |   |   |   |   |   |   |   |   |   |   Emotion-Bizarre-Weird = 0
|   |   |   |   |   |   |   |   |   |   |   |   |   Std_Acc1000_Mean_Mem40_MFCC7_Power_powerFFT_WinHamming_HopSize512_WinSize512_AudioCh0 <= 0.288241: 1 (18.0/1.0)
|   |   |   |   |   |   |   |   |   |   |   |   |   Std_Acc1000_Mean_Mem40_MFCC7_Power_powerFFT_WinHamming_HopSize512_WinSize512_AudioCh0 > 0.288241
|   |   |   |   |   |   |   |   |   |   |   |   |   |   Genre-Best--_Soft_Rock = 0
|   |   |   |   |   |   |   |   |   |   |   |   |   |   |   Mean_Acc1000_Std_Mem40_MFCC12_Power_powerFFT_WinHamming_HopSize512_WinSize512_AudioCh0 <= 0.451064: 1 (6.0/1.0)
|   |   |   |   |   |   |   |   |   |   |   |   |   |   |   Mean_Acc1000_Std_Mem40_MFCC12_Power_powerFFT_WinHamming_HopSize512_WinSize512_AudioCh0 > 0.451064: 0 (13.0)
|   |   |   |   |   |   |   |   |   |   |   |   |   |   Genre-Best--_Soft_Rock = 1: 1 (2.0)
|   |   |   |   |   |   |   |   |   |   |   |   Emotion-Bizarre-Weird = 1: 0 (2.0)
|   |   |   |   |   |   |   |   |   |   |   Genre-Best--_Alternative = 1: 0 (3.0)
|   |   |   |   |   |   |   |   |   |   Instrument_-_Bass = 1
|   |   |   |   |   |   |   |   |   |   |   Mean_Acc1000_Std_Mem40_MFCC6_Power_powerFFT_WinHamming_HopSize512_WinSize512_AudioCh0 <= 0.636683: 0 (16.0)
|   |   |   |   |   |   |   |   |   |   |   Mean_Acc1000_Std_Mem40_MFCC6_Power_powerFFT_WinHamming_HopSize512_WinSize512_AudioCh0 > 0.636683: 1 (2.0)
|   |   |   |   |   |   |   |   |   Genre--_Classic_Rock = 1: 0 (4.0)
|   |   |   |   |   |   |   |   Vocals-Breathy = 1: 0 (5.0)
|   |   |   |   |   |   |   Genre-Hip_Hop-Rap = 1: 0 (5.0)
|   |   |   |   |   |   Instrument_-_Male_Lead_Vocals-Solo = 1: 1 (5.0)
|   |   |   |   |   Usage-Cleaning_the_house = 1: 0 (8.0)
|   |   |   Usage-Waking_up = 1: 1 (2.0)
|   |   Usage-Reading = 1: 1 (3.0)
NOT-Song-Positive_Feelings = 1
|   Mean_Acc1000_Std_Mem40_MFCC2_Power_powerFFT_WinHamming_HopSize512_WinSize512_AudioCh0 <= 1.147357
|   |   Genre--_Contemporary_RandB = 0
|   |   |   NOT-Emotion-Cheerful-Festive = 0
|   |   |   |   NOT-Emotion-Arousing-Awakening = 0: 0 (4.0)
|   |   |   |   NOT-Emotion-Arousing-Awakening = 1: 1 (2.0)
|   |   |   NOT-Emotion-Cheerful-Festive = 1
|   |   |   |   NOT-Emotion-Sad = 0
|   |   |   |   |   Song-Changing_Energy_Level = 0: 1 (52.0/1.0)
|   |   |   |   |   Song-Changing_Energy_Level = 1
|   |   |   |   |   |   Angry-Agressive = 0: 0 (2.0)
|   |   |   |   |   |   Angry-Agressive = 1: 1 (2.0)
|   |   |   |   NOT-Emotion-Sad = 1
|   |   |   |   |   Mean_Acc1000_Mean_Mem40_Centroid_Power_powerFFT_WinHamming_HopSize512_WinSize512_AudioCh0 <= 0.061161: 0 (3.0)
|   |   |   |   |   Mean_Acc1000_Mean_Mem40_Centroid_Power_powerFFT_WinHamming_HopSize512_WinSize512_AudioCh0 > 0.061161: 1 (3.0)
|   |   Genre--_Contemporary_RandB = 1: 0 (3.0)
|   Mean_Acc1000_Std_Mem40_MFCC2_Power_powerFFT_WinHamming_HopSize512_WinSize512_AudioCh0 > 1.147357: 0 (9.0)

Number of Leaves  : 	36

Size of the tree : 	71


Prepare_CC.Base_CC: Node #19

J48 pruned tree
------------------

Emotion-Calming-Soothing = 0
|   Genre--_Cool_Jazz = 0
|   |   NOT-Song-High_Energy = 0: 0 (293.0/10.0)
|   |   NOT-Song-High_Energy = 1
|   |   |   Instrument_-_Synthesizer = 0
|   |   |   |   Emotion-Positive-Optimistic = 0
|   |   |   |   |   Genre--_Alternative = 0: 0 (14.0)
|   |   |   |   |   Genre--_Alternative = 1: 1 (3.0/1.0)
|   |   |   |   Emotion-Positive-Optimistic = 1: 1 (2.0)
|   |   |   Instrument_-_Synthesizer = 1: 1 (3.0)
|   Genre--_Cool_Jazz = 1: 1 (3.0/1.0)
Emotion-Calming-Soothing = 1
|   NOT-Emotion-Laid-back-Mellow = 0
|   |   Genre--_Gospel = 0
|   |   |   Std_Acc1000_Mean_Mem40_Flux_Power_powerFFT_WinHamming_HopSize512_WinSize512_AudioCh0 <= 0.013005
|   |   |   |   Mean_Acc1000_Std_Mem40_Flux_Power_powerFFT_WinHamming_HopSize512_WinSize512_AudioCh0 <= 0.035608: 0 (6.0)
|   |   |   |   Mean_Acc1000_Std_Mem40_Flux_Power_powerFFT_WinHamming_HopSize512_WinSize512_AudioCh0 > 0.035608
|   |   |   |   |   Song-Recorded = 0: 1 (16.0)
|   |   |   |   |   Song-Recorded = 1
|   |   |   |   |   |   Song-Changing_Energy_Level = 0
|   |   |   |   |   |   |   Usage-Waking_up = 0
|   |   |   |   |   |   |   |   Genre-Country = 0
|   |   |   |   |   |   |   |   |   Vocals-Breathy = 0
|   |   |   |   |   |   |   |   |   |   NOT-Emotion-Arousing-Awakening = 0
|   |   |   |   |   |   |   |   |   |   |   Mean_Acc1000_Std_Mem40_Centroid_Power_powerFFT_WinHamming_HopSize512_WinSize512_AudioCh0 <= 0.038136
|   |   |   |   |   |   |   |   |   |   |   |   NOT-Emotion-Carefree-Lighthearted = 0: 1 (22.0/1.0)
|   |   |   |   |   |   |   |   |   |   |   |   NOT-Emotion-Carefree-Lighthearted = 1
|   |   |   |   |   |   |   |   |   |   |   |   |   Mean_Acc1000_Mean_Mem40_MFCC4_Power_powerFFT_WinHamming_HopSize512_WinSize512_AudioCh0 <= 0.636333: 1 (3.0)
|   |   |   |   |   |   |   |   |   |   |   |   |   Mean_Acc1000_Mean_Mem40_MFCC4_Power_powerFFT_WinHamming_HopSize512_WinSize512_AudioCh0 > 0.636333: 0 (5.0)
|   |   |   |   |   |   |   |   |   |   |   Mean_Acc1000_Std_Mem40_Centroid_Power_powerFFT_WinHamming_HopSize512_WinSize512_AudioCh0 > 0.038136: 0 (16.0/1.0)
|   |   |   |   |   |   |   |   |   |   NOT-Emotion-Arousing-Awakening = 1
|   |   |   |   |   |   |   |   |   |   |   Genre-Electronica = 0: 1 (32.0/2.0)
|   |   |   |   |   |   |   |   |   |   |   Genre-Electronica = 1: 0 (3.0)
|   |   |   |   |   |   |   |   |   Vocals-Breathy = 1: 1 (5.0)
|   |   |   |   |   |   |   |   Genre-Country = 1
|   |   |   |   |   |   |   |   |   Mean_Acc1000_Std_Mem40_Flux_Power_powerFFT_WinHamming_HopSize512_WinSize512_AudioCh0 <= 0.038095: 1 (2.0)
|   |   |   |   |   |   |   |   |   Mean_Acc1000_Std_Mem40_Flux_Power_powerFFT_WinHamming_HopSize512_WinSize512_AudioCh0 > 0.038095: 0 (6.0/1.0)
|   |   |   |   |   |   |   Usage-Waking_up = 1: 1 (2.0)
|   |   |   |   |   |   Song-Changing_Energy_Level = 1: 1 (3.0)
|   |   |   Std_Acc1000_Mean_Mem40_Flux_Power_powerFFT_WinHamming_HopSize512_WinSize512_AudioCh0 > 0.013005: 0 (8.0)
|   |   Genre--_Gospel = 1: 0 (2.0)
|   NOT-Emotion-Laid-back-Mellow = 1: 0 (3.0)

Number of Leaves  : 	22

Size of the tree : 	43


Prepare_CC.Base_CC: Node #20

J48 pruned tree
------------------

NOT-Emotion-Tender-Soft = 0
|   Emotion-Exciting-Thrilling = 0
|   |   Mean_Acc1000_Std_Mem40_MFCC1_Power_powerFFT_WinHamming_HopSize512_WinSize512_AudioCh0 <= 1.508519: 0 (201.0/6.0)
|   |   Mean_Acc1000_Std_Mem40_MFCC1_Power_powerFFT_WinHamming_HopSize512_WinSize512_AudioCh0 > 1.508519
|   |   |   Emotion-Happy = 0
|   |   |   |   NOT-Song-High_Energy = 0
|   |   |   |   |   Mean_Acc1000_Mean_Mem40_MFCC6_Power_powerFFT_WinHamming_HopSize512_WinSize512_AudioCh0 <= 0.881912
|   |   |   |   |   |   Instrument_-_Drum_Set = 0
|   |   |   |   |   |   |   Mean_Acc1000_Mean_Mem40_Rolloff_Power_powerFFT_WinHamming_HopSize512_WinSize512_AudioCh0 <= 0.134691: 0 (4.0)
|   |   |   |   |   |   |   Mean_Acc1000_Mean_Mem40_Rolloff_Power_powerFFT_WinHamming_HopSize512_WinSize512_AudioCh0 > 0.134691: 1 (2.0)
|   |   |   |   |   |   Instrument_-_Drum_Set = 1: 0 (9.0/1.0)
|   |   |   |   |   Mean_Acc1000_Mean_Mem40_MFCC6_Power_powerFFT_WinHamming_HopSize512_WinSize512_AudioCh0 > 0.881912: 1 (3.0)
|   |   |   |   NOT-Song-High_Energy = 1: 0 (14.0)
|   |   |   Emotion-Happy = 1: 1 (4.0)
|   Emotion-Exciting-Thrilling = 1
|   |   Genre--_Funk = 0
|   |   |   Genre-Electronica = 0
|   |   |   |   Std_Acc1000_Std_Mem40_Centroid_Power_powerFFT_WinHamming_HopSize512_WinSize512_AudioCh0 <= 0.014139: 1 (4.0)
|   |   |   |   Std_Acc1000_Std_Mem40_Centroid_Power_powerFFT_WinHamming_HopSize512_WinSize512_AudioCh0 > 0.014139
|   |   |   |   |   Mean_Acc1000_Std_Mem40_MFCC1_Power_powerFFT_WinHamming_HopSize512_WinSize512_AudioCh0 <= 0.84476: 1 (2.0)
|   |   |   |   |   Mean_Acc1000_Std_Mem40_MFCC1_Power_powerFFT_WinHamming_HopSize512_WinSize512_AudioCh0 > 0.84476: 0 (14.0/1.0)
|   |   |   Genre-Electronica = 1: 1 (2.0)
|   |   Genre--_Funk = 1: 1 (2.0)
NOT-Emotion-Tender-Soft = 1
|   Emotion-Bizarre-Weird = 0
|   |   Instrument_-_Acoustic_Guitar = 0
|   |   |   Vocals-Emotional = 0
|   |   |   |   Usage-Getting_ready_to_go_out = 0
|   |   |   |   |   Genre-World = 0
|   |   |   |   |   |   NOT-Song-High_Energy = 0
|   |   |   |   |   |   |   Genre--_Dance_Pop = 0
|   |   |   |   |   |   |   |   Std_Acc1000_Std_Mem40_MFCC11_Power_powerFFT_WinHamming_HopSize512_WinSize512_AudioCh0 <= 0.138027
|   |   |   |   |   |   |   |   |   Std_Acc1000_Mean_Mem40_Rolloff_Power_powerFFT_WinHamming_HopSize512_WinSize512_AudioCh0 <= 0.061887
|   |   |   |   |   |   |   |   |   |   Genre-Jazz = 0
|   |   |   |   |   |   |   |   |   |   |   Vocals-Low-pitched = 0
|   |   |   |   |   |   |   |   |   |   |   |   Usage-Hanging_with_friends = 0
|   |   |   |   |   |   |   |   |   |   |   |   |   Mean_Acc1000_Std_Mem40_MFCC0_Power_powerFFT_WinHamming_HopSize512_WinSize512_AudioCh0 <= 4.416751
|   |   |   |   |   |   |   |   |   |   |   |   |   |   Genre-Best-Electronica = 0
|   |   |   |   |   |   |   |   |   |   |   |   |   |   |   Std_Acc1000_Mean_Mem40_Rolloff_Power_powerFFT_WinHamming_HopSize512_WinSize512_AudioCh0 <= 0.030098: 1 (10.0)
|   |   |   |   |   |   |   |   |   |   |   |   |   |   |   Std_Acc1000_Mean_Mem40_Rolloff_Power_powerFFT_WinHamming_HopSize512_WinSize512_AudioCh0 > 0.030098
|   |   |   |   |   |   |   |   |   |   |   |   |   |   |   |   Std_Acc1000_Mean_Mem40_MFCC0_Power_powerFFT_WinHamming_HopSize512_WinSize512_AudioCh0 <= 2.197983: 0 (17.0/1.0)
|   |   |   |   |   |   |   |   |   |   |   |   |   |   |   |   Std_Acc1000_Mean_Mem40_MFCC0_Power_powerFFT_WinHamming_HopSize512_WinSize512_AudioCh0 > 2.197983
|   |   |   |   |   |   |   |   |   |   |   |   |   |   |   |   |   Std_Acc1000_Std_Mem40_MFCC9_Power_powerFFT_WinHamming_HopSize512_WinSize512_AudioCh0 <= 0.066617: 0 (6.0)
|   |   |   |   |   |   |   |   |   |   |   |   |   |   |   |   |   Std_Acc1000_Std_Mem40_MFCC9_Power_powerFFT_WinHamming_HopSize512_WinSize512_AudioCh0 > 0.066617
|   |   |   |   |   |   |   |   |   |   |   |   |   |   |   |   |   |   Song-High_Energy = 0
|   |   |   |   |   |   |   |   |   |   |   |   |   |   |   |   |   |   |   NOT-Song-Recommend = 0: 1 (2.0)
|   |   |   |   |   |   |   |   |   |   |   |   |   |   |   |   |   |   |   NOT-Song-Recommend = 1: 0 (2.0)
|   |   |   |   |   |   |   |   |   |   |   |   |   |   |   |   |   |   Song-High_Energy = 1: 1 (15.0)
|   |   |   |   |   |   |   |   |   |   |   |   |   |   Genre-Best-Electronica = 1: 1 (4.0)
|   |   |   |   |   |   |   |   |   |   |   |   |   Mean_Acc1000_Std_Mem40_MFCC0_Power_powerFFT_WinHamming_HopSize512_WinSize512_AudioCh0 > 4.416751: 0 (10.0)
|   |   |   |   |   |   |   |   |   |   |   |   Usage-Hanging_with_friends = 1: 0 (4.0)
|   |   |   |   |   |   |   |   |   |   |   Vocals-Low-pitched = 1: 1 (3.0)
|   |   |   |   |   |   |   |   |   |   Genre-Jazz = 1: 0 (3.0)
|   |   |   |   |   |   |   |   |   Std_Acc1000_Mean_Mem40_Rolloff_Power_powerFFT_WinHamming_HopSize512_WinSize512_AudioCh0 > 0.061887: 1 (41.0/1.0)
|   |   |   |   |   |   |   |   Std_Acc1000_Std_Mem40_MFCC11_Power_powerFFT_WinHamming_HopSize512_WinSize512_AudioCh0 > 0.138027: 0 (13.0)
|   |   |   |   |   |   |   Genre--_Dance_Pop = 1: 1 (3.0)
|   |   |   |   |   |   NOT-Song-High_Energy = 1: 0 (3.0)
|   |   |   |   |   Genre-World = 1: 1 (7.0)
|   |   |   |   Usage-Getting_ready_to_go_out = 1: 1 (8.0)
|   |   |   Vocals-Emotional = 1: 1 (17.0)
|   |   Instrument_-_Acoustic_Guitar = 1: 0 (9.0/1.0)
|   Emotion-Bizarre-Weird = 1: 1 (14.0)

Number of Leaves  : 	32

Size of the tree : 	63


Prepare_CC.Base_CC: Node #21

J48 pruned tree
------------------

Emotion-Carefree-Lighthearted = 0
|   Emotion-Happy = 0: 0 (319.0/5.0)
|   Emotion-Happy = 1
|   |   Mean_Acc1000_Std_Mem40_MFCC4_Power_powerFFT_WinHamming_HopSize512_WinSize512_AudioCh0 <= 0.530992: 1 (4.0)
|   |   Mean_Acc1000_Std_Mem40_MFCC4_Power_powerFFT_WinHamming_HopSize512_WinSize512_AudioCh0 > 0.530992
|   |   |   Mean_Acc1000_Std_Mem40_MFCC8_Power_powerFFT_WinHamming_HopSize512_WinSize512_AudioCh0 <= 0.608624
|   |   |   |   Std_Acc1000_Mean_Mem40_MFCC8_Power_powerFFT_WinHamming_HopSize512_WinSize512_AudioCh0 <= 0.203408
|   |   |   |   |   Mean_Acc1000_Mean_Mem40_Flux_Power_powerFFT_WinHamming_HopSize512_WinSize512_AudioCh0 <= 0.088372: 1 (3.0)
|   |   |   |   |   Mean_Acc1000_Mean_Mem40_Flux_Power_powerFFT_WinHamming_HopSize512_WinSize512_AudioCh0 > 0.088372: 0 (2.0)
|   |   |   |   Std_Acc1000_Mean_Mem40_MFCC8_Power_powerFFT_WinHamming_HopSize512_WinSize512_AudioCh0 > 0.203408: 0 (32.0)
|   |   |   Mean_Acc1000_Std_Mem40_MFCC8_Power_powerFFT_WinHamming_HopSize512_WinSize512_AudioCh0 > 0.608624: 1 (4.0)
Emotion-Carefree-Lighthearted = 1
|   NOT-Song-Tonality = 0
|   |   NOT-Emotion-Cheerful-Festive = 0
|   |   |   Genre--_Swing = 0
|   |   |   |   Genre-World = 0
|   |   |   |   |   NOT-Emotion-Arousing-Awakening = 0
|   |   |   |   |   |   Instrument_-_Hand_Drums = 0
|   |   |   |   |   |   |   Genre-Best-Pop = 0
|   |   |   |   |   |   |   |   Vocals-Call_and_Response = 0
|   |   |   |   |   |   |   |   |   Mean_Acc1000_Std_Mem40_MFCC2_Power_powerFFT_WinHamming_HopSize512_WinSize512_AudioCh0 <= 0.564919: 0 (4.0)
|   |   |   |   |   |   |   |   |   Mean_Acc1000_Std_Mem40_MFCC2_Power_powerFFT_WinHamming_HopSize512_WinSize512_AudioCh0 > 0.564919
|   |   |   |   |   |   |   |   |   |   Emotion-Positive-Optimistic = 0
|   |   |   |   |   |   |   |   |   |   |   Std_Acc1000_Mean_Mem40_MFCC10_Power_powerFFT_WinHamming_HopSize512_WinSize512_AudioCh0 <= 0.213212: 1 (5.0)
|   |   |   |   |   |   |   |   |   |   |   Std_Acc1000_Mean_Mem40_MFCC10_Power_powerFFT_WinHamming_HopSize512_WinSize512_AudioCh0 > 0.213212
